{"learner":{"attributes":{"scikit_learn":"{\"_estimator_type\": \"classifier\"}"},"feature_names":["NET_WITH_VAT","QTY","LINE_CLAIMED_AMOUNT_SAR","LINE_ITEM_DISCOUNT","NET_VAT_AMOUNT","PATIENT_VAT_AMOUNT","VAT_PERCENTAGE","TREATMENT_TYPE_INDICATOR","DURATION","QTY_STOCKED_UOM","UNIT_PRICE_STOCKED_UOM","UNIT_PRICE_NET","DISCOUNT_PERCENTAGE","EMERGENCY_INDICATOR","PROVIDER_DEPARTMENT_CODE","DOCTOR_SPECIALTY_CODE","DOCTOR_CODE","PATIENT_AGE","UNIT_OF_AGE","PATIENT_NATIONALITY","PATIENT_MARITAL_STATUS","PATIENT_GENDER","CLAIM_TYPE","TOTAL_CLAIMED_AMOUNT_SAR","TOTAL_DISCOUNT","TOTAL_DEDUCTIBLE","TOTAL_PATIENT_VATAMOUNT","DEPARTMENT_TYPE","TREATMENT_TYPE","PURCHASER_CODE","NEW_BORN","ICD10","PatientAgeRange","CombinedText1","CombinedText2","CombinedText3","CombinedText4","CombinedText5","CombinedText6","CombinedText7","CombinedText8","CombinedText9","CombinedText10","CombinedText11","CombinedText12","CombinedText13","CombinedText14","CombinedText15","CombinedText16"],"feature_types":["float","float","float","float","float","float","float","int","float","int","float","float","float","int","int","float","int","int","int","int","int","int","int","float","float","float","float","float","int","int","int","int","int","int","int","int","int","int","int","int","int","int","int","int","int","int","int","int","int"],"gradient_booster":{"model":{"gbtree_model_param":{"num_parallel_tree":"1","num_trees":"100"},"iteration_indptr":[0,1,2,3,4,5,6,7,8,9,10,11,12,13,14,15,16,17,18,19,20,21,22,23,24,25,26,27,28,29,30,31,32,33,34,35,36,37,38,39,40,41,42,43,44,45,46,47,48,49,50,51,52,53,54,55,56,57,58,59,60,61,62,63,64,65,66,67,68,69,70,71,72,73,74,75,76,77,78,79,80,81,82,83,84,85,86,87,88,89,90,91,92,93,94,95,96,97,98,99,100],"tree_info":[0,0,0,0,0,0,0,0,0,0,0,0,0,0,0,0,0,0,0,0,0,0,0,0,0,0,0,0,0,0,0,0,0,0,0,0,0,0,0,0,0,0,0,0,0,0,0,0,0,0,0,0,0,0,0,0,0,0,0,0,0,0,0,0,0,0,0,0,0,0,0,0,0,0,0,0,0,0,0,0,0,0,0,0,0,0,0,0,0,0,0,0,0,0,0,0,0,0,0,0],"trees":[{"base_weights":[1.3456402E-4,2.8692588E-1,-6.964347E-1,-3.6300915E-1,4.873571E-1,-1.2741399E0,-2.2262335E-1,-1.1613412E0,2.5356853E-1,8.5267097E-1,-3.3803314E-2,2.3039712E-1,-1.4856051E0,1.09339796E-1,-4.9456036E-1,-6.854679E-1,-1.4644982E0,-2.7562344E-1,9.3136835E-1,1.1370621E0,5.12565E-1,3.9815447E-1,-2.7857202E-1,-4.9151015E-1,9.4142807E-1,-7.4992573E-1,-1.5841522E0,-7.505817E-1,1.4337492E-1,-4.3184578E-1,-1.435699E0,-3.126298E-3,-1.2533956E0,-1.5448711E0,-1.6010247E-1,2.3971114E-1,-1.0756136E0,6.3679904E-1,1.2779479E0,1.203861E0,-1.1877373E-1,1.3898757E0,1.8097425E-1,-4.25013E-1,5.706396E-1,-1.9814631E-1,-9.168296E-1,-1.1635704E0,-1.3841546E-1,1.1315436E0,-1.4267515E0,-2.4033849E-1,-1.4169312E0,-1.337695E0,-1.8441861E0,-1.3604352E0,-3.4415528E-1,-1.423843E-1,2.5429067E-1,-5.962043E-1,1.0287106E-2,-1.0040737E-1,-6.323267E-1,-3.2048962E-1,4.2595655E-1,-4.7611237E-1,-1.18508965E-1,-4.8215503E-1,-1.1742817E-1,1.271439E-1,-3.247473E-1,-2.5874838E-2,1.4527537E-1,2.1296537E-1,-3.6467767E-1,-1.6996457E-1,2.16487E-1,2.7093343E-2,4.170902E-1,1.2268171E-1,3.718036E-1,-9.956542E-2,2.9991388E-1,4.647251E-1,1.7385194E-1,-1.16283946E-1,1.0621323E-1,-7.429309E-2,-3.469413E-1,2.3886071E-1,1.1072528E-1,7.67644E-2,-9.981737E-2,-6.547947E-2,-4.7342414E-1,-3.1238934E-2,-6.250253E-1,-1.0892793E-1,2.5593516E-1,1.7320937E-1,4.2893872E-1,-5.713353E-1,-1.3730115E-1,-1.9983356E-1,2.4794053E-1,-4.732852E-1,3.0175722E-1,-2.6398355E-1,-4.286224E-1,-3.078535E-1,-5.6165975E-1,-4.6046174E-1,3.197807E-2,1.4852324E-1,-1.9004075E-1,1.3671316E-1,-1.0379266E-1,-1.5761434E-1,9.119678E-2,-2.3902556E-1,-8.3981216E-2,-2.3015235E-2,3.265619E-1,3.4466112E-1,-6.127293E-1],"categories":[],"categories_nodes":[],"categories_segments":[],"categories_sizes":[],"default_left":[0,1,0,0,0,0,0,0,0,0,0,0,0,1,0,0,0,0,0,0,0,0,0,0,0,0,0,0,0,0,0,0,0,0,0,0,0,0,0,0,0,0,0,0,0,0,0,0,0,0,0,0,0,0,0,0,0,0,0,0,0,0,0,0,0,0,0,0,0,0,0,0,0,0,0,0,0,0,0,0,0,0,0,0,0,0,0,0,0,0,0,0,0,0,0,0,0,0,0,0,0,0,0,0,0,0,0,0,0,0,0,0,0,0,0,0,0,0,0,0,0,0,0,0,0],"id":0,"left_children":[1,3,5,7,9,11,13,15,17,19,21,23,25,27,29,31,33,35,37,39,41,43,45,47,49,51,53,55,57,59,61,63,65,67,69,71,73,75,77,79,81,83,85,87,89,91,93,95,97,99,101,103,105,107,109,111,113,115,117,119,121,123,-1,-1,-1,-1,-1,-1,-1,-1,-1,-1,-1,-1,-1,-1,-1,-1,-1,-1,-1,-1,-1,-1,-1,-1,-1,-1,-1,-1,-1,-1,-1,-1,-1,-1,-1,-1,-1,-1,-1,-1,-1,-1,-1,-1,-1,-1,-1,-1,-1,-1,-1,-1,-1,-1,-1,-1,-1,-1,-1,-1,-1,-1,-1],"loss_changes":[6.978525E3,3.2236213E3,2.788393E3,2.8714595E3,3.6008042E3,1.4608291E3,5.0544675E2,3.657168E2,1.1810248E3,1.0748809E3,8.242667E2,2.912739E2,2.9061426E2,7.391523E1,1.8103326E2,3.84065E2,1.624519E2,7.6269183E2,1.465592E2,5.0805908E2,1.4732919E3,4.006095E2,2.5525458E2,6.6706474E1,1.3027605E2,1.6191315E2,2.2494922E2,2.3369167E1,7.6949425E1,2.0978638E2,1.7194687E2,6.8541113E2,1.5427917E2,1.04430664E2,4.957323E1,8.9766205E1,1.8200305E2,8.026172E1,8.8237915E1,1.6165527E2,7.343687E1,1.7833618E2,3.619834E2,6.3164734E1,1.0571442E2,2.701901E2,2.5675833E2,9.4233765E1,4.1715614E1,4.299008E1,9.1641655E0,1.2401515E2,8.19957E1,7.482178E1,3.758545E1,9.919258E0,1.4651112E1,8.285759E1,6.791113E1,1.3325885E2,7.356787E1,1.6072113E2,0E0,0E0,0E0,0E0,0E0,0E0,0E0,0E0,0E0,0E0,0E0,0E0,0E0,0E0,0E0,0E0,0E0,0E0,0E0,0E0,0E0,0E0,0E0,0E0,0E0,0E0,0E0,0E0,0E0,0E0,0E0,0E0,0E0,0E0,0E0,0E0,0E0,0E0,0E0,0E0,0E0,0E0,0E0,0E0,0E0,0E0,0E0,0E0,0E0,0E0,0E0,0E0,0E0,0E0,0E0,0E0,0E0,0E0,0E0,0E0,0E0,0E0,0E0],"parents":[2147483647,0,0,1,1,2,2,3,3,4,4,5,5,6,6,7,7,8,8,9,9,10,10,11,11,12,12,13,13,14,14,15,15,16,16,17,17,18,18,19,19,20,20,21,21,22,22,23,23,24,24,25,25,26,26,27,27,28,28,29,29,30,30,31,31,32,32,33,33,34,34,35,35,36,36,37,37,38,38,39,39,40,40,41,41,42,42,43,43,44,44,45,45,46,46,47,47,48,48,49,49,50,50,51,51,52,52,53,53,54,54,55,55,56,56,57,57,58,58,59,59,60,60,61,61],"right_children":[2,4,6,8,10,12,14,16,18,20,22,24,26,28,30,32,34,36,38,40,42,44,46,48,50,52,54,56,58,60,62,64,66,68,70,72,74,76,78,80,82,84,86,88,90,92,94,96,98,100,102,104,106,108,110,112,114,116,118,120,122,124,-1,-1,-1,-1,-1,-1,-1,-1,-1,-1,-1,-1,-1,-1,-1,-1,-1,-1,-1,-1,-1,-1,-1,-1,-1,-1,-1,-1,-1,-1,-1,-1,-1,-1,-1,-1,-1,-1,-1,-1,-1,-1,-1,-1,-1,-1,-1,-1,-1,-1,-1,-1,-1,-1,-1,-1,-1,-1,-1,-1,-1,-1,-1],"split_conditions":[2.086E3,5E0,2.169E3,1.83E2,1E0,5E0,1.17311E3,7.91293E3,3.5E1,1.83E2,1.75E1,2.135E3,2.134E3,5E0,2.043086E4,2E1,6.6E2,2.5E1,5.29E2,2.2E1,1E1,5E0,2.63E2,2.132E3,1E0,2.9E1,1.03318E3,1E0,3.47E3,2.672E3,1.6E1,1.5855E2,1.4E1,8.7E1,2.556591E4,1.5E1,2.75E2,2.69585E3,1.5E-1,5.425E1,2.3E1,2.3E1,5.6E1,4E0,7.7E1,8E0,3.62E2,2.126E3,5.3E1,2.8E1,2.06704E3,3.224363E4,6.9E1,4.21E0,1.5E1,1.0236E2,1.4E1,2.7E1,9.49E0,2.5E1,1.163584E4,9.219E3,-6.323267E-1,-3.2048962E-1,4.2595655E-1,-4.7611237E-1,-1.18508965E-1,-4.8215503E-1,-1.1742817E-1,1.271439E-1,-3.247473E-1,-2.5874838E-2,1.4527537E-1,2.1296537E-1,-3.6467767E-1,-1.6996457E-1,2.16487E-1,2.7093343E-2,4.170902E-1,1.2268171E-1,3.718036E-1,-9.956542E-2,2.9991388E-1,4.647251E-1,1.7385194E-1,-1.16283946E-1,1.0621323E-1,-7.429309E-2,-3.469413E-1,2.3886071E-1,1.1072528E-1,7.67644E-2,-9.981737E-2,-6.547947E-2,-4.7342414E-1,-3.1238934E-2,-6.250253E-1,-1.0892793E-1,2.5593516E-1,1.7320937E-1,4.2893872E-1,-5.713353E-1,-1.3730115E-1,-1.9983356E-1,2.4794053E-1,-4.732852E-1,3.0175722E-1,-2.6398355E-1,-4.286224E-1,-3.078535E-1,-5.6165975E-1,-4.6046174E-1,3.197807E-2,1.4852324E-1,-1.9004075E-1,1.3671316E-1,-1.0379266E-1,-1.5761434E-1,9.119678E-2,-2.3902556E-1,-8.3981216E-2,-2.3015235E-2,3.265619E-1,3.4466112E-1,-6.127293E-1],"split_indices":[29,27,29,29,8,15,23,23,12,29,2,29,29,27,24,12,11,12,29,31,3,35,39,29,28,14,24,19,16,29,15,0,42,17,23,35,29,24,6,10,31,36,33,43,35,15,38,29,17,3,23,23,17,12,17,25,17,17,25,12,24,16,0,0,0,0,0,0,0,0,0,0,0,0,0,0,0,0,0,0,0,0,0,0,0,0,0,0,0,0,0,0,0,0,0,0,0,0,0,0,0,0,0,0,0,0,0,0,0,0,0,0,0,0,0,0,0,0,0,0,0,0,0,0,0],"split_type":[0,0,0,0,0,0,0,0,0,0,0,0,0,0,0,0,0,0,0,0,0,0,0,0,0,0,0,0,0,0,0,0,0,0,0,0,0,0,0,0,0,0,0,0,0,0,0,0,0,0,0,0,0,0,0,0,0,0,0,0,0,0,0,0,0,0,0,0,0,0,0,0,0,0,0,0,0,0,0,0,0,0,0,0,0,0,0,0,0,0,0,0,0,0,0,0,0,0,0,0,0,0,0,0,0,0,0,0,0,0,0,0,0,0,0,0,0,0,0,0,0,0,0,0,0],"sum_hessian":[3.4930793E4,2.474385E4,1.0186944E4,5.8319307E3,1.8911918E4,4.5894565E3,5.5974873E3,2.5410056E3,3.290925E3,1.111799E4,7.7939287E3,5.655538E2,4.0239026E3,2.5208252E3,3.0766624E3,9.9009283E2,1.5509128E3,1.8483892E3,1.4425359E3,6.0536675E3,5.0643223E3,2.8187998E3,4.9751294E3,2.8078375E2,2.8477002E2,4.7636072E2,3.547542E3,9.5172485E1,2.4256526E3,2.885819E3,1.9084326E2,4.5020074E2,5.398921E2,1.4607233E3,9.018964E1,1.1246299E3,7.2375934E2,7.813113E2,6.6122455E2,5.7479697E3,3.05698E2,1.3882228E3,3.6760996E3,4.880704E2,2.3307292E3,4.419541E3,5.555881E2,9.5919914E1,1.8486383E2,2.640912E2,2.0678839E1,2.7081805E2,2.0554268E2,1.8244714E3,1.7230704E3,3.7122253E1,5.8050232E1,6.7816626E2,1.7474865E3,2.1035112E3,7.8230786E2,6.42788E1,1.2656446E2,2.576135E2,1.9258725E2,3.881642E2,1.5172786E2,1.3854822E3,7.524107E1,5.5558807E1,3.4630825E1,4.8234015E2,6.4228973E2,5.2319954E1,6.714394E2,5.1074238E1,7.3023706E2,5.7302807E1,6.0392175E2,2.4615292E2,5.501817E3,2.5736435E2,4.833367E1,1.1595098E3,2.2871294E2,8.5754895E2,2.8185505E3,3.938945E2,9.417592E1,1.0984698E3,1.2322594E3,1.0102734E3,3.4092678E3,2.7081805E2,2.8477002E2,4.509482E1,5.0825096E1,1.5122958E2,3.3634254E1,9.342849E1,1.706627E2,1.3204559E1,7.474279E0,1.9383296E2,7.698508E1,1.9308554E2,1.2457131E1,3.044523E2,1.5200192E3,5.8299377E1,1.6647711E3,3.313597E1,3.986282E0,1.4699415E1,4.335082E1,1.7190842E2,5.0625784E2,1.0414162E2,1.6433448E3,1.2863234E3,8.171878E2,7.247559E2,5.755195E1,3.9364536E1,2.4914263E1],"tree_param":{"num_deleted":"0","num_feature":"49","num_nodes":"125","size_leaf_vector":"1"}},{"base_weights":[1.9195898E-3,2.0891929E-1,-4.9619338E-1,-2.5931543E-1,3.5336986E-1,-9.2063415E-1,-1.5659884E-1,-8.359997E-1,1.8443775E-1,6.262199E-1,-2.336137E-2,-1.0777732E0,1.381561E-1,8.171157E-2,-3.4490728E-1,-4.9134013E-1,-1.0558206E0,-1.9445069E-1,6.848475E-1,8.457296E-1,3.7098143E-1,-2.961664E-1,1.888298E-1,-5.495881E-1,-1.1492088E0,-1.1918325E-1,1.059046E0,1.0662529E-1,-7.5948733E-1,-2.9967684E-1,-1.0765828E0,7.1141673E-3,-9.362507E-1,-1.1078678E0,1.1379602E-1,8.797698E-2,-9.642921E-1,4.5807162E-1,9.622232E-1,8.976198E-1,-8.182863E-2,9.688157E-1,6.3654296E-2,-2.3631996E-1,-1.1730696E0,4.257397E-1,-1.125304E-2,-8.495227E-1,2.3474003E-1,-9.4522387E-1,-1.3499118E0,-8.344399E-1,7.581282E-2,1.2616291E0,-7.295929E-1,-5.7234454E-1,1.3342923E-1,-1.192637E0,-1.8050663E-1,-1.7409891E-1,-6.218416E-1,-7.724694E-2,-4.7524208E-1,-1.9946705E-1,3.6644733E-1,-3.2352957E-1,1.895049E-1,-3.4673977E-1,-7.468383E-2,-1.1078019E-1,2.524915E-1,4.9630698E-2,-1.9089068E-1,1.544455E-1,-3.410799E-1,1.4914098E-1,-5.833534E-1,-2.2297151E-1,3.0569965E-1,2.9611322E-1,1.710905E-1,2.8193152E-1,-7.117785E-2,9.955431E-2,3.411694E-1,-9.646432E-2,7.4849464E-2,-2.1888679E-2,-1.6273493E-1,9.3183875E-2,-4.4154742E-1,-1.8939967E-1,1.4891239E-1,3.6255058E-2,-9.0408094E-2,-1.1184169E-1,-4.1131088E-1,-5.358152E-3,2.4009156E-1,-2.5992978E-1,-4.1324237E-1,-3.523336E-1,-4.345616E-1,-8.486288E-3,-4.720364E-1,7.656653E-2,-2.2671603E-1,-2.1877639E-1,4.1013438E-1,-6.0422387E-2,-4.7522795E-1,-3.1501907E-1,-8.443117E-2,-3.8635686E-2,5.5670172E-2,-4.3730456E-1,-1.04392394E-1,-1.340089E-1,2.6080438E-1,-9.764264E-2,7.5932994E-2,-2.5340658E-1,1.0356471E-1,2.579325E-1,-4.6310076E-1],"categories":[],"categories_nodes":[],"categories_segments":[],"categories_sizes":[],"default_left":[0,1,0,0,0,1,0,0,0,0,0,0,0,0,0,0,0,0,0,0,0,0,0,0,0,0,0,1,0,0,0,0,0,0,0,0,0,0,0,0,0,0,0,0,0,0,0,0,0,0,0,0,0,0,0,0,0,0,0,0,0,0,0,0,0,0,0,0,0,0,0,0,0,0,0,0,0,0,0,0,0,0,0,0,0,0,0,0,0,0,0,0,0,0,0,0,0,0,0,0,0,0,0,0,0,0,0,0,0,0,0,0,0,0,0,0,0,0,0,0,0,0,0,0,0],"id":1,"left_children":[1,3,5,7,9,11,13,15,17,19,21,23,25,27,29,31,33,35,37,39,41,43,45,47,49,51,53,55,57,59,61,63,65,67,69,71,73,75,77,79,81,83,85,87,89,91,93,95,97,99,101,103,105,107,109,111,113,115,117,119,121,123,-1,-1,-1,-1,-1,-1,-1,-1,-1,-1,-1,-1,-1,-1,-1,-1,-1,-1,-1,-1,-1,-1,-1,-1,-1,-1,-1,-1,-1,-1,-1,-1,-1,-1,-1,-1,-1,-1,-1,-1,-1,-1,-1,-1,-1,-1,-1,-1,-1,-1,-1,-1,-1,-1,-1,-1,-1,-1,-1,-1,-1,-1,-1],"loss_changes":[3.5239268E3,1.6330737E3,1.4460225E3,1.4569678E3,1.896679E3,7.4207715E2,2.5020726E2,1.8705408E2,6.1026514E2,5.9924756E2,4.4875888E2,1.4588379E2,1.3690704E2,5.1668873E1,1.02743774E2,2.1423203E2,9.209558E1,3.9843906E2,8.679535E1,2.769497E2,9.093542E2,1.7771777E2,2.0670801E2,1.0947925E2,1.3872412E2,6.310691E1,4.6635788E1,4.3601803E1,1.757288E1,1.1860913E2,9.164787E1,3.7340665E2,1.1446875E2,5.9264282E1,2.3259926E1,7.535556E1,1.26176605E2,7.276091E1,6.1073975E1,1.5889648E2,4.8761253E1,1.7989844E2,2.3418738E2,1.5880147E2,9.6393524E1,1.4939328E2,9.067522E1,8.308472E1,1.8484194E1,5.6679688E1,2.8087646E1,5.7693398E1,5.3317577E1,2.4873932E1,5.760103E0,1.2353506E1,3.1490063E1,8.536465E0,9.200663E0,1.3671579E2,1.7757233E2,8.650859E1,0E0,0E0,0E0,0E0,0E0,0E0,0E0,0E0,0E0,0E0,0E0,0E0,0E0,0E0,0E0,0E0,0E0,0E0,0E0,0E0,0E0,0E0,0E0,0E0,0E0,0E0,0E0,0E0,0E0,0E0,0E0,0E0,0E0,0E0,0E0,0E0,0E0,0E0,0E0,0E0,0E0,0E0,0E0,0E0,0E0,0E0,0E0,0E0,0E0,0E0,0E0,0E0,0E0,0E0,0E0,0E0,0E0,0E0,0E0,0E0,0E0,0E0,0E0],"parents":[2147483647,0,0,1,1,2,2,3,3,4,4,5,5,6,6,7,7,8,8,9,9,10,10,11,11,12,12,13,13,14,14,15,15,16,16,17,17,18,18,19,19,20,20,21,21,22,22,23,23,24,24,25,25,26,26,27,27,28,28,29,29,30,30,31,31,32,32,33,33,34,34,35,35,36,36,37,37,38,38,39,39,40,40,41,41,42,42,43,43,44,44,45,45,46,46,47,47,48,48,49,49,50,50,51,51,52,52,53,53,54,54,55,55,56,56,57,57,58,58,59,59,60,60,61,61],"right_children":[2,4,6,8,10,12,14,16,18,20,22,24,26,28,30,32,34,36,38,40,42,44,46,48,50,52,54,56,58,60,62,64,66,68,70,72,74,76,78,80,82,84,86,88,90,92,94,96,98,100,102,104,106,108,110,112,114,116,118,120,122,124,-1,-1,-1,-1,-1,-1,-1,-1,-1,-1,-1,-1,-1,-1,-1,-1,-1,-1,-1,-1,-1,-1,-1,-1,-1,-1,-1,-1,-1,-1,-1,-1,-1,-1,-1,-1,-1,-1,-1,-1,-1,-1,-1,-1,-1,-1,-1,-1,-1,-1,-1,-1,-1,-1,-1,-1,-1,-1,-1,-1,-1,-1,-1],"split_conditions":[2.086E3,5E0,2.169E3,1.83E2,1E0,3.9E1,1.13452E3,7.91293E3,3.5E1,1.83E2,2E1,2.134E3,3.42E1,7.2E1,2.043086E4,2.1E1,1.8995E2,2.981E1,5.29E2,2.2E1,2E1,2.43E2,1.75E1,1.908E1,3.73588E3,2.132E3,1E0,5E0,1.1E1,7.51E0,1.6E1,1.4E2,3.92291E3,8.7E1,1.2E1,3E1,2.75E2,2.1E1,1.71E0,1.8E2,1E1,1E0,2.4E1,3.62E1,3.5E1,5E0,2.75E2,4.6E1,2.667774E4,2E1,2.981E1,2.126E3,1E0,3.745E1,2.22491E3,1E0,3.311E3,8.482E1,4E0,9.502E1,1.182E1,9.219E3,-4.7524208E-1,-1.9946705E-1,3.6644733E-1,-3.2352957E-1,1.895049E-1,-3.4673977E-1,-7.468383E-2,-1.1078019E-1,2.524915E-1,4.9630698E-2,-1.9089068E-1,1.544455E-1,-3.410799E-1,1.4914098E-1,-5.833534E-1,-2.2297151E-1,3.0569965E-1,2.9611322E-1,1.710905E-1,2.8193152E-1,-7.117785E-2,9.955431E-2,3.411694E-1,-9.646432E-2,7.4849464E-2,-2.1888679E-2,-1.6273493E-1,9.3183875E-2,-4.4154742E-1,-1.8939967E-1,1.4891239E-1,3.6255058E-2,-9.0408094E-2,-1.1184169E-1,-4.1131088E-1,-5.358152E-3,2.4009156E-1,-2.5992978E-1,-4.1324237E-1,-3.523336E-1,-4.345616E-1,-8.486288E-3,-4.720364E-1,7.656653E-2,-2.2671603E-1,-2.1877639E-1,4.1013438E-1,-6.0422387E-2,-4.7522795E-1,-3.1501907E-1,-8.443117E-2,-3.8635686E-2,5.5670172E-2,-4.3730456E-1,-1.04392394E-1,-1.340089E-1,2.6080438E-1,-9.764264E-2,7.5932994E-2,-2.5340658E-1,1.0356471E-1,2.579325E-1,-4.6310076E-1],"split_indices":[29,27,29,29,8,27,23,23,12,29,37,29,12,1,24,3,4,12,29,31,3,39,2,15,23,29,28,27,31,26,15,10,23,17,31,14,29,31,11,11,33,19,34,10,40,35,29,17,23,31,12,29,28,10,23,19,16,25,9,25,26,16,0,0,0,0,0,0,0,0,0,0,0,0,0,0,0,0,0,0,0,0,0,0,0,0,0,0,0,0,0,0,0,0,0,0,0,0,0,0,0,0,0,0,0,0,0,0,0,0,0,0,0,0,0,0,0,0,0,0,0,0,0,0,0],"split_type":[0,0,0,0,0,0,0,0,0,0,0,0,0,0,0,0,0,0,0,0,0,0,0,0,0,0,0,0,0,0,0,0,0,0,0,0,0,0,0,0,0,0,0,0,0,0,0,0,0,0,0,0,0,0,0,0,0,0,0,0,0,0,0,0,0,0,0,0,0,0,0,0,0,0,0,0,0,0,0,0,0,0,0,0,0,0,0,0,0,0,0,0,0,0,0,0,0,0,0,0,0,0,0,0,0,0,0,0,0,0,0,0,0,0,0,0,0,0,0,0,0,0,0,0,0],"sum_hessian":[3.4174633E4,2.4142406E4,1.0032226E4,5.6917793E3,1.8450627E4,4.4583125E3,5.573913E3,2.4747747E3,3.2170046E3,1.0700243E4,7.750385E3,3.8821323E3,5.7617993E2,2.4605605E3,3.1133523E3,9.649904E2,1.5097843E3,1.8311494E3,1.3858551E3,5.7515205E3,4.9487227E3,3.3907053E3,4.359679E3,4.6353195E2,3.4186003E3,4.5101578E2,1.2516415E2,2.3906306E3,6.9929855E1,2.9334246E3,1.7992781E2,4.555737E2,5.0941672E2,1.4455127E3,6.427171E1,1.3403193E3,4.9083017E2,7.6393286E2,6.2192224E2,5.446841E3,3.0467938E2,1.6794963E3,3.2692263E3,3.1752708E3,2.1543466E2,1.9956195E3,2.3640596E3,3.352471E2,1.2828485E2,1.6982698E3,1.7203307E3,9.591497E1,3.551008E2,1.12694855E2,1.2469294E1,9.001861E1,2.300612E3,3.939649E1,3.0533367E1,2.1117983E3,8.2162616E2,6.099204E1,1.1893577E2,2.9357147E2,1.6200224E2,4.673494E2,4.2067333E1,1.3687833E3,7.672925E1,3.8928093E1,2.534362E1,1.2115234E3,1.2879585E2,5.109437E1,4.397358E2,7.524908E2,1.1442106E1,1.9647472E1,6.022748E2,4.276479E3,1.1703618E3,3.9567547E1,2.6511185E2,3.5182437E2,1.3276719E3,1.063715E3,2.2055112E3,2.0712458E3,1.1040249E3,3.6102436E1,1.7933221E2,1.2450014E2,1.8711194E3,1.6247823E3,7.392773E2,1.760417E2,1.5920541E2,8.93476E1,3.8937244E1,1.4389755E3,2.5929428E2,6.2367035E2,1.0966603E3,4.6370316E1,4.9544655E1,2.9265216E2,6.2448643E1,5.3730454E0,1.0732181E2,8.469695E0,3.9995983E0,3.3082287E1,5.693632E1,3.813316E2,1.9192804E3,2.9434532E1,9.961958E0,2.4815847E1,5.7175198E0,1.5594598E3,5.5233856E2,6.6785364E2,1.5377252E2,3.7465706E1,2.3526335E1],"tree_param":{"num_deleted":"0","num_feature":"49","num_nodes":"125","size_leaf_vector":"1"}},{"base_weights":[1.3732738E-3,1.5478627E-1,-3.6818692E-1,-1.9392231E-1,2.6069695E-1,-7.113522E-1,-1.1212216E-1,-6.380441E-1,1.3529453E-1,-2.4607664E-3,4.8525807E-1,-8.363688E-1,1.0140367E-1,-3.9287746E-2,-4.981888E-1,-3.533506E-1,-8.134661E-1,-1.4128378E-1,5.145047E-1,1.0967866E-1,-2.9616332E-1,6.723135E-1,2.715372E-1,-4.055873E-1,-8.977874E-1,-2.6834607E-1,5.0836277E-1,-1.9907888E-2,-8.773377E-1,-9.522329E-1,-2.289742E-1,4.9860723E-2,-7.6747036E-1,-5.8778316E-1,-1.0283688E0,1.4451993E-1,-6.056424E-1,3.3113426E-1,7.5421333E-1,5.0901608E-3,4.4860452E-1,-2.0628928E-1,-6.39694E-1,7.175514E-1,-5.6451105E-2,8.20853E-1,4.8846472E-2,-6.325995E-1,1.7088024E-1,-7.0543104E-1,-1.0913363E0,-3.068678E-1,5.261925E-1,6.8836075E-1,-1.0478929E0,6.7251064E-2,-2.0896809E-1,8.420923E-2,-4.0558735E-1,-1.7129418E-1,-1.0452427E0,-3.669125E-1,1.6032429E-1,-1.2119627E-1,3.0575877E-1,-3.9742038E-1,-1.0942453E-1,2.764E-1,-2.0231573E-1,-3.4572634E-1,-8.350269E-2,-4.29769E-2,1.3190746E-1,-2.2110723E-1,2.0098807E-1,-1.6175061E-1,1.1881735E-1,2.4167372E-1,-3.9826778E-1,2.1683065E-2,-1.3542733E-1,1.9070968E-1,2.8277354E-2,-2.6000324E-1,-4.402566E-2,-2.0724939E-1,1.3470683E-1,2.2599198E-1,-5.188667E-2,-7.219114E-2,2.2762354E-1,1.928638E-2,2.928515E-1,1.1909529E-1,-3.5437636E-2,-2.2035243E-1,3.020547E-1,1.23883955E-1,-9.454965E-2,-1.6872118E-1,-2.7117026E-1,-3.3755732E-1,-1.5499167E-1,-1.0625493E-1,3.0833092E-1,3.190175E-2,2.8977996E-1,-4.1635686E-1,-2.524534E-2,-3.8445466E-3,8.8533446E-2,-4.420605E-3,-1.7515236E-1,2.122408E-1,-3.7930956E-1,-3.1335396E-1,2.1395281E-2,-3.4814993E-1,-1.02855764E-1,-2.0907442E-1,-3.8748167E-2,-2.155257E-1,1.9460201E-1],"categories":[],"categories_nodes":[],"categories_segments":[],"categories_sizes":[],"default_left":[0,1,0,0,0,1,0,0,0,0,0,0,0,0,0,0,0,0,0,0,0,0,0,0,0,0,0,0,0,0,0,0,0,0,0,0,0,0,0,0,0,0,0,0,0,0,0,0,0,0,0,0,0,0,0,0,0,0,0,0,0,0,0,0,0,0,0,0,0,0,0,0,0,0,0,0,0,0,0,0,0,0,0,0,0,0,0,0,0,0,0,0,0,0,0,0,0,0,0,0,0,0,0,0,0,0,0,0,0,0,0,0,0,0,0,0,0,0,0,0,0,0,0],"id":2,"left_children":[1,3,5,7,9,11,13,15,17,19,21,23,25,27,29,31,33,35,37,39,41,43,45,47,49,51,53,55,57,59,61,63,65,67,69,71,73,75,77,79,81,83,85,87,89,91,93,95,97,99,101,103,-1,105,107,109,111,113,-1,115,117,119,121,-1,-1,-1,-1,-1,-1,-1,-1,-1,-1,-1,-1,-1,-1,-1,-1,-1,-1,-1,-1,-1,-1,-1,-1,-1,-1,-1,-1,-1,-1,-1,-1,-1,-1,-1,-1,-1,-1,-1,-1,-1,-1,-1,-1,-1,-1,-1,-1,-1,-1,-1,-1,-1,-1,-1,-1,-1,-1,-1,-1],"loss_changes":[1.8621162E3,8.572213E2,8.465537E2,7.9074146E2,1.0520623E3,4.1840283E2,1.5516348E2,1.1468939E2,3.25871E2,2.700389E2,3.8383765E2,9.404443E1,8.2856804E1,7.540672E1,1.0683948E2,1.468964E2,6.844592E1,2.385818E2,5.7345886E1,2.1032755E2,6.9813705E1,1.6889575E2,5.486057E2,5.8615692E1,1.1546924E2,2.3028158E1,7.412622E1,7.482609E1,4.800582E1,2.3477417E1,2.965471E1,1.9686809E2,9.6903946E1,9.1685394E1,6.7408936E1,9.462126E1,1.1526726E2,4.2262283E1,6.171402E1,1.3913809E2,9.270291E1,7.05333E1,2.6438675E1,1.5368115E2,4.526907E1,1.5195624E2,1.8561711E2,5.4366653E1,1.50846615E1,4.4022644E1,2.9661987E1,1.8307425E1,0E0,3.794024E1,8.913794E0,5.6709858E1,1.0431871E2,3.083525E1,0E0,7.6710014E0,2.3146515E1,3.1862568E1,6.264251E1,0E0,0E0,0E0,0E0,0E0,0E0,0E0,0E0,0E0,0E0,0E0,0E0,0E0,0E0,0E0,0E0,0E0,0E0,0E0,0E0,0E0,0E0,0E0,0E0,0E0,0E0,0E0,0E0,0E0,0E0,0E0,0E0,0E0,0E0,0E0,0E0,0E0,0E0,0E0,0E0,0E0,0E0,0E0,0E0,0E0,0E0,0E0,0E0,0E0,0E0,0E0,0E0,0E0,0E0,0E0,0E0,0E0,0E0,0E0,0E0],"parents":[2147483647,0,0,1,1,2,2,3,3,4,4,5,5,6,6,7,7,8,8,9,9,10,10,11,11,12,12,13,13,14,14,15,15,16,16,17,17,18,18,19,19,20,20,21,21,22,22,23,23,24,24,25,25,26,26,27,27,28,28,29,29,30,30,31,31,32,32,33,33,34,34,35,35,36,36,37,37,38,38,39,39,40,40,41,41,42,42,43,43,44,44,45,45,46,46,47,47,48,48,49,49,50,50,51,51,53,53,54,54,55,55,56,56,57,57,59,59,60,60,61,61,62,62],"right_children":[2,4,6,8,10,12,14,16,18,20,22,24,26,28,30,32,34,36,38,40,42,44,46,48,50,52,54,56,58,60,62,64,66,68,70,72,74,76,78,80,82,84,86,88,90,92,94,96,98,100,102,104,-1,106,108,110,112,114,-1,116,118,120,122,-1,-1,-1,-1,-1,-1,-1,-1,-1,-1,-1,-1,-1,-1,-1,-1,-1,-1,-1,-1,-1,-1,-1,-1,-1,-1,-1,-1,-1,-1,-1,-1,-1,-1,-1,-1,-1,-1,-1,-1,-1,-1,-1,-1,-1,-1,-1,-1,-1,-1,-1,-1,-1,-1,-1,-1,-1,-1,-1,-1],"split_conditions":[2.086E3,5E0,2.169E3,1.83E2,5.42E0,3.9E1,2.5766E2,1.1E1,3.5E1,1.5E1,1.83E2,2.134E3,2.135E3,2.043086E4,2.5E1,3E1,1E0,2.5E1,5.29E2,3.8E2,1.5E1,2.2E1,2E1,1.908E1,7.8135E2,1.0236E2,1E0,3.77E0,1.6E1,4.879E1,1E2,1.45E2,2.8196E2,2.658E3,8.4E1,4.77877E3,4E0,2.69585E3,1E0,4.495E1,1.2E1,1.03E1,5.2E2,1.0104E4,1E0,7.6E1,2.75E2,7.130443E4,3.27E2,4E0,1.2855E3,2.2E1,5.261925E-1,2.3E1,2.06704E3,2.5E1,1.5436E3,9.219E3,-4.0558735E-1,9.857E1,2.728E3,2E1,1E0,-1.2119627E-1,3.0575877E-1,-3.9742038E-1,-1.0942453E-1,2.764E-1,-2.0231573E-1,-3.4572634E-1,-8.350269E-2,-4.29769E-2,1.3190746E-1,-2.2110723E-1,2.0098807E-1,-1.6175061E-1,1.1881735E-1,2.4167372E-1,-3.9826778E-1,2.1683065E-2,-1.3542733E-1,1.9070968E-1,2.8277354E-2,-2.6000324E-1,-4.402566E-2,-2.0724939E-1,1.3470683E-1,2.2599198E-1,-5.188667E-2,-7.219114E-2,2.2762354E-1,1.928638E-2,2.928515E-1,1.1909529E-1,-3.5437636E-2,-2.2035243E-1,3.020547E-1,1.23883955E-1,-9.454965E-2,-1.6872118E-1,-2.7117026E-1,-3.3755732E-1,-1.5499167E-1,-1.0625493E-1,3.0833092E-1,3.190175E-2,2.8977996E-1,-4.1635686E-1,-2.524534E-2,-3.8445466E-3,8.8533446E-2,-4.420605E-3,-1.7515236E-1,2.122408E-1,-3.7930956E-1,-3.1335396E-1,2.1395281E-2,-3.4814993E-1,-1.02855764E-1,-2.0907442E-1,-3.8748167E-2,-2.155257E-1,1.9460201E-1],"split_indices":[29,27,29,29,4,27,0,14,12,8,29,29,29,24,12,3,20,12,29,36,31,31,3,15,24,25,28,26,15,24,25,10,10,16,17,24,41,24,8,10,31,10,38,16,21,33,29,23,33,38,11,31,0,36,23,12,23,16,0,10,29,14,19,0,0,0,0,0,0,0,0,0,0,0,0,0,0,0,0,0,0,0,0,0,0,0,0,0,0,0,0,0,0,0,0,0,0,0,0,0,0,0,0,0,0,0,0,0,0,0,0,0,0,0,0,0,0,0,0,0,0,0,0],"split_type":[0,0,0,0,0,0,0,0,0,0,0,0,0,0,0,0,0,0,0,0,0,0,0,0,0,0,0,0,0,0,0,0,0,0,0,0,0,0,0,0,0,0,0,0,0,0,0,0,0,0,0,0,0,0,0,0,0,0,0,0,0,0,0,0,0,0,0,0,0,0,0,0,0,0,0,0,0,0,0,0,0,0,0,0,0,0,0,0,0,0,0,0,0,0,0,0,0,0,0,0,0,0,0,0,0,0,0,0,0,0,0,0,0,0,0,0,0,0,0,0,0,0,0],"sum_hessian":[3.284225E4,2.320846E4,9.633789E3,5.4065806E3,1.780188E4,4.1159795E3,5.5178096E3,2.301228E3,3.1053525E3,8.197002E3,9.604878E3,3.5672437E3,5.4873566E2,4.642978E3,8.748315E2,8.785071E2,1.4227208E3,1.7960352E3,1.3093174E3,5.932517E3,2.2644849E3,5.1208228E3,4.4840557E3,4.4608304E2,3.1211606E3,2.876903E2,2.6104538E2,4.5390366E3,1.0394121E2,3.2468933E2,5.5014215E2,4.4556165E2,4.3294543E2,6.957769E2,7.269439E2,1.1121915E3,6.8384357E2,7.4318396E2,5.661335E2,4.5343003E3,1.3982164E3,1.796173E3,4.68312E2,4.8215415E3,2.9928082E2,1.2926827E3,3.191373E3,3.1997852E2,1.26104515E2,1.567732E3,1.5534286E3,2.8314514E2,4.5451665E0,2.344826E2,2.6562788E1,3.1072175E3,1.4318191E3,3.4622017E1,6.931919E1,3.485742E1,2.898319E2,4.0625366E2,1.4388847E2,3.0387082E2,1.4169083E2,1.8066365E2,2.5228178E2,3.7237953E1,6.5853894E2,6.233132E2,1.0363075E2,5.634111E2,5.4878046E2,6.2037024E2,6.3473297E1,5.1084846E1,6.920991E2,5.530993E2,1.3034156E1,3.9533193E3,5.8098114E2,9.1454456E2,4.8367188E2,1.4742053E2,1.6487524E3,4.4765118E2,2.0660816E1,4.635571E3,1.8597092E2,2.446983E2,5.4582508E1,2.2041995E2,1.0722628E3,1.0340315E3,2.1573416E3,3.0177225E2,1.820627E1,8.4280525E1,4.182399E1,9.133562E2,6.543758E2,1.4661041E3,8.7324524E1,2.7416028E2,8.984847E0,7.616364E1,1.5831895E2,1.9310776E1,7.252011E0,2.299986E3,8.0723157E2,9.438316E2,4.8798752E2,2.4003775E1,1.0618242E1,6.860287E0,2.7997133E1,2.4841641E2,4.141549E1,1.6931349E2,2.3694017E2,5.1231163E1,9.26573E1],"tree_param":{"num_deleted":"0","num_feature":"49","num_nodes":"123","size_leaf_vector":"1"}},{"base_weights":[9.15843E-4,1.1350661E-1,-2.8067076E-1,-6.292857E-2,2.384141E-1,-5.8820164E-1,-8.076393E-2,-7.748805E-1,-1.9592026E-2,-4.9249027E-2,4.3070713E-1,1.0234374E-1,-6.901029E-1,7.593925E-2,-2.2891021E-1,-1.1405239E0,2.587738E-1,-3.2792446E-1,6.2475067E-2,-1.40071E-1,3.086244E-1,2.0313102E-1,5.789754E-1,-3.9110208E-1,2.3467064E-1,-5.1367027E-1,-8.73066E-1,9.819859E-2,-6.571689E-1,-6.5459037E-1,-2.6189312E-2,-1.3068112E0,-1.3730384E-1,9.5567316E-1,3.525302E-2,-4.9648097E-1,-6.88751E-2,1.5016083E-1,-1.865186E-1,-2.762235E-1,3.565672E-1,7.5082505E-1,3.5430055E-2,4.50337E-1,-5.3569436E-1,9.0735894E-1,3.015139E-1,6.382516E-2,7.687173E-1,-1.5196529E-1,-5.917303E-1,-8.931688E-1,5.594117E-1,1.1396592E-1,-9.9088746E-1,-9.7666675E-1,-3.9466046E-2,-7.865549E-1,2.0963313E-2,-1.8393146E-1,1.7329441E-1,-4.0882063E-1,-2.6094076E-1,2.0923738E-1,-2.29388E-1,3.4121928E-1,-6.523677E-2,-1.537942E-1,1.1957939E-1,-8.269012E-2,-3.1536782E-1,4.898584E-2,-1.08841024E-1,7.702444E-2,-3.4017295E-2,-2.257631E-2,-1.2035508E-1,-7.0231885E-2,-2.3039153E-1,1.7412886E-1,-3.0262338E-2,2.750925E-1,-6.997239E-2,-1.1970238E-1,6.1476413E-2,-9.909451E-2,1.546892E-1,-2.7753887E-1,2.0580637E-1,-1.3646504E-1,2.7721763E-1,5.9186507E-2,2.2615795E-1,3.491696E-2,-6.915238E-1,2.787368E-1,-1.4434929E-1,-2.8508008E-1,-2.4124455E-2,-2.2562677E-1,-1.23999976E-1,-1.990121E-1,-3.1575966E-1,7.03327E-2,-1.2940096E-2,2.7262995E-2,-3.4188467E-1,-3.2027307E-1,1.21952504E-1,4.6189684E-2,-2.6427063E-1,-8.642137E-2,-3.122502E-1,-2.0055883E-1,3.7175554E-1,-1.18530355E-1,4.441665E-2,-4.8119117E-2,1.5699741E-1],"categories":[],"categories_nodes":[],"categories_segments":[],"categories_sizes":[],"default_left":[0,0,0,0,0,0,0,0,0,0,0,0,0,0,0,0,0,0,0,0,0,0,0,0,0,0,0,0,0,0,0,0,0,0,0,0,0,0,0,0,0,0,0,0,0,0,0,0,0,1,0,0,0,0,0,0,0,0,0,0,0,0,0,0,0,0,0,0,0,0,0,0,0,0,0,0,0,0,0,0,0,0,0,0,0,0,0,0,0,0,0,0,0,0,0,0,0,0,0,0,0,0,0,0,0,0,0,0,0,0,0,0,0,0,0,0,0,0,0],"id":3,"left_children":[1,3,5,7,9,11,13,15,17,19,21,23,25,27,29,31,33,35,37,39,41,43,45,-1,47,49,51,53,55,57,59,61,63,65,67,69,71,73,75,77,79,81,83,85,87,89,91,93,95,97,99,101,-1,103,105,107,109,111,113,115,117,-1,-1,-1,-1,-1,-1,-1,-1,-1,-1,-1,-1,-1,-1,-1,-1,-1,-1,-1,-1,-1,-1,-1,-1,-1,-1,-1,-1,-1,-1,-1,-1,-1,-1,-1,-1,-1,-1,-1,-1,-1,-1,-1,-1,-1,-1,-1,-1,-1,-1,-1,-1,-1,-1,-1,-1,-1,-1],"loss_changes":[1.0001136E3,4.966398E2,5.5389166E2,2.88205E2,7.298717E2,2.4984192E2,1.2681539E2,2.0286407E2,2.2286195E2,1.7189035E2,2.6672144E2,8.538977E1,9.9402954E1,4.339092E1,2.4228473E2,6.5899475E1,2.1909283E1,8.080705E1,1.5190343E2,2.852898E2,1.2929735E2,5.7031323E2,4.3596912E2,0E0,3.8163643E1,4.4440308E1,8.516052E1,4.4376713E1,1.5428043E1,8.07648E1,5.991636E1,7.115906E0,3.061134E1,7.532032E0,2.1644077E1,1.37104E2,4.9939465E1,1.4455975E2,4.325171E1,6.838913E1,9.303256E1,6.704605E1,4.888233E1,1.1940674E2,3.7316013E2,5.029138E1,1.22273224E2,3.991556E1,2.0780273E1,1.5990828E1,3.678882E1,5.4478394E1,0E0,4.8117996E1,6.038601E0,6.923744E0,4.6536584E0,9.5750854E1,1.2597699E2,7.459593E1,9.829958E1,0E0,0E0,0E0,0E0,0E0,0E0,0E0,0E0,0E0,0E0,0E0,0E0,0E0,0E0,0E0,0E0,0E0,0E0,0E0,0E0,0E0,0E0,0E0,0E0,0E0,0E0,0E0,0E0,0E0,0E0,0E0,0E0,0E0,0E0,0E0,0E0,0E0,0E0,0E0,0E0,0E0,0E0,0E0,0E0,0E0,0E0,0E0,0E0,0E0,0E0,0E0,0E0,0E0,0E0,0E0,0E0,0E0,0E0],"parents":[2147483647,0,0,1,1,2,2,3,3,4,4,5,5,6,6,7,7,8,8,9,9,10,10,11,11,12,12,13,13,14,14,15,15,16,16,17,17,18,18,19,19,20,20,21,21,22,22,24,24,25,25,26,26,27,27,28,28,29,29,30,30,31,31,32,32,33,33,34,34,35,35,36,36,37,37,38,38,39,39,40,40,41,41,42,42,43,43,44,44,45,45,46,46,47,47,48,48,49,49,50,50,51,51,53,53,54,54,55,55,56,56,57,57,58,58,59,59,60,60],"right_children":[2,4,6,8,10,12,14,16,18,20,22,24,26,28,30,32,34,36,38,40,42,44,46,-1,48,50,52,54,56,58,60,62,64,66,68,70,72,74,76,78,80,82,84,86,88,90,92,94,96,98,100,102,-1,104,106,108,110,112,114,116,118,-1,-1,-1,-1,-1,-1,-1,-1,-1,-1,-1,-1,-1,-1,-1,-1,-1,-1,-1,-1,-1,-1,-1,-1,-1,-1,-1,-1,-1,-1,-1,-1,-1,-1,-1,-1,-1,-1,-1,-1,-1,-1,-1,-1,-1,-1,-1,-1,-1,-1,-1,-1,-1,-1,-1,-1,-1,-1],"split_conditions":[2.126E3,1.5E-1,2.169E3,1E0,1E0,5E0,4.35E0,3.42E1,6E0,1E0,1.3348E2,2.132E3,7.8135E2,2.0183E2,2.5E1,1.487E3,3.5E1,1.2E2,1.5E1,6.28E2,1.83E2,1.008E2,1.95E2,-3.9110208E-1,3.42E1,5E0,7.6E1,2.043086E4,1.28E2,5.3E1,1E0,7.44E1,1.5E1,1.641E1,1.2196667E0,4.4E1,4.7E2,1.197E1,2.75E2,7.2E1,5.2E1,2.5013E2,2.4E1,2.981E1,4.935E1,2E0,5.24E2,5.99523E3,1E0,6E0,7.97E0,2.5E1,5.594117E-1,3.75E0,4.946E3,4.09817E3,1.1266E2,1.44037E3,5.99523E3,7.6429E2,9.502E1,-4.0882063E-1,-2.6094076E-1,2.0923738E-1,-2.29388E-1,3.4121928E-1,-6.523677E-2,-1.537942E-1,1.1957939E-1,-8.269012E-2,-3.1536782E-1,4.898584E-2,-1.08841024E-1,7.702444E-2,-3.4017295E-2,-2.257631E-2,-1.2035508E-1,-7.0231885E-2,-2.3039153E-1,1.7412886E-1,-3.0262338E-2,2.750925E-1,-6.997239E-2,-1.1970238E-1,6.1476413E-2,-9.909451E-2,1.546892E-1,-2.7753887E-1,2.0580637E-1,-1.3646504E-1,2.7721763E-1,5.9186507E-2,2.2615795E-1,3.491696E-2,-6.915238E-1,2.787368E-1,-1.4434929E-1,-2.8508008E-1,-2.4124455E-2,-2.2562677E-1,-1.23999976E-1,-1.990121E-1,-3.1575966E-1,7.03327E-2,-1.2940096E-2,2.7262995E-2,-3.4188467E-1,-3.2027307E-1,1.21952504E-1,4.6189684E-2,-2.6427063E-1,-8.642137E-2,-3.122502E-1,-2.0055883E-1,3.7175554E-1,-1.18530355E-1,4.441665E-2,-4.8119117E-2,1.5699741E-1],"split_indices":[29,6,29,8,28,15,3,12,35,13,0,29,24,0,12,29,12,34,31,29,29,0,10,0,12,12,17,24,36,17,19,11,17,0,11,34,33,11,29,17,17,0,34,12,3,33,33,23,28,27,12,12,0,26,16,0,25,23,23,24,25,0,0,0,0,0,0,0,0,0,0,0,0,0,0,0,0,0,0,0,0,0,0,0,0,0,0,0,0,0,0,0,0,0,0,0,0,0,0,0,0,0,0,0,0,0,0,0,0,0,0,0,0,0,0,0,0,0,0],"split_type":[0,0,0,0,0,0,0,0,0,0,0,0,0,0,0,0,0,0,0,0,0,0,0,0,0,0,0,0,0,0,0,0,0,0,0,0,0,0,0,0,0,0,0,0,0,0,0,0,0,0,0,0,0,0,0,0,0,0,0,0,0,0,0,0,0,0,0,0,0,0,0,0,0,0,0,0,0,0,0,0,0,0,0,0,0,0,0,0,0,0,0,0,0,0,0,0,0,0,0,0,0,0,0,0,0,0,0,0,0,0,0,0,0,0,0,0,0,0,0],"sum_hessian":[3.1543287E4,2.2533854E4,9.009434E3,9.340559E3,1.3193295E4,3.5485317E3,5.460902E3,5.349691E2,8.805589E3,5.286153E3,7.9071416E3,4.5630743E2,3.0922244E3,2.6540461E3,2.806856E3,3.9510266E2,1.3986642E2,1.8504204E3,6.955169E3,4.21665E3,1.069503E3,3.1202532E3,4.7868887E3,3.8489697E1,4.1781775E2,1.5761447E3,1.5160797E3,2.5766765E3,7.73695E1,9.047669E2,1.902089E3,3.386651E2,5.6437565E1,3.3170612E1,1.0669581E2,1.1204542E3,7.299662E2,5.144038E3,1.8111309E3,3.3097356E3,9.069144E2,4.077531E2,6.6174994E2,2.3382732E3,7.819799E2,2.1912322E3,2.5956562E3,3.17399E2,1.0041877E2,2.80295E2,1.2958496E3,1.5056975E3,1.0382189E1,2.5407874E3,3.588908E1,5.0610718E1,2.6758785E1,7.567726E2,1.4799437E2,1.0622168E3,8.398721E2,2.9836487E2,4.0300232E1,2.4167162E1,3.22704E1,2.8747862E1,4.422748E0,4.2379456E1,6.431635E1,8.024794E2,3.1797482E2,4.0808334E2,3.2188284E2,3.6627512E3,1.4812869E3,1.1937449E3,6.1738605E2,3.0499866E3,2.5974902E2,6.087407E2,2.9817374E2,3.4891107E2,5.8842037E1,1.8533849E2,4.764114E2,1.8016437E2,2.158109E3,5.931497E2,1.888302E2,2.6219143E1,2.1650132E3,2.1107517E3,4.8490466E2,3.1143918E2,5.9597983E0,8.922463E1,1.119414E1,2.2045723E1,2.582493E2,6.807322E2,6.1511743E2,6.187089E2,8.869886E2,1.4377299E3,1.1030576E3,4.384883E0,3.1504196E1,4.7703537E1,2.9071774E0,2.2421492E1,4.337294E0,2.5635406E2,5.004185E2,9.479388E1,5.320049E1,6.491295E2,4.130873E2,4.3024857E2,4.0962354E2],"tree_param":{"num_deleted":"0","num_feature":"49","num_nodes":"119","size_leaf_vector":"1"}},{"base_weights":[8.1479974E-4,8.5660815E-2,-2.0753329E-1,1.5750125E-1,-9.614948E-2,-4.414462E-1,-5.8481272E-2,2.4650012E-1,-1.01346016E-1,-2.367446E-1,1.6163327E-1,-5.315409E-1,4.860831E-2,5.8915827E-2,-1.618173E-1,4.5225987E-1,1.6264439E-1,-1.813145E-1,1.3953139E-1,-2.0790642E-1,-9.0802836E-1,-2.0558412E-1,4.1736537E-1,-4.029121E-1,-7.1668214E-1,-6.955889E-2,6.435183E-1,3.543057E-2,6.8087286E-1,-4.3892717E-1,-1.7515747E-2,5.782785E-1,-4.81204E-1,2.7903152E-1,-7.284116E-2,5.2140832E-2,-2.8394502E-1,-3.644192E-1,2.5442287E-1,-2.250342E-1,1.1951263E0,-2.5258113E-2,-1.292018E0,-2.8763527E-1,6.5488213E-1,6.062433E-1,1.9163287E-1,-3.229754E-1,-7.553608E-1,-8.8887733E-1,-4.115978E-1,-9.7819275E-1,1.8472586E-2,-8.54863E-1,7.5179255E-1,6.0200132E-2,-4.7689363E-1,8.445599E-1,-3.6918793E-2,-1.3835877E-1,-7.122133E-1,5.7296306E-2,-4.1982728E-1,7.959687E-2,2.0193885E-1,-2.4910143E-1,2.3565014E-1,-1.1440955E-1,1.0381778E-1,-1.9342193E-1,3.0365504E-2,8.1191204E-2,-1.0440441E-1,-3.381506E-2,-1.3702954E-1,-3.311304E-1,9.924726E-2,9.2965975E-2,-2.4318765E-1,-7.5583845E-2,1.351916E-1,1.7838486E-1,6.071798E-1,-3.7801084E-1,1.0699981E-1,-4.0945768E-1,-2.2446144E-1,-5.4804783E-2,-3.8939598E-1,2.6028123E-1,-1.2942217E-1,1.8516954E-2,1.9550306E-1,4.1979814E-1,3.853591E-2,-1.1152363E-1,1.974777E-1,-2.8693783E-1,8.687422E-2,-2.839458E-1,-1.6219144E-1,-2.9926926E-1,-8.230603E-2,-8.845641E-2,-5.336319E-1,-2.0984286E-1,3.0159222E-2,1.901068E-2,-3.769053E-1,2.760743E-1,-6.915217E-2,7.4093714E-3,1.20942086E-1,-3.2179856E-1,-7.780632E-2,2.7570525E-1,-1.01859584E-1,2.7245137E-1,-1.903278E-1,-7.175622E-2,4.4811442E-2,-1.2258753E-1,-3.3300072E-1,4.885611E-3,2.452697E-1,-3.8022198E-2,-3.6757618E-1],"categories":[],"categories_nodes":[],"categories_segments":[],"categories_sizes":[],"default_left":[0,0,0,0,0,1,0,0,0,0,0,0,0,0,0,0,0,0,0,0,0,0,0,0,1,0,0,0,0,0,0,0,0,0,0,0,0,0,0,0,0,0,0,0,0,0,0,0,0,0,0,0,0,0,0,0,0,0,0,0,0,0,0,0,0,0,0,0,0,0,0,0,0,0,0,0,0,0,0,0,0,0,0,0,0,0,0,0,0,0,0,0,0,0,0,0,0,0,0,0,0,0,0,0,0,0,0,0,0,0,0,0,0,0,0,0,0,0,0,0,0,0,0,0,0,0,0],"id":4,"left_children":[1,3,5,7,9,11,13,15,17,19,21,23,25,27,29,31,33,35,37,39,41,43,45,47,49,51,53,55,57,59,61,63,65,67,69,71,73,75,77,79,81,83,85,87,89,91,93,95,97,99,101,103,105,107,109,111,113,115,117,119,121,123,125,-1,-1,-1,-1,-1,-1,-1,-1,-1,-1,-1,-1,-1,-1,-1,-1,-1,-1,-1,-1,-1,-1,-1,-1,-1,-1,-1,-1,-1,-1,-1,-1,-1,-1,-1,-1,-1,-1,-1,-1,-1,-1,-1,-1,-1,-1,-1,-1,-1,-1,-1,-1,-1,-1,-1,-1,-1,-1,-1,-1,-1,-1,-1,-1],"loss_changes":[5.397401E2,2.8340564E2,3.080318E2,3.583019E2,2.2277849E2,1.5185071E2,6.5493805E1,1.996142E2,7.6687355E1,7.680426E1,2.0382619E2,6.8887634E1,3.7650284E1,3.689861E1,1.148027E2,3.9439825E2,2.2541753E2,7.161406E1,5.7558716E1,9.193881E1,5.5398132E1,6.3116665E1,5.44252E1,4.810971E1,6.212494E1,3.578834E1,1.504023E1,3.0952475E1,1.0831329E1,8.0655716E1,5.6880207E1,8.745929E1,1.7713367E2,2.437637E2,2.709235E2,7.995427E1,6.1378983E1,9.529379E1,4.8030262E1,6.865703E1,2.1773254E1,2.430666E1,3.492035E0,8.612207E1,1.8374825E1,1.7178741E1,4.4397766E1,6.727632E1,6.6795074E1,1.4725098E1,3.438968E1,2.1094158E1,2.4146875E1,2.4569144E0,1.3995392E1,2.8301598E1,1.4301388E1,6.9150124E0,1.0756297E1,1.3654546E1,6.1702026E1,4.967817E1,6.979381E1,0E0,0E0,0E0,0E0,0E0,0E0,0E0,0E0,0E0,0E0,0E0,0E0,0E0,0E0,0E0,0E0,0E0,0E0,0E0,0E0,0E0,0E0,0E0,0E0,0E0,0E0,0E0,0E0,0E0,0E0,0E0,0E0,0E0,0E0,0E0,0E0,0E0,0E0,0E0,0E0,0E0,0E0,0E0,0E0,0E0,0E0,0E0,0E0,0E0,0E0,0E0,0E0,0E0,0E0,0E0,0E0,0E0,0E0,0E0,0E0,0E0,0E0,0E0,0E0],"parents":[2147483647,0,0,1,1,2,2,3,3,4,4,5,5,6,6,7,7,8,8,9,9,10,10,11,11,12,12,13,13,14,14,15,15,16,16,17,17,18,18,19,19,20,20,21,21,22,22,23,23,24,24,25,25,26,26,27,27,28,28,29,29,30,30,31,31,32,32,33,33,34,34,35,35,36,36,37,37,38,38,39,39,40,40,41,41,42,42,43,43,44,44,45,45,46,46,47,47,48,48,49,49,50,50,51,51,52,52,53,53,54,54,55,55,56,56,57,57,58,58,59,59,60,60,61,61,62,62],"right_children":[2,4,6,8,10,12,14,16,18,20,22,24,26,28,30,32,34,36,38,40,42,44,46,48,50,52,54,56,58,60,62,64,66,68,70,72,74,76,78,80,82,84,86,88,90,92,94,96,98,100,102,104,106,108,110,112,114,116,118,120,122,124,126,-1,-1,-1,-1,-1,-1,-1,-1,-1,-1,-1,-1,-1,-1,-1,-1,-1,-1,-1,-1,-1,-1,-1,-1,-1,-1,-1,-1,-1,-1,-1,-1,-1,-1,-1,-1,-1,-1,-1,-1,-1,-1,-1,-1,-1,-1,-1,-1,-1,-1,-1,-1,-1,-1,-1,-1,-1,-1,-1,-1,-1,-1,-1,-1],"split_conditions":[2.086E3,6.459E2,2.169E3,6E0,3.42E1,3E1,3.18E0,5.1E-1,1.911E1,4E1,2.1087E3,2.981E1,3.42E1,4.4E1,2.5E1,2.3993E2,2.75E2,8E0,2.9E1,4.0691E2,1E0,1.151E2,1.1E1,2.135E3,1.1E1,8E0,3.745E1,3.91E2,6.2E1,1.76E0,5.5E1,1E0,7.6863E2,6E0,5.4E1,7.6E0,7.48E0,1.83E2,2.75E2,2.35156E3,1.28E2,3.2E1,1E0,1.0236E2,2.1E1,1.8E1,2.2916E3,1.163584E4,7.98E0,1.094651E4,5.6E1,2.981E1,1.041E1,1.5436E3,5.6E1,1.989461E4,2.237E1,1.6E1,1E0,4.0452E3,2E0,5.4E1,1.6E1,7.959687E-2,2.0193885E-1,-2.4910143E-1,2.3565014E-1,-1.1440955E-1,1.0381778E-1,-1.9342193E-1,3.0365504E-2,8.1191204E-2,-1.0440441E-1,-3.381506E-2,-1.3702954E-1,-3.311304E-1,9.924726E-2,9.2965975E-2,-2.4318765E-1,-7.5583845E-2,1.351916E-1,1.7838486E-1,6.071798E-1,-3.7801084E-1,1.0699981E-1,-4.0945768E-1,-2.2446144E-1,-5.4804783E-2,-3.8939598E-1,2.6028123E-1,-1.2942217E-1,1.8516954E-2,1.9550306E-1,4.1979814E-1,3.853591E-2,-1.1152363E-1,1.974777E-1,-2.8693783E-1,8.687422E-2,-2.839458E-1,-1.6219144E-1,-2.9926926E-1,-8.230603E-2,-8.845641E-2,-5.336319E-1,-2.0984286E-1,3.0159222E-2,1.901068E-2,-3.769053E-1,2.760743E-1,-6.915217E-2,7.4093714E-3,1.20942086E-1,-3.2179856E-1,-7.780632E-2,2.7570525E-1,-1.01859584E-1,2.7245137E-1,-1.903278E-1,-7.175622E-2,4.4811442E-2,-1.2258753E-1,-3.3300072E-1,4.885611E-3,2.452697E-1,-3.8022198E-2,-3.6757618E-1],"split_indices":[29,24,29,8,12,27,3,3,15,14,24,12,12,46,12,0,29,15,33,25,19,25,31,29,27,33,10,39,38,4,17,28,2,14,33,11,12,29,39,10,34,17,22,25,31,17,24,24,12,24,33,12,11,23,17,23,25,15,21,23,19,17,15,0,0,0,0,0,0,0,0,0,0,0,0,0,0,0,0,0,0,0,0,0,0,0,0,0,0,0,0,0,0,0,0,0,0,0,0,0,0,0,0,0,0,0,0,0,0,0,0,0,0,0,0,0,0,0,0,0,0,0,0,0,0,0,0],"split_type":[0,0,0,0,0,0,0,0,0,0,0,0,0,0,0,0,0,0,0,0,0,0,0,0,0,0,0,0,0,0,0,0,0,0,0,0,0,0,0,0,0,0,0,0,0,0,0,0,0,0,0,0,0,0,0,0,0,0,0,0,0,0,0,0,0,0,0,0,0,0,0,0,0,0,0,0,0,0,0,0,0,0,0,0,0,0,0,0,0,0,0,0,0,0,0,0,0,0,0,0,0,0,0,0,0,0,0,0,0,0,0,0,0,0,0,0,0,0,0,0,0,0,0,0,0,0,0],"sum_hessian":[3.053059E4,2.169591E4,8.834681E3,1.5551164E4,6.1447456E3,3.437742E3,5.3969385E3,1.1572325E4,3.9788389E3,3.976201E3,2.1685447E3,2.903804E3,5.339379E2,2.5267734E3,2.870165E3,3.3493972E3,8.222928E3,2.9873281E3,9.915107E2,3.813676E3,1.6252484E2,8.9030756E2,1.278237E3,1.7152758E3,1.1885282E3,4.4619342E2,8.7744484E1,2.4358518E3,9.092145E1,9.8211536E2,1.8880497E3,2.9513435E3,3.980539E2,5.502948E3,2.7199797E3,9.123905E2,2.0749377E3,1.8367628E2,8.078344E2,3.768511E3,4.516519E1,4.9588806E1,1.12936035E2,8.134093E2,7.689822E1,6.9501184E2,5.832253E2,1.3997283E3,3.155475E2,7.585022E2,4.30026E2,3.8517345E1,4.076761E2,5.448508E0,8.229598E1,2.3243577E3,1.11494255E2,7.389388E1,1.7027563E1,4.6842908E2,5.136863E2,1.5927302E3,2.953194E2,6.873311E2,2.2640122E3,3.123165E2,8.5737404E1,5.066311E2,4.996317E3,6.3404047E2,2.0859392E3,5.9036035E2,3.2203015E2,1.0430991E3,1.0318385E3,8.872989E1,9.4946396E1,7.685217E2,3.931266E1,3.6247644E3,1.4374661E2,2.7185455E1,1.7979738E1,1.1171538E1,3.8417267E1,9.826428E1,1.4671748E1,7.379353E2,7.547398E1,6.447395E1,1.2424257E1,5.3705948E1,6.413059E2,2.7942924E1,5.5528235E2,1.3340438E3,6.568448E1,2.6469223E2,5.085526E1,6.4936145E2,1.0914069E2,8.041684E1,3.4960916E2,2.1518478E1,1.6998867E1,4.1044304E1,3.6663177E2,1.9137616E0,3.5347462E0,7.030287E1,1.1993104E1,2.1072776E3,2.1707991E2,2.8770489E1,8.272376E1,6.973284E1,4.161044E0,6.394039E0,1.0633524E1,3.4699957E2,1.2142952E2,2.924891E2,2.2119717E2,1.5121807E3,8.05496E1,2.1737587E2,7.7943535E1],"tree_param":{"num_deleted":"0","num_feature":"49","num_nodes":"127","size_leaf_vector":"1"}},{"base_weights":[5.2274484E-4,5.325455E-2,-1.9632834E-1,-1.3143094E-1,1.245698E-1,-3.077115E-1,2.0350972E-1,2.2478233E-1,-2.1207549E-1,3.4629694E-1,6.3514814E-2,-1.8541381E-1,-6.223457E-1,2.7374044E-1,-1.0074215E0,9.160971E-2,4.5085862E-1,-7.4138033E-1,-1.6042437E-1,4.3261275E-1,-3.4517637E-1,1.06527604E-1,-1.8910566E-1,-4.2838535E-1,-2.3277622E-2,-1.1299303E0,-4.914715E-1,-8.341578E-1,3.061366E-1,3.8067424E-1,-1.0737681E0,1.6784398E-1,-4.0028334E-1,7.5372326E-1,1.0559031E-2,3.0590832E-1,-1.0412048E0,-1.1204248E-1,-5.3648996E-1,2.995924E-1,6.603596E-1,-7.055674E-1,5.1272714E-1,-2.2742555E0,1.1271712E-1,-4.3307728E-1,1.8421867E-1,-5.304354E-1,3.4657758E-2,2.8042853E-1,-2.0045614E-1,-1.1665092E0,-1.5925997E-1,4.2907357E-1,-5.9457785E-1,-1.2886826E0,9.5875156E-1,1.3213526E-1,4.2252102E-1,-1.1090814E0,4.1928023E-2,8.922687E-2,-1.0331204E-1,-6.885643E-1,-7.7865764E-2,2.4358755E-1,-1.1258735E-1,-9.881805E-2,1.8312702E-1,-2.2889876E-1,2.6921162E-1,-4.6576855E-1,-1.8635663E-1,-2.017296E-2,-1.4912699E-1,-1.7107359E-1,5.240557E-1,1.3379967E-1,-1.4684643E-1,2.4508223E-1,6.963313E-2,-2.7215086E-2,-4.0976262E-1,2.3025899E-1,-1.5036498E-2,-7.4125224E-1,1.24013685E-1,2.574317E-3,6.982274E-2,-5.2304965E-2,-3.0805215E-1,1.3354136E-1,-6.2967524E-2,-1.7280504E-2,-1.9353633E-1,1.778185E-1,-7.532759E-2,-1.3849688E-1,1.1065625E-1,4.4508055E-2,-9.510547E-2,-3.58718E-1,-2.004895E-1,1.18706144E-1,-3.0828124E-1,-1.1002556E-1,3.0280778E-1,-1.9831513E-1,1.3496168E-1,-3.9622805E-1,-7.896215E-2,4.8770193E-2,4.089491E-1,6.773532E-2,-9.459611E-2,1.1095093E-1,2.3376887E-1,-3.3637685E-1,-4.718456E-2],"categories":[],"categories_nodes":[],"categories_segments":[],"categories_sizes":[],"default_left":[0,0,0,0,0,0,0,0,0,0,0,0,0,0,0,0,0,0,0,0,0,0,0,0,0,0,0,0,0,0,0,0,0,0,0,0,0,0,0,0,0,0,0,0,0,0,0,0,0,0,0,0,0,0,0,0,0,0,0,0,0,0,0,0,0,0,0,0,0,0,0,0,0,0,0,0,0,0,0,0,0,0,0,0,0,0,0,0,0,0,0,0,0,0,0,0,0,0,0,0,0,0,0,0,0,0,0,0,0,0,0,0,0,0,0,0,0,0,0],"id":5,"left_children":[1,3,5,7,9,11,13,15,17,19,21,23,25,27,29,31,33,35,37,39,41,43,45,47,49,51,53,55,57,-1,59,61,63,65,67,69,71,73,75,77,79,81,83,85,87,89,91,93,95,97,99,101,103,105,107,109,111,113,115,117,-1,-1,-1,-1,-1,-1,-1,-1,-1,-1,-1,-1,-1,-1,-1,-1,-1,-1,-1,-1,-1,-1,-1,-1,-1,-1,-1,-1,-1,-1,-1,-1,-1,-1,-1,-1,-1,-1,-1,-1,-1,-1,-1,-1,-1,-1,-1,-1,-1,-1,-1,-1,-1,-1,-1,-1,-1,-1,-1],"loss_changes":[3.0852316E2,3.0877234E2,2.7972812E2,1.8765887E2,2.2893024E2,1.8888812E2,1.1668395E2,3.6270954E1,1.4548442E2,2.180773E2,1.4412482E2,1.3938531E2,9.0746216E1,4.671862E1,1.2727013E1,2.8576147E1,5.957911E1,1.4891287E2,8.8249695E1,9.815588E1,1.258156E2,1.6726094E2,1.7585715E2,6.693576E1,1.1431207E2,9.790161E0,1.04133484E2,3.1425825E1,2.5430023E1,0E0,3.3115463E0,4.38384E1,2.6687986E1,1.7709976E1,3.754347E1,6.7761765E1,7.810144E1,7.416849E1,4.3617462E1,2.3720009E2,8.002362E1,1.1605112E2,1.7335812E1,1.6573135E1,1.412956E2,1.7916917E2,7.860007E1,6.2891205E1,4.108088E1,5.1532875E1,5.459384E1,3.1398926E0,5.881529E0,5.1546593E1,6.865741E1,6.3858414E-1,2.3754797E0,2.1268274E1,1.3875107E1,6.543579E-1,0E0,0E0,0E0,0E0,0E0,0E0,0E0,0E0,0E0,0E0,0E0,0E0,0E0,0E0,0E0,0E0,0E0,0E0,0E0,0E0,0E0,0E0,0E0,0E0,0E0,0E0,0E0,0E0,0E0,0E0,0E0,0E0,0E0,0E0,0E0,0E0,0E0,0E0,0E0,0E0,0E0,0E0,0E0,0E0,0E0,0E0,0E0,0E0,0E0,0E0,0E0,0E0,0E0,0E0,0E0,0E0,0E0,0E0,0E0],"parents":[2147483647,0,0,1,1,2,2,3,3,4,4,5,5,6,6,7,7,8,8,9,9,10,10,11,11,12,12,13,13,14,14,15,15,16,16,17,17,18,18,19,19,20,20,21,21,22,22,23,23,24,24,25,25,26,26,27,27,28,28,30,30,31,31,32,32,33,33,34,34,35,35,36,36,37,37,38,38,39,39,40,40,41,41,42,42,43,43,44,44,45,45,46,46,47,47,48,48,49,49,50,50,51,51,52,52,53,53,54,54,55,55,56,56,57,57,58,58,59,59],"right_children":[2,4,6,8,10,12,14,16,18,20,22,24,26,28,30,32,34,36,38,40,42,44,46,48,50,52,54,56,58,-1,60,62,64,66,68,70,72,74,76,78,80,82,84,86,88,90,92,94,96,98,100,102,104,106,108,110,112,114,116,118,-1,-1,-1,-1,-1,-1,-1,-1,-1,-1,-1,-1,-1,-1,-1,-1,-1,-1,-1,-1,-1,-1,-1,-1,-1,-1,-1,-1,-1,-1,-1,-1,-1,-1,-1,-1,-1,-1,-1,-1,-1,-1,-1,-1,-1,-1,-1,-1,-1,-1,-1,-1,-1,-1,-1,-1,-1,-1,-1],"split_conditions":[8.55E2,1E0,3.42E1,1.83E2,5.4E-1,2.981E1,2.135E3,1.3632E2,2.75E2,2.3993E2,7.6E1,4.05671E3,2.248E1,1.83E2,9E0,8.82E1,2.25E2,2.2E1,5.8E1,1.5855E2,2E0,4.97E0,4.22E2,8.6088E2,3.566446E4,4.71E2,5E0,9.08E2,2.7E1,3.8067424E-1,2.169E3,2.37E2,8.907E1,1.0109E4,3.05E2,6.3328E2,5.688E1,2E1,6.6334E3,1.2726E2,1.83E2,2.121E2,6.07E2,1.0017E2,2E1,3.14E2,2.75E2,8E0,2.75E2,4.21E0,5E0,4.2E1,6.889E3,3.01008E3,6.944E1,1.0093E4,2E0,2.66E2,9.864E3,8.18E2,4.1928023E-2,8.922687E-2,-1.0331204E-1,-6.885643E-1,-7.7865764E-2,2.4358755E-1,-1.1258735E-1,-9.881805E-2,1.8312702E-1,-2.2889876E-1,2.6921162E-1,-4.6576855E-1,-1.8635663E-1,-2.017296E-2,-1.4912699E-1,-1.7107359E-1,5.240557E-1,1.3379967E-1,-1.4684643E-1,2.4508223E-1,6.963313E-2,-2.7215086E-2,-4.0976262E-1,2.3025899E-1,-1.5036498E-2,-7.4125224E-1,1.24013685E-1,2.574317E-3,6.982274E-2,-5.2304965E-2,-3.0805215E-1,1.3354136E-1,-6.2967524E-2,-1.7280504E-2,-1.9353633E-1,1.778185E-1,-7.532759E-2,-1.3849688E-1,1.1065625E-1,4.4508055E-2,-9.510547E-2,-3.58718E-1,-2.004895E-1,1.18706144E-1,-3.0828124E-1,-1.1002556E-1,3.0280778E-1,-1.9831513E-1,1.3496168E-1,-3.9622805E-1,-7.896215E-2,4.8770193E-2,4.089491E-1,6.773532E-2,-9.459611E-2,1.1095093E-1,2.3376887E-1,-3.3637685E-1,-4.718456E-2],"split_indices":[27,19,12,29,3,12,29,2,29,0,40,24,11,29,14,0,2,14,17,0,39,12,33,0,23,36,17,10,35,0,29,38,0,16,33,23,25,31,23,2,29,10,29,25,37,33,29,17,29,12,31,38,16,24,25,16,37,33,16,33,0,0,0,0,0,0,0,0,0,0,0,0,0,0,0,0,0,0,0,0,0,0,0,0,0,0,0,0,0,0,0,0,0,0,0,0,0,0,0,0,0,0,0,0,0,0,0,0,0,0,0,0,0,0,0,0,0,0,0],"split_type":[0,0,0,0,0,0,0,0,0,0,0,0,0,0,0,0,0,0,0,0,0,0,0,0,0,0,0,0,0,0,0,0,0,0,0,0,0,0,0,0,0,0,0,0,0,0,0,0,0,0,0,0,0,0,0,0,0,0,0,0,0,0,0,0,0,0,0,0,0,0,0,0,0,0,0,0,0,0,0,0,0,0,0,0,0,0,0,0,0,0,0,0,0,0,0,0,0,0,0,0,0,0,0,0,0,0,0,0,0,0,0,0,0,0,0,0,0,0,0],"sum_hessian":[2.9719943E4,2.3441297E4,6.278646E3,6.52991E3,1.6911387E4,4.910856E3,1.3677903E3,1.2051002E3,5.32481E3,3.6502986E3,1.3261088E4,3.5374463E3,1.3734095E3,1.2935422E3,7.4248E1,7.5925714E2,4.4584314E2,4.7222626E2,4.8525835E3,3.2455366E3,4.047621E2,1.1332177E4,1.9289111E3,1.4151342E3,2.122312E3,2.7996292E2,1.0934467E3,3.604687E1,1.2574955E3,1.5894339E0,7.265856E1,6.579465E2,1.0131068E2,2.637252E2,1.8211795E2,1.0509801E2,3.6712827E2,4.3005977E3,5.519859E2,2.0503198E3,1.1952167E3,2.85152E2,1.1961006E2,2.8434618E1,1.1303742E4,1.1664579E3,7.624533E2,1.1594562E3,2.5567798E2,7.81736E2,1.340576E3,2.6960144E2,1.0361461E1,1.09817955E2,9.8362866E2,2.8981049E1,7.0658216E0,5.0485052E2,7.526449E2,7.0687645E1,1.9709172E0,5.2544147E2,1.3250496E2,5.9455123E0,9.5365166E1,2.5105638E2,1.2668803E1,1.16529655E2,6.5588295E1,3.7335175E1,6.776283E1,1.6434578E2,2.0278247E2,3.853435E3,4.471626E2,5.4468396E2,7.3019586E0,1.7298055E3,3.2051437E2,8.745475E2,3.2066922E2,1.4824759E2,1.3690442E2,8.208595E1,3.7524117E1,2.6571712E1,1.8629049E0,6.0530674E3,5.250675E3,8.133437E2,3.5311414E2,4.5866595E2,3.0378735E2,2.266228E2,9.328334E2,8.621851E1,1.6945946E2,8.2783134E1,6.989529E2,3.3570218E2,1.0048739E3,2.5334407E2,1.6257385E1,6.6535726E0,3.7078888E0,4.646378E1,6.335418E1,9.25118E2,5.8510708E1,2.7822784E1,1.1582627E0,2.852318E0,4.2135034E0,4.1788556E2,8.696496E1,6.57562E2,9.5082855E1,6.961909E1,1.0685576E0],"tree_param":{"num_deleted":"0","num_feature":"49","num_nodes":"119","size_leaf_vector":"1"}},{"base_weights":[3.6593078E-4,5.0140332E-2,-1.2432329E-1,1.34804E-1,-4.92637E-2,-1.7554937E-1,6.7436635E-2,2.175818E-1,-2.1403497E-2,-7.081788E-2,5.1538223E-1,-1.11435555E-1,-3.4015408E-1,-3.6906037E-1,1.6727167E-1,-2.0278272E-1,2.6905102E-1,-1.8052322E0,3.245403E-2,-1.636616E-2,-2.511789E-1,7.7427137E-1,3.2860693E-1,-2.8396112E-1,-6.7762895E-3,3.7792794E-2,-5.3001684E-1,-4.9916705E-1,1.1804171E0,2.0589967E-1,-5.929653E-1,-3.3281946E-1,9.9715585E-1,3.4036106E-1,6.857877E-2,-1.1417058E-1,-1.9974045E0,-9.0863094E-2,2.6540327E-1,-1.9036777E-1,6.46667E-2,-4.4836077E-1,-1.1725231E-1,8.334976E-1,2.2192135E-2,5.565294E-1,-1.9234274E-2,-1.2813328E-1,-5.7739705E-1,1.351455E-1,-1.7252284E-1,1.6191737E-1,-4.712112E-1,-1.019184E0,-4.2217505E-1,-3.711084E-1,-1.48184E0,1.3419838E0,1.05543494E-1,7.5928695E-2,4.392513E-1,9.780695E-1,-1.0151143E0,1.2024022E-3,-1.9912018E-1,3.9017728E-1,-2.555821E-1,5.4499052E-2,1.3934402E-1,7.289673E-2,-4.155337E-2,2.4451636E-1,-4.2828456E-1,1.3295259E-1,-6.442894E-1,9.044614E-4,-7.283573E-2,1.7570092E-1,5.0593983E-2,-5.2432653E-2,-3.5943294E-1,2.9864583E-2,-1.5361562E-1,-9.104542E-2,-2.1547067E-1,-1.1092102E-3,-7.923048E-2,3.0562118E-1,1.6798654E-1,-2.9812995E-1,9.281193E-2,2.8028613E-2,2.1094586E-1,-1.4584547E-1,1.07003085E-1,7.29219E-2,-6.919759E-2,-4.7147757E-1,-1.487318E-1,1.94344E-1,2.577938E-2,-3.0049476E-1,-3.448735E-2,3.949675E-3,1.6959374E-1,-1.6037884E-1,6.1207175E-1,-3.3163437E-1,-1.6009648E-1,4.816956E-2,-1.619708E-1,1.1570767E-1,-1.6330823E-1,1.8046552E-1,-5.184038E-1,2.718541E-2,4.2666462E-1,2.9803535E-1,-3.022759E-1,-1.8218122E-1,4.7139525E-2,-1.20454706E-1,1.6693388E-1,-1.3674927E-2,3.2490894E-1,-3.1886274E-1,2.9238975E-2],"categories":[],"categories_nodes":[],"categories_segments":[],"categories_sizes":[],"default_left":[0,0,0,0,0,0,0,1,0,0,0,0,0,0,0,0,0,0,0,0,0,0,0,0,0,0,0,0,0,0,0,0,0,0,0,0,0,0,0,0,0,0,0,0,0,0,0,0,0,0,0,0,0,0,0,0,0,0,0,0,0,0,0,0,0,0,0,0,0,0,0,0,0,0,0,0,0,0,0,0,0,0,0,0,0,0,0,0,0,0,0,0,0,0,0,0,0,0,0,0,0,0,0,0,0,0,0,0,0,0,0,0,0,0,0,0,0,0,0,0,0,0,0,0,0,0,0],"id":6,"left_children":[1,3,5,7,9,11,13,15,17,19,21,23,25,27,29,31,33,35,37,39,41,43,45,47,49,51,53,55,57,59,61,63,65,67,69,71,73,75,77,79,81,83,85,87,89,91,93,95,97,99,101,103,105,107,109,111,113,115,117,119,121,123,125,-1,-1,-1,-1,-1,-1,-1,-1,-1,-1,-1,-1,-1,-1,-1,-1,-1,-1,-1,-1,-1,-1,-1,-1,-1,-1,-1,-1,-1,-1,-1,-1,-1,-1,-1,-1,-1,-1,-1,-1,-1,-1,-1,-1,-1,-1,-1,-1,-1,-1,-1,-1,-1,-1,-1,-1,-1,-1,-1,-1,-1,-1,-1,-1],"loss_changes":[1.8050201E2,1.7493977E2,8.151929E1,1.4515685E2,1.1640396E2,6.907149E1,7.6322586E1,1.5880588E2,3.7369717E2,9.04545E1,1.6751167E1,8.512215E1,1.3170886E2,6.632279E1,4.196733E1,1.2531081E2,9.343417E1,3.68183E1,1.0849962E2,9.9781555E1,5.63508E1,6.513855E0,1.634537E1,8.131802E1,6.90712E1,3.8905136E1,6.401251E1,3.7391815E1,4.2963867E0,4.1116222E1,4.6859486E1,8.0633385E1,4.5188354E1,9.4894775E1,6.203301E1,1.6655622E1,3.846048E1,3.5225716E1,4.041221E1,3.51213E1,9.718425E1,3.3545624E1,2.123186E1,6.3167496E0,3.7307749E0,8.388535E0,1.4658675E1,4.435179E1,4.9300095E1,3.985595E1,6.453108E1,2.9685364E1,2.0311571E1,8.622757E0,6.8872635E1,3.5360054E1,1.8696419E1,2.0930061E0,5.374157E0,4.8506912E1,4.8026894E1,1.6778564E0,3.026287E0,0E0,0E0,0E0,0E0,0E0,0E0,0E0,0E0,0E0,0E0,0E0,0E0,0E0,0E0,0E0,0E0,0E0,0E0,0E0,0E0,0E0,0E0,0E0,0E0,0E0,0E0,0E0,0E0,0E0,0E0,0E0,0E0,0E0,0E0,0E0,0E0,0E0,0E0,0E0,0E0,0E0,0E0,0E0,0E0,0E0,0E0,0E0,0E0,0E0,0E0,0E0,0E0,0E0,0E0,0E0,0E0,0E0,0E0,0E0,0E0,0E0,0E0,0E0,0E0],"parents":[2147483647,0,0,1,1,2,2,3,3,4,4,5,5,6,6,7,7,8,8,9,9,10,10,11,11,12,12,13,13,14,14,15,15,16,16,17,17,18,18,19,19,20,20,21,21,22,22,23,23,24,24,25,25,26,26,27,27,28,28,29,29,30,30,31,31,32,32,33,33,34,34,35,35,36,36,37,37,38,38,39,39,40,40,41,41,42,42,43,43,44,44,45,45,46,46,47,47,48,48,49,49,50,50,51,51,52,52,53,53,54,54,55,55,56,56,57,57,58,58,59,59,60,60,61,61,62,62],"right_children":[2,4,6,8,10,12,14,16,18,20,22,24,26,28,30,32,34,36,38,40,42,44,46,48,50,52,54,56,58,60,62,64,66,68,70,72,74,76,78,80,82,84,86,88,90,92,94,96,98,100,102,104,106,108,110,112,114,116,118,120,122,124,126,-1,-1,-1,-1,-1,-1,-1,-1,-1,-1,-1,-1,-1,-1,-1,-1,-1,-1,-1,-1,-1,-1,-1,-1,-1,-1,-1,-1,-1,-1,-1,-1,-1,-1,-1,-1,-1,-1,-1,-1,-1,-1,-1,-1,-1,-1,-1,-1,-1,-1,-1,-1,-1,-1,-1,-1,-1,-1,-1,-1,-1,-1,-1,-1],"split_conditions":[2.88888E3,1E0,3.42E1,6.07E2,2E0,2.981E1,1.4555E3,5E0,6.28E2,1.6E1,3.5E1,3.6E1,1.20976E3,1.3612E2,2.135E3,5.5E1,9.607E3,5E0,2E0,1.1E1,4.54E2,5.7E1,2.75E2,1E0,5.5E1,2.86E2,2.248E1,2E1,2.1E2,5.29E2,5.05E0,1.6306E2,1.1E1,1.3348E2,1.6E1,2.5358E2,6.69E0,1.6305E2,2.074E3,8.4E2,2.7E2,1.488E1,7.48E0,1E0,5.436E1,1.82E2,6.36E2,5E0,2.4E1,2E0,2E0,2.2E2,1.0109E4,9E0,1E1,1E0,9.4064E2,2E0,3.18076E3,2.1087E3,3E0,2.928E1,1.85438E3,1.2024022E-3,-1.9912018E-1,3.9017728E-1,-2.555821E-1,5.4499052E-2,1.3934402E-1,7.289673E-2,-4.155337E-2,2.4451636E-1,-4.2828456E-1,1.3295259E-1,-6.442894E-1,9.044614E-4,-7.283573E-2,1.7570092E-1,5.0593983E-2,-5.2432653E-2,-3.5943294E-1,2.9864583E-2,-1.5361562E-1,-9.104542E-2,-2.1547067E-1,-1.1092102E-3,-7.923048E-2,3.0562118E-1,1.6798654E-1,-2.9812995E-1,9.281193E-2,2.8028613E-2,2.1094586E-1,-1.4584547E-1,1.07003085E-1,7.29219E-2,-6.919759E-2,-4.7147757E-1,-1.487318E-1,1.94344E-1,2.577938E-2,-3.0049476E-1,-3.448735E-2,3.949675E-3,1.6959374E-1,-1.6037884E-1,6.1207175E-1,-3.3163437E-1,-1.6009648E-1,4.816956E-2,-1.619708E-1,1.1570767E-1,-1.6330823E-1,1.8046552E-1,-5.184038E-1,2.718541E-2,4.2666462E-1,2.9803535E-1,-3.022759E-1,-1.8218122E-1,4.7139525E-2,-1.20454706E-1,1.6693388E-1,-1.3674927E-2,3.2490894E-1,-3.1886274E-1,2.9238975E-2],"split_indices":[23,8,12,29,48,12,24,27,29,31,42,17,24,25,29,41,16,14,19,31,23,17,29,20,17,29,11,31,11,29,15,2,47,0,31,0,24,10,29,33,41,24,12,28,24,39,29,31,17,31,31,35,16,38,17,20,24,34,23,24,34,0,0,0,0,0,0,0,0,0,0,0,0,0,0,0,0,0,0,0,0,0,0,0,0,0,0,0,0,0,0,0,0,0,0,0,0,0,0,0,0,0,0,0,0,0,0,0,0,0,0,0,0,0,0,0,0,0,0,0,0,0,0,0,0,0,0],"split_type":[0,0,0,0,0,0,0,0,0,0,0,0,0,0,0,0,0,0,0,0,0,0,0,0,0,0,0,0,0,0,0,0,0,0,0,0,0,0,0,0,0,0,0,0,0,0,0,0,0,0,0,0,0,0,0,0,0,0,0,0,0,0,0,0,0,0,0,0,0,0,0,0,0,0,0,0,0,0,0,0,0,0,0,0,0,0,0,0,0,0,0,0,0,0,0,0,0,0,0,0,0,0,0,0,0,0,0,0,0,0,0,0,0,0,0,0,0,0,0,0,0,0,0,0,0,0,0],"sum_hessian":[2.9081525E4,2.0785006E4,8.29652E3,1.1224555E4,9.56045E3,6.547522E3,1.7489977E3,7.336427E3,3.8881277E3,9.209762E3,3.5068887E2,4.7133438E3,1.8341783E3,3.250636E2,1.4239341E3,7.999615E2,6.5364653E3,1.1299729E2,3.7751304E3,7.0749087E3,2.1348528E3,1.4565338E2,2.0503548E2,1.7790145E3,2.9343293E3,6.1357574E2,1.2206025E3,3.0050833E2,2.4555265E1,1.3557756E3,6.8158455E1,7.223982E2,7.75633E1,4.8209175E3,1.7155479E3,1.169334E1,1.0130395E2,2.4688154E3,1.3063151E3,2.247503E3,4.827406E3,8.625546E2,1.2722982E3,1.3492017E2,1.0733218E1,1.2350745E2,8.152804E1,1.1628989E3,6.161156E2,1.5808762E3,1.3534531E3,4.9383273E2,1.1974306E2,2.1895927E2,1.00164325E3,2.670809E2,3.342743E1,2.1130577E1,3.4246886E0,8.7162683E2,4.841488E2,1.4156798E1,5.400165E1,3.5849014E2,3.6390805E2,6.6884285E1,1.0679016E1,2.1168252E3,2.7040923E3,9.3115765E2,7.8439026E2,7.070566E0,4.6227736E0,5.760988E0,9.554296E1,1.5265132E3,9.423021E2,3.0191565E2,1.0043995E3,2.214414E3,3.308906E1,4.552861E3,2.7454504E2,5.626392E2,2.999154E2,7.18063E2,5.542353E2,7.881999E1,5.610017E1,1.823128E0,8.9100895E0,3.0094164E1,9.3413284E1,3.6231644E1,4.5296394E1,2.5137874E2,9.115202E2,4.536086E1,5.707547E2,1.3740074E2,1.4434755E3,8.6802986E1,1.26665E3,3.6154556E2,1.3228716E2,1.1756309E2,2.1799664E0,1.8484169E2,3.411759E1,1.6828496E2,8.333583E2,4.9524E1,2.1755688E2,3.379833E0,3.0047598E1,1.4014676E0,1.972911E1,1.9648813E0,1.4598072E0,9.190538E1,7.7972144E2,5.8932903E1,4.252159E2,1.369183E0,1.2787616E1,5.182169E1,2.1799622E0],"tree_param":{"num_deleted":"0","num_feature":"49","num_nodes":"127","size_leaf_vector":"1"}},{"base_weights":[1.7865218E-4,6.856943E-2,-6.060805E-2,-6.171136E-3,1.9116092E-1,-2.3859522E-1,1.1168722E-3,2.9467797E-2,-6.693486E-1,6.636401E-1,1.0748328E-1,-7.435698E-1,-9.617091E-2,2.4722151E-1,-8.2227305E-2,-3.0877233E-2,2.4959525E-1,-9.0273464E-1,1.4980781E-1,7.837777E-1,-8.136794E-1,-4.9795064E-1,1.6232854E-1,-8.9402395E-1,3.8856173E-1,1.15030006E-1,-1.94968E-1,6.721696E-1,9.649258E-2,-4.8548818E-2,-3.300556E-1,-3.4389645E-1,4.6028882E-2,4.3275774E-1,-2.7939898E-1,-1.9197272E-1,-1.3340077E0,-5.0958663E-1,5.377547E-1,8.8367057E-1,-1.0635415E-1,-1.2665673E0,3.7947074E-1,-1.049866E0,-8.73757E-2,5.508735E-1,9.377673E-2,-1.1921885E0,-6.739038E-2,7.827501E-1,-6.7806274E-1,-4.3989117E-3,3.8372076E-1,-4.4716483E-1,-4.897789E-2,7.9883194E-1,-4.9415115E-1,-7.461972E-1,1.27368E-1,-1.503754E-1,4.8190933E-2,-1.12904534E-1,-5.813703E-1,-2.9414505E-1,-2.408732E-2,7.586157E-2,-2.6360882E-2,1.7816684E-1,7.3530614E-2,-2.3287553E-1,1.0019073E-1,9.831881E-2,-1.2716655E-1,-2.7434272E-1,-4.9599853E-1,-2.546206E-1,1.7068082E-1,2.2984043E-1,-1.442402E-1,2.067766E-1,3.094778E-1,-1.1156583E-1,1.3712047E-1,9.1447204E-2,-4.7926947E-1,-2.3135437E-1,2.724322E-1,-3.314285E-1,-7.2658174E-3,-1.1324713E-1,4.9409074E-1,2.8094357E-1,1.2477456E-2,-1.0146308E-2,8.579676E-2,-1.7922778E-1,-4.5348692E-1,-2.8250107E-1,5.9208654E-2,1.07436344E-1,5.623591E-1,2.9470178E-1,-3.292237E-1,2.5153488E-1,-2.1350112E-2,1.6428322E-1,-1.404362E-1,-1.4987619E-1,1.0052843E-1,1.5207253E-1,-3.269409E-2,1.3978201E-1,3.145616E-1,-6.374399E-2,-4.4633588E-1,-1.3614605E-1,-4.275873E-1,5.169704E-2,-8.837087E-2,5.3923316E-2,-5.640593E-2,7.151168E-2,-6.9943704E-3,-2.1897557E-1,-7.2225556E-3,-2.3787093E-1,-8.707258E-2],"categories":[],"categories_nodes":[],"categories_segments":[],"categories_sizes":[],"default_left":[0,0,0,0,0,0,0,0,0,0,0,0,0,0,0,0,1,0,0,0,0,0,0,0,0,0,0,0,0,0,0,0,0,0,0,0,0,0,0,0,0,0,0,0,0,0,0,0,0,0,0,0,0,0,0,0,0,0,0,0,0,0,0,0,0,0,0,0,0,0,0,0,0,0,0,0,0,0,0,0,0,0,0,0,0,0,0,0,0,0,0,0,0,0,0,0,0,0,0,0,0,0,0,0,0,0,0,0,0,0,0,0,0,0,0,0,0,0,0,0,0,0,0,0,0,0,0],"id":7,"left_children":[1,3,5,7,9,11,13,15,17,19,21,23,25,27,29,31,33,35,37,39,41,43,45,47,49,51,53,55,57,59,61,63,65,67,69,71,73,75,77,79,81,83,85,87,89,91,93,95,97,99,101,103,105,107,109,111,113,115,117,119,121,123,125,-1,-1,-1,-1,-1,-1,-1,-1,-1,-1,-1,-1,-1,-1,-1,-1,-1,-1,-1,-1,-1,-1,-1,-1,-1,-1,-1,-1,-1,-1,-1,-1,-1,-1,-1,-1,-1,-1,-1,-1,-1,-1,-1,-1,-1,-1,-1,-1,-1,-1,-1,-1,-1,-1,-1,-1,-1,-1,-1,-1,-1,-1,-1,-1],"loss_changes":[1.18552086E2,1.2295486E2,1.6586845E2,1.97077E2,2.0087418E2,2.7952948E2,2.2997713E2,1.0512471E2,8.143407E1,1.3632596E2,1.434968E2,1.4600153E2,6.3319992E1,1.8161603E2,6.989174E1,1.4954823E2,1.6509814E2,1.0123624E2,2.4614447E1,6.3006256E1,3.1814548E1,8.1259766E1,1.0545351E2,1.8603217E2,4.299882E1,3.1045631E1,7.608516E1,1.10083435E2,5.460256E1,7.265449E1,5.4609604E1,2.0552773E2,1.3815169E2,3.8109573E1,1.3390297E2,1.5349743E1,2.6070923E1,1.3562493E1,1.4416645E1,1.7586456E1,1.09838705E1,2.246904E1,1.08730345E1,8.590607E0,1.0475199E2,1.1658168E2,8.2618546E1,1.0451703E2,4.6762917E1,3.373465E1,2.0428923E1,3.780482E1,4.1817375E1,3.1241318E1,4.3761284E1,5.521756E1,2.0214102E1,1.4083782E1,3.8400497E1,4.4687073E1,5.144578E1,2.9508396E1,2.8354431E1,0E0,0E0,0E0,0E0,0E0,0E0,0E0,0E0,0E0,0E0,0E0,0E0,0E0,0E0,0E0,0E0,0E0,0E0,0E0,0E0,0E0,0E0,0E0,0E0,0E0,0E0,0E0,0E0,0E0,0E0,0E0,0E0,0E0,0E0,0E0,0E0,0E0,0E0,0E0,0E0,0E0,0E0,0E0,0E0,0E0,0E0,0E0,0E0,0E0,0E0,0E0,0E0,0E0,0E0,0E0,0E0,0E0,0E0,0E0,0E0,0E0,0E0,0E0,0E0],"parents":[2147483647,0,0,1,1,2,2,3,3,4,4,5,5,6,6,7,7,8,8,9,9,10,10,11,11,12,12,13,13,14,14,15,15,16,16,17,17,18,18,19,19,20,20,21,21,22,22,23,23,24,24,25,25,26,26,27,27,28,28,29,29,30,30,31,31,32,32,33,33,34,34,35,35,36,36,37,37,38,38,39,39,40,40,41,41,42,42,43,43,44,44,45,45,46,46,47,47,48,48,49,49,50,50,51,51,52,52,53,53,54,54,55,55,56,56,57,57,58,58,59,59,60,60,61,61,62,62],"right_children":[2,4,6,8,10,12,14,16,18,20,22,24,26,28,30,32,34,36,38,40,42,44,46,48,50,52,54,56,58,60,62,64,66,68,70,72,74,76,78,80,82,84,86,88,90,92,94,96,98,100,102,104,106,108,110,112,114,116,118,120,122,124,126,-1,-1,-1,-1,-1,-1,-1,-1,-1,-1,-1,-1,-1,-1,-1,-1,-1,-1,-1,-1,-1,-1,-1,-1,-1,-1,-1,-1,-1,-1,-1,-1,-1,-1,-1,-1,-1,-1,-1,-1,-1,-1,-1,-1,-1,-1,-1,-1,-1,-1,-1,-1,-1,-1,-1,-1,-1,-1,-1,-1,-1,-1,-1,-1],"split_conditions":[2.75E2,1.4E2,5.6E1,1.3E2,1.5E2,2.86E2,9.7E1,1.83E2,1.24E2,2.2E1,5E0,2.2E1,2.126E3,5.29E2,2.68E2,5E0,2.9E1,9E0,1E0,1.83E2,1.1E1,2.8196E2,8E0,5.2E1,4.892E1,5.49E1,2.169E3,1.22E2,6.36E2,2.7E1,2.5517E2,1.25E1,6.4E1,3.37E0,2E0,1.65E1,1.414E1,1.4782E2,1.875E1,2E0,4.268E1,8.02E0,1.6645E2,1.995E2,3.02E2,1.95E2,1.46E2,1.197E1,7E0,2E0,5E0,6.07E2,4.24984E4,6.74E2,6.05E0,1.14E2,4E0,1.83E1,2.97E2,9.86E0,6.07E2,2.8E2,2.33E2,-2.9414505E-1,-2.408732E-2,7.586157E-2,-2.6360882E-2,1.7816684E-1,7.3530614E-2,-2.3287553E-1,1.0019073E-1,9.831881E-2,-1.2716655E-1,-2.7434272E-1,-4.9599853E-1,-2.546206E-1,1.7068082E-1,2.2984043E-1,-1.442402E-1,2.067766E-1,3.094778E-1,-1.1156583E-1,1.3712047E-1,9.1447204E-2,-4.7926947E-1,-2.3135437E-1,2.724322E-1,-3.314285E-1,-7.2658174E-3,-1.1324713E-1,4.9409074E-1,2.8094357E-1,1.2477456E-2,-1.0146308E-2,8.579676E-2,-1.7922778E-1,-4.5348692E-1,-2.8250107E-1,5.9208654E-2,1.07436344E-1,5.623591E-1,2.9470178E-1,-3.292237E-1,2.5153488E-1,-2.1350112E-2,1.6428322E-1,-1.404362E-1,-1.4987619E-1,1.0052843E-1,1.5207253E-1,-3.269409E-2,1.3978201E-1,3.145616E-1,-6.374399E-2,-4.4633588E-1,-1.3614605E-1,-4.275873E-1,5.169704E-2,-8.837087E-2,5.3923316E-2,-5.640593E-2,7.151168E-2,-6.9943704E-3,-2.1897557E-1,-7.2225556E-3,-2.3787093E-1,-8.707258E-2],"split_indices":[29,2,33,2,2,29,33,29,35,31,27,15,29,29,39,35,27,35,28,29,15,10,33,34,3,3,29,2,29,37,24,10,35,3,19,24,15,0,4,34,25,15,23,11,34,10,35,11,36,39,36,29,23,35,10,2,8,4,10,24,29,39,37,0,0,0,0,0,0,0,0,0,0,0,0,0,0,0,0,0,0,0,0,0,0,0,0,0,0,0,0,0,0,0,0,0,0,0,0,0,0,0,0,0,0,0,0,0,0,0,0,0,0,0,0,0,0,0,0,0,0,0,0,0,0,0,0],"split_type":[0,0,0,0,0,0,0,0,0,0,0,0,0,0,0,0,0,0,0,0,0,0,0,0,0,0,0,0,0,0,0,0,0,0,0,0,0,0,0,0,0,0,0,0,0,0,0,0,0,0,0,0,0,0,0,0,0,0,0,0,0,0,0,0,0,0,0,0,0,0,0,0,0,0,0,0,0,0,0,0,0,0,0,0,0,0,0,0,0,0,0,0,0,0,0,0,0,0,0,0,0,0,0,0,0,0,0,0,0,0,0,0,0,0,0,0,0,0,0,0,0,0,0,0,0,0,0],"sum_hessian":[2.8514953E4,1.34181455E4,1.5096808E4,8.336541E3,5.081604E3,3.8866309E3,1.1210177E4,7.912293E3,4.2424838E2,7.635196E2,4.3180845E3,8.541095E2,3.0325212E3,2.8354602E3,8.374716E3,6.210599E3,1.7016938E3,3.3009805E2,9.415035E1,7.0653284E2,5.6986755E1,3.5800513E2,3.960079E3,7.541035E2,1.0000598E2,9.6641925E2,2.066102E3,7.4149994E2,2.0939604E3,7.373847E3,1.00086896E3,1.2242499E3,4.986349E3,1.2641635E3,4.3753043E2,1.25202515E2,2.0489554E2,3.4758198E1,5.9392155E1,6.352507E2,7.128218E1,4.126292E1,1.5723837E1,1.5205208E2,2.0595306E2,5.928466E2,3.3672324E3,5.538787E2,2.002248E2,7.321451E1,2.6791471E1,6.697218E2,2.9669745E2,7.567533E2,1.3093488E3,6.691458E2,7.235412E1,7.319039E1,2.0207699E3,3.5922026E3,3.7816445E3,5.37707E2,4.63162E2,3.5770352E2,8.665464E2,1.959097E3,3.0272522E3,6.7898444E2,5.8517896E2,2.4157744E2,1.9595297E2,3.8504436E1,8.6698074E1,9.022255E1,1.1467298E2,2.6605103E1,8.153094E0,4.8716732E1,1.0675424E1,2.7693384E2,3.5831683E2,4.868002E1,2.260216E1,7.1931114E0,3.406981E1,4.8053985E0,1.0918438E1,1.4425404E2,7.798032E0,1.7710924E2,2.8843824E1,3.3691278E2,2.559338E2,2.0242708E3,1.3429618E3,1.9453662E2,3.593421E2,4.5945232E1,1.5427957E2,5.3668926E1,1.9545586E1,5.1313834E0,2.1660088E1,4.8310894E1,6.2141095E2,2.4912433E2,4.7573112E1,7.0956384E2,4.718944E1,1.2683649E2,1.1825122E3,2.8802988E2,3.8111594E2,5.731933E1,1.5034786E1,5.2328953E1,2.0861437E1,1.8267318E3,1.940381E2,3.6731183E2,3.2248909E3,1.0326906E3,2.7489539E3,6.676137E1,4.709456E2,2.6725323E2,1.9590875E2],"tree_param":{"num_deleted":"0","num_feature":"49","num_nodes":"127","size_leaf_vector":"1"}},{"base_weights":[3.9877053E-4,1.4508586E-2,-2.5320008E-1,-8.0597736E-2,4.935652E-2,-3.5993367E-1,2.11619E-1,2.5122616E-2,-1.7773506E-1,-5.6850456E-2,9.386951E-2,-5.075589E-1,-3.510912E-2,-3.1843004E-1,2.6280394E-1,-1.0575744E-1,3.3909926E-1,-9.453126E-2,-4.1821605E-1,1.8519351E-1,-1.0454296E-1,1.2469108E-1,-1.1266773E-1,-4.715793E-1,-6.258495E-1,-1.027644E0,7.043905E-2,1.9566333E-1,9.7132933E-1,7.22595E-2,-2.803967E-1,8.8864684E-1,2.4914028E-1,-1.9005485E-2,-4.348032E-1,-2.8086054E-1,-8.8945395E-1,1.3044055E-1,6.859863E-1,-2.2040682E-1,3.206291E-2,2.0131397E-1,1.6772153E-2,-1.5588838E-1,2.3539346E-1,-6.99119E-1,-3.2849118E-1,-1.1136206E0,1.4627601E-1,9.0666005E-4,9.00289E-1,2.777999E-1,-4.4088116E-1,1.617431E0,6.5315485E-2,6.5347753E-3,3.459794E-1,-2.2678038E-2,-1.7052929E-1,3.0551717E-1,4.381871E-2,1.2267408E-1,-7.218891E-2,-3.7740953E-2,1.1240654E-1,-1.6619146E-1,3.5982293E-1,1.4920735E-1,-1.15011305E-1,-3.2834378E-1,-2.1277795E-2,1.5080133E-1,1.1846129E-2,2.3488697E-1,-2.7992007E-1,-1.17240846E-1,-2.2074366E-2,6.0721687E-3,5.9891766E-1,1.1802462E-2,7.6392196E-2,-2.9603701E-2,6.360964E-2,-3.2355007E-2,-1.894866E-1,1.8015E-1,-1.4137384E-1,-8.49521E-2,-2.682123E-1,-1.94754E-1,-5.6003217E-2,4.1920725E-2,-3.636688E-1,7.030701E-2,-7.607035E-2,-6.9842346E-2,4.3439975E-1,1.3194324E-1,-1.5490918E-2,-2.4792606E-2,-4.420485E-1,2.196633E-1,5.300584E-1,3.8408014E-1,-1.7659897E-1],"categories":[],"categories_nodes":[],"categories_segments":[],"categories_sizes":[],"default_left":[0,1,0,0,0,0,0,0,0,0,0,0,0,0,0,0,0,0,0,0,0,0,0,0,0,0,0,0,0,0,0,0,0,0,0,0,0,0,0,0,0,0,0,0,0,0,0,0,0,0,0,0,0,0,0,0,0,0,0,0,0,0,0,0,0,0,0,0,0,0,0,0,0,0,0,0,0,0,0,0,0,0,0,0,0,0,0,0,0,0,0,0,0,0,0,0,0,0,0,0,0,0,0,0,0],"id":8,"left_children":[1,3,5,7,9,11,13,15,17,19,21,23,25,-1,27,29,31,33,35,37,39,41,43,45,-1,47,49,51,53,55,57,59,61,63,65,67,69,71,73,75,77,79,81,83,85,87,89,91,-1,93,95,97,99,101,103,-1,-1,-1,-1,-1,-1,-1,-1,-1,-1,-1,-1,-1,-1,-1,-1,-1,-1,-1,-1,-1,-1,-1,-1,-1,-1,-1,-1,-1,-1,-1,-1,-1,-1,-1,-1,-1,-1,-1,-1,-1,-1,-1,-1,-1,-1,-1,-1,-1,-1],"loss_changes":[1.0019932E2,8.79198E1,7.329793E1,7.305696E1,9.178641E1,5.7556168E1,1.827924E1,1.4004858E2,7.414202E1,6.621371E1,8.710251E1,4.5897583E1,3.9487247E1,0E0,1.2481247E1,7.480531E1,4.9346764E1,7.081165E1,6.1416214E1,2.5801891E1,7.5837364E1,9.843721E1,2.6768751E1,2.6087524E1,0E0,5.262619E0,1.9675976E1,1.2909102E1,1.3243364E1,6.501964E1,7.160034E1,1.3402626E1,6.763039E1,9.491083E1,9.813578E1,5.9156696E1,3.5929337E1,2.883963E1,1.53045845E1,6.4829926E1,5.104003E1,6.0121246E1,1.114732E2,3.6070255E1,5.102703E1,2.4976166E1,2.2532948E1,4.4441338E0,0E0,1.881112E1,1.6698174E1,1.1616539E1,1.0360773E1,4.615326E-1,9.12409E0,0E0,0E0,0E0,0E0,0E0,0E0,0E0,0E0,0E0,0E0,0E0,0E0,0E0,0E0,0E0,0E0,0E0,0E0,0E0,0E0,0E0,0E0,0E0,0E0,0E0,0E0,0E0,0E0,0E0,0E0,0E0,0E0,0E0,0E0,0E0,0E0,0E0,0E0,0E0,0E0,0E0,0E0,0E0,0E0,0E0,0E0,0E0,0E0,0E0,0E0],"parents":[2147483647,0,0,1,1,2,2,3,3,4,4,5,5,6,6,7,7,8,8,9,9,10,10,11,11,12,12,14,14,15,15,16,16,17,17,18,18,19,19,20,20,21,21,22,22,23,23,25,25,26,26,27,27,28,28,29,29,30,30,31,31,32,32,33,33,34,34,35,35,36,36,37,37,38,38,39,39,40,40,41,41,42,42,43,43,44,44,45,45,46,46,47,47,49,49,50,50,51,51,52,52,53,53,54,54],"right_children":[2,4,6,8,10,12,14,16,18,20,22,24,26,-1,28,30,32,34,36,38,40,42,44,46,-1,48,50,52,54,56,58,60,62,64,66,68,70,72,74,76,78,80,82,84,86,88,90,92,-1,94,96,98,100,102,104,-1,-1,-1,-1,-1,-1,-1,-1,-1,-1,-1,-1,-1,-1,-1,-1,-1,-1,-1,-1,-1,-1,-1,-1,-1,-1,-1,-1,-1,-1,-1,-1,-1,-1,-1,-1,-1,-1,-1,-1,-1,-1,-1,-1,-1,-1,-1,-1,-1,-1],"split_conditions":[2.1E1,6E0,2.3E1,8.11E0,1E0,1.4E1,3.049E3,6.70125E3,2.134E3,1.83E2,1.5E1,4.119716E4,1E0,-3.1843004E-1,1.126E1,1.331118E4,7.9803E3,2.9E1,1.6E1,3.001E1,2.135E3,6.4E1,2.756E1,2.82E0,-6.258495E-1,3.001E1,1.97295E3,5.6E-1,8.02E0,1.254712E4,1E0,1.26E2,2.135E3,6.28E2,8.7E1,8E0,2E0,5.4E-1,6.5E1,3E0,8.777E3,5.6E1,3.6E2,2.63E2,2.37E2,5.08E0,6E0,7.51E0,1.4627601E-1,7.11E0,1E0,9.971E3,7.809E1,3.2E1,7E0,6.5347753E-3,3.459794E-1,-2.2678038E-2,-1.7052929E-1,3.0551717E-1,4.381871E-2,1.2267408E-1,-7.218891E-2,-3.7740953E-2,1.1240654E-1,-1.6619146E-1,3.5982293E-1,1.4920735E-1,-1.15011305E-1,-3.2834378E-1,-2.1277795E-2,1.5080133E-1,1.1846129E-2,2.3488697E-1,-2.7992007E-1,-1.17240846E-1,-2.2074366E-2,6.0721687E-3,5.9891766E-1,1.1802462E-2,7.6392196E-2,-2.9603701E-2,6.360964E-2,-3.2355007E-2,-1.894866E-1,1.8015E-1,-1.4137384E-1,-8.49521E-2,-2.682123E-1,-1.94754E-1,-5.6003217E-2,4.1920725E-2,-3.636688E-1,7.030701E-2,-7.607035E-2,-6.9842346E-2,4.3439975E-1,1.3194324E-1,-1.5490918E-2,-2.4792606E-2,-4.420485E-1,2.196633E-1,5.300584E-1,3.8408014E-1,-1.7659897E-1],"split_indices":[31,27,31,15,19,15,16,24,29,29,8,23,17,0,26,23,24,14,31,12,29,36,11,4,0,12,23,26,15,23,19,3,29,29,17,17,19,3,17,26,23,33,36,39,34,12,34,2,0,12,21,16,25,17,12,0,0,0,0,0,0,0,0,0,0,0,0,0,0,0,0,0,0,0,0,0,0,0,0,0,0,0,0,0,0,0,0,0,0,0,0,0,0,0,0,0,0,0,0,0,0,0,0,0,0],"split_type":[0,0,0,0,0,0,0,0,0,0,0,0,0,0,0,0,0,0,0,0,0,0,0,0,0,0,0,0,0,0,0,0,0,0,0,0,0,0,0,0,0,0,0,0,0,0,0,0,0,0,0,0,0,0,0,0,0,0,0,0,0,0,0,0,0,0,0,0,0,0,0,0,0,0,0,0,0,0,0,0,0,0,0,0,0,0,0,0,0,0,0,0,0,0,0,0,0,0,0,0,0,0,0,0,0],"sum_hessian":[2.8000434E4,2.652554E4,1.4748938E3,7.1126143E3,1.9412924E4,1.1996509E3,2.752429E2,3.4061926E3,3.7064214E3,5.733248E3,1.3679677E4,8.244121E2,3.7523874E2,9.875905E0,2.65367E2,2.4045342E3,1.00165845E3,2.7547136E3,9.517078E2,9.432554E2,4.7899927E3,1.1903686E4,1.7759916E3,8.0731067E2,1.7101482E1,3.5228363E1,3.4001038E2,2.4356288E2,2.180412E1,1.1910424E3,1.213492E3,1.3965376E2,8.620047E2,2.2552097E3,4.9950397E2,7.381495E2,2.1355835E2,8.514271E2,9.182825E1,2.591429E3,2.198564E3,6.960696E3,4.9429893E3,1.5803082E3,1.9568336E2,3.1017792E2,4.9713272E2,3.3587597E1,1.6407663E0,3.1464743E2,2.5362936E1,2.1622574E2,2.733713E1,1.2269329E1,9.53479E0,1.138883E3,5.215934E1,7.099518E2,5.035401E2,1.1856651E2,2.1087244E1,6.5009503E2,2.1190965E2,1.7745157E3,4.806939E2,4.6617133E2,3.333263E1,8.546692E1,6.5268256E2,1.7051143E2,4.3046925E1,1.6630222E2,6.851249E2,8.712638E1,4.7018666E0,1.1986704E3,1.3927584E3,2.1864153E3,1.2148675E1,1.7245004E3,5.236196E3,3.10663E3,1.8363591E3,1.4364825E3,1.4382567E2,1.291199E2,6.656346E1,9.975749E1,2.1042043E2,1.5133516E2,3.4579755E2,2.419367E0,3.1168228E1,1.6414397E2,1.5050346E2,8.452154E0,1.6910782E1,1.4472E2,7.150574E1,2.109781E1,6.239319E0,2.6241224E0,9.645206E0,3.0013218E0,6.5334682E0],"tree_param":{"num_deleted":"0","num_feature":"49","num_nodes":"105","size_leaf_vector":"1"}},{"base_weights":[1.1537309E-4,-1.5784211E-2,1.5230162E-1,1.6227838E-2,-1.0616393E-1,1.2954359E-1,9.3393755E-1,5.6825016E-2,-9.920712E-2,2.3672367E-2,-2.1001193E-1,-7.9242064E-4,2.6271215E-1,5.501145E-1,4.3931898E-1,7.296847E-2,-2.3045625E-1,4.227596E-2,-1.9862668E-1,-4.8559953E-2,3.4238344E-1,-3.1146047E-1,-1.0160577E-2,3.0572109E-2,-1.2032359E0,2.838372E-1,-1.0280564E0,6.320016E-1,-2.821068E-1,-7.5372364E-3,1.4730424E-1,1.7305633E-1,-4.815522E-1,1.5595074E-1,-1.387603E-1,3.447666E-1,-2.2235662E-1,-6.662127E-2,1.2637453E0,-8.370879E-3,9.2360806E-1,-5.074127E-1,-2.0053968E-1,-1.7284212E-1,1.7240466E-1,-1.0929122E-2,1.6145896E0,-5.5889636E-1,3.3128065E-1,3.3374068E-1,-1.8032373E-1,-1.3322384E0,7.874435E-1,-2.4457994E-1,7.067248E-1,1.2315354E-2,-1.3605991E-1,8.248543E-2,2.5291083E-2,1.7046714E-1,6.259677E-3,-1.9462414E-1,-4.1524448E-2,3.5532687E-2,1.8607688E-1,-1.313441E-1,-5.0371885E-3,1.7413715E-1,-2.4177156E-1,4.9966266E-3,-7.876344E-2,-1.66247E-2,-4.693465E-1,1.6498294E-1,5.0727487E-1,3.8588747E-2,-4.1736147E-1,5.0590366E-1,2.1692343E-1,-3.8746023E-1,-1.1484872E-1,2.474939E-3,-1.2964086E-1,-8.091873E-2,1.0716497E-1,3.1222295E-2,1.8020695E-1,-6.902043E-2,4.228955E-2,-1.4886448E-1,5.7923156E-1,-2.7369115E-1,2.31359E-1,1.0716573E-1,-2.149133E-1,-2.8245172E-1,4.380069E-2,1.6505051E-2,-4.9440274E-1,2.7577356E-1,7.1454376E-2,2.9289964E-1,3.9431177E-2],"categories":[],"categories_nodes":[],"categories_segments":[],"categories_sizes":[],"default_left":[0,0,0,0,0,0,0,0,0,0,1,0,0,0,0,0,0,0,0,0,0,0,0,0,0,0,0,0,0,0,0,0,0,0,0,0,0,0,0,0,0,0,0,0,0,0,0,0,0,0,0,0,0,0,0,0,0,0,0,0,0,0,0,0,0,0,0,0,0,0,0,0,0,0,0,0,0,0,0,0,0,0,0,0,0,0,0,0,0,0,0,0,0,0,0,0,0,0,0,0,0,0,0],"id":9,"left_children":[1,3,5,7,9,11,13,15,17,19,21,23,25,27,-1,29,31,33,35,37,39,41,43,45,47,49,51,53,-1,55,57,59,61,63,65,67,69,71,73,75,77,79,81,83,85,87,89,-1,91,93,95,97,99,-1,101,-1,-1,-1,-1,-1,-1,-1,-1,-1,-1,-1,-1,-1,-1,-1,-1,-1,-1,-1,-1,-1,-1,-1,-1,-1,-1,-1,-1,-1,-1,-1,-1,-1,-1,-1,-1,-1,-1,-1,-1,-1,-1,-1,-1,-1,-1,-1,-1],"loss_changes":[6.6853615E1,7.237739E1,4.6368793E1,8.657824E1,8.822608E1,4.4098198E1,1.4216148E1,6.3402996E1,6.762268E1,6.6975746E1,7.370401E1,4.849938E1,3.4558746E1,6.014323E0,0E0,7.744677E1,7.37849E1,4.0863213E1,3.6481796E1,5.6306538E1,1.0959146E2,5.230919E1,3.6415154E1,8.2408554E1,3.37132E1,2.8718742E1,1.2343817E1,5.1932297E0,0E0,1.3467073E2,5.408606E1,1.6812979E1,2.5649818E1,2.1165953E1,2.79336E1,3.261206E1,2.5994263E1,3.9202488E1,8.904697E0,6.3874588E1,2.9724167E1,8.458638E1,7.453804E1,3.339164E1,1.684587E1,4.0718006E1,2.2318222E1,0E0,6.545287E0,2.780767E1,3.0132515E1,7.9270287E0,3.90296E-2,0E0,6.2514763E0,0E0,0E0,0E0,0E0,0E0,0E0,0E0,0E0,0E0,0E0,0E0,0E0,0E0,0E0,0E0,0E0,0E0,0E0,0E0,0E0,0E0,0E0,0E0,0E0,0E0,0E0,0E0,0E0,0E0,0E0,0E0,0E0,0E0,0E0,0E0,0E0,0E0,0E0,0E0,0E0,0E0,0E0,0E0,0E0,0E0,0E0,0E0,0E0],"parents":[2147483647,0,0,1,1,2,2,3,3,4,4,5,5,6,6,7,7,8,8,9,9,10,10,11,11,12,12,13,13,15,15,16,16,17,17,18,18,19,19,20,20,21,21,22,22,23,23,24,24,25,25,26,26,27,27,29,29,30,30,31,31,32,32,33,33,34,34,35,35,36,36,37,37,38,38,39,39,40,40,41,41,42,42,43,43,44,44,45,45,46,46,48,48,49,49,50,50,51,51,52,52,54,54],"right_children":[2,4,6,8,10,12,14,16,18,20,22,24,26,28,-1,30,32,34,36,38,40,42,44,46,48,50,52,54,-1,56,58,60,62,64,66,68,70,72,74,76,78,80,82,84,86,88,90,-1,92,94,96,98,100,-1,102,-1,-1,-1,-1,-1,-1,-1,-1,-1,-1,-1,-1,-1,-1,-1,-1,-1,-1,-1,-1,-1,-1,-1,-1,-1,-1,-1,-1,-1,-1,-1,-1,-1,-1,-1,-1,-1,-1,-1,-1,-1,-1,-1,-1,-1,-1,-1,-1],"split_conditions":[1E0,1.6E1,1.5E1,2.134E3,8.11E0,2E0,2.86E2,3.9E1,5.04E0,2.169E3,2E1,1.1215E2,5.99523E3,2E0,4.3931898E-1,1.5E-1,3.9E1,4E1,5.6E1,3E2,7.1728E2,1.83E2,4.2E1,1.052E2,9.621E3,7.5E1,1.1722E2,5.06E0,-2.821068E-1,1.2669E2,1.3E2,8.569E3,1.1E1,2.076035E4,3.396E3,1.2E1,1.6E1,2.219164E4,1.5E-1,2.76815E3,1.81687E3,1.8E1,2.086E3,4.48E2,2.169E3,2.132E3,6.5485E2,-5.5889636E-1,8E0,7.6E1,9.5E0,3.771E1,5.9E1,-2.4457994E-1,1.22E2,1.2315354E-2,-1.3605991E-1,8.248543E-2,2.5291083E-2,1.7046714E-1,6.259677E-3,-1.9462414E-1,-4.1524448E-2,3.5532687E-2,1.8607688E-1,-1.313441E-1,-5.0371885E-3,1.7413715E-1,-2.4177156E-1,4.9966266E-3,-7.876344E-2,-1.66247E-2,-4.693465E-1,1.6498294E-1,5.0727487E-1,3.8588747E-2,-4.1736147E-1,5.0590366E-1,2.1692343E-1,-3.8746023E-1,-1.1484872E-1,2.474939E-3,-1.2964086E-1,-8.091873E-2,1.0716497E-1,3.1222295E-2,1.8020695E-1,-6.902043E-2,4.228955E-2,-1.4886448E-1,5.7923156E-1,-2.7369115E-1,2.31359E-1,1.0716573E-1,-2.149133E-1,-2.8245172E-1,4.380069E-2,1.6505051E-2,-4.9440274E-1,2.7577356E-1,7.1454376E-2,2.9289964E-1,3.9431177E-2],"split_indices":[13,31,26,29,15,19,29,14,12,29,27,25,23,9,0,6,17,17,16,25,24,29,11,25,16,40,25,2,0,25,2,16,31,23,16,31,17,24,6,23,24,31,29,38,29,29,23,0,37,17,0,0,37,0,2,0,0,0,0,0,0,0,0,0,0,0,0,0,0,0,0,0,0,0,0,0,0,0,0,0,0,0,0,0,0,0,0,0,0,0,0,0,0,0,0,0,0,0,0,0,0,0,0],"split_type":[0,0,0,0,0,0,0,0,0,0,0,0,0,0,0,0,0,0,0,0,0,0,0,0,0,0,0,0,0,0,0,0,0,0,0,0,0,0,0,0,0,0,0,0,0,0,0,0,0,0,0,0,0,0,0,0,0,0,0,0,0,0,0,0,0,0,0,0,0,0,0,0,0,0,0,0,0,0,0,0,0,0,0,0,0,0,0,0,0,0,0,0,0,0,0,0,0,0,0,0,0,0,0],"sum_hessian":[2.7626914E4,2.501444E4,2.612475E3,1.847242E4,6.542019E3,2.5396953E3,7.2779755E1,1.3666555E4,4.805866E3,2.90758E3,3.634439E3,1.2840002E3,1.255695E3,4.3408104E1,2.9371649E1,1.2940144E4,7.264111E2,1.9835991E3,2.8222668E3,2.3710547E3,5.365255E2,2.4103425E3,1.2240964E3,1.2523096E3,3.1690664E1,1.2362424E3,1.945253E1,4.1693424E1,1.7146819E0,6.2126914E3,6.727452E3,2.7875732E2,4.4765375E2,1.2185782E3,7.650209E2,1.17524994E2,2.704742E3,2.339801E3,3.1253553E1,3.352165E2,2.0130905E2,8.699384E2,1.5404042E3,6.473259E2,5.7677057E2,1.2213046E3,3.1005058E1,2.201252E1,9.678144E0,1.1164862E3,1.197562E2,1.688901E1,2.563521E0,1.5604057E0,4.013302E1,5.6031694E3,6.0952185E2,2.2220117E3,4.50544E3,7.6747284E1,2.0201006E2,3.0039478E2,1.4725899E2,1.128656E3,8.992222E1,2.208751E2,5.4414575E2,9.795629E1,1.9568705E1,3.8940573E2,2.3153362E3,2.323456E3,1.6344875E1,1.2557459E1,1.8696093E1,3.058248E2,2.9391674E1,4.0365406E1,1.6094363E2,1.1798452E2,7.519539E2,8.1059705E2,7.298071E2,5.4770465E2,9.962128E1,4.984835E2,7.828706E1,4.997693E2,7.215353E2,3.965088E0,2.703997E1,2.2484004E0,7.4297442E0,1.0927152E3,2.3770977E1,3.5369293E1,8.438692E1,3.2846286E0,1.3604382E1,1.5241778E0,1.0393432E0,2.685184E1,1.3281179E1],"tree_param":{"num_deleted":"0","num_feature":"49","num_nodes":"103","size_leaf_vector":"1"}},{"base_weights":[5.314189E-5,1.2795193E-2,-1.388896E-1,9.646101E-3,6.5522784E-1,1.16812E-2,-3.0702E-1,4.391535E-2,-4.461316E-2,7.185174E-1,-9.0048146E-1,1.9879623E-1,-2.2289403E-1,-2.2161971E-1,-9.412498E-1,-3.242201E-2,1.1286754E-1,-6.786039E-2,2.6318446E-1,6.2689316E-1,6.0451907E-1,-1.2383357E0,2.7895916E-2,1.23690344E-1,7.5458634E-1,-1.6067125E-1,-1.1047541E0,-2.8580971E-2,-4.8710063E-1,-3.3174753E-1,-1.403E0,1.3447333E-2,-3.543307E-1,3.7052688E-1,9.261218E-2,-8.883989E-2,2.121162E-1,4.8469958E-1,5.3824883E-2,7.7651197E-1,-2.2431944E-1,-1.2064233E-1,-4.327404E-1,2.1273498E-1,-3.0449122E-1,2.0494469E-1,1.1146436E0,1.22701034E-1,-3.4400547E-1,-3.3910388E-1,-3.388072E-2,4.3918023E-1,-1.9118875E-1,-2.460269E-1,-8.7270004E-1,-7.3140746E-1,5.3249514E-1,1.0161201E-2,-1.4570541E0,1.5114061E-2,-7.808632E-2,1.4683847E-1,-1.389505E-1,1.7925516E-1,-1.8605396E-2,3.3867452E-2,-5.0592724E-2,-1.5445779E-2,-7.815158E-2,3.5714537E-1,5.337032E-2,-2.9599369E-2,1.8291381E-1,-4.763859E-2,9.3068026E-2,2.9851446E-1,4.7659934E-2,-1.7627019E-1,3.2977164E-1,-2.373081E-1,7.3452026E-2,1.960681E-1,-1.310204E-1,-4.6434524E-3,2.840607E-1,3.613312E-1,-1.5943693E-1,1.0542564E-1,-7.826927E-2,-1.17221735E-1,1.5543343E-1,1.8275735E-1,-1.3609931E-1,-9.0883166E-2,3.135386E-1,6.6232726E-2,-1.4543515E-1,-3.4437007E-1,-1.5923272E-1,-2.6309744E-1,2.6653373E-1,-2.4406871E-1,2.7825242E-1,1.8307719E-1,-2.3439948E-1,-4.8133925E-1,-3.414898E-1],"categories":[],"categories_nodes":[],"categories_segments":[],"categories_sizes":[],"default_left":[0,0,0,0,0,0,0,0,0,0,0,0,0,0,0,0,0,0,0,0,0,0,0,0,0,0,0,0,0,0,0,0,0,0,0,0,0,0,0,0,0,0,0,0,0,0,0,0,0,0,0,0,0,0,0,0,0,0,0,0,0,0,0,0,0,0,0,0,0,0,0,0,0,0,0,0,0,0,0,0,0,0,0,0,0,0,0,0,0,0,0,0,0,0,0,0,0,0,0,0,0,0,0,0,0,0,0],"id":10,"left_children":[1,3,5,7,9,11,13,15,17,19,21,23,25,27,29,31,33,35,37,39,-1,41,-1,43,45,47,49,51,53,55,57,59,61,63,65,67,69,71,73,75,77,-1,-1,79,81,83,85,87,89,-1,-1,91,93,95,97,99,101,103,105,-1,-1,-1,-1,-1,-1,-1,-1,-1,-1,-1,-1,-1,-1,-1,-1,-1,-1,-1,-1,-1,-1,-1,-1,-1,-1,-1,-1,-1,-1,-1,-1,-1,-1,-1,-1,-1,-1,-1,-1,-1,-1,-1,-1,-1,-1,-1,-1],"loss_changes":[4.8473785E1,5.073227E1,5.822947E1,4.6410515E1,1.2690918E1,5.3344307E1,5.864959E1,8.052478E1,6.915313E1,1.2766113E1,1.869112E0,2.812617E1,2.941491E1,4.9134396E1,3.5741753E1,1.0721592E2,4.191507E1,5.279006E1,3.1449585E1,1.4406849E1,0E0,9.746742E-2,0E0,2.281705E1,1.5659687E1,2.627409E1,7.7023697E-1,4.2399693E1,3.7311646E1,1.9995602E1,5.5825043E0,6.427314E1,8.339417E1,5.7522705E1,3.9507393E1,5.3585335E1,2.0762995E1,2.4101097E1,1.913262E1,1.2701439E1,9.051076E0,0E0,0E0,1.6132574E1,1.3353587E1,5.411544E0,7.7765923E0,1.755859E1,1.2565056E1,0E0,0E0,2.2106298E1,5.7450737E1,2.7946619E1,1.3966743E1,1.0031797E1,1.0605994E1,2.223926E0,1.4725952E0,0E0,0E0,0E0,0E0,0E0,0E0,0E0,0E0,0E0,0E0,0E0,0E0,0E0,0E0,0E0,0E0,0E0,0E0,0E0,0E0,0E0,0E0,0E0,0E0,0E0,0E0,0E0,0E0,0E0,0E0,0E0,0E0,0E0,0E0,0E0,0E0,0E0,0E0,0E0,0E0,0E0,0E0,0E0,0E0,0E0,0E0,0E0,0E0],"parents":[2147483647,0,0,1,1,2,2,3,3,4,4,5,5,6,6,7,7,8,8,9,9,10,10,11,11,12,12,13,13,14,14,15,15,16,16,17,17,18,18,19,19,21,21,23,23,24,24,25,25,26,26,27,27,28,28,29,29,30,30,31,31,32,32,33,33,34,34,35,35,36,36,37,37,38,38,39,39,40,40,43,43,44,44,45,45,46,46,47,47,48,48,51,51,52,52,53,53,54,54,55,55,56,56,57,57,58,58],"right_children":[2,4,6,8,10,12,14,16,18,20,22,24,26,28,30,32,34,36,38,40,-1,42,-1,44,46,48,50,52,54,56,58,60,62,64,66,68,70,72,74,76,78,-1,-1,80,82,84,86,88,90,-1,-1,92,94,96,98,100,102,104,106,-1,-1,-1,-1,-1,-1,-1,-1,-1,-1,-1,-1,-1,-1,-1,-1,-1,-1,-1,-1,-1,-1,-1,-1,-1,-1,-1,-1,-1,-1,-1,-1,-1,-1,-1,-1,-1,-1,-1,-1,-1,-1,-1,-1,-1,-1,-1,-1],"split_conditions":[6.4E1,3E2,2.75E2,6.9E1,1.02717E3,8.126E3,5.845881E4,2.1E1,7.65E2,3.475792E4,1.1E1,7.564E3,1.4791272E5,4.407E1,3E0,8E0,3E-2,4.65E2,2.75E2,5.2E1,6.0451907E-1,1.8995E2,2.7895916E-2,2.48E2,1.48E1,8E1,3.207E2,1E0,1E0,1.8E1,2.2916E3,2.8196E2,2.8E1,2.256E3,4.59E2,2.34E2,6E0,1.1E1,1.74E2,2.2E1,3.001E1,-1.2064233E-1,-4.327404E-1,5E0,3.74E0,2.5E1,1.74E2,7.3E1,9.1E1,-3.3910388E-1,-3.388072E-2,3E1,7.6E1,1E1,4.946E3,3.42E1,1.206E1,1.62E2,2.981E1,1.5114061E-2,-7.808632E-2,1.4683847E-1,-1.389505E-1,1.7925516E-1,-1.8605396E-2,3.3867452E-2,-5.0592724E-2,-1.5445779E-2,-7.815158E-2,3.5714537E-1,5.337032E-2,-2.9599369E-2,1.8291381E-1,-4.763859E-2,9.3068026E-2,2.9851446E-1,4.7659934E-2,-1.7627019E-1,3.2977164E-1,-2.373081E-1,7.3452026E-2,1.960681E-1,-1.310204E-1,-4.6434524E-3,2.840607E-1,3.613312E-1,-1.5943693E-1,1.0542564E-1,-7.826927E-2,-1.17221735E-1,1.5543343E-1,1.8275735E-1,-1.3609931E-1,-9.0883166E-2,3.135386E-1,6.6232726E-2,-1.4543515E-1,-3.4437007E-1,-1.5923272E-1,-2.6309744E-1,2.6653373E-1,-2.4406871E-1,2.7825242E-1,1.8307719E-1,-2.3439948E-1,-4.8133925E-1,-3.414898E-1],"split_indices":[17,25,29,36,11,16,23,35,33,23,31,16,23,25,31,35,3,38,29,17,0,4,0,34,11,33,3,21,8,14,24,10,2,23,34,38,35,31,34,14,12,0,0,15,10,41,43,35,17,0,0,12,17,31,16,12,10,34,12,0,0,0,0,0,0,0,0,0,0,0,0,0,0,0,0,0,0,0,0,0,0,0,0,0,0,0,0,0,0,0,0,0,0,0,0,0,0,0,0,0,0,0,0,0,0,0,0],"split_type":[0,0,0,0,0,0,0,0,0,0,0,0,0,0,0,0,0,0,0,0,0,0,0,0,0,0,0,0,0,0,0,0,0,0,0,0,0,0,0,0,0,0,0,0,0,0,0,0,0,0,0,0,0,0,0,0,0,0,0,0,0,0,0,0,0,0,0,0,0,0,0,0,0,0,0,0,0,0,0,0,0,0,0,0,0,0,0,0,0,0,0,0,0,0,0,0,0,0,0,0,0,0,0,0,0,0,0],"sum_hessian":[2.7377893E4,2.5078885E4,2.2990068E3,2.4957562E4,1.2132256E2,1.213329E3,1.0856779E3,1.52966455E4,9.660917E3,1.1709695E2,4.2256145E0,6.750279E2,5.38301E2,9.5802704E2,1.27650795E2,7.2598047E3,8.036841E3,8.983216E3,6.7770154E2,1.10753716E2,6.34323E0,2.9693375E0,1.2562771E0,5.957453E2,7.928262E1,5.0392685E2,3.437416E1,5.553349E2,4.0269214E2,5.5763027E1,7.1887764E1,6.355199E3,9.046054E2,5.8449194E2,7.452349E3,8.357635E3,6.255805E2,3.286523E2,3.4904922E2,9.427128E1,1.6482437E1,1.1654134E0,1.803924E0,4.935995E2,1.0214579E2,3.200101E1,4.7281612E1,1.9808525E2,3.058416E2,3.3373352E1,1.0008098E0,1.428135E2,4.125214E2,2.4878914E2,1.53903E2,3.8235245E1,1.7527784E1,2.6783512E0,6.920941E1,5.6003984E3,7.548008E2,1.0295127E2,8.016542E2,3.830789E2,2.0141306E2,6.916072E3,5.362774E2,6.865105E3,1.4925302E3,1.9996426E1,6.0558405E2,5.8037132E1,2.7061517E2,1.9102402E2,1.580252E2,6.918214E1,2.5089144E1,1.3369324E1,3.1131134E0,1.4565706E1,4.7903378E2,1.1911262E1,9.023453E1,2.542614E1,6.5748715E0,4.5090275E1,2.1913369E0,1.2414727E2,7.393797E1,2.906337E2,1.5207911E1,1.202364E2,2.2577106E1,3.7901575E2,3.3505623E1,8.4214165E1,1.6457497E2,8.396554E1,6.9937454E1,3.5503017E1,2.7322276E0,3.7362938E0,1.3791491E1,1.6535997E0,1.0247513E0,4.456605E1,2.4643366E1],"tree_param":{"num_deleted":"0","num_feature":"49","num_nodes":"107","size_leaf_vector":"1"}},{"base_weights":[3.381881E-5,-3.0658143E-2,5.205678E-2,-5.5253576E-3,-3.996508E-1,4.215882E-1,2.6335457E-2,-5.442206E-4,-8.0025804E-1,-8.4613454E-1,-1.808822E-1,7.0033455E-1,3.0996988E-2,1.0330587E-1,-5.0143056E-2,-1.2780779E-2,2.758889E-1,-3.3567575E-1,-1.0914685E0,-2.2584568E-1,-1.2019701E0,-9.019065E-2,-1.0370675E0,-9.6059567E-1,8.05186E-1,-1.3673785E-1,3.5475463E-1,4.264929E-2,4.6747798E-1,-1.5967967E-1,7.978018E-2,-2.3446705E-2,3.0981675E-1,3.8940835E-1,4.3338753E-2,-1.5300113E-1,-1.585515E0,-4.7777808E-1,-6.248256E-1,-4.060853E-1,1.0973263E0,-1.302656E0,-2.2721566E-2,-3.7500408E-1,1.0504484E-1,-1.3021472E0,-8.730944E-2,-1.9755857E0,3.3103224E-2,9.162095E-1,1.4485043E-1,-6.738452E-2,-1.210224E0,-9.0618503E-1,4.4164017E-1,1.3133177E-1,-3.1733274E-2,5.178596E-1,-1.1597457E0,6.5709956E-2,-2.6545087E-1,-5.179871E-1,1.140355E-1,-3.8931556E-3,-2.3143287E-1,-3.4699908E-1,1.1201876E-1,1.3813676E-1,-9.861918E-2,-5.168376E-1,2.8517747E-2,-1.8862553E-1,1.753855E-1,-5.8564043E-1,-1.2146499E-1,-2.7405646E-1,-1.584363E-2,-1.885969E-1,1.973777E-2,3.4518436E-1,7.877654E-2,-4.109939E-1,-1.267727E-2,1.7075491E-1,-2.4310844E-1,-4.3461713E-1,-5.440623E-2,1.5810663E-1,-8.114049E-3,-3.9919937E-1,-9.676421E-2,-2.612697E-1,1.0953122E-1,-7.12798E-1,-1.1620053E-2,1.8894327E-1,-1.4327005E-1,1.9960849E-2,2.845925E-1,-1.6319256E-1,1.2610292E-1,9.86793E-2,-5.5545546E-2,-4.0928277E-1,-3.8976196E-2,1.4114054E-1,-3.8106087E-1,2.228031E-1,-3.4435256E-3,-2.7753022E-1,4.316988E-2,-5.3460937E-2,8.587453E-3,1.9528437E-1,-4.5689987E-3,-3.5930297E-1,-1.2840338E-1,-1.0122753E-1,6.682142E-2,-3.1563574E-1,-5.0006337E-2,4.0511794E-2,-2.3795788E-1,1.1510909E-1,6.094906E-3],"categories":[],"categories_nodes":[],"categories_segments":[],"categories_sizes":[],"default_left":[0,0,0,0,0,0,0,0,0,0,0,0,0,0,0,0,0,0,0,0,0,0,0,0,0,0,0,0,0,0,0,0,0,0,0,0,0,0,0,0,0,0,0,0,0,0,0,0,0,0,0,0,0,0,0,0,0,0,0,0,0,0,0,0,0,0,0,0,0,0,0,0,0,0,0,0,0,0,0,0,0,0,0,0,0,0,0,0,0,0,0,0,0,0,0,0,0,0,0,0,0,0,0,0,0,0,0,0,0,0,0,0,0,0,0,0,0,0,0,0,0,0,0,0,0],"id":11,"left_children":[1,3,5,7,9,11,13,15,17,19,21,23,25,27,29,31,33,35,37,39,41,43,45,47,49,51,53,55,57,59,61,63,65,67,69,71,73,-1,75,77,79,81,83,85,87,89,91,93,95,97,99,101,103,105,107,109,111,113,115,117,119,121,123,-1,-1,-1,-1,-1,-1,-1,-1,-1,-1,-1,-1,-1,-1,-1,-1,-1,-1,-1,-1,-1,-1,-1,-1,-1,-1,-1,-1,-1,-1,-1,-1,-1,-1,-1,-1,-1,-1,-1,-1,-1,-1,-1,-1,-1,-1,-1,-1,-1,-1,-1,-1,-1,-1,-1,-1,-1,-1,-1,-1,-1,-1],"loss_changes":[4.350847E1,1.589343E2,9.609247E1,6.352177E1,1.0659418E2,7.160927E1,5.5657547E1,5.394702E1,1.3155479E1,7.899307E1,5.695865E1,6.762628E1,1.4984425E1,1.04070465E2,6.75103E1,5.2556377E1,1.783004E1,8.879454E0,1.3267769E1,3.196025E1,2.7038574E1,3.70432E1,1.7579742E1,2.3515789E1,2.6379242E1,1.3460434E1,1.071409E1,2.6657177E1,5.575049E1,6.137298E1,4.4497852E1,1.15769745E2,4.6011417E1,2.3323563E1,2.0523218E1,1.2988802E1,1.3686914E0,0E0,5.4390326E0,1.2332708E1,4.1456795E-1,1.7763458E1,9.296468E0,5.6056892E1,2.2065088E1,1.1036682E0,6.134273E0,8.840935E0,4.1804876E0,8.462677E0,1.0331401E1,8.084681E0,1.6499557E0,3.8029704E0,1.2113819E1,2.4606539E1,1.9438879E1,4.6352783E1,5.6678772E-2,5.2162487E1,1.3593234E2,2.1278618E1,5.18868E1,0E0,0E0,0E0,0E0,0E0,0E0,0E0,0E0,0E0,0E0,0E0,0E0,0E0,0E0,0E0,0E0,0E0,0E0,0E0,0E0,0E0,0E0,0E0,0E0,0E0,0E0,0E0,0E0,0E0,0E0,0E0,0E0,0E0,0E0,0E0,0E0,0E0,0E0,0E0,0E0,0E0,0E0,0E0,0E0,0E0,0E0,0E0,0E0,0E0,0E0,0E0,0E0,0E0,0E0,0E0,0E0,0E0,0E0,0E0,0E0,0E0,0E0],"parents":[2147483647,0,0,1,1,2,2,3,3,4,4,5,5,6,6,7,7,8,8,9,9,10,10,11,11,12,12,13,13,14,14,15,15,16,16,17,17,18,18,19,19,20,20,21,21,22,22,23,23,24,24,25,25,26,26,27,27,28,28,29,29,30,30,31,31,32,32,33,33,34,34,35,35,36,36,38,38,39,39,40,40,41,41,42,42,43,43,44,44,45,45,46,46,47,47,48,48,49,49,50,50,51,51,52,52,53,53,54,54,55,55,56,56,57,57,58,58,59,59,60,60,61,61,62,62],"right_children":[2,4,6,8,10,12,14,16,18,20,22,24,26,28,30,32,34,36,38,40,42,44,46,48,50,52,54,56,58,60,62,64,66,68,70,72,74,-1,76,78,80,82,84,86,88,90,92,94,96,98,100,102,104,106,108,110,112,114,116,118,120,122,124,-1,-1,-1,-1,-1,-1,-1,-1,-1,-1,-1,-1,-1,-1,-1,-1,-1,-1,-1,-1,-1,-1,-1,-1,-1,-1,-1,-1,-1,-1,-1,-1,-1,-1,-1,-1,-1,-1,-1,-1,-1,-1,-1,-1,-1,-1,-1,-1,-1,-1,-1,-1,-1,-1,-1,-1,-1,-1,-1,-1,-1,-1],"split_conditions":[1.3348E2,1.365E1,1.38E2,8.4E2,1.44E1,2.86E2,2.4E1,6.48E2,2E0,2.75E2,1.1414E2,5E1,1.3124E3,1.5E1,2.1E2,4.2E1,6.07E2,9.177E1,2.75E2,2E0,2.135E3,3.9E1,7.29113E3,1.22E2,1.8E2,1.7E2,1.76E0,1.2E1,2E0,2.25E2,5E0,3.9E1,5E0,7.525E1,6.28E2,8.347E1,4.6E1,-4.7777808E-1,3.07E2,5.9E1,2E2,1.6469E2,1.06722E3,2E0,1.1592E2,3.3E1,3.65E3,1E0,4.7E1,4E0,4.1E1,3.543E3,1.16076E3,5E0,2.1E0,5.21E1,1.6375E2,2.169E3,1.388E1,4.5E1,2.45E2,1.96E2,1.83E2,-3.8931556E-3,-2.3143287E-1,-3.4699908E-1,1.1201876E-1,1.3813676E-1,-9.861918E-2,-5.168376E-1,2.8517747E-2,-1.8862553E-1,1.753855E-1,-5.8564043E-1,-1.2146499E-1,-2.7405646E-1,-1.584363E-2,-1.885969E-1,1.973777E-2,3.4518436E-1,7.877654E-2,-4.109939E-1,-1.267727E-2,1.7075491E-1,-2.4310844E-1,-4.3461713E-1,-5.440623E-2,1.5810663E-1,-8.114049E-3,-3.9919937E-1,-9.676421E-2,-2.612697E-1,1.0953122E-1,-7.12798E-1,-1.1620053E-2,1.8894327E-1,-1.4327005E-1,1.9960849E-2,2.845925E-1,-1.6319256E-1,1.2610292E-1,9.86793E-2,-5.5545546E-2,-4.0928277E-1,-3.8976196E-2,1.4114054E-1,-3.8106087E-1,2.228031E-1,-3.4435256E-3,-2.7753022E-1,4.316988E-2,-5.3460937E-2,8.587453E-3,1.9528437E-1,-4.5689987E-3,-3.5930297E-1,-1.2840338E-1,-1.0122753E-1,6.682142E-2,-3.1563574E-1,-5.0006337E-2,4.0511794E-2,-2.3795788E-1,1.1510909E-1,6.094906E-3],"split_indices":[0,4,0,33,4,29,36,35,1,29,11,33,23,36,35,3,29,0,29,40,29,3,23,10,10,2,4,31,48,2,27,3,34,10,29,25,17,0,35,36,25,10,24,35,0,37,16,21,17,15,27,16,23,35,5,10,0,29,26,34,2,36,29,0,0,0,0,0,0,0,0,0,0,0,0,0,0,0,0,0,0,0,0,0,0,0,0,0,0,0,0,0,0,0,0,0,0,0,0,0,0,0,0,0,0,0,0,0,0,0,0,0,0,0,0,0,0,0,0,0,0,0,0,0,0],"split_type":[0,0,0,0,0,0,0,0,0,0,0,0,0,0,0,0,0,0,0,0,0,0,0,0,0,0,0,0,0,0,0,0,0,0,0,0,0,0,0,0,0,0,0,0,0,0,0,0,0,0,0,0,0,0,0,0,0,0,0,0,0,0,0,0,0,0,0,0,0,0,0,0,0,0,0,0,0,0,0,0,0,0,0,0,0,0,0,0,0,0,0,0,0,0,0,0,0,0,0,0,0,0,0,0,0,0,0,0,0,0,0,0,0,0,0,0,0,0,0,0,0,0,0,0,0],"sum_hessian":[2.7247223E4,1.7137203E4,1.0110019E4,1.6045341E4,1.0918634E3,6.569142E2,9.4531045E3,1.5946395E4,9.894635E1,3.5811685E2,7.337465E2,3.8287878E2,2.740354E2,4.7112256E3,4.7418784E3,1.5271349E4,6.7504614E2,3.8953934E1,5.999242E1,1.3114351E2,2.2697334E2,6.6446796E2,6.927853E1,2.2250563E1,3.6062823E2,1.8089407E2,9.3141335E1,4.0395195E3,6.7170605E2,2.572667E3,2.1692114E3,1.4783494E4,4.87854E2,4.531609E2,2.2188524E2,3.49658E1,3.9881325E0,2.7763975E1,3.2228443E1,1.160311E2,1.5112407E1,2.0902208E2,1.7951265E1,2.6986407E2,3.946039E2,5.3871765E1,1.5406764E1,1.0518538E1,1.1732024E1,3.0839044E2,5.22378E1,1.7091476E2,9.979297E0,5.3963494E0,8.774498E1,1.8422886E3,2.197231E3,6.5219476E2,1.951131E1,8.218187E2,1.7508483E3,1.16804855E2,2.0524065E3,1.4580433E4,2.0306142E2,1.9557562E1,4.6829642E2,4.12691E2,4.0469868E1,5.393689E0,2.1649155E2,2.1345774E1,1.3620028E1,2.5445201E0,1.4436121E0,2.1021727E1,1.12067175E1,7.861735E1,3.7413754E1,1.3849843E1,1.2625635E0,1.9834085E2,1.0681226E1,1.0407486E1,7.543779E0,4.0244064E1,2.2962003E2,9.336196E1,3.0124194E2,5.1999615E1,1.8721489E0,5.3007493E0,1.0106014E1,8.528669E0,1.9898696E0,5.3026643E0,6.4293594E0,1.1450707E1,2.9693973E2,1.4645214E1,3.7592587E1,3.8742798E1,1.3217197E2,8.503789E0,1.4755081E0,1.0673567E0,4.328993E0,5.2335796E1,3.5409187E1,2.0805414E1,1.8214832E3,6.4064294E2,1.5565881E3,5.217231E2,1.3047168E2,1.7944366E1,1.5669441E0,2.3005482E2,5.917639E2,1.9421701E2,1.5566312E3,3.478176E1,8.2023094E1,5.285362E2,1.5238702E3],"tree_param":{"num_deleted":"0","num_feature":"49","num_nodes":"125","size_leaf_vector":"1"}},{"base_weights":[1.1846343E-5,-4.685187E-2,3.5216756E-2,-8.74201E-2,5.4502483E-2,2.8836858E-1,1.853947E-2,-6.675112E-2,-2.690367E-1,-6.516408E-1,7.359435E-2,3.1159174E-1,-1.1376576E0,8.963947E-2,-5.861567E-2,-1.0942904E-1,7.6019906E-2,-7.7750164E-1,-2.1471184E-1,-9.822895E-1,-6.1646298E-2,-8.9870065E-2,1.303614E-1,1.4242539E-1,4.32427E-1,-5.339739E-1,-1.8485146E0,4.8214447E-1,6.49105E-2,-2.8362313E-1,5.7580518E-3,-7.606859E-2,-4.6530947E-1,2.0482267E-1,-1.552617E-1,-8.4617925E-1,5.7526094E-1,-6.130458E-2,-4.1338104E-1,-1.1975085E0,-3.197992E-1,6.613168E-2,-5.452737E-1,-5.700578E-1,-5.177257E-3,2.89741E-1,5.093569E-2,2.2361642E-1,-2.2277203E-1,2.0419322E-1,5.7772326E-1,2.2514412E-1,-9.2251766E-1,-3.1198013E-1,-2.5525243E0,1.9961734E-1,6.819746E-1,-1.8782789E0,6.899207E-2,-7.0621973E-1,-1.891973E-2,9.466048E-2,-1.6755222E-1,-4.2195827E-2,3.3587604E-3,3.5599196E-1,-1.5409966E-1,1.9974574E-1,3.8500234E-2,-2.2081047E-2,-2.130074E-1,4.1211404E-2,-2.7635744E-1,4.359351E-1,-1.6161191E-1,5.72167E-3,-2.9507333E-1,-2.2781461E-1,-3.2229494E-2,-3.7720266E-1,1.5752381E-1,8.281096E-2,-2.5720233E-1,-7.596811E-2,1.8579602E-1,2.6125338E-2,-2.0393716E-1,-2.288724E-1,1.2743809E-2,1.2860459E-1,7.941429E-3,-6.409882E-2,3.0425211E-2,2.25914E-1,5.2413195E-2,-2.7993873E-1,-3.3830472E-3,1.2856902E-1,-1.3793993E-1,2.058071E-1,1.1402074E-2,-3.3244294E-1,-8.4577225E-2,1.5116611E-1,-2.907953E-1,-9.6066433E-1,-3.118016E-1,1.2976624E-1,-9.646691E-2,2.450384E-1,9.3409225E-2,-2.8302088E-1,-7.758274E-1,-1.41370315E-2,3.897415E-2,-2.626062E-1,-4.341944E-2,1.7083065E-1,-3.4960117E-2,9.855917E-2,-8.5293185E-3,-1.3561554E-1,1.0535993E-2],"categories":[],"categories_nodes":[],"categories_segments":[],"categories_sizes":[],"default_left":[0,0,0,0,0,0,0,0,0,0,0,0,0,0,0,0,0,0,0,0,0,0,0,0,0,0,0,0,0,0,0,0,0,0,0,0,0,0,0,0,0,0,0,0,0,0,0,0,0,0,0,0,0,0,0,0,0,0,0,0,0,0,0,0,0,0,0,0,0,0,0,0,0,0,0,0,0,0,0,0,0,0,0,0,0,0,0,0,0,0,0,0,0,0,0,0,0,0,0,0,0,0,0,0,0,0,0,0,0,0,0,0,0,0,0,0,0,0,0,0,0,0,0],"id":12,"left_children":[1,3,5,7,9,11,13,15,17,19,21,23,25,27,29,31,33,35,37,39,41,43,45,47,49,51,53,55,57,59,61,63,65,67,69,71,73,75,77,79,81,83,-1,85,87,89,91,93,95,97,99,-1,101,103,105,107,109,111,113,115,117,119,121,-1,-1,-1,-1,-1,-1,-1,-1,-1,-1,-1,-1,-1,-1,-1,-1,-1,-1,-1,-1,-1,-1,-1,-1,-1,-1,-1,-1,-1,-1,-1,-1,-1,-1,-1,-1,-1,-1,-1,-1,-1,-1,-1,-1,-1,-1,-1,-1,-1,-1,-1,-1,-1,-1,-1,-1,-1,-1,-1,-1],"loss_changes":[4.461805E1,4.770552E1,6.519301E1,3.1083607E1,4.4762947E1,3.1961555E1,7.949095E1,4.534184E1,2.3208096E1,1.6992443E1,2.9987202E1,1.9151184E1,5.668249E0,7.316406E1,1.0066182E2,6.7972435E1,5.1055367E1,8.040276E0,2.3318249E1,7.594841E0,7.4036884E0,3.38838E1,3.0342209E1,1.1706156E1,1.8047302E1,5.5795813E0,6.4685535E0,2.5088722E1,5.6403996E1,1.7292114E2,8.328718E1,2.952529E1,3.9811775E1,3.8721153E1,2.772797E1,5.8650513E0,5.2063866E0,3.2144512E1,3.5228645E1,4.9755554E0,5.067964E0,5.6731954E0,0E0,9.067146E0,2.5646751E1,2.915596E1,2.1416237E1,8.208767E0,1.0807072E1,3.21717E1,1.950595E1,0E0,6.34954E-1,2.2311277E0,1.0628033E0,2.2781614E1,1.2800888E1,7.424774E0,5.009938E1,5.6414E1,5.471717E1,1.0286038E2,1.05692474E2,0E0,0E0,0E0,0E0,0E0,0E0,0E0,0E0,0E0,0E0,0E0,0E0,0E0,0E0,0E0,0E0,0E0,0E0,0E0,0E0,0E0,0E0,0E0,0E0,0E0,0E0,0E0,0E0,0E0,0E0,0E0,0E0,0E0,0E0,0E0,0E0,0E0,0E0,0E0,0E0,0E0,0E0,0E0,0E0,0E0,0E0,0E0,0E0,0E0,0E0,0E0,0E0,0E0,0E0,0E0,0E0,0E0,0E0,0E0,0E0],"parents":[2147483647,0,0,1,1,2,2,3,3,4,4,5,5,6,6,7,7,8,8,9,9,10,10,11,11,12,12,13,13,14,14,15,15,16,16,17,17,18,18,19,19,20,20,21,21,22,22,23,23,24,24,25,25,26,26,27,27,28,28,29,29,30,30,31,31,32,32,33,33,34,34,35,35,36,36,37,37,38,38,39,39,40,40,41,41,43,43,44,44,45,45,46,46,47,47,48,48,49,49,50,50,52,52,53,53,54,54,55,55,56,56,57,57,58,58,59,59,60,60,61,61,62,62],"right_children":[2,4,6,8,10,12,14,16,18,20,22,24,26,28,30,32,34,36,38,40,42,44,46,48,50,52,54,56,58,60,62,64,66,68,70,72,74,76,78,80,82,84,-1,86,88,90,92,94,96,98,100,-1,102,104,106,108,110,112,114,116,118,120,122,-1,-1,-1,-1,-1,-1,-1,-1,-1,-1,-1,-1,-1,-1,-1,-1,-1,-1,-1,-1,-1,-1,-1,-1,-1,-1,-1,-1,-1,-1,-1,-1,-1,-1,-1,-1,-1,-1,-1,-1,-1,-1,-1,-1,-1,-1,-1,-1,-1,-1,-1,-1,-1,-1,-1,-1,-1,-1,-1,-1],"split_conditions":[3.601E1,7E0,2.6284E2,3E0,3E0,3.829E1,2.75E2,5.16016E3,4.21E0,2.076E1,2.6E1,4.98E0,2E0,2.21E3,6.2E1,1.914515E4,1.414E1,2.8E3,2.981E1,7.4404E2,6.988E1,1E0,1.2E1,1.2E1,2.8E1,1.3E1,8.11E0,8.01E0,1.26E0,6.28E2,1.58E2,1.3348E2,3E0,6.05E0,1.0067367E5,3E0,3.018172E4,2.782E3,3.42E1,2.74E2,2.80072E3,2.418E1,-5.452737E-1,3E0,5E0,2.41E2,8.4E-1,3.049E3,1.845E1,4.683E1,1.6E1,2.2514412E-1,2.5E1,7.4E1,1.4E1,2.22E2,1.64E2,8E-2,2.4E1,5.4E1,2.134E3,6.07E2,6.28E2,-4.2195827E-2,3.3587604E-3,3.5599196E-1,-1.5409966E-1,1.9974574E-1,3.8500234E-2,-2.2081047E-2,-2.130074E-1,4.1211404E-2,-2.7635744E-1,4.359351E-1,-1.6161191E-1,5.72167E-3,-2.9507333E-1,-2.2781461E-1,-3.2229494E-2,-3.7720266E-1,1.5752381E-1,8.281096E-2,-2.5720233E-1,-7.596811E-2,1.8579602E-1,2.6125338E-2,-2.0393716E-1,-2.288724E-1,1.2743809E-2,1.2860459E-1,7.941429E-3,-6.409882E-2,3.0425211E-2,2.25914E-1,5.2413195E-2,-2.7993873E-1,-3.3830472E-3,1.2856902E-1,-1.3793993E-1,2.058071E-1,1.1402074E-2,-3.3244294E-1,-8.4577225E-2,1.5116611E-1,-2.907953E-1,-9.6066433E-1,-3.118016E-1,1.2976624E-1,-9.646691E-2,2.450384E-1,9.3409225E-2,-2.8302088E-1,-7.758274E-1,-1.41370315E-2,3.897415E-2,-2.626062E-1,-4.341944E-2,1.7083065E-1,-3.4960117E-2,9.855917E-2,-8.5293185E-3,-1.3561554E-1,1.0535993E-2],"split_indices":[25,39,23,9,37,24,29,24,12,0,17,24,19,16,33,23,15,2,12,23,3,19,14,8,17,31,15,12,10,29,36,0,17,10,23,17,23,29,12,39,24,11,0,31,35,39,3,16,10,25,31,0,12,33,31,33,34,3,35,34,29,29,29,0,0,0,0,0,0,0,0,0,0,0,0,0,0,0,0,0,0,0,0,0,0,0,0,0,0,0,0,0,0,0,0,0,0,0,0,0,0,0,0,0,0,0,0,0,0,0,0,0,0,0,0,0,0,0,0,0,0,0,0],"split_type":[0,0,0,0,0,0,0,0,0,0,0,0,0,0,0,0,0,0,0,0,0,0,0,0,0,0,0,0,0,0,0,0,0,0,0,0,0,0,0,0,0,0,0,0,0,0,0,0,0,0,0,0,0,0,0,0,0,0,0,0,0,0,0,0,0,0,0,0,0,0,0,0,0,0,0,0,0,0,0,0,0,0,0,0,0,0,0,0,0,0,0,0,0,0,0,0,0,0,0,0,0,0,0,0,0,0,0,0,0,0,0,0,0,0,0,0,0,0,0,0,0,0,0],"sum_hessian":[2.7041982E4,1.1600035E4,1.5441948E4,8.284291E3,3.3157441E3,9.534111E2,1.4488537E4,7.439053E3,8.4523785E2,8.641499E1,3.229329E3,9.3890234E2,1.4508738E1,7.5400596E3,6.9484775E3,5.727261E3,1.7117916E3,8.0303986E1,7.6493384E2,5.4952965E1,3.1462027E1,8.3224426E2,2.397085E3,3.9212112E2,5.4678125E2,8.79278E0,5.715957E0,4.4579425E2,7.094265E3,1.5449521E3,5.4035254E3,5.237508E3,4.8975357E2,1.0995544E3,6.122372E2,7.678045E1,3.5235407E0,4.3237415E2,3.325597E2,4.0868645E1,1.4084322E1,3.0224918E1,1.237108E0,1.2391953E2,7.083247E2,7.9638025E2,1.6007047E3,3.211176E2,7.100349E1,2.1362344E2,3.3315778E2,1.8257302E0,6.9670496E0,2.249489E0,3.466468E0,1.8551097E2,2.6028326E2,1.39074335E1,7.080358E3,5.94373E2,9.505792E2,3.5717761E3,1.8317491E3,3.0095425E3,2.2279653E3,1.3258946E1,4.7649463E2,1.5537926E2,9.4417523E2,5.346693E2,7.7567856E1,5.3819275E0,7.139852E1,1.8003402E0,1.7232007E0,3.9861395E2,3.3760193E1,1.5536919E2,1.771905E2,3.9757755E1,1.1108899E0,6.9106865E0,7.173635E0,1.950615E1,1.0718768E1,1.7761263E1,1.0615827E2,4.1025116E1,6.6729956E2,5.2086475E2,2.7551547E2,2.5594472E2,1.3447599E3,2.593711E1,2.951805E2,1.550711E1,5.5496376E1,1.5993448E2,5.368897E1,2.7725272E2,5.590507E1,4.8358817E0,2.131168E0,1.1078732E0,1.1416159E0,1.6442838E0,1.8221843E0,1.2832611E2,5.7184864E1,1.8997177E2,7.0311516E1,6.997719E0,6.909715E0,2.4365588E3,4.6437993E3,4.563501E2,1.3802292E2,1.345804E2,8.159988E2,1.2310847E3,2.3406914E3,7.6152856E2,1.0702206E3],"tree_param":{"num_deleted":"0","num_feature":"49","num_nodes":"123","size_leaf_vector":"1"}},{"base_weights":[-3.6428263E-4,2.5181541E-2,-5.3060874E-2,6.898361E-2,-2.5206555E-2,-4.2660575E-2,-5.9434426E-1,5.719725E-2,4.319619E-1,-6.6985935E-2,1.0019873E-1,-1.0027333E-1,5.6565728E-2,-1.3546542E0,7.075925E-2,1.2577283E-1,-1.2640305E-3,2.7022398E-1,9.444584E-1,-2.919066E-2,-2.230222E-1,1.13203906E-1,-1.0764773E0,-1.1171229E-1,5.825883E-1,6.85351E-3,2.873279E-1,-1.1823075E0,-1.0442735E0,6.0553676E-1,-3.220676E-1,1.5381382E-1,-3.0099148E-1,-5.3350335E-1,1.766769E-2,4.2555192E-1,-3.1719145E-1,3.100066E-1,1.3305053E0,-5.5330837E-1,-1.4340696E-2,-7.029058E-1,1.0403978E-1,4.3470076E-1,7.935695E-2,-2.0319924E0,-1.9142035E-1,-3.1180454E-2,-1.9015159E-1,7.8996465E-2,9.148972E-1,5.4138165E-2,-2.5217843E-1,6.4422584E-1,1.0575067E-1,-6.616773E-1,-1.309494E0,-1.481938E-1,8.8772184E-1,3.0255571E-2,1.4066172E-1,-1.7373624E-1,8.8058256E-2,-2.5653228E-1,-3.2268345E-2,-5.32671E-3,5.3614203E-2,2.1955902E-2,1.8447232E-1,3.2188706E-2,-3.662425E-1,1.5940385E-1,-3.3040535E-1,4.178451E-1,-2.8876642E-2,-1.3497448E-1,-4.866792E-1,1.0175817E-2,-4.413008E-2,-2.73412E-1,1.3595442E-1,-4.1770884E-3,1.1132255E-1,2.141067E-1,-8.933421E-2,-3.0735284E-1,2.6885465E-2,-3.1552758E-2,-6.737169E-1,5.090173E-2,-3.5747758E-1,-1.9740447E-2,6.3755326E-2,-5.111904E-2,-2.220657E-1,1.640872E-1,-2.2240321E-1,-2.214832E-1,2.927679E-1,2.901738E-2,-6.113218E-2,-2.3478249E-1,2.0275857E-2,3.725203E-1,1.4733364E-1,1.6410393E-1,-3.461707E-2,-3.176656E-1,-1.0255775E-2,-9.419209E-2,-4.1207084E-1,-1.5498295E-1,1.7937009E-1,3.5325915E-1,1.0683822E-1],"categories":[],"categories_nodes":[],"categories_segments":[],"categories_sizes":[],"default_left":[0,0,0,0,0,0,0,0,0,0,0,0,0,0,0,0,0,0,0,0,0,0,0,0,0,0,1,0,0,0,0,0,0,0,0,0,0,0,0,0,0,0,0,0,0,0,0,0,0,0,0,0,0,0,0,0,0,0,0,0,0,0,0,0,0,0,0,0,0,0,0,0,0,0,0,0,0,0,0,0,0,0,0,0,0,0,0,0,0,0,0,0,0,0,0,0,0,0,0,0,0,0,0,0,0,0,0,0,0,0,0,0,0,0,0],"id":13,"left_children":[1,3,5,7,9,11,13,15,17,19,21,23,25,27,29,31,33,35,37,39,41,43,45,47,49,51,53,55,-1,57,-1,59,61,63,65,67,69,71,73,75,77,79,81,83,85,87,89,91,93,95,97,99,101,103,105,107,109,111,113,-1,-1,-1,-1,-1,-1,-1,-1,-1,-1,-1,-1,-1,-1,-1,-1,-1,-1,-1,-1,-1,-1,-1,-1,-1,-1,-1,-1,-1,-1,-1,-1,-1,-1,-1,-1,-1,-1,-1,-1,-1,-1,-1,-1,-1,-1,-1,-1,-1,-1,-1,-1,-1,-1,-1,-1],"loss_changes":[3.609084E1,3.9854424E1,4.9251465E1,4.13019E1,4.400541E1,4.9108513E1,8.350317E1,3.7513256E1,2.491431E1,3.71458E1,3.224244E1,4.251548E1,3.620076E1,2.4105438E1,5.5070274E1,5.1577003E1,5.09152E1,2.1322252E1,1.733007E1,3.9472004E1,1.9284715E2,2.2566225E1,1.9096106E1,3.3762993E1,1.4938459E1,3.18285E1,3.617869E1,3.9509048E0,0E0,1.3157803E1,0E0,6.738583E1,4.4125957E1,2.3683338E1,2.7839865E1,1.2236954E1,1.8977617E1,9.553016E0,4.1109695E0,1.4713951E1,3.1615585E1,1.2042093E2,2.3041214E1,4.0594616E1,2.1390543E1,4.283642E0,4.920771E0,2.2278873E1,2.9299255E1,1.4514667E1,6.160034E0,2.4154568E1,6.809155E1,1.662735E1,3.63549E1,4.0276604E0,3.2331467E0,5.1301875E0,6.4678802E0,0E0,0E0,0E0,0E0,0E0,0E0,0E0,0E0,0E0,0E0,0E0,0E0,0E0,0E0,0E0,0E0,0E0,0E0,0E0,0E0,0E0,0E0,0E0,0E0,0E0,0E0,0E0,0E0,0E0,0E0,0E0,0E0,0E0,0E0,0E0,0E0,0E0,0E0,0E0,0E0,0E0,0E0,0E0,0E0,0E0,0E0,0E0,0E0,0E0,0E0,0E0,0E0,0E0,0E0,0E0,