{"learner":{"attributes":{"scikit_learn":"{\"_estimator_type\": \"classifier\"}"},"feature_names":["EMERGENCY_INDICATOR","PROVIDER_DEPARTMENT_CODE","DOCTOR_SPECIALTY_CODE","DOCTOR_CODE","PATIENT_AGE","UNIT_OF_AGE","PATIENT_NATIONALITY","PATIENT_MARITAL_STATUS","PATIENT_GENDER","CLAIM_TYPE","TOTAL_CLAIMED_AMOUNT_SAR","TOTAL_DISCOUNT","TOTAL_DEDUCTIBLE","TOTAL_PATIENT_VATAMOUNT","DEPARTMENT_TYPE","TREATMENT_TYPE","PURCHASER_CODE","CONTRACT_NO","NEW_BORN","NET_WITH_VAT","LINE_CLAIMED_AMOUNT_SAR","CO_INSURANCE","LINE_ITEM_DISCOUNT","NET_VAT_AMOUNT","PATIENT_VAT_AMOUNT","VAT_PERCENTAGE","TREATMENT_TYPE_INDICATOR","DURATION","QTY","QTY_STOCKED_UOM","UNIT_PRICE_STOCKED_UOM","UNIT_PRICE_NET","DISCOUNT_PERCENTAGE","CombinedText1","CombinedText2","CombinedText3","CombinedText4","CombinedText5","CombinedText6","CombinedText7","CombinedText8","CombinedText9","CombinedText10","CombinedText11","CombinedText12","CombinedText13","CombinedText14","CombinedText15","CombinedText16","ICDText1","ICDText2","ICDText3","ICDText4","ICDText5","ICDText6","ICDText7","ICDText8","ICDText9","ICDText10","ICDText11","ICDText12","ICDText13","ICDText14","ICDText15","ICDText16"],"feature_types":["int","int","float","int","int","int","int","int","int","int","float","float","float","float","float","int","int","int","int","float","float","float","float","float","float","float","int","float","float","int","float","float","float","int","int","int","int","int","int","int","int","int","int","int","int","int","int","int","int","int","int","int","int","int","int","int","int","int","int","int","int","int","int","int","int"],"gradient_booster":{"model":{"gbtree_model_param":{"num_parallel_tree":"1","num_trees":"300"},"iteration_indptr":[0,3,6,9,12,15,18,21,24,27,30,33,36,39,42,45,48,51,54,57,60,63,66,69,72,75,78,81,84,87,90,93,96,99,102,105,108,111,114,117,120,123,126,129,132,135,138,141,144,147,150,153,156,159,162,165,168,171,174,177,180,183,186,189,192,195,198,201,204,207,210,213,216,219,222,225,228,231,234,237,240,243,246,249,252,255,258,261,264,267,270,273,276,279,282,285,288,291,294,297,300],"tree_info":[0,1,2,0,1,2,0,1,2,0,1,2,0,1,2,0,1,2,0,1,2,0,1,2,0,1,2,0,1,2,0,1,2,0,1,2,0,1,2,0,1,2,0,1,2,0,1,2,0,1,2,0,1,2,0,1,2,0,1,2,0,1,2,0,1,2,0,1,2,0,1,2,0,1,2,0,1,2,0,1,2,0,1,2,0,1,2,0,1,2,0,1,2,0,1,2,0,1,2,0,1,2,0,1,2,0,1,2,0,1,2,0,1,2,0,1,2,0,1,2,0,1,2,0,1,2,0,1,2,0,1,2,0,1,2,0,1,2,0,1,2,0,1,2,0,1,2,0,1,2,0,1,2,0,1,2,0,1,2,0,1,2,0,1,2,0,1,2,0,1,2,0,1,2,0,1,2,0,1,2,0,1,2,0,1,2,0,1,2,0,1,2,0,1,2,0,1,2,0,1,2,0,1,2,0,1,2,0,1,2,0,1,2,0,1,2,0,1,2,0,1,2,0,1,2,0,1,2,0,1,2,0,1,2,0,1,2,0,1,2,0,1,2,0,1,2,0,1,2,0,1,2,0,1,2,0,1,2,0,1,2,0,1,2,0,1,2,0,1,2,0,1,2,0,1,2,0,1,2,0,1,2,0,1,2,0,1,2,0,1,2,0,1,2,0,1,2,0,1,2],"trees":[{"base_weights":[5.9689324E-2,-1.4719144E-1,5.790776E-1,-2.3329069E-1,2.8041512E-1,8.372376E-1,3.834775E-1,-3.57615E-1,-5.788812E-2,5.6186336E-1,-2.758143E-1,9.7789264E-1,3.005709E-2,2.0428477E-1,5.333881E-1,-2.0309836E-1,-4.5990282E-1,-4.296531E-1,2.4654604E-2,3.6269158E-1,9.43004E-1,-1.2966569E-1,-4.9232492E-1,1.8586463E-1,1.0176986E0,9.657228E-1,-1.5695429E-1,8.4632546E-2,3.9308488E-1,6.909329E-1,2.381958E-1,-2.4737746E-1,-1.4415696E-2,-4.8329642E-1,5.7082653E-1,-2.3473568E-2,-5.58288E-1,2.2251979E-1,-7.9967156E-2,2.9042515E-1,6.838131E-1,1.0017163E0,1.0990837E-1,-2.0931181E-1,8.746803E-1,2.6348805E-1,-5.523542E-1,-2.0035194E-2,1.3803681E0,8.449376E-1,1.1753896E0,4.7081336E-1,4.458547E-1,-3.0552024E-1,7.349063E-1,7.5671273E-1,5.5859074E-2,5.3110397E-1,1.4422648E-1,9.047919E-2,8.458516E-1,1.7993349E-1,1.0227758E0,-7.666033E-2,2.2762063E-1,1.1668341E-1,-2.922442E-2,-1.7988941E-1,-1.11240365E-1,-8.007739E-2,2.2107102E-1,-1.0780119E-1,6.1349254E-2,7.432674E-2,-1.7353436E-1,1.6290776E-2,1.0661511E-1,7.044251E-2,-4.7063522E-2,1.2031776E-1,2.2478916E-2,1.7328E-1,4.4453442E-1,-1.0239523E-1,3.1265467E-1,-1.1775703E-1,2.7722344E-1,-7.790092E-2,4.3455377E-1,-1.321101E-1,3.0027962E-1,2.3793104E-1,1.6513631E-3,3.5257723E-2,-1.7582501E-1,-7.1121246E-2,3.542334E-1,-9.753488E-9,4.354839E-1,2.2155742E-1,2.7618814E-1,2.820391E-1,3.9546537E-1,2.4217336E-1,-1.4092529E-1,-1.6243905E-1,1.14893485E-2,3.855162E-1,8.426966E-2,-5.5012245E-2,3.636912E-1,1.0990139E-2,2.137087E-1,2.0845903E-1,1.2222859E-1,1.4343856E-1,-2.0115372E-2,1.2906906E-1,-1.4400002E-1,1.9459459E-1,2.7044618E-1,7.124581E-2,-9.911691E-2,-1.0297497E-2,4.458547E-1],"categories":[],"categories_nodes":[],"categories_segments":[],"categories_sizes":[],"default_left":[0,0,0,0,0,1,0,0,0,0,0,0,0,0,0,0,0,0,0,0,0,0,0,0,0,0,0,0,0,0,0,0,0,0,0,0,0,0,0,0,0,0,0,0,0,0,0,0,0,0,0,0,0,0,0,0,0,0,0,0,0,0,0,0,0,0,0,0,0,0,0,0,0,0,0,0,0,0,0,0,0,0,0,0,0,0,0,0,0,0,0,0,0,0,0,0,0,0,0,0,0,0,0,0,0,0,0,0,0,0,0,0,0,0,0,0,0,0,0,0,0,0,0,0,0],"id":0,"left_children":[1,3,5,7,9,11,13,15,17,19,21,23,25,27,29,31,33,35,37,39,41,43,45,47,49,51,53,55,57,59,61,63,65,67,69,71,73,75,77,79,81,83,85,87,89,91,93,95,97,99,101,103,-1,105,107,109,111,113,115,117,119,121,123,-1,-1,-1,-1,-1,-1,-1,-1,-1,-1,-1,-1,-1,-1,-1,-1,-1,-1,-1,-1,-1,-1,-1,-1,-1,-1,-1,-1,-1,-1,-1,-1,-1,-1,-1,-1,-1,-1,-1,-1,-1,-1,-1,-1,-1,-1,-1,-1,-1,-1,-1,-1,-1,-1,-1,-1,-1,-1,-1,-1,-1,-1],"loss_changes":[7.907663E3,1.9377191E3,1.0582407E3,9.5532324E2,1.3811504E3,1.0258257E3,3.2032642E2,4.0511084E2,5.576762E2,4.4434485E2,9.374278E1,2.424082E2,2.3495544E2,1.2275029E2,3.0186084E2,8.53266E1,3.7221094E2,1.7250677E2,3.0788538E2,8.912247E1,9.819922E1,1.4186717E2,5.4333557E1,9.08918E1,1.9859717E2,5.6912384E1,1.485216E2,6.431702E1,7.233115E1,3.9376636E2,1.0318985E2,6.808148E1,6.506434E1,1.9717383E2,4.7887733E1,6.096143E1,4.0892395E1,1.1495157E2,2.3557373E2,7.491855E1,5.9009216E1,1.0238953E2,5.4950138E1,1.3744849E2,2.207962E1,1.20951605E1,2.5075928E1,8.266455E1,5.3433533E0,2.7507324E1,1.2737695E2,3.7120834E1,0E0,7.790643E1,3.9630157E1,5.8708405E1,4.02686E1,2.7173248E1,5.31846E1,1.6872299E2,3.633911E1,6.1942276E1,7.652472E1,0E0,0E0,0E0,0E0,0E0,0E0,0E0,0E0,0E0,0E0,0E0,0E0,0E0,0E0,0E0,0E0,0E0,0E0,0E0,0E0,0E0,0E0,0E0,0E0,0E0,0E0,0E0,0E0,0E0,0E0,0E0,0E0,0E0,0E0,0E0,0E0,0E0,0E0,0E0,0E0,0E0,0E0,0E0,0E0,0E0,0E0,0E0,0E0,0E0,0E0,0E0,0E0,0E0,0E0,0E0,0E0,0E0,0E0,0E0,0E0,0E0,0E0],"parents":[2147483647,0,0,1,1,2,2,3,3,4,4,5,5,6,6,7,7,8,8,9,9,10,10,11,11,12,12,13,13,14,14,15,15,16,16,17,17,18,18,19,19,20,20,21,21,22,22,23,23,24,24,25,25,26,26,27,27,28,28,29,29,30,30,31,31,32,32,33,33,34,34,35,35,36,36,37,37,38,38,39,39,40,40,41,41,42,42,43,43,44,44,45,45,46,46,47,47,48,48,49,49,50,50,51,51,53,53,54,54,55,55,56,56,57,57,58,58,59,59,60,60,61,61,62,62],"right_children":[2,4,6,8,10,12,14,16,18,20,22,24,26,28,30,32,34,36,38,40,42,44,46,48,50,52,54,56,58,60,62,64,66,68,70,72,74,76,78,80,82,84,86,88,90,92,94,96,98,100,102,104,-1,106,108,110,112,114,116,118,120,122,124,-1,-1,-1,-1,-1,-1,-1,-1,-1,-1,-1,-1,-1,-1,-1,-1,-1,-1,-1,-1,-1,-1,-1,-1,-1,-1,-1,-1,-1,-1,-1,-1,-1,-1,-1,-1,-1,-1,-1,-1,-1,-1,-1,-1,-1,-1,-1,-1,-1,-1,-1,-1,-1,-1,-1,-1,-1,-1,-1,-1,-1,-1],"split_conditions":[2.086E3,8.55E2,2.169E3,1.83E2,3.002E1,3.9E1,1.13862E3,6.713E1,2E-1,3E1,6.28E2,2.126E3,2.132E3,1.15101E5,1.17484E5,2.13E2,8.11E2,1E0,2E0,3E1,3.807E1,4E1,1.5E-1,3E1,7.8132E2,2.126E3,1E0,5E0,1.17484E5,1.14948E5,7.444848E4,7.45E2,2.48E2,8.3E1,2.2E1,1E2,6E0,2.2E1,5.2E1,5.20516E3,1.487E3,9.8E-1,6.2E1,2.75E2,1.5E-1,3.49E0,4.17903E3,5.5E1,3.2081E2,6E0,2.5E1,9.621E3,4.458547E-1,7.297E4,7.4302E4,1.13495E5,8.11E2,6.2E1,5.27E0,2.5E1,1.54587E3,1.222316E4,4.946E3,-7.666033E-2,2.2762063E-1,1.1668341E-1,-2.922442E-2,-1.7988941E-1,-1.11240365E-1,-8.007739E-2,2.2107102E-1,-1.0780119E-1,6.1349254E-2,7.432674E-2,-1.7353436E-1,1.6290776E-2,1.0661511E-1,7.044251E-2,-4.7063522E-2,1.2031776E-1,2.2478916E-2,1.7328E-1,4.4453442E-1,-1.0239523E-1,3.1265467E-1,-1.1775703E-1,2.7722344E-1,-7.790092E-2,4.3455377E-1,-1.321101E-1,3.0027962E-1,2.3793104E-1,1.6513631E-3,3.5257723E-2,-1.7582501E-1,-7.1121246E-2,3.542334E-1,-9.753488E-9,4.354839E-1,2.2155742E-1,2.7618814E-1,2.820391E-1,3.9546537E-1,2.4217336E-1,-1.4092529E-1,-1.6243905E-1,1.14893485E-2,3.855162E-1,8.426966E-2,-5.5012245E-2,3.636912E-1,1.0990139E-2,2.137087E-1,2.0845903E-1,1.2222859E-1,1.4343856E-1,-2.0115372E-2,1.2906906E-1,-1.4400002E-1,1.9459459E-1,2.7044618E-1,7.124581E-2,-9.911691E-2,-1.0297497E-2,4.458547E-1],"split_indices":[16,14,16,16,32,14,10,30,22,32,16,16,16,17,17,49,51,15,6,1,12,32,25,1,11,16,15,1,17,17,10,43,49,33,33,21,33,1,33,11,16,31,4,16,25,30,10,4,10,38,32,3,0,17,17,17,51,49,12,32,10,11,3,0,0,0,0,0,0,0,0,0,0,0,0,0,0,0,0,0,0,0,0,0,0,0,0,0,0,0,0,0,0,0,0,0,0,0,0,0,0,0,0,0,0,0,0,0,0,0,0,0,0,0,0,0,0,0,0,0,0,0,0,0,0],"split_type":[0,0,0,0,0,0,0,0,0,0,0,0,0,0,0,0,0,0,0,0,0,0,0,0,0,0,0,0,0,0,0,0,0,0,0,0,0,0,0,0,0,0,0,0,0,0,0,0,0,0,0,0,0,0,0,0,0,0,0,0,0,0,0,0,0,0,0,0,0,0,0,0,0,0,0,0,0,0,0,0,0,0,0,0,0,0,0,0,0,0,0,0,0,0,0,0,0,0,0,0,0,0,0,0,0,0,0,0,0,0,0,0,0,0,0,0,0,0,0,0,0,0,0,0,0],"sum_hessian":[7.359111E4,5.2628887E4,2.096222E4,4.380844E4,8.820444E3,9.034666E3,1.1927555E4,2.5636443E4,1.8171998E4,5.8568887E3,2.9635554E3,7.6937773E3,1.3408888E3,5.4342217E3,6.493333E3,1.0212443E4,1.5423999E4,3.3008887E3,1.487111E4,3.8479998E3,2.0088888E3,1.7702222E3,1.1933333E3,3.6844443E2,7.325333E3,2.2266666E2,1.1182222E3,3.3271108E3,2.107111E3,4.2328887E3,2.2604443E3,8.27111E3,1.9413333E3,1.5082222E4,3.4177777E2,7.9422217E2,2.5066665E3,5.143111E3,9.727999E3,3.1426665E3,7.053333E2,1.8764443E3,1.3244444E2,1.6408888E3,1.2933333E2,8.755555E1,1.1057777E3,3.1511108E2,5.333333E1,3.4986665E3,3.8266665E3,1.1511111E2,1.0755555E2,9.591111E2,1.591111E2,1.3555554E2,3.1915554E3,1.3546666E3,7.524444E2,8.684444E2,3.3644443E3,2.1053333E3,1.551111E2,8.205333E3,6.577777E1,3.3066666E2,1.6106666E3,7.412444E3,7.6697773E3,5.6444443E1,2.853333E2,3.2088885E2,4.733333E2,6.0888885E1,2.4457776E3,2.2702222E3,2.8728887E3,1.9097777E3,7.8182217E3,2.0759998E3,1.0666666E3,6.2399994E2,8.133333E1,5.4666664E1,1.8217777E3,8.222221E1,5.0222218E1,1.5933333E3,4.7555553E1,1.1111111E1,1.1822221E2,2.7999998E1,5.9555553E1,5.2888885E1,1.0528888E3,2.6755554E2,4.7555553E1,2.6666665E0,5.0666664E1,1.4586666E3,2.0399999E3,1.4484443E3,2.3782222E3,8.4888885E1,3.0222221E1,5.684444E2,3.9066666E2,7.111111E1,8.799999E1,4.4444443E1,9.111111E1,3.1017776E3,8.977777E1,5.8088885E2,7.737777E2,2.9111108E2,4.613333E2,5.444444E2,3.2399997E2,7.431111E2,2.6213333E3,1.8924443E3,2.1288887E2,4.7555553E1,1.0755555E2],"tree_param":{"num_deleted":"0","num_feature":"65","num_nodes":"125","size_leaf_vector":"1"}},{"base_weights":[4.5383483E-1,6.029717E-1,7.939297E-2,2.1363512E-1,7.095109E-1,-2.3617521E-1,3.1842354E-1,1.2874587E-3,8.6938184E-1,9.1653377E-1,4.175E-1,5.4998696E-1,-3.6630988E-1,5.0178874E-1,1.6491295E-1,2.557981E-1,-2.9206443E-1,-4.6690524E-1,9.655172E-1,1.0690476E0,7.239863E-1,6.640899E-1,2.789624E-1,-3.0687028E-1,7.24914E-1,-1.6378254E-2,-4.1549936E-1,6.284846E-1,3.0153373E-1,2.8893802E-2,4.1949585E-1,-1.1746004E-2,5.6141716E-1,-3.60898E-1,2.0790017E-1,-5.8622956E-1,6.8944097E-1,8.138211E-1,1.1513871E0,1.0944908E0,9.1291636E-2,1.2303835E0,5.311993E-1,5.0526315E-1,7.903628E-1,-1.5756647E-1,3.449722E-1,9.951215E-2,-2.228662E-1,8.245573E-1,-1.7409332E-1,-2.0845784E-1,5.250332E-1,-2.7162334E-1,-5.692542E-1,-1.9528117E-2,6.5600526E-1,2.0548928E-1,4.861989E-1,5.4364216E-1,-1.0409725E-1,5.289932E-1,1.4512741E-2,-1.0063623E-1,2.3212226E-1,1.12346046E-1,1.9745515E-1,-1.2253118E-1,1.5493379E-2,1.939302E-1,-4.803051E-2,-1.9429739E-1,2.9508197E-1,3.2727274E-1,-1.2857145E-1,7.647668E-2,2.5759798E-1,1.400251E-1,3.620937E-1,1.9049452E-1,3.3465323E-1,2.8503743E-1,-1.101225E-2,2.3564935E-1,3.9470348E-1,5.9099015E-2,1.8980864E-1,1.6805747E-1,-1.0671951E-2,2.5265798E-1,1.4755063E-1,-1.5919697E-1,3.5686526E-2,1.6752931E-1,8.1061564E-2,-5.3784877E-2,2.530249E-1,3.169756E-1,1.4553191E-1,3.3934426E-1,-7.787515E-2,3.9944393E-3,-1.4907779E-1,1.01585284E-1,2.834543E-1,1.2660538E-2,-9.873903E-2,-1.8338782E-1,-1.2682377E-1,2.6845968E-1,-1.4113392E-1,2.0349507E-1,-3.4149345E-2,7.0946105E-2,-9.112346E-2,5.844155E-2,2.0172022E-1,5.5367682E-2,3.4338462E-1,-2.5459835E-2,-2.0120849E-1,1.925707E-1,8.440293E-2,1.4943396E-1,-5.9206627E-2],"categories":[],"categories_nodes":[],"categories_segments":[],"categories_sizes":[],"default_left":[0,1,0,0,0,0,0,0,0,0,0,0,0,0,0,0,0,0,0,0,0,0,0,0,0,0,0,0,0,0,0,0,0,0,0,0,0,0,0,0,0,0,0,0,0,0,0,0,0,0,0,0,0,0,0,0,0,0,0,0,0,0,0,0,0,0,0,0,0,0,0,0,0,0,0,0,0,0,0,0,0,0,0,0,0,0,0,0,0,0,0,0,0,0,0,0,0,0,0,0,0,0,0,0,0,0,0,0,0,0,0,0,0,0,0,0,0,0,0,0,0,0,0,0,0],"id":1,"left_children":[1,3,5,7,9,11,13,15,17,19,21,23,25,27,29,31,33,35,37,39,41,43,45,47,49,51,53,55,57,59,61,63,65,67,69,71,73,75,77,79,81,83,85,87,89,91,93,95,-1,97,99,101,103,105,107,109,111,113,115,117,119,121,123,-1,-1,-1,-1,-1,-1,-1,-1,-1,-1,-1,-1,-1,-1,-1,-1,-1,-1,-1,-1,-1,-1,-1,-1,-1,-1,-1,-1,-1,-1,-1,-1,-1,-1,-1,-1,-1,-1,-1,-1,-1,-1,-1,-1,-1,-1,-1,-1,-1,-1,-1,-1,-1,-1,-1,-1,-1,-1,-1,-1,-1,-1],"loss_changes":[4.1095635E3,2.182916E3,1.5813403E3,1.5747349E3,2.4976484E3,9.24613E2,3.3568823E2,6.379549E2,3.5582666E2,7.092637E2,5.854912E2,1.9262802E2,1.3344519E2,1.3771008E2,2.2487462E2,3.7410687E2,1.3668082E2,2.6114487E1,7.183618E1,3.3548926E2,1.0429663E3,1.2326953E2,3.1640973E2,3.876033E1,9.566577E1,9.958557E1,1.5021594E2,5.936548E1,3.7289673E1,2.8989557E2,1.00275116E2,6.2081573E2,3.8384827E1,6.845599E1,7.7727875E1,1.697697E1,8.496895E0,3.5481018E1,4.3489014E1,1.262832E2,3.776525E1,1.1078613E2,2.6255762E2,8.123633E1,5.2710938E1,1.4891083E2,1.5205652E2,2.37714E1,0E0,7.510785E1,1.2258097E1,4.5222248E1,1.9305916E1,6.3421234E1,1.9973877E1,5.6725132E1,5.4913574E1,2.1990341E1,3.8964935E1,1.8741434E2,3.6614033E1,4.9594727E1,4.951795E1,0E0,0E0,0E0,0E0,0E0,0E0,0E0,0E0,0E0,0E0,0E0,0E0,0E0,0E0,0E0,0E0,0E0,0E0,0E0,0E0,0E0,0E0,0E0,0E0,0E0,0E0,0E0,0E0,0E0,0E0,0E0,0E0,0E0,0E0,0E0,0E0,0E0,0E0,0E0,0E0,0E0,0E0,0E0,0E0,0E0,0E0,0E0,0E0,0E0,0E0,0E0,0E0,0E0,0E0,0E0,0E0,0E0,0E0,0E0,0E0,0E0,0E0],"parents":[2147483647,0,0,1,1,2,2,3,3,4,4,5,5,6,6,7,7,8,8,9,9,10,10,11,11,12,12,13,13,14,14,15,15,16,16,17,17,18,18,19,19,20,20,21,21,22,22,23,23,24,24,25,25,26,26,27,27,28,28,29,29,30,30,31,31,32,32,33,33,34,34,35,35,36,36,37,37,38,38,39,39,40,40,41,41,42,42,43,43,44,44,45,45,46,46,47,47,49,49,50,50,51,51,52,52,53,53,54,54,55,55,56,56,57,57,58,58,59,59,60,60,61,61,62,62],"right_children":[2,4,6,8,10,12,14,16,18,20,22,24,26,28,30,32,34,36,38,40,42,44,46,48,50,52,54,56,58,60,62,64,66,68,70,72,74,76,78,80,82,84,86,88,90,92,94,96,-1,98,100,102,104,106,108,110,112,114,116,118,120,122,124,-1,-1,-1,-1,-1,-1,-1,-1,-1,-1,-1,-1,-1,-1,-1,-1,-1,-1,-1,-1,-1,-1,-1,-1,-1,-1,-1,-1,-1,-1,-1,-1,-1,-1,-1,-1,-1,-1,-1,-1,-1,-1,-1,-1,-1,-1,-1,-1,-1,-1,-1,-1,-1,-1,-1,-1,-1,-1,-1,-1,-1,-1],"split_conditions":[2.086E3,5E0,2.169E3,3.5E1,1E0,5E0,1.13862E3,2.5E1,1.83E2,1.83E2,1.725E1,2.132E3,2.134E3,1.15101E5,1.17484E5,1.83E2,2.2E1,1.34305E3,6.28E2,8.11E2,1E1,6.4E1,2E1,2.126E3,1E0,1.908E1,4.539E3,5E0,1.18927E5,1.14948E5,1.6E1,1.4423E2,4E0,6.28E2,2.4E1,3.9E1,1E1,2.7266E3,1.5E-1,5.48E1,8E0,7.6E1,5.6E1,2.33E2,1.82E2,2.205E1,5.05E0,9.621E3,-2.228662E-1,7.297E4,2.134E3,4.8E1,2.615759E4,4.95E0,1E0,1.13495E5,8.11E2,1.2157E2,1.079E1,2.5E1,1.0037E4,2.5616E2,3.000222E4,-1.0063623E-1,2.3212226E-1,1.12346046E-1,1.9745515E-1,-1.2253118E-1,1.5493379E-2,1.939302E-1,-4.803051E-2,-1.9429739E-1,2.9508197E-1,3.2727274E-1,-1.2857145E-1,7.647668E-2,2.5759798E-1,1.400251E-1,3.620937E-1,1.9049452E-1,3.3465323E-1,2.8503743E-1,-1.101225E-2,2.3564935E-1,3.9470348E-1,5.9099015E-2,1.8980864E-1,1.6805747E-1,-1.0671951E-2,2.5265798E-1,1.4755063E-1,-1.5919697E-1,3.5686526E-2,1.6752931E-1,8.1061564E-2,-5.3784877E-2,2.530249E-1,3.169756E-1,1.4553191E-1,3.3934426E-1,-7.787515E-2,3.9944393E-3,-1.4907779E-1,1.01585284E-1,2.834543E-1,1.2660538E-2,-9.873903E-2,-1.8338782E-1,-1.2682377E-1,2.6845968E-1,-1.4113392E-1,2.0349507E-1,-3.4149345E-2,7.0946105E-2,-9.112346E-2,5.844155E-2,2.0172022E-1,5.5367682E-2,3.4338462E-1,-2.5459835E-2,-2.0120849E-1,1.925707E-1,8.440293E-2,1.4943396E-1,-5.9206627E-2],"split_indices":[16,14,16,32,27,2,10,32,16,16,20,16,16,17,17,16,42,30,16,51,22,40,37,16,15,2,10,1,17,17,2,30,37,16,36,1,50,11,25,30,33,33,33,46,49,30,2,3,0,17,16,4,10,32,27,17,51,12,12,32,3,19,10,0,0,0,0,0,0,0,0,0,0,0,0,0,0,0,0,0,0,0,0,0,0,0,0,0,0,0,0,0,0,0,0,0,0,0,0,0,0,0,0,0,0,0,0,0,0,0,0,0,0,0,0,0,0,0,0,0,0,0,0,0,0],"split_type":[0,0,0,0,0,0,0,0,0,0,0,0,0,0,0,0,0,0,0,0,0,0,0,0,0,0,0,0,0,0,0,0,0,0,0,0,0,0,0,0,0,0,0,0,0,0,0,0,0,0,0,0,0,0,0,0,0,0,0,0,0,0,0,0,0,0,0,0,0,0,0,0,0,0,0,0,0,0,0,0,0,0,0,0,0,0,0,0,0,0,0,0,0,0,0,0,0,0,0,0,0,0,0,0,0,0,0,0,0,0,0,0,0,0,0,0,0,0,0,0,0,0,0,0,0],"sum_hessian":[7.359111E4,5.2628887E4,2.096222E4,1.1307999E4,4.1320887E4,9.034666E3,1.1927555E4,8.542666E3,2.7653333E3,2.4177775E4,1.714311E4,1.2826666E3,7.7519995E3,5.4342217E3,6.493333E3,4.574222E3,3.968444E3,1.8533333E2,2.5799998E3,1.3488888E4,1.0688889E4,6.165333E3,1.0977777E4,2.1733331E2,1.0653333E3,9.555555E2,6.796444E3,3.3271108E3,2.107111E3,4.2328887E3,2.2604443E3,2.4395554E3,2.1346665E3,3.4884443E3,4.7999997E2,1.6844443E2,1.6888887E1,1.4235554E3,1.1564443E3,1.3146666E4,3.422222E2,2.9457776E3,7.743111E3,2.7328887E3,3.4324443E3,1.4417777E3,9.535999E3,1.12888885E2,1.04444435E2,9.591111E2,1.0622221E2,7.057777E2,2.4977776E2,3.5124443E3,3.2839998E3,1.3555554E2,3.1915554E3,1.3875554E3,7.1955554E2,8.684444E2,3.3644443E3,1.779111E3,4.813333E2,1.7279999E3,7.1155554E2,7.297777E2,1.4048888E3,3.1279998E3,3.6044443E2,2.1866666E2,2.613333E2,1.6266666E2,5.7777777E0,1.2444444E1,4.444444E0,1.0622221E2,1.3173333E3,8.755555E1,1.0688888E3,5.764444E2,1.2570222E4,4.3555553E1,2.9866666E2,4.7555554E2,2.4702222E3,1.8044443E3,5.9386665E3,2.4808887E3,2.5199998E2,2.9231108E3,5.093333E2,6.133333E2,8.284444E2,2.4719998E3,7.0639995E3,8.2666664E1,3.0222221E1,5.684444E2,3.9066666E2,5.7777777E0,1.00444435E2,3.9955554E2,3.062222E2,1.7422221E2,7.555555E1,5.4399994E2,2.9684443E3,2.5493333E3,7.346666E2,4.4444443E1,9.111111E1,3.1017776E3,8.977777E1,1.3084443E3,7.911111E1,2.813333E2,4.382222E2,5.444444E2,3.2399997E2,3.2551108E3,1.0933333E2,1.2208888E3,5.5822217E2,1.4622221E2,3.3511108E2],"tree_param":{"num_deleted":"0","num_feature":"65","num_nodes":"125","size_leaf_vector":"1"}},{"base_weights":[-5.135243E-1,-3.7822726E-1,-6.005255E-1,3.9920923E-1,-4.3519846E-1,-5.637078E-1,-7.019012E-1,-3.2112926E-2,7.7235854E-1,-1.6779044E-1,-6.372425E-1,-6.95031E-1,-5.418309E-1,-6.190883E-1,-7.1553725E-1,3.6097366E-1,-6.572239E-1,4.6142504E-1,1.329114E0,5.8165175E-1,-2.8845322E-1,-5.2349126E-1,-6.955795E-1,-7.257005E-1,-3.4456494E-1,-4.5258585E-1,-5.941978E-1,-6.680625E-1,-5.659841E-1,-7.4353504E-1,-6.479353E-1,-2.8535268E-1,1.1375707E0,-7.3890173E-1,1.0965517E0,9.376884E-1,5.7525923E-3,1.3563973E0,-1.8679248E-1,4.2411485E-1,1.4046693E0,6.151221E-1,-3.2855633E-1,-6.352111E-1,-1.408958E-1,-6.9799715E-1,4.1284406E-1,-7.4244165E-1,-6.8643856E-1,3.9999998E-1,-4.9700394E-1,-3.8385037E-1,-5.465079E-1,-6.4048815E-1,-5.6130654E-1,-6.7334443E-1,2.2641507E-1,-4.4386622E-1,-5.9234726E-1,-7.455255E-1,-6.346624E-1,-6.540269E-1,-2.7394214E-1,-1.0331202E-1,3.230769E-1,3.9418814E-1,1.978022E-1,-2.2432615E-1,-1.07288365E-8,3.9767444E-1,-1.4400001E-1,3.1456313E-1,-1.6478875E-1,1.5652174E-1,-6.952073E-2,4.370838E-1,2.9679573E-1,3.1204996E-1,5.777886E-3,-2.0930246E-2,4.4569084E-1,-1.1770626E-1,2.292683E-1,-1.3362393E-1,2.484487E-3,-1.9951488E-1,9.798719E-2,4.49366E-2,-1.7543653E-1,-1.7042255E-1,-2.139745E-1,-2.2293063E-1,7.2E-2,-2.0659775E-1,1.7999999E-1,4.0040818E-1,-7.994272E-2,1.2676044E-2,-1.8275864E-1,-1.7081343E-1,-8.98479E-2,-1.3747457E-1,-1.772081E-1,-1.9752492E-1,-1.6947642E-1,-1.860556E-1,-1.5970314E-1,-1.0155644E-1,-2.051654E-1,1.9459459E-1,-1.4400001E-1,6.792452E-2,-1.4043047E-1,-6.644297E-2,-1.8024422E-1,-2.2431535E-1,-1.9931859E-1,-1.943941E-1,7.2E-2,-2.0542817E-1,-1.7236863E-1,4.323143E-2,-2.0436685E-1],"categories":[],"categories_nodes":[],"categories_segments":[],"categories_sizes":[],"default_left":[0,0,0,0,0,0,0,0,0,0,0,0,0,0,0,0,0,0,0,0,0,0,0,0,0,0,0,0,0,0,0,0,0,0,0,0,0,0,0,0,0,0,0,0,0,0,0,0,0,0,0,0,0,0,0,0,0,0,0,0,0,0,0,0,0,0,0,0,0,0,0,0,0,0,0,0,0,0,0,0,0,0,0,0,0,0,0,0,0,0,0,0,0,0,0,0,0,0,0,0,0,0,0,0,0,0,0,0,0,0,0,0,0,0,0,0,0,0,0,0,0,0,0],"id":2,"left_children":[1,3,5,7,9,11,13,15,17,19,21,23,25,27,29,31,33,35,37,39,41,43,45,47,49,51,53,55,57,59,61,63,65,67,69,71,73,75,-1,77,79,81,83,85,87,89,-1,91,93,95,97,99,101,103,105,107,109,111,113,115,117,119,121,-1,-1,-1,-1,-1,-1,-1,-1,-1,-1,-1,-1,-1,-1,-1,-1,-1,-1,-1,-1,-1,-1,-1,-1,-1,-1,-1,-1,-1,-1,-1,-1,-1,-1,-1,-1,-1,-1,-1,-1,-1,-1,-1,-1,-1,-1,-1,-1,-1,-1,-1,-1,-1,-1,-1,-1,-1,-1,-1,-1],"loss_changes":[8.6602344E2,1.2759702E3,1.6677637E2,3.166444E2,1.4499199E3,9.403027E1,1.3027344E1,2.2469128E2,1.819834E2,1.0448225E3,1.0108008E2,5.0150146E1,1.3139648E2,4.0272217E0,1.8891113E1,2.8213327E2,5.137561E1,1.4720656E2,2.0943604E1,2.071557E2,3.607802E2,2.2159253E2,5.155664E1,2.3239746E0,4.3240788E1,6.707446E1,2.6668457E1,4.289612E0,2.3745117E0,1.0942383E0,6.6678467E0,2.5072306E1,2.0662933E1,2.2100677E0,6.453636E0,5.5247925E1,4.2724247E1,1.2309387E1,0E0,3.357713E2,3.0784454E1,6.3876434E1,3.7506445E2,1.1541455E2,1.5150024E2,1.9589355E1,0E0,2.1312256E0,4.132141E0,4.0847458E1,1.9096733E1,9.406891E1,1.6895874E1,9.608154E0,1.7381104E1,2.8415527E0,2.0678427E0,2.5336304E0,1.9732208E0,7.651367E-1,1.7462006E0,6.8272705E0,8.592369E0,0E0,0E0,0E0,0E0,0E0,0E0,0E0,0E0,0E0,0E0,0E0,0E0,0E0,0E0,0E0,0E0,0E0,0E0,0E0,0E0,0E0,0E0,0E0,0E0,0E0,0E0,0E0,0E0,0E0,0E0,0E0,0E0,0E0,0E0,0E0,0E0,0E0,0E0,0E0,0E0,0E0,0E0,0E0,0E0,0E0,0E0,0E0,0E0,0E0,0E0,0E0,0E0,0E0,0E0,0E0,0E0,0E0,0E0,0E0,0E0],"parents":[2147483647,0,0,1,1,2,2,3,3,4,4,5,5,6,6,7,7,8,8,9,9,10,10,11,11,12,12,13,13,14,14,15,15,16,16,17,17,18,18,19,19,20,20,21,21,22,22,23,23,24,24,25,25,26,26,27,27,28,28,29,29,30,30,31,31,32,32,33,33,34,34,35,35,36,36,37,37,39,39,40,40,41,41,42,42,43,43,44,44,45,45,47,47,48,48,49,49,50,50,51,51,52,52,53,53,54,54,55,55,56,56,57,57,58,58,59,59,60,60,61,61,62,62],"right_children":[2,4,6,8,10,12,14,16,18,20,22,24,26,28,30,32,34,36,38,40,42,44,46,48,50,52,54,56,58,60,62,64,66,68,70,72,74,76,-1,78,80,82,84,86,88,90,-1,92,94,96,98,100,102,104,106,108,110,112,114,116,118,120,122,-1,-1,-1,-1,-1,-1,-1,-1,-1,-1,-1,-1,-1,-1,-1,-1,-1,-1,-1,-1,-1,-1,-1,-1,-1,-1,-1,-1,-1,-1,-1,-1,-1,-1,-1,-1,-1,-1,-1,-1,-1,-1,-1,-1,-1,-1,-1,-1,-1,-1,-1,-1,-1,-1,-1,-1,-1,-1,-1,-1],"split_conditions":[1.83E2,5E0,2.169E3,2.1E1,1.76E0,7E-2,1.14948E5,1.4E2,1.01E2,4E0,8.01E0,2.135E3,2.2E1,4.4E1,1.17811E5,5.396E1,2.415E2,8.7E1,2.98E2,2.5E2,2E0,2.3993E2,4.94602E3,1.62E2,2E0,2.86E2,9.5498E4,5.68E2,1.456E1,3.70697E4,6.68E2,2.75E2,2.48E2,2.3993E2,1.17E2,1.0158E4,8.984E3,1.17E2,-1.8679248E-1,1.235E1,2.01E2,5.05E0,3.225E1,7.4E-1,3.05E2,8E0,4.1284406E-1,1.8E1,7.09E2,1.1E0,7.297E4,2.75E2,5.27E0,1E0,2.75E2,2E0,9.3377E2,9.5E1,4.5E1,8.11E2,6.8E1,5.27E0,5E0,-1.0331202E-1,3.230769E-1,3.9418814E-1,1.978022E-1,-2.2432615E-1,-1.07288365E-8,3.9767444E-1,-1.4400001E-1,3.1456313E-1,-1.6478875E-1,1.5652174E-1,-6.952073E-2,4.370838E-1,2.9679573E-1,3.1204996E-1,5.777886E-3,-2.0930246E-2,4.4569084E-1,-1.1770626E-1,2.292683E-1,-1.3362393E-1,2.484487E-3,-1.9951488E-1,9.798719E-2,4.49366E-2,-1.7543653E-1,-1.7042255E-1,-2.139745E-1,-2.2293063E-1,7.2E-2,-2.0659775E-1,1.7999999E-1,4.0040818E-1,-7.994272E-2,1.2676044E-2,-1.8275864E-1,-1.7081343E-1,-8.98479E-2,-1.3747457E-1,-1.772081E-1,-1.9752492E-1,-1.6947642E-1,-1.860556E-1,-1.5970314E-1,-1.0155644E-1,-2.051654E-1,1.9459459E-1,-1.4400001E-1,6.792452E-2,-1.4043047E-1,-6.644297E-2,-1.8024422E-1,-2.2431535E-1,-1.9931859E-1,-1.943941E-1,7.2E-2,-2.0542817E-1,-1.7236863E-1,4.323143E-2,-2.0436685E-1],"split_indices":[16,14,16,22,23,22,17,20,33,37,32,16,14,36,17,19,19,34,36,43,38,19,12,30,34,16,17,43,11,10,36,43,49,19,49,3,3,49,0,30,36,2,30,32,20,33,0,48,41,30,17,16,12,9,16,33,10,3,36,51,46,12,39,0,0,0,0,0,0,0,0,0,0,0,0,0,0,0,0,0,0,0,0,0,0,0,0,0,0,0,0,0,0,0,0,0,0,0,0,0,0,0,0,0,0,0,0,0,0,0,0,0,0,0,0,0,0,0,0,0,0,0,0],"split_type":[0,0,0,0,0,0,0,0,0,0,0,0,0,0,0,0,0,0,0,0,0,0,0,0,0,0,0,0,0,0,0,0,0,0,0,0,0,0,0,0,0,0,0,0,0,0,0,0,0,0,0,0,0,0,0,0,0,0,0,0,0,0,0,0,0,0,0,0,0,0,0,0,0,0,0,0,0,0,0,0,0,0,0,0,0,0,0,0,0,0,0,0,0,0,0,0,0,0,0,0,0,0,0,0,0,0,0,0,0,0,0,0,0,0,0,0,0,0,0,0,0,0,0],"sum_hessian":[7.359111E4,2.8803555E4,4.4787555E4,1.966222E3,2.6837332E4,3.2859996E4,1.1927555E4,9.124444E2,1.0537777E3,1.155111E4,1.5286222E4,4.6879995E3,2.8171998E4,1.6928888E3,1.0234666E4,5.604444E2,3.5199997E2,6.773333E2,3.7644443E2,1.6013333E3,9.949777E3,5.185333E3,1.0100889E4,4.3097773E3,3.782222E2,1.0421333E4,1.7750666E4,8.746666E2,8.1822217E2,7.2302217E3,3.0044443E3,3.062222E2,2.5422221E2,3.3688885E2,1.5111111E1,3.3066666E2,3.4666666E2,3.7155554E2,4.8888884E0,1.3453333E3,2.5599998E2,4.222222E2,9.527555E3,4.0128887E3,1.1724443E3,1.0089777E4,1.1111111E1,3.0088887E3,1.3008888E3,6.3999996E1,3.142222E2,6.020444E3,4.4008887E3,7.3657773E3,1.0384889E4,8.697777E2,4.8888884E0,1.4844444E2,6.697777E2,7.094666E3,1.3555554E2,2.9555554E3,4.8888885E1,2.942222E2,1.1999999E1,1.8444443E2,6.977777E1,3.3288885E2,3.9999998E0,1.3333332E1,1.7777777E0,3.0799997E2,2.2666666E1,1.08888885E2,2.3777777E2,2.893333E2,8.222221E1,5.3288885E2,8.124444E2,1.3333332E1,2.4266666E2,5.4222218E1,3.6799997E2,7.073333E3,2.4542222E3,3.892444E3,1.20444435E2,7.0888885E2,4.6355554E2,1.0639999E3,9.025777E3,3.0071108E3,1.7777777E0,1.2991111E3,1.7777777E0,2.6222221E1,3.7777775E1,5.4222218E1,2.5999997E2,1.8799999E3,4.1404443E3,1.4719999E3,2.9288887E3,5.947111E3,1.4186666E3,3.417333E3,6.967555E3,2.7555553E1,8.4222217E2,3.111111E0,1.7777777E0,4.8888884E0,1.4355554E2,1.5555554E1,6.5422217E2,6.8999995E3,1.9466666E2,1.3377777E2,1.7777777E0,2.1257776E3,8.297777E2,2.4444443E1,2.4444443E1],"tree_param":{"num_deleted":"0","num_feature":"65","num_nodes":"123","size_leaf_vector":"1"}},{"base_weights":[5.0026845E-2,-1.119833E-1,4.2020777E-1,-1.8322518E-1,2.1900001E-1,6.4557874E-1,3.1414866E-1,-4.4677415E-1,-1.2331842E-1,4.1825068E-1,-2.2226721E-1,5.193581E-1,9.006413E-1,5.3583926E-1,2.2019587E-1,-2.8171169E-2,-4.779298E-1,-2.3797512E-1,2.2886856E-2,2.8735688E-1,6.545012E-1,-1.037182E-1,-4.1117147E-1,7.041639E-1,3.3096755E-1,4.9240538E-1,9.180541E-1,5.8713907E-1,2.5953856E-1,-7.453631E-2,2.943217E-1,-2.4135575E-1,5.4841006E-1,-4.9160987E-1,1.04236394E-1,-2.5089645E-1,4.3942222E-1,2.4446349E-1,-4.6710882E-2,-9.662536E-2,3.2531935E-1,5.535809E-1,8.885375E-1,-1.6853368E-1,6.1980385E-1,2.1171986E-1,-4.679748E-1,7.1722203E-1,-7.60842E-1,2.455275E-1,7.5782865E-1,8.600949E-1,1.0803709E-1,9.4290024E-1,6.6804516E-1,5.5546033E-1,8.747254E-1,6.7944354E-1,3.9340656E-2,2.7398014E-1,-3.103455E-1,1.7264979E-1,4.3863186E-1,-8.465235E-2,3.1010807E-1,2.5251058E-1,2.3030456E-2,-1.554645E-1,-8.144131E-2,-9.6486464E-2,1.3101625E-1,-1.1144692E-1,-5.7175048E-2,1.6370079E-1,-1.1699999E-1,3.0559143E-2,1.2114884E-1,1.1561168E-1,-2.5879793E-2,-1.5004955E-1,2.7223412E-2,1.5415052E-1,7.136585E-2,1.8162295E-1,-1.1787098E-2,-1.9338578E-1,2.8013647E-1,-6.3258864E-2,3.07429E-1,2.4223587E-1,6.6579576E-3,9.319737E-3,2.3221241E-1,-1.4385122E-1,3.7975508E-1,2.2491269E-1,4.667418E-2,-7.7022776E-2,-2.3946124E-1,-3.1470753E-2,9.475593E-2,1.8838134E-1,3.5151663E-1,1.2492318E-2,2.8126973E-1,-6.0194075E-2,2.3886809E-1,2.8635898E-1,2.0063688E-1,3.057144E-1,1.3745633E-1,2.6333192E-1,1.590432E-1,2.7036157E-1,5.0511234E-3,1.01861276E-1,3.0417314E-1,5.7151843E-2,-8.558732E-2,4.7308944E-2,1.9770958E-1,-3.1999264E-2,-1.1915601E-1,4.5633085E-2,2.6176587E-1,1.690023E-1,3.7674684E-2],"categories":[],"categories_nodes":[],"categories_segments":[],"categories_sizes":[],"default_left":[0,0,1,0,0,0,0,0,0,0,0,0,0,0,0,0,0,0,0,0,0,0,0,0,0,0,0,0,0,0,0,0,0,0,0,0,0,0,0,0,0,0,0,0,0,0,0,0,0,0,0,0,0,0,0,0,0,0,0,0,0,0,0,0,0,0,0,0,0,0,0,0,0,0,0,0,0,0,0,0,0,0,0,0,0,0,0,0,0,0,0,0,0,0,0,0,0,0,0,0,0,0,0,0,0,0,0,0,0,0,0,0,0,0,0,0,0,0,0,0,0,0,0,0,0,0,0],"id":3,"left_children":[1,3,5,7,9,11,13,15,17,19,21,23,25,27,29,31,33,35,37,39,41,43,45,47,49,51,53,55,57,59,61,63,65,67,69,71,73,75,77,79,81,83,85,87,89,91,93,95,97,99,101,103,105,107,109,111,113,115,117,119,121,123,125,-1,-1,-1,-1,-1,-1,-1,-1,-1,-1,-1,-1,-1,-1,-1,-1,-1,-1,-1,-1,-1,-1,-1,-1,-1,-1,-1,-1,-1,-1,-1,-1,-1,-1,-1,-1,-1,-1,-1,-1,-1,-1,-1,-1,-1,-1,-1,-1,-1,-1,-1,-1,-1,-1,-1,-1,-1,-1,-1,-1,-1,-1,-1,-1],"loss_changes":[4.379045E3,1.197644E3,5.3110156E2,6.598041E2,7.910653E2,2.2849902E2,3.147412E2,1.0093347E2,5.7088025E2,1.9147852E2,6.2643158E1,1.6549072E2,1.6274292E1,6.36156E1,2.3201569E2,6.616936E1,5.7424316E1,1.671742E2,2.3085217E2,5.8194916E1,5.168103E1,8.08206E1,3.827585E1,4.6496094E1,8.585065E1,1.3816076E1,1.338147E1,3.4075317E1,6.5277885E1,1.7552798E2,1.4891022E2,2.0741436E1,2.003812E1,4.108423E1,2.3675983E1,1.3615991E2,3.1728302E1,8.127356E1,1.9473326E2,2.7247458E1,5.9731567E1,4.7530518E1,4.665985E1,8.004753E1,1.5875465E1,9.206099E0,2.0379135E1,4.333252E1,2.0387936E-1,4.851042E1,2.0389862E1,3.1411514E0,1.0624323E1,5.894287E0,1.4805222E1,2.744043E1,8.496277E0,2.7270752E1,2.2842985E1,3.8493927E1,2.2487427E1,6.60715E1,1.5143695E2,0E0,0E0,0E0,0E0,0E0,0E0,0E0,0E0,0E0,0E0,0E0,0E0,0E0,0E0,0E0,0E0,0E0,0E0,0E0,0E0,0E0,0E0,0E0,0E0,0E0,0E0,0E0,0E0,0E0,0E0,0E0,0E0,0E0,0E0,0E0,0E0,0E0,0E0,0E0,0E0,0E0,0E0,0E0,0E0,0E0,0E0,0E0,0E0,0E0,0E0,0E0,0E0,0E0,0E0,0E0,0E0,0E0,0E0,0E0,0E0,0E0,0E0,0E0,0E0],"parents":[2147483647,0,0,1,1,2,2,3,3,4,4,5,5,6,6,7,7,8,8,9,9,10,10,11,11,12,12,13,13,14,14,15,15,16,16,17,17,18,18,19,19,20,20,21,21,22,22,23,23,24,24,25,25,26,26,27,27,28,28,29,29,30,30,31,31,32,32,33,33,34,34,35,35,36,36,37,37,38,38,39,39,40,40,41,41,42,42,43,43,44,44,45,45,46,46,47,47,48,48,49,49,50,50,51,51,52,52,53,53,54,54,55,55,56,56,57,57,58,58,59,59,60,60,61,61,62,62],"right_children":[2,4,6,8,10,12,14,16,18,20,22,24,26,28,30,32,34,36,38,40,42,44,46,48,50,52,54,56,58,60,62,64,66,68,70,72,74,76,78,80,82,84,86,88,90,92,94,96,98,100,102,104,106,108,110,112,114,116,118,120,122,124,126,-1,-1,-1,-1,-1,-1,-1,-1,-1,-1,-1,-1,-1,-1,-1,-1,-1,-1,-1,-1,-1,-1,-1,-1,-1,-1,-1,-1,-1,-1,-1,-1,-1,-1,-1,-1,-1,-1,-1,-1,-1,-1,-1,-1,-1,-1,-1,-1,-1,-1,-1,-1,-1,-1,-1,-1,-1,-1,-1,-1,-1,-1,-1,-1],"split_conditions":[2.086E3,8.55E2,5E0,4.95E0,3.002E1,2.998E1,2.135E3,1.3126E2,1.83E2,3E1,6.28E2,5.20516E3,1.6E1,3.9E1,1.14948E5,9E1,8.11E2,8.11E2,1E0,1.1E0,8.788E3,4E1,1.5E-1,7.6E1,6.1E1,6E0,7.65E2,6.4E1,2.132E3,2.82E0,1.13862E3,5.03E2,4.8376E2,1.22179E5,1.5855E2,2.9E1,5.1E1,2.9E1,8E0,5.03E0,5.01E0,3.807E1,3.6624E4,2.75E2,5.9513E2,1E0,7.531E1,6.14E2,2.2E1,2.134E3,2.781E3,1.10421E3,2E0,1.7E3,7.056E1,2.2E1,3E1,2.126E3,8E0,3.83E0,2.499E1,7.78E2,1.17484E5,-8.465235E-2,3.1010807E-1,2.5251058E-1,2.3030456E-2,-1.554645E-1,-8.144131E-2,-9.6486464E-2,1.3101625E-1,-1.1144692E-1,-5.7175048E-2,1.6370079E-1,-1.1699999E-1,3.0559143E-2,1.2114884E-1,1.1561168E-1,-2.5879793E-2,-1.5004955E-1,2.7223412E-2,1.5415052E-1,7.136585E-2,1.8162295E-1,-1.1787098E-2,-1.9338578E-1,2.8013647E-1,-6.3258864E-2,3.07429E-1,2.4223587E-1,6.6579576E-3,9.319737E-3,2.3221241E-1,-1.4385122E-1,3.7975508E-1,2.2491269E-1,4.667418E-2,-7.7022776E-2,-2.3946124E-1,-3.1470753E-2,9.475593E-2,1.8838134E-1,3.5151663E-1,1.2492318E-2,2.8126973E-1,-6.0194075E-2,2.3886809E-1,2.8635898E-1,2.0063688E-1,3.057144E-1,1.3745633E-1,2.6333192E-1,1.590432E-1,2.7036157E-1,5.0511234E-3,1.01861276E-1,3.0417314E-1,5.7151843E-2,-8.558732E-2,4.7308944E-2,1.9770958E-1,-3.1999264E-2,-1.1915601E-1,4.5633085E-2,2.6176587E-1,1.690023E-1,3.7674684E-2],"split_indices":[16,14,14,32,32,32,16,19,16,32,16,11,4,1,17,31,51,51,6,30,3,32,25,4,50,4,50,4,16,23,10,36,11,17,19,37,28,1,33,32,32,12,17,16,19,27,12,50,33,16,16,10,28,30,31,33,1,16,49,22,32,50,17,0,0,0,0,0,0,0,0,0,0,0,0,0,0,0,0,0,0,0,0,0,0,0,0,0,0,0,0,0,0,0,0,0,0,0,0,0,0,0,0,0,0,0,0,0,0,0,0,0,0,0,0,0,0,0,0,0,0,0,0,0,0,0,0],"split_type":[0,0,0,0,0,0,0,0,0,0,0,0,0,0,0,0,0,0,0,0,0,0,0,0,0,0,0,0,0,0,0,0,0,0,0,0,0,0,0,0,0,0,0,0,0,0,0,0,0,0,0,0,0,0,0,0,0,0,0,0,0,0,0,0,0,0,0,0,0,0,0,0,0,0,0,0,0,0,0,0,0,0,0,0,0,0,0,0,0,0,0,0,0,0,0,0,0,0,0,0,0,0,0,0,0,0,0,0,0,0,0,0,0,0,0,0,0,0,0,0,0,0,0,0,0,0,0],"sum_hessian":[7.301508E4,5.078824E4,2.2226838E4,4.1793023E4,8.995215E3,7.11106E3,1.5115778E4,7.739229E3,3.4053797E4,6.197043E3,2.7981724E3,4.759034E3,2.352026E3,4.4978853E3,1.0617893E4,5.362433E2,7.202986E3,1.9085773E4,1.4968021E4,3.9891077E3,2.207935E3,1.7201941E3,1.0779784E3,2.4009917E3,2.3580425E3,9.741629E1,2.2546096E3,3.7926008E3,7.052845E2,2.133774E3,8.484119E3,3.919175E2,1.443258E2,7.037764E3,1.6522173E2,1.8729146E4,3.5662793E2,3.5771196E3,1.1390901E4,3.5876205E2,3.6303457E3,1.5450498E3,6.6288525E2,1.5794673E3,1.407268E2,8.986072E1,9.881176E2,2.380286E3,2.070586E1,1.9660876E3,3.9195468E2,4.9155804E1,4.8260487E1,2.048278E3,2.0633153E2,3.4189243E3,3.7367642E2,2.4190317E2,4.6338135E2,8.6103595E2,1.272738E3,4.604301E3,3.8798176E3,3.8051462E2,1.14029E1,8.850443E1,5.582137E1,6.2777104E3,7.600532E2,7.2453445E1,9.276829E1,6.242456E3,1.2486689E4,3.164354E2,4.019254E1,1.8887327E3,1.688387E3,9.545925E2,1.043631E4,1.13229576E2,2.4553249E2,1.1487141E3,2.4816313E3,1.4208204E3,1.2422947E2,1.8624228E1,6.4426105E2,1.5261542E3,5.3313168E1,1.0683091E2,3.3895905E1,6.880981E1,2.1050919E1,9.8230914E2,5.8085275E0,2.2498152E3,1.3047055E2,1.9719199E0,1.873394E1,3.2853207E2,1.6375557E3,3.0024643E2,9.1708244E1,4.3834605E0,4.4772343E1,3.38056E1,1.44548855E1,1.962532E3,8.574613E1,7.576044E1,1.305711E2,2.4653397E2,3.1723904E3,3.6243878E2,1.1237629E1,1.2097551E2,1.2092766E2,3.164424E2,1.4693893E2,6.624031E2,1.9863283E2,3.8110507E2,8.91633E2,4.474217E3,1.3008394E2,2.7739597E3,1.1058579E3],"tree_param":{"num_deleted":"0","num_feature":"65","num_nodes":"127","size_leaf_vector":"1"}},{"base_weights":[3.3403108E-1,3.3949077E-2,4.2335972E-1,-7.321065E-2,4.9644113E-1,5.2644116E-1,2.1276748E-1,6.4352475E-2,-3.475513E-1,6.047528E-1,-6.000727E-1,6.723978E-1,3.1501648E-1,-5.8541363E-1,2.3637424E-1,-7.1313423E-3,3.6505547E-1,-3.9725015E-1,8.637123E-2,-3.9375606E-1,6.640387E-1,-6.6694105E-1,-8.464893E-2,7.50371E-1,5.5228937E-1,5.141039E-1,2.0311362E-1,2.1412003E-1,-7.224541E-1,1.4389822E-1,4.3013972E-1,-1.650088E-1,1.722843E-1,1.9436455E-1,6.9539934E-1,-4.105739E-1,4.3118754E-1,-2.527674E-1,5.012533E-1,-5.245295E-1,5.3587276E-1,5.633337E-1,7.8529704E-1,-2.0345525E-1,-3.991989E-1,-2.613801E-1,4.8119393E-1,7.854476E-1,3.460975E-1,6.809318E-1,1.0811645E-1,2.1709174E-1,5.561675E-1,-1.4580058E-1,2.5206465E-1,4.38149E-1,-2.628172E-1,-6.348423E-1,-2.3893897E-1,2.9828027E-1,5.7524983E-2,6.443733E-1,3.567467E-1,-6.925046E-2,5.3812657E-2,1.21661305E-1,2.1042123E-2,1.3831702E-1,-7.043642E-2,2.4853246E-1,1.0331014E-2,2.321744E-1,-1.2559165E-1,3.3984315E-1,-2.5379648E-2,4.922235E-2,-1.3164514E-1,1.9454327E-1,-1.3662444E-1,-1.7870137E-1,2.6897135E-1,-1.7282075E-1,2.8563067E-1,1.4295954E-1,2.1886188E-1,-3.3663947E-2,2.4176778E-1,2.1281436E-2,-1.8192722E-1,-1.0074625E-1,9.198374E-2,2.507782E-1,-7.7133015E-2,1.9976506E-1,2.641185E-1,5.107947E-2,2.61474E-1,2.2457768E-1,9.334597E-2,-1.6250837E-1,1.3611794E-1,2.1945594E-1,4.3291915E-2,1.7726105E-1,2.2167131E-2,8.892808E-3,-1.7842427E-1,9.855876E-2,1.1874541E-2,2.1422182E-1,3.3529267E-2,-2.0088077E-1,7.8264736E-2,4.8337106E-2,1.18203424E-1,5.866602E-2,-2.2283308E-2,6.381874E-2,2.1293768E-1,3.4207383E-3,1.2164929E-1],"categories":[],"categories_nodes":[],"categories_segments":[],"categories_sizes":[],"default_left":[1,0,0,0,0,0,0,0,0,0,0,0,0,0,0,0,0,0,0,0,0,0,0,0,0,0,0,0,0,0,0,0,0,0,0,0,0,0,0,0,0,0,0,0,0,0,0,0,0,0,0,0,0,0,0,0,0,0,0,0,0,0,0,0,0,0,0,0,0,0,0,0,0,0,0,0,0,0,0,0,0,0,0,0,0,0,0,0,0,0,0,0,0,0,0,0,0,0,0,0,0,0,0,0,0,0,0,0,0,0,0,0,0,0,0,0,0,0,0,0,0],"id":4,"left_children":[1,3,5,7,9,11,13,15,17,19,21,23,25,27,29,31,33,35,37,39,41,43,45,47,49,51,53,55,57,59,61,63,65,67,69,71,73,75,77,79,81,83,85,-1,87,89,91,93,95,97,99,101,103,105,107,109,-1,111,-1,113,115,117,119,-1,-1,-1,-1,-1,-1,-1,-1,-1,-1,-1,-1,-1,-1,-1,-1,-1,-1,-1,-1,-1,-1,-1,-1,-1,-1,-1,-1,-1,-1,-1,-1,-1,-1,-1,-1,-1,-1,-1,-1,-1,-1,-1,-1,-1,-1,-1,-1,-1,-1,-1,-1,-1,-1,-1,-1,-1,-1],"loss_changes":[2.0609219E3,8.7417346E2,1.2860273E3,5.4047424E2,3.9443164E2,1.2272334E3,3.6703436E2,2.0504477E2,1.0317828E2,1.790531E2,1.0241463E1,2.1995312E2,3.618463E2,6.1473038E1,3.3883606E2,2.1835681E2,1.0317091E2,4.7546326E1,6.9398026E1,2.0936354E1,3.4376587E1,5.24971E-1,3.6715658E0,2.0201465E2,5.294004E2,7.290759E1,1.777055E2,2.0571447E1,2.593628E0,1.7072238E2,9.583533E1,9.299749E1,8.59405E1,1.3851845E2,5.4822876E1,4.0676025E1,2.4854582E1,2.1131971E1,3.1530453E1,1.5643925E1,1.0475042E1,2.2176239E1,2.3956543E1,0E0,1.3176668E0,1.2727532E0,2.517227E0,1.4841699E2,1.0524664E2,1.7953467E2,4.678726E2,2.7107037E1,8.563904E1,1.00873955E2,1.482096E2,6.1552114E0,0E0,7.142914E0,0E0,6.0249268E1,1.4940994E2,4.3836914E1,7.66488E1,0E0,0E0,0E0,0E0,0E0,0E0,0E0,0E0,0E0,0E0,0E0,0E0,0E0,0E0,0E0,0E0,0E0,0E0,0E0,0E0,0E0,0E0,0E0,0E0,0E0,0E0,0E0,0E0,0E0,0E0,0E0,0E0,0E0,0E0,0E0,0E0,0E0,0E0,0E0,0E0,0E0,0E0,0E0,0E0,0E0,0E0,0E0,0E0,0E0,0E0,0E0,0E0,0E0,0E0,0E0,0E0,0E0,0E0],"parents":[2147483647,0,0,1,1,2,2,3,3,4,4,5,5,6,6,7,7,8,8,9,9,10,10,11,11,12,12,13,13,14,14,15,15,16,16,17,17,18,18,19,19,20,20,21,21,22,22,23,23,24,24,25,25,26,26,27,27,28,28,29,29,30,30,31,31,32,32,33,33,34,34,35,35,36,36,37,37,38,38,39,39,40,40,41,41,42,42,44,44,45,45,46,46,47,47,48,48,49,49,50,50,51,51,52,52,53,53,54,54,55,55,57,57,59,59,60,60,61,61,62,62],"right_children":[2,4,6,8,10,12,14,16,18,20,22,24,26,28,30,32,34,36,38,40,42,44,46,48,50,52,54,56,58,60,62,64,66,68,70,72,74,76,78,80,82,84,86,-1,88,90,92,94,96,98,100,102,104,106,108,110,-1,112,-1,114,116,118,120,-1,-1,-1,-1,-1,-1,-1,-1,-1,-1,-1,-1,-1,-1,-1,-1,-1,-1,-1,-1,-1,-1,-1,-1,-1,-1,-1,-1,-1,-1,-1,-1,-1,-1,-1,-1,-1,-1,-1,-1,-1,-1,-1,-1,-1,-1,-1,-1,-1,-1,-1,-1,-1,-1,-1,-1,-1,-1],"split_conditions":[5E0,3.5E1,6.07E2,2.998E1,2.126E3,1E0,6.28E2,1E0,2.2E1,1.83E2,1.7E3,3.9E1,1.2E0,1E-2,2E0,5.20516E3,2.94E2,1.23763E5,9.746E3,1.09614E5,6.28E2,6.2E1,7.443E4,2.3835E2,2.75E2,5E0,2E1,1.6905E2,8.4E1,5.05E0,2.074E3,6.412E2,1.494E3,7.3E1,2.086E3,3.6624E4,1.5E-1,1.62E2,9.5E1,2.728E3,1.83423E3,1.23529E5,3.49E0,-2.0345525E-1,6.5E1,9.1872E2,7.98764E3,1.1645E2,5E0,1.22181E5,1.68E2,6.4E0,2.33E2,3.74E2,4.655E1,8.2122E2,-2.628172E-1,7.988E1,-2.3893897E-1,2.135E3,6.12E0,1.16893E5,2.135E3,-6.925046E-2,5.3812657E-2,1.21661305E-1,2.1042123E-2,1.3831702E-1,-7.043642E-2,2.4853246E-1,1.0331014E-2,2.321744E-1,-1.2559165E-1,3.3984315E-1,-2.5379648E-2,4.922235E-2,-1.3164514E-1,1.9454327E-1,-1.3662444E-1,-1.7870137E-1,2.6897135E-1,-1.7282075E-1,2.8563067E-1,1.4295954E-1,2.1886188E-1,-3.3663947E-2,2.4176778E-1,2.1281436E-2,-1.8192722E-1,-1.0074625E-1,9.198374E-2,2.507782E-1,-7.7133015E-2,1.9976506E-1,2.641185E-1,5.107947E-2,2.61474E-1,2.2457768E-1,9.334597E-2,-1.6250837E-1,1.3611794E-1,2.1945594E-1,4.3291915E-2,1.7726105E-1,2.2167131E-2,8.892808E-3,-1.7842427E-1,9.855876E-2,1.1874541E-2,2.1422182E-1,3.3529267E-2,-2.0088077E-1,7.8264736E-2,4.8337106E-2,1.18203424E-1,5.866602E-2,-2.2283308E-2,6.381874E-2,2.1293768E-1,3.4207383E-3,1.2164929E-1],"split_indices":[14,32,16,32,16,27,16,9,42,16,30,22,22,22,6,11,34,17,3,17,16,4,17,19,16,39,37,19,20,2,16,31,16,34,16,17,25,30,36,20,10,17,30,0,4,23,11,30,39,17,20,21,46,33,30,10,0,21,0,16,32,17,16,0,0,0,0,0,0,0,0,0,0,0,0,0,0,0,0,0,0,0,0,0,0,0,0,0,0,0,0,0,0,0,0,0,0,0,0,0,0,0,0,0,0,0,0,0,0,0,0,0,0,0,0,0,0,0,0,0,0],"split_type":[0,0,0,0,0,0,0,0,0,0,0,0,0,0,0,0,0,0,0,0,0,0,0,0,0,0,0,0,0,0,0,0,0,0,0,0,0,0,0,0,0,0,0,0,0,0,0,0,0,0,0,0,0,0,0,0,0,0,0,0,0,0,0,0,0,0,0,0,0,0,0,0,0,0,0,0,0,0,0,0,0,0,0,0,0,0,0,0,0,0,0,0,0,0,0,0,0,0,0,0,0,0,0,0,0,0,0,0,0,0,0,0,0,0,0,0,0,0,0,0,0],"sum_hessian":[7.688263E4,1.763677E4,5.9245863E4,1.4319722E4,3.3170476E3,3.9775105E4,1.947076E4,9.537887E3,4.781835E3,3.0192593E3,2.9778854E2,2.3529428E4,1.6245676E4,5.586352E2,1.8912125E4,7.7067876E3,1.8310992E3,4.2905103E3,4.9132462E2,1.6890327E2,2.850356E3,2.6333136E2,3.445718E1,1.4264083E4,9.265346E3,5.8443486E3,1.0401327E4,8.165773E1,4.7697745E2,1.2803365E4,6.1087593E3,4.099499E3,3.6072888E3,1.2083335E3,6.2276575E2,4.2230947E3,6.741559E1,2.7055475E2,2.2076985E2,1.4845541E2,2.044787E1,1.5602308E3,1.290125E3,2.5124788E2,1.2083485E1,2.6666447E1,7.7907314E0,1.3124406E4,1.1396765E3,7.1841284E3,2.0812173E3,7.257772E2,5.1185713E3,1.2794757E3,9.121851E3,6.823391E1,1.342382E1,2.228024E2,2.5417503E2,4.5924478E3,8.210917E3,1.556773E3,4.5519863E3,3.4419333E3,6.575657E2,1.0976809E3,2.509608E3,7.4517706E2,4.6315646E2,5.182052E2,1.04560555E2,2.7917532E1,4.1951772E3,2.8055492E1,3.9360092E1,8.352847E1,1.8702629E2,1.9160533E2,2.916452E1,1.4193105E2,6.524368E0,5.46481E0,1.498306E1,1.0274869E3,5.327439E2,2.8841187E1,1.2612838E3,3.8978982E0,8.185586E0,2.393792E1,2.7285287E0,5.1730204E0,2.6177106E0,5.812688E3,7.3117183E3,8.549307E2,2.847458E2,6.0720645E3,1.112064E3,7.224013E2,1.358816E3,8.883862E1,6.369386E2,4.7747734E3,3.4379825E2,9.2063586E2,3.588398E2,6.7075215E3,2.4143296E3,3.6331585E1,3.1902325E1,2.1472215E2,8.080248E0,1.8888805E3,2.7035671E3,4.0104983E3,4.200419E3,2.0544812E2,1.3513248E3,5.632489E2,3.9887373E3],"tree_param":{"num_deleted":"0","num_feature":"65","num_nodes":"121","size_leaf_vector":"1"}},{"base_weights":[-4.3953097E-1,-3.15125E-1,-5.2239376E-1,2.830054E-1,-3.6467427E-1,-4.8540622E-1,-6.2675554E-1,-5.6393676E-2,5.53595E-1,-1.3301264E-1,-5.5624586E-1,-6.1612535E-1,-4.6444303E-1,-5.393967E-1,-6.4136076E-1,2.385643E-1,-5.9670615E-1,8.6357504E-1,2.494124E-1,4.5732158E-1,-2.3748772E-1,-4.412836E-1,-6.169773E-1,-6.48102E-1,-2.75223E-1,-5.375764E-1,-4.0615034E-1,-5.9098476E-1,-4.8431137E-1,-6.7064387E-1,-5.721195E-1,-2.795641E-1,7.956563E-1,-6.79085E-1,8.938596E-1,5.3366745E-1,9.72882E-1,1.1300948E0,4.725839E-2,1.0764062E0,3.026089E-1,6.075592E-1,-2.7491516E-1,-5.5739856E-1,-6.447248E-2,-6.195066E-1,3.4105277E-1,-6.6688395E-1,-6.0432625E-1,3.7483475E-1,-4.2145792E-1,-5.169536E-1,-6.114083E-1,-5.1825696E-1,-3.7493917E-1,-5.966567E-1,2.337533E-1,-4.9669087E-1,-1.9114213E-1,-6.728727E-1,-5.502046E-1,-5.9895015E-1,-4.7972813E-1,-1.392073E-1,2.1370929E-2,2.7660045E-1,1.3369067E-1,-2.0648877E-1,5.690515E-3,3.190047E-1,-1.3170421E-1,1.8001947E-1,-1.3354293E-1,3.0217677E-1,1.4409591E-1,1.3649935E-1,3.4145218E-1,-4.1785657E-2,2.1988308E-1,-2.0941772E-1,3.4415603E-1,-1.8450138E-1,1.4810924E-1,4.557325E-1,-1.8649592E-1,1.5196706E-1,-9.448375E-2,-1.7643702E-1,9.383995E-2,1.825607E-1,-7.444402E-2,-1.4570944E-1,-1.906991E-1,-2.0027016E-1,5.6937728E-2,-1.8202166E-1,1.7630042E-1,3.2416335E-1,-6.1032187E-2,2.7530655E-2,-1.6081673E-1,-1.6333696E-1,-1.3444617E-1,-1.9302224E-1,-1.6937569E-1,-1.8243805E-1,-1.2513934E-1,-9.396335E-2,-1.4352551E-1,-1.9168848E-1,-1.496263E-1,2.91707E-1,-9.0219565E-2,-1.1876129E-1,-1.5835968E-1,2.7391532E-1,-8.046815E-2,-2.0256631E-1,-1.7625132E-1,-1.6932039E-1,7.8896806E-2,-1.9399521E-1,-1.4939873E-1,2.2671558E-2,-1.5847099E-1],"categories":[],"categories_nodes":[],"categories_segments":[],"categories_sizes":[],"default_left":[0,0,0,0,0,0,0,0,0,0,0,0,0,0,0,0,0,0,0,0,0,0,0,0,0,0,0,0,0,0,0,0,0,0,0,0,0,0,0,0,0,0,0,0,0,0,0,0,0,0,0,0,0,0,0,0,0,0,0,0,0,0,0,0,0,0,0,0,0,0,0,0,0,0,0,0,0,0,0,0,0,0,0,0,0,0,0,0,0,0,0,0,0,0,0,0,0,0,0,0,0,0,0,0,0,0,0,0,0,0,0,0,0,0,0,0,0,0,0,0,0,0,0,0,0],"id":5,"left_children":[1,3,5,7,9,11,13,15,17,19,21,23,25,27,29,31,33,35,37,39,41,43,45,47,49,51,53,55,57,59,61,63,65,67,69,71,73,75,77,79,81,83,85,87,89,91,-1,93,95,97,99,101,103,105,107,109,111,113,115,117,119,121,123,-1,-1,-1,-1,-1,-1,-1,-1,-1,-1,-1,-1,-1,-1,-1,-1,-1,-1,-1,-1,-1,-1,-1,-1,-1,-1,-1,-1,-1,-1,-1,-1,-1,-1,-1,-1,-1,-1,-1,-1,-1,-1,-1,-1,-1,-1,-1,-1,-1,-1,-1,-1,-1,-1,-1,-1,-1,-1,-1,-1,-1,-1],"loss_changes":[6.87833E2,7.9093823E2,1.5431836E2,1.8756155E2,1.0935835E3,8.077002E1,1.30234375E1,1.4464609E2,1.0692224E2,6.881414E2,9.390137E1,4.435144E1,1.08473145E2,3.9968567E0,1.7808594E1,1.6972836E2,3.9958473E1,1.976001E1,1.0229695E2,1.6037207E2,2.999673E2,2.0411731E2,3.984497E1,2.6669922E0,3.3624046E1,1.6896973E1,4.9460693E1,3.7590942E0,2.5705414E0,1.3205566E0,6.340027E0,1.9769453E1,1.2115051E1,1.9693604E0,4.356002E0,9.506691E0,6.6474304E0,6.7276E-2,6.004231E1,4.288388E1,2.3591765E2,4.5175317E2,2.8413354E2,9.554651E1,1.361595E2,1.8740723E1,0E0,1.6505127E0,3.611145E0,2.6819828E1,1.6979977E1,1.6489502E1,3.3268433E0,2.7809814E1,7.0780396E1,2.865326E0,2.6624691E0,2.0039062E0,2.9160147E0,8.425293E-1,1.533226E0,9.635681E0,1.6382172E1,0E0,0E0,0E0,0E0,0E0,0E0,0E0,0E0,0E0,0E0,0E0,0E0,0E0,0E0,0E0,0E0,0E0,0E0,0E0,0E0,0E0,0E0,0E0,0E0,0E0,0E0,0E0,0E0,0E0,0E0,0E0,0E0,0E0,0E0,0E0,0E0,0E0,0E0,0E0,0E0,0E0,0E0,0E0,0E0,0E0,0E0,0E0,0E0,0E0,0E0,0E0,0E0,0E0,0E0,0E0,0E0,0E0,0E0,0E0,0E0,0E0,0E0],"parents":[2147483647,0,0,1,1,2,2,3,3,4,4,5,5,6,6,7,7,8,8,9,9,10,10,11,11,12,12,13,13,14,14,15,15,16,16,17,17,18,18,19,19,20,20,21,21,22,22,23,23,24,24,25,25,26,26,27,27,28,28,29,29,30,30,31,31,32,32,33,33,34,34,35,35,36,36,37,37,38,38,39,39,40,40,41,41,42,42,43,43,44,44,45,45,47,47,48,48,49,49,50,50,51,51,52,52,53,53,54,54,55,55,56,56,57,57,58,58,59,59,60,60,61,61,62,62],"right_children":[2,4,6,8,10,12,14,16,18,20,22,24,26,28,30,32,34,36,38,40,42,44,46,48,50,52,54,56,58,60,62,64,66,68,70,72,74,76,78,80,82,84,86,88,90,92,-1,94,96,98,100,102,104,106,108,110,112,114,116,118,120,122,124,-1,-1,-1,-1,-1,-1,-1,-1,-1,-1,-1,-1,-1,-1,-1,-1,-1,-1,-1,-1,-1,-1,-1,-1,-1,-1,-1,-1,-1,-1,-1,-1,-1,-1,-1,-1,-1,-1,-1,-1,-1,-1,-1,-1,-1,-1,-1,-1,-1,-1,-1,-1,-1,-1,-1,-1,-1,-1,-1,-1,-1,-1],"split_conditions":[1.83E2,5E0,2.169E3,2.1E1,1.76E0,7E-2,1.14948E5,1.4E2,6E0,4E0,8.01E0,2.135E3,1E0,4.4E1,1.17811E5,5.396E1,2.415E2,6.002E3,3.3E1,2E0,5E0,2.3993E2,4.94602E3,1.62E2,2E0,1.414E1,7.43E0,8.18E2,6.05E2,3.70697E4,3.08E2,4.64E2,2.48E2,2.3993E2,1.17E2,2.89E2,2.48E2,2.6203E2,6.4E1,2.7E1,4.4E1,7.07E0,2E0,7.4E-1,5E0,8E0,3.4105277E-1,1.8E1,7.09E2,1.1E0,7.297E4,2E0,5.1E1,1.474E3,2.86E2,1.3392E2,8.7197E4,6.058E1,3.049E3,8.11E2,6.8E1,5.27E0,2.9202E2,-1.392073E-1,2.1370929E-2,2.7660045E-1,1.3369067E-1,-2.0648877E-1,5.690515E-3,3.190047E-1,-1.3170421E-1,1.8001947E-1,-1.3354293E-1,3.0217677E-1,1.4409591E-1,1.3649935E-1,3.4145218E-1,-4.1785657E-2,2.1988308E-1,-2.0941772E-1,3.4415603E-1,-1.8450138E-1,1.4810924E-1,4.557325E-1,-1.8649592E-1,1.5196706E-1,-9.448375E-2,-1.7643702E-1,9.383995E-2,1.825607E-1,-7.444402E-2,-1.4570944E-1,-1.906991E-1,-2.0027016E-1,5.6937728E-2,-1.8202166E-1,1.7630042E-1,3.2416335E-1,-6.1032187E-2,2.7530655E-2,-1.6081673E-1,-1.6333696E-1,-1.3444617E-1,-1.9302224E-1,-1.6937569E-1,-1.8243805E-1,-1.2513934E-1,-9.396335E-2,-1.4352551E-1,-1.9168848E-1,-1.496263E-1,2.91707E-1,-9.0219565E-2,-1.1876129E-1,-1.5835968E-1,2.7391532E-1,-8.046815E-2,-2.0256631E-1,-1.7625132E-1,-1.6932039E-1,7.8896806E-2,-1.9399521E-1,-1.4939873E-1,2.2671558E-2,-1.5847099E-1],"split_indices":[16,14,16,22,23,22,17,20,42,37,32,16,15,36,17,19,19,3,35,35,35,19,12,30,34,2,32,34,39,10,30,39,49,19,49,50,49,21,36,33,34,31,38,32,2,33,0,48,41,30,17,6,4,16,16,30,17,11,3,51,46,12,19,0,0,0,0,0,0,0,0,0,0,0,0,0,0,0,0,0,0,0,0,0,0,0,0,0,0,0,0,0,0,0,0,0,0,0,0,0,0,0,0,0,0,0,0,0,0,0,0,0,0,0,0,0,0,0,0,0,0,0,0,0,0],"split_type":[0,0,0,0,0,0,0,0,0,0,0,0,0,0,0,0,0,0,0,0,0,0,0,0,0,0,0,0,0,0,0,0,0,0,0,0,0,0,0,0,0,0,0,0,0,0,0,0,0,0,0,0,0,0,0,0,0,0,0,0,0,0,0,0,0,0,0,0,0,0,0,0,0,0,0,0,0,0,0,0,0,0,0,0,0,0,0,0,0,0,0,0,0,0,0,0,0,0,0,0,0,0,0,0,0,0,0,0,0,0,0,0,0,0,0,0,0,0,0,0,0,0,0,0,0],"sum_hessian":[6.673898E4,2.6683107E4,4.005587E4,2.0409716E3,2.4642137E4,2.9578441E4,1.0477431E4,9.057216E2,1.1352499E3,1.1154742E4,1.3487395E4,4.083957E3,2.5494484E4,1.5062056E3,8.971225E3,5.862466E2,3.1947504E2,5.61356E2,5.7389386E2,1.6767762E3,9.477966E3,4.6649976E3,8.822396E3,3.7329092E3,3.510478E2,1.1304173E4,1.4190311E4,7.727695E2,7.3343616E2,6.2987188E3,2.6725056E3,3.0400354E2,2.82243E2,3.0325928E2,1.6215763E1,1.4116808E2,4.2018796E2,1.0628292E2,4.6761096E2,3.3406274E2,1.3427135E3,4.0133286E2,9.076633E3,3.5657322E3,1.0992655E3,8.810337E3,1.2059346E1,2.602203E3,1.1307062E3,6.4180984E1,2.868668E2,8.842328E3,2.4618455E3,3.0869094E3,1.1103401E4,7.6776587E2,5.0035853E0,7.0305444E2,3.03817E1,6.179768E3,1.1895082E2,2.0668157E3,6.0569006E2,1.9902707E2,1.0497647E2,2.0618385E2,7.605917E1,2.9932364E2,3.9356382E0,1.456578E1,1.6499841E0,1.3256265E2,8.605417E0,3.9180087E2,2.8387093E1,1.9347162E0,1.04348206E2,3.682293E2,9.938166E1,1.2474143E1,3.215886E2,2.3103888E2,1.1116747E3,2.303075E2,1.7102536E2,4.4172324E2,8.634909E3,3.4444407E3,1.2129158E2,2.3518855E2,8.640769E2,9.525588E2,7.8577783E3,2.6003496E3,1.8532944E0,1.1289122E3,1.7939664E0,2.8514362E1,3.5666626E1,5.2398613E1,2.3446819E2,6.3121157E3,2.5302122E3,1.4548458E3,1.0069996E3,1.6317609E3,1.4551486E3,6.957247E3,4.146154E3,5.3224817E2,2.3551767E2,1.7567285E0,3.246857E0,1.6928392E2,5.337705E2,1.2748977E0,2.9106802E1,6.0076035E3,1.7216454E2,1.172105E2,1.7403148E0,1.3999429E3,6.668727E2,4.861482E1,5.5707526E2],"tree_param":{"num_deleted":"0","num_feature":"65","num_nodes":"125","size_leaf_vector":"1"}},{"base_weights":[4.5310486E-2,-8.1695266E-2,3.2956314E-1,-1.3950492E-1,1.6927247E-1,4.793805E-1,2.1898977E-1,-3.7768897E-1,-8.948078E-2,3.060375E-1,-1.7606576E-1,-3.802382E-2,5.497386E-1,1.3636611E-1,3.0952808E-1,-4.6347182E-2,-4.083727E-1,-1.8513185E-1,2.53558E-2,2.1358055E-1,4.8788777E-1,-7.760768E-2,-3.4401023E-1,2.5677583E-1,-1.4079416E-1,6.254522E-1,4.3646872E-1,1.24195665E-1,8.774578E-1,4.159828E-1,1.2973695E-1,-2.1485363E-1,4.344297E-1,-4.2192763E-1,1.2440363E-1,-3.5196504E-1,-1.3972062E-1,-1.8692777E-2,3.037924E-1,1.4714739E-1,5.0344825E-1,2.610922E-1,5.766927E-1,-1.11797616E-1,7.989292E-1,1.1565578E-1,-4.1565952E-1,-2.3536012E-1,5.6829304E-1,5.2244973E-1,7.080522E-1,4.1328296E-1,7.368324E-1,5.2029513E-2,2.3176433E-1,9.199616E-1,-1.665007E-1,8.9538224E-2,4.935736E-1,-3.76351E-2,2.8381005E-1,-7.5984225E-2,2.2354615E-1,2.3537557E-1,4.2126548E-2,-1.3504376E-1,-5.949348E-2,-7.322001E-2,1.19839765E-1,-1.10655904E-1,8.219586E-2,-5.643934E-2,1.1088109E-2,5.9187505E-2,-2.3618305E-2,6.61075E-2,1.9335221E-1,7.533974E-2,-9.96897E-3,1.1832103E-1,3.015408E-1,8.980338E-2,-2.8376555E-1,1.8853818E-1,5.0085573E-3,-4.9265422E-2,1.3950297E-1,-1.8688815E-2,2.5473064E-1,2.2283389E-1,-7.959687E-2,-1.3409097E-1,2.0884067E-1,-1.2912764E-1,1.050657E-3,2.6252744E-1,8.473241E-2,1.603181E-1,-2.157497E-1,1.1587573E-1,2.1706086E-1,1.3051638E-1,3.6316134E-2,2.3331457E-1,-8.399145E-4,1.2099734E-1,1.0234542E-2,9.7735666E-2,1.7034119E-2,2.967477E-1,7.898708E-2,8.400828E-2,-1.0898707E-1,-8.673565E-3,1.5351003E-1,1.9112263E-2,-9.863999E-2,6.263499E-2,2.7970657E-1],"categories":[],"categories_nodes":[],"categories_segments":[],"categories_sizes":[],"default_left":[0,0,0,0,0,0,0,0,0,0,0,0,1,0,0,0,0,0,0,0,0,0,0,0,0,0,0,0,0,0,0,0,0,0,0,0,0,0,0,0,0,0,0,0,0,0,0,0,0,0,0,0,0,0,0,0,0,0,0,0,0,0,0,0,0,0,0,0,0,0,0,0,0,0,0,0,0,0,0,0,0,0,0,0,0,0,0,0,0,0,0,0,0,0,0,0,0,0,0,0,0,0,0,0,0,0,0,0,0,0,0,0,0,0,0,0,0,0,0],"id":6,"left_children":[1,3,5,7,9,11,13,15,17,19,21,23,25,27,29,31,33,35,37,39,41,43,45,-1,47,49,51,53,55,57,59,61,63,65,67,69,71,73,75,77,79,81,83,85,87,89,91,93,95,97,99,101,103,105,107,109,-1,111,113,115,117,-1,-1,-1,-1,-1,-1,-1,-1,-1,-1,-1,-1,-1,-1,-1,-1,-1,-1,-1,-1,-1,-1,-1,-1,-1,-1,-1,-1,-1,-1,-1,-1,-1,-1,-1,-1,-1,-1,-1,-1,-1,-1,-1,-1,-1,-1,-1,-1,-1,-1,-1,-1,-1,-1,-1,-1,-1,-1],"loss_changes":[2.5722495E3,7.145127E2,3.6440186E2,4.7688892E2,4.3553888E2,3.4013428E2,9.467517E1,7.061194E1,3.6337497E2,1.10950195E2,4.323575E1,1.0295341E2,7.026099E1,5.9617706E1,1.1556287E2,4.788699E1,4.5970093E1,1.3668646E2,1.843909E2,8.4282715E1,4.467273E1,4.9557922E1,3.1884949E1,0E0,6.75089E1,4.1550537E1,2.266571E1,5.0571915E1,7.0147324E0,9.6047424E1,5.7980835E1,1.6328465E1,1.5685928E1,3.903772E1,1.6164444E1,4.0914825E1,1.2136319E2,1.6833809E2,5.8234344E1,6.6880196E1,4.426393E1,2.9280312E1,4.632892E1,4.8139755E1,2.7358665E0,3.1529076E1,2.9431198E1,4.1341484E1,1.0147247E1,3.2959167E1,1.3331299E1,1.9443115E1,7.1107254E0,2.4536955E1,4.3021362E1,4.470993E0,0E0,6.305064E1,2.9042236E1,3.1841045E1,5.676542E1,0E0,0E0,0E0,0E0,0E0,0E0,0E0,0E0,0E0,0E0,0E0,0E0,0E0,0E0,0E0,0E0,0E0,0E0,0E0,0E0,0E0,0E0,0E0,0E0,0E0,0E0,0E0,0E0,0E0,0E0,0E0,0E0,0E0,0E0,0E0,0E0,0E0,0E0,0E0,0E0,0E0,0E0,0E0,0E0,0E0,0E0,0E0,0E0,0E0,0E0,0E0,0E0,0E0,0E0,0E0,0E0,0E0,0E0],"parents":[2147483647,0,0,1,1,2,2,3,3,4,4,5,5,6,6,7,7,8,8,9,9,10,10,11,11,12,12,13,13,14,14,15,15,16,16,17,17,18,18,19,19,20,20,21,21,22,22,24,24,25,25,26,26,27,27,28,28,29,29,30,30,31,31,32,32,33,33,34,34,35,35,36,36,37,37,38,38,39,39,40,40,41,41,42,42,43,43,44,44,45,45,46,46,47,47,48,48,49,49,50,50,51,51,52,52,53,53,54,54,55,55,57,57,58,58,59,59,60,60],"right_children":[2,4,6,8,10,12,14,16,18,20,22,24,26,28,30,32,34,36,38,40,42,44,46,-1,48,50,52,54,56,58,60,62,64,66,68,70,72,74,76,78,80,82,84,86,88,90,92,94,96,98,100,102,104,106,108,110,-1,112,114,116,118,-1,-1,-1,-1,-1,-1,-1,-1,-1,-1,-1,-1,-1,-1,-1,-1,-1,-1,-1,-1,-1,-1,-1,-1,-1,-1,-1,-1,-1,-1,-1,-1,-1,-1,-1,-1,-1,-1,-1,-1,-1,-1,-1,-1,-1,-1,-1,-1,-1,-1,-1,-1,-1,-1,-1,-1,-1,-1],"split_conditions":[2.126E3,8.55E2,2.169E3,1.5E-1,3.002E1,5E0,1.47378E3,1.3126E2,1.83E2,3E1,6.28E2,2.132E3,1.1E1,7.65E2,1.17484E5,9E1,8.11E2,9E0,2.4E1,3E1,1E1,2.75E2,2E0,2.5677583E-1,1E0,2.499E1,6.6E1,1.15101E5,1E0,1.14948E5,7.786E3,3.84E2,1E0,1.22179E5,1.5855E2,8.11E2,2.06E2,5.2E1,1.3E2,5.20516E3,1.487E3,5.54E2,3.807E1,4E1,2.658E3,1.365E1,1E0,7.297E4,7.4302E4,7.6E1,1.6E1,1.3098E2,3E1,5E0,1.17484E5,1.1192E2,-1.665007E-1,2.5E1,4.699E1,9.48265E3,6.64026E4,-7.5984225E-2,2.2354615E-1,2.3537557E-1,4.2126548E-2,-1.3504376E-1,-5.949348E-2,-7.322001E-2,1.19839765E-1,-1.10655904E-1,8.219586E-2,-5.643934E-2,1.1088109E-2,5.9187505E-2,-2.3618305E-2,6.61075E-2,1.9335221E-1,7.533974E-2,-9.96897E-3,1.1832103E-1,3.015408E-1,8.980338E-2,-2.8376555E-1,1.8853818E-1,5.0085573E-3,-4.9265422E-2,1.3950297E-1,-1.8688815E-2,2.5473064E-1,2.2283389E-1,-7.959687E-2,-1.3409097E-1,2.0884067E-1,-1.2912764E-1,1.050657E-3,2.6252744E-1,8.473241E-2,1.603181E-1,-2.157497E-1,1.1587573E-1,2.1706086E-1,1.3051638E-1,3.6316134E-2,2.3331457E-1,-8.399145E-4,1.2099734E-1,1.0234542E-2,9.7735666E-2,1.7034119E-2,2.967477E-1,7.898708E-2,8.400828E-2,-1.0898707E-1,-8.673565E-3,1.5351003E-1,1.9112263E-2,-9.863999E-2,6.263499E-2,2.7970657E-1],"split_indices":[16,14,16,22,32,2,10,19,16,32,16,16,14,52,17,31,51,34,27,1,4,16,34,0,15,32,4,17,0,17,3,36,0,17,19,51,49,33,12,11,16,51,12,32,3,23,27,17,17,4,4,12,1,1,17,12,0,32,11,11,10,0,0,0,0,0,0,0,0,0,0,0,0,0,0,0,0,0,0,0,0,0,0,0,0,0,0,0,0,0,0,0,0,0,0,0,0,0,0,0,0,0,0,0,0,0,0,0,0,0,0,0,0,0,0,0,0,0,0],"split_type":[0,0,0,0,0,0,0,0,0,0,0,0,0,0,0,0,0,0,0,0,0,0,0,0,0,0,0,0,0,0,0,0,0,0,0,0,0,0,0,0,0,0,0,0,0,0,0,0,0,0,0,0,0,0,0,0,0,0,0,0,0,0,0,0,0,0,0,0,0,0,0,0,0,0,0,0,0,0,0,0,0,0,0,0,0,0,0,0,0,0,0,0,0,0,0,0,0,0,0,0,0,0,0,0,0,0,0,0,0,0,0,0,0,0,0,0,0,0,0],"sum_hessian":[7.12483E4,4.924573E4,2.2002568E4,4.002625E4,9.21948E3,9.341843E3,1.2660726E4,6.9461978E3,3.308005E4,6.604142E3,2.6153384E3,1.1183203E3,8.223522E3,6.6210127E3,6.0397124E3,5.8894305E2,6.357255E3,1.8047281E4,1.50327705E4,4.3796167E3,2.2245251E3,1.6496732E3,9.6566504E2,1.14553474E2,1.0037668E3,4.9261724E3,3.29735E3,6.515186E3,1.058269E2,3.7927207E3,2.2469917E3,4.3650607E2,1.5243695E2,6.199729E3,1.575258E2,3.8599026E3,1.4187378E4,1.2980235E4,2.052536E3,3.5642532E3,8.153638E2,6.270545E2,1.5974707E3,1.5885819E3,6.109131E1,1.3013968E2,8.355253E2,8.862429E2,1.175239E2,2.1955894E3,2.7305833E3,3.0632656E3,2.3408453E2,3.9001316E3,2.6150542E3,1.0312476E2,2.7021298E0,7.287663E2,3.0639543E3,1.0773765E3,1.1696152E3,4.2041394E2,1.6092129E1,6.881343E1,8.362353E1,5.5041455E3,6.955834E2,6.7378716E1,9.0147095E1,3.7588994E3,1.01003204E2,1.1136043E4,3.051335E3,2.8227363E3,1.0157499E4,1.6501057E3,4.024302E2,2.260635E3,1.303618E3,6.712498E2,1.4411398E2,6.085208E2,1.8533712E1,1.46218E3,1.3529063E2,1.4568943E3,1.3168771E2,3.3498025E0,5.774151E1,4.8823048E1,8.131662E1,8.132214E2,2.2303967E1,4.8740494E2,3.9883798E2,5.5690807E1,6.183309E1,2.175234E3,2.0355429E1,1.265467E2,2.6040366E3,2.8504155E3,2.128501E2,2.2177457E2,1.2309965E1,1.8819406E2,3.7119375E3,1.7004941E3,9.145601E2,9.283577E1,1.0288996E1,5.132439E2,2.1552245E2,1.0271292E2,2.9612415E3,7.9978503E2,2.7759143E2,1.0495233E3,1.20091896E2],"tree_param":{"num_deleted":"0","num_feature":"65","num_nodes":"119","size_leaf_vector":"1"}},{"base_weights":[2.5637218E-1,3.300799E-1,5.5420864E-2,1.9334514E-1,4.165432E-1,-1.608223E-1,1.9708373E-1,-6.7957334E-4,2.5629982E-1,1.7102548E-1,4.8789355E-1,3.1983882E-1,-2.5709257E-1,2.820998E-1,9.43552E-2,-2.2130649E-1,5.1069397E-2,3.5730866E-1,1.7541167E-1,1.2149434E-2,4.6822107E-1,6.085127E-1,4.347535E-1,-2.4062902E-1,4.1472957E-1,3.4019107E-3,-2.9815164E-1,3.5759115E-1,1.6251937E-1,-1.7580852E-2,2.627108E-1,-4.934736E-1,2.67916E-1,6.801427E-2,-4.6342158E-1,2.3953491E-1,4.4114038E-1,-4.3664822E-1,2.015011E-1,2.6931956E-1,-1.6545083E-1,-3.1083462E-1,5.106186E-1,6.695835E-1,2.4285738E-1,5.188386E-1,2.7013758E-1,5.373289E-2,-1.9242842E-1,3.0169082E-1,7.181533E-1,-1.6194029E-1,4.30156E-1,-4.0654397E-1,-1.5698767E-1,3.659034E-1,-3.987836E-1,-9.1702975E-2,2.1725231E-1,2.8637514E-1,-1.0655522E-1,3.3725294E-1,-3.0766401E-2,-1.7156516E-1,1.351802E-2,-1.8965806E-1,1.2263382E-1,4.4925533E-2,-5.877003E-3,-1.7282812E-1,8.6733066E-2,3.87922E-2,1.1290078E-1,1.407727E-1,-1.2993042E-2,-1.7401005E-1,1.0641095E-1,7.703334E-2,1.541253E-2,4.118315E-2,1.7499414E-1,-6.6990025E-2,4.9036786E-2,-1.3464741E-1,1.4268331E-1,1.2352249E-1,1.8779412E-1,1.0780609E-1,2.077985E-1,1.7522557E-2,1.6356024E-1,1.679742E-1,7.4270375E-2,-7.941249E-3,1.2032562E-1,7.329682E-2,-1.9921851E-1,-2.6621197E-3,1.203913E-1,2.3663144E-1,-5.4349788E-2,-6.116906E-2,2.9520777E-1,1.4955948E-1,-8.01924E-2,-1.05912425E-1,-1.5870447E-1,-5.6512218E-2,6.451249E-2,1.1355947E-1,-2.651954E-2,9.84619E-2,-1.933334E-1,1.2507631E-2,-1.4910525E-1,9.003241E-2,2.4805654E-2,2.0294616E-2,1.9958465E-1,1.4590341E-1,-3.832865E-2,6.765047E-2,1.5369108E-1,4.3718956E-2,-1.4980337E-1],"categories":[],"categories_nodes":[],"categories_segments":[],"categories_sizes":[],"default_left":[0,0,0,0,1,0,0,0,0,0,0,0,0,0,0,0,0,1,0,0,0,0,0,0,0,0,1,0,0,0,0,0,0,0,0,0,0,0,0,0,0,0,0,0,0,0,0,0,0,0,0,0,0,0,0,0,0,0,0,0,0,0,0,0,0,0,0,0,0,0,0,0,0,0,0,0,0,0,0,0,0,0,0,0,0,0,0,0,0,0,0,0,0,0,0,0,0,0,0,0,0,0,0,0,0,0,0,0,0,0,0,0,0,0,0,0,0,0,0,0,0,0,0,0,0],"id":7,"left_children":[1,3,5,7,9,11,13,15,17,19,21,23,25,27,29,31,33,35,37,39,41,43,45,47,49,51,53,55,57,59,61,63,65,67,69,71,73,75,77,79,81,83,85,87,89,91,93,95,-1,97,99,101,103,105,107,109,111,113,115,117,119,121,123,-1,-1,-1,-1,-1,-1,-1,-1,-1,-1,-1,-1,-1,-1,-1,-1,-1,-1,-1,-1,-1,-1,-1,-1,-1,-1,-1,-1,-1,-1,-1,-1,-1,-1,-1,-1,-1,-1,-1,-1,-1,-1,-1,-1,-1,-1,-1,-1,-1,-1,-1,-1,-1,-1,-1,-1,-1,-1,-1,-1,-1,-1],"loss_changes":[1.1420015E3,6.668423E2,6.3391943E2,2.6694928E2,6.052881E2,3.7910156E2,1.0916644E2,6.1149708E1,1.3475476E2,3.6748566E2,1.7135889E2,7.281317E1,7.299512E1,6.169397E1,1.0672551E2,1.3562276E2,3.785322E1,7.233154E1,1.4643616E2,2.3173477E2,8.971118E1,1.8264111E2,2.571831E2,2.3464828E1,3.9899994E1,6.570655E1,9.014264E1,2.6505005E1,3.6880363E1,9.204675E1,4.948694E1,2.764975E1,4.6460587E1,3.0083698E1,1.19062195E1,4.5987732E1,5.8353455E1,4.275685E1,7.293805E1,8.5849335E1,5.7140205E1,1.546689E1,2.9076416E1,4.9968506E1,6.538979E1,1.3695874E2,2.4421634E2,1.595281E1,0E0,2.64197E1,2.0258713E1,3.2471764E1,1.2534298E1,2.1660461E1,2.9959019E1,2.3827332E1,8.436018E0,2.54324E1,2.4282425E1,6.382912E1,3.3164864E1,3.5167404E1,3.8033997E1,0E0,0E0,0E0,0E0,0E0,0E0,0E0,0E0,0E0,0E0,0E0,0E0,0E0,0E0,0E0,0E0,0E0,0E0,0E0,0E0,0E0,0E0,0E0,0E0,0E0,0E0,0E0,0E0,0E0,0E0,0E0,0E0,0E0,0E0,0E0,0E0,0E0,0E0,0E0,0E0,0E0,0E0,0E0,0E0,0E0,0E0,0E0,0E0,0E0,0E0,0E0,0E0,0E0,0E0,0E0,0E0,0E0,0E0,0E0,0E0,0E0,0E0],"parents":[2147483647,0,0,1,1,2,2,3,3,4,4,5,5,6,6,7,7,8,8,9,9,10,10,11,11,12,12,13,13,14,14,15,15,16,16,17,17,18,18,19,19,20,20,21,21,22,22,23,23,24,24,25,25,26,26,27,27,28,28,29,29,30,30,31,31,32,32,33,33,34,34,35,35,36,36,37,37,38,38,39,39,40,40,41,41,42,42,43,43,44,44,45,45,46,46,47,47,49,49,50,50,51,51,52,52,53,53,54,54,55,55,56,56,57,57,58,58,59,59,60,60,61,61,62,62],"right_children":[2,4,6,8,10,12,14,16,18,20,22,24,26,28,30,32,34,36,38,40,42,44,46,48,50,52,54,56,58,60,62,64,66,68,70,72,74,76,78,80,82,84,86,88,90,92,94,96,-1,98,100,102,104,106,108,110,112,114,116,118,120,122,124,-1,-1,-1,-1,-1,-1,-1,-1,-1,-1,-1,-1,-1,-1,-1,-1,-1,-1,-1,-1,-1,-1,-1,-1,-1,-1,-1,-1,-1,-1,-1,-1,-1,-1,-1,-1,-1,-1,-1,-1,-1,-1,-1,-1,-1,-1,-1,-1,-1,-1,-1,-1,-1,-1,-1,-1,-1,-1,-1,-1,-1,-1],"split_conditions":[2.086E3,1.5E-1,2.169E3,3.3E1,5E0,5E0,1.47378E3,1E0,1.733E1,3.5E1,7.4E-1,2.132E3,2.134E3,1.15101E5,1.17484E5,3.002E1,8.18E2,2E1,4E0,2.499E1,1.83E2,2.3835E2,2.75E2,2.126E3,3.001E1,1.908E1,1.1E1,7.65E2,1.15414E5,1.14948E5,1.6E1,1.487E3,1.83E2,7.5E0,4.55E2,1.83E2,2.33E2,2.108E1,4.655E1,2.67E2,2.2E1,1.09614E5,6.28E2,1.3126E2,7.5E1,1.22181E5,2.1E1,5.6E1,-1.9242842E-1,2.2E1,1E0,7.4E1,1E0,2.135E3,1.3098E2,8.11E2,3.8755E2,7.876E2,3.8E1,2.5E1,4.699E1,3.95554E3,5.5E1,-1.7156516E-1,1.351802E-2,-1.8965806E-1,1.2263382E-1,4.4925533E-2,-5.877003E-3,-1.7282812E-1,8.6733066E-2,3.87922E-2,1.1290078E-1,1.407727E-1,-1.2993042E-2,-1.7401005E-1,1.0641095E-1,7.703334E-2,1.541253E-2,4.118315E-2,1.7499414E-1,-6.6990025E-2,4.9036786E-2,-1.3464741E-1,1.4268331E-1,1.2352249E-1,1.8779412E-1,1.0780609E-1,2.077985E-1,1.7522557E-2,1.6356024E-1,1.679742E-1,7.4270375E-2,-7.941249E-3,1.2032562E-1,7.329682E-2,-1.9921851E-1,-2.6621197E-3,1.203913E-1,2.3663144E-1,-5.4349788E-2,-6.116906E-2,2.9520777E-1,1.4955948E-1,-8.01924E-2,-1.05912425E-1,-1.5870447E-1,-5.6512218E-2,6.451249E-2,1.1355947E-1,-2.651954E-2,9.84619E-2,-1.933334E-1,1.2507631E-2,-1.4910525E-1,9.003241E-2,2.4805654E-2,2.0294616E-2,1.9958465E-1,1.4590341E-1,-3.832865E-2,6.765047E-2,1.5369108E-1,4.3718956E-2,-1.4980337E-1],"split_indices":[16,25,16,39,14,2,10,27,30,32,32,16,16,17,17,32,33,14,37,32,16,19,16,16,32,2,14,52,17,17,2,16,16,32,37,16,46,19,30,34,42,17,16,19,35,17,34,4,0,37,15,4,52,16,12,51,10,10,4,32,11,11,4,0,0,0,0,0,0,0,0,0,0,0,0,0,0,0,0,0,0,0,0,0,0,0,0,0,0,0,0,0,0,0,0,0,0,0,0,0,0,0,0,0,0,0,0,0,0,0,0,0,0,0,0,0,0,0,0,0,0,0,0,0,0],"split_type":[0,0,0,0,0,0,0,0,0,0,0,0,0,0,0,0,0,0,0,0,0,0,0,0,0,0,0,0,0,0,0,0,0,0,0,0,0,0,0,0,0,0,0,0,0,0,0,0,0,0,0,0,0,0,0,0,0,0,0,0,0,0,0,0,0,0,0,0,0,0,0,0,0,0,0,0,0,0,0,0,0,0,0,0,0,0,0,0,0,0,0,0,0,0,0,0,0,0,0,0,0,0,0,0,0,0,0,0,0,0,0,0,0,0,0,0,0,0,0,0,0,0,0,0,0],"sum_hessian":[7.71017E4,5.6410152E4,2.0691547E4,2.1853621E4,3.4556535E4,8.189872E3,1.2501675E4,5.353931E3,1.649969E4,7.7819883E3,2.6774545E4,1.3662242E3,6.823648E3,6.8396064E3,5.6620684E3,1.0165763E3,4.3373545E3,7.335761E3,9.163929E3,5.071751E3,2.710237E3,8.185148E3,1.8589396E4,1.9759612E2,1.1686282E3,9.29222E2,5.894426E3,4.191509E3,2.6480977E3,3.4014272E3,2.2606409E3,6.531843E2,3.63392E2,4.199898E3,1.3745674E2,3.0519653E3,4.2837954E3,3.7400497E2,8.789924E3,2.071559E3,3.0001921E3,1.3955644E2,2.5706807E3,7.013021E3,1.172127E3,1.2302951E4,6.2864453E3,1.1442443E2,8.3171684E1,8.528851E2,3.157431E2,6.7018506E2,2.590369E2,3.3331765E3,2.5612495E3,4.146457E3,4.5051643E1,4.6900385E2,2.179094E3,7.697101E2,2.6317173E3,1.8026304E3,4.580106E2,5.70114E2,8.3070305E1,4.8701843E1,3.1469016E2,2.1723337E3,2.0275641E3,1.197602E2,1.7696535E1,1.6912134E3,1.3607521E3,4.0489558E3,2.3483986E2,3.1686002E2,5.7144955E1,6.4239146E3,2.3660093E3,1.4593171E3,6.1224207E2,2.5517097E3,4.4848233E2,1.1909013E2,2.0466305E1,1.3867018E3,1.1839789E3,4.8672742E2,6.5262935E3,7.287412E2,4.4338574E2,1.0684116E4,1.6188353E3,1.9255964E3,4.360849E3,9.093805E1,2.3486382E1,2.0734802E2,6.4553705E2,2.9286877E2,2.287432E1,6.473076E2,2.2877413E1,2.3616936E2,2.2867548E1,2.3224675E3,1.0107088E3,2.3624353E3,1.9881412E2,4.0344783E3,1.1197865E2,1.1293763E1,3.375788E1,3.5354425E2,1.1545957E2,1.3479199E3,8.31174E2,4.8875293E2,2.8095712E2,9.012366E1,2.5415935E3,1.1016383E3,7.0099194E2,3.3319662E2,1.2481399E2],"tree_param":{"num_deleted":"0","num_feature":"65","num_nodes":"125","size_leaf_vector":"1"}},{"base_weights":[-3.832053E-1,-2.6681924E-1,-4.631758E-1,2.1885051E-1,-3.100433E-1,-4.244651E-1,-5.758028E-1,-5.824807E-2,4.2731813E-1,-1.0692744E-1,-4.9630353E-1,-5.630274E-1,-4.033153E-1,-4.85025E-1,-5.9151155E-1,1.8455978E-1,-5.510589E-1,2.3115486E-1,7.650936E-1,3.619453E-1,-1.9566225E-1,-3.424696E-1,-5.4859996E-1,-5.9851557E-1,-2.0881316E-1,-3.18461E-1,-4.5614925E-1,-5.418493E-1,-4.251512E-1,-6.241253E-1,-5.1684994E-1,-2.3921834E-1,6.207092E-1,-6.342746E-1,7.170004E-1,5.4670507E-1,-8.765891E-2,7.839617E-1,-1.9637813E-1,8.7580633E-1,2.3089895E-1,-2.9429886E-1,7.711577E-2,-1.8121825E-1,-5.203067E-1,-5.520304E-1,1.2186906E0,-6.20393E-1,-5.478917E-1,1.8946254E-1,-4.417304E-1,-2.5652552E-1,-4.0838474E-1,-5.028553E-1,-4.2444038E-1,-5.514241E-1,3.917034E-2,-3.925459E-1,-5.598611E-1,-6.265624E-1,-4.976361E-1,-5.459833E-1,-4.1857874E-1,-9.710112E-2,1.295713E-1,2.205562E-1,9.461871E-2,-1.9309501E-1,-7.3916954E-3,2.6654893E-1,-1.3591526E-1,9.9273495E-2,2.696558E-1,7.3255815E-2,-1.20007955E-1,2.5597733E-1,1.6144133E-1,-1.8399541E-1,2.7872914E-1,-1.6799605E-1,1.1392453E-1,1.2450885E-1,-1.0061135E-1,1.0264669E-1,-8.655919E-2,-1.3053603E-1,8.126185E-2,-1.0043333E-1,-1.8268654E-1,-1.8044624E-1,-1.4110391E-1,5.455279E-1,2.753855E-1,-1.0213763E-1,-1.8691522E-1,-1.8394916E-1,-1.4469726E-1,2.4031012E-1,-1.1036167E-1,-1.8461972E-1,3.517094E-2,-1.704466E-1,-6.2108524E-2,-9.609307E-2,-1.4017783E-1,-1.587559E-1,-1.335893E-1,-1.3532741E-1,-9.7000144E-2,-5.4134328E-2,-1.6927777E-1,-1.5121898E-1,1.0293559E-1,-1.2263655E-1,6.71531E-2,-1.8301955E-1,-5.071786E-2,-1.8883446E-1,-1.565113E-1,-1.5416314E-1,6.524515E-2,-1.7955709E-1,-1.313151E-1,-3.0845248E-3,-1.4609118E-1],"categories":[],"categories_nodes":[],"categories_segments":[],"categories_sizes":[],"default_left":[0,0,0,0,0,0,0,0,0,0,0,0,0,0,0,0,0,0,0,0,0,0,0,0,0,0,0,0,0,0,0,0,0,0,0,0,0,0,0,0,0,0,0,0,0,0,0,0,0,0,1,0,0,0,0,0,0,0,0,0,0,0,0,0,0,0,0,0,0,0,0,0,0,0,0,0,0,0,0,0,0,0,0,0,0,0,0,0,0,0,0,0,0,0,0,0,0,0,0,0,0,0,0,0,0,0,0,0,0,0,0,0,0,0,0,0,0,0,0,0,0,0,0,0,0],"id":8,"left_children":[1,3,5,7,9,11,13,15,17,19,21,23,25,27,29,31,33,35,37,39,41,43,45,47,49,51,53,55,57,59,61,63,65,67,69,71,73,75,-1,77,79,81,83,85,87,89,91,93,95,97,99,101,103,105,107,109,111,113,115,117,119,121,123,-1,-1,-1,-1,-1,-1,-1,-1,-1,-1,-1,-1,-1,-1,-1,-1,-1,-1,-1,-1,-1,-1,-1,-1,-1,-1,-1,-1,-1,-1,-1,-1,-1,-1,-1,-1,-1,-1,-1,-1,-1,-1,-1,-1,-1,-1,-1,-1,-1,-1,-1,-1,-1,-1,-1,-1,-1,-1,-1,-1,-1,-1],"loss_changes":[5.583965E2,5.13167E2,1.5482227E2,1.1544778E2,8.490864E2,7.735449E1,1.2682617E1,1.0285541E2,7.538396E1,4.468229E2,9.400195E1,4.3911255E1,1.0283765E2,4.3532715E0,1.854541E1,1.0661693E2,3.039077E1,7.276805E1,1.1724258E1,1.14889145E2,2.4297586E2,8.516156E1,5.3634766E1,3.185913E0,2.9819664E1,4.9005432E1,2.074878E1,3.8466644E0,2.6819763E0,1.3491211E0,6.5325317E0,1.6739655E1,9.699692E0,1.5087891E0,4.0023766E0,2.7319519E1,3.7458805E1,6.5845947E0,0E0,2.8101624E1,1.6069028E2,1.933518E2,2.325705E2,1.7927197E2,2.3039917E1,3.494336E1,1.4395084E0,1.4360962E0,3.8522034E0,4.0851254E1,1.9736053E1,8.046356E1,1.8489685E1,8.430786E0,2.2588257E1,3.1193085E0,2.1676512E0,5.4503326E0,2.3767586E0,1.2700195E0,1.351162E0,1.0080872E1,1.5194084E1,0E0,0E0,0E0,0E0,0E0,0E0,0E0,0E0,0E0,0E0,0E0,0E0,0E0,0E0,0E0,0E0,0E0,0E0,0E0,0E0,0E0,0E0,0E0,0E0,0E0,0E0,0E0,0E0,0E0,0E0,0E0,0E0,0E0,0E0,0E0,0E0,0E0,0E0,0E0,0E0,0E0,0E0,0E0,0E0,0E0,0E0,0E0,0E0,0E0,0E0,0E0,0E0,0E0,0E0,0E0,0E0,0E0,0E0,0E0,0E0,0E0,0E0],"parents":[2147483647,0,0,1,1,2,2,3,3,4,4,5,5,6,6,7,7,8,8,9,9,10,10,11,11,12,12,13,13,14,14,15,15,16,16,17,17,18,18,19,19,20,20,21,21,22,22,23,23,24,24,25,25,26,26,27,27,28,28,29,29,30,30,31,31,32,32,33,33,34,34,35,35,36,36,37,37,39,39,40,40,41,41,42,42,43,43,44,44,45,45,46,46,47,47,48,48,49,49,50,50,51,51,52,52,53,53,54,54,55,55,56,56,57,57,58,58,59,59,60,60,61,61,62,62],"right_children":[2,4,6,8,10,12,14,16,18,20,22,24,26,28,30,32,34,36,38,40,42,44,46,48,50,52,54,56,58,60,62,64,66,68,70,72,74,76,-1,78,80,82,84,86,88,90,92,94,96,98,100,102,104,106,108,110,112,114,116,118,120,122,124,-1,-1,-1,-1,-1,-1,-1,-1,-1,-1,-1,-1,-1,-1,-1,-1,-1,-1,-1,-1,-1,-1,-1,-1,-1,-1,-1,-1,-1,-1,-1,-1,-1,-1,-1,-1,-1,-1,-1,-1,-1,-1,-1,-1,-1,-1,-1,-1,-1,-1,-1,-1,-1,-1,-1,-1,-1,-1,-1,-1,-1,-1],"split_conditions":[1.83E2,5E0,2.169E3,2.1E1,1.76E0,7E-2,1.14948E5,1.4E2,1.01E2,4E0,3.6625E4,2.135E3,2.2E1,4.4E1,1.17811E5,5.396E1,2.415E2,8.7E1,2.98E2,2E0,3.3E1,8E1,4.94602E3,1.62E2,1.76E0,2.86E2,9.5498E4,2.84E2,8.0186E2,3.70697E4,3.08E2,6.05E2,2.48E2,2.3993E2,1.17E2,4.2E1,8.6945E4,1.17E2,-1.9637813E-1,2.7E1,4.4E1,2E0,1.85E2,1.9E2,2.62E1,2.06E2,4.95E0,2E0,1.6352E2,1.8E1,2.9E1,7.43E0,2.544E1,1.5525E2,1.494E3,2E0,4.888E3,5.2E1,4.556378E4,8.11E2,4.41E2,5.27E0,8.4E1,-9.710112E-2,1.295713E-1,2.205562E-1,9.461871E-2,-1.9309501E-1,-7.3916954E-3,2.6654893E-1,-1.3591526E-1,9.9273495E-2,2.696558E-1,7.3255815E-2,-1.20007955E-1,2.5597733E-1,1.6144133E-1,-1.8399541E-1,2.7872914E-1,-1.6799605E-1,1.1392453E-1,1.2450885E-1,-1.0061135E-1,1.0264669E-1,-8.655919E-2,-1.3053603E-1,8.126185E-2,-1.0043333E-1,-1.8268654E-1,-1.8044624E-1,-1.4110391E-1,5.455279E-1,2.753855E-1,-1.0213763E-1,-1.8691522E-1,-1.8394916E-1,-1.4469726E-1,2.4031012E-1,-1.1036167E-1,-1.8461972E-1,3.517094E-2,-1.704466E-1,-6.2108524E-2,-9.609307E-2,-1.4017783E-1,-1.587559E-1,-1.335893E-1,-1.3532741E-1,-9.7000144E-2,-5.4134328E-2,-1.6927777E-1,-1.5121898E-1,1.0293559E-1,-1.2263655E-1,6.71531E-2,-1.8301955E-1,-5.071786E-2,-1.8883446E-1,-1.565113E-1,-1.5416314E-1,6.524515E-2,-1.7955709E-1,-1.313151E-1,-3.0845248E-3,-1.4609118E-1],"split_indices":[16,1,16,22,23,22,17,20,33,37,17,16,14,36,17,19,19,34,36,35,30,33,12,30,23,16,17,43,11,10,30,39,49,19,49,43,17,49,0,33,34,38,40,21,22,30,32,33,11,35,14,32,12,19,16,33,3,4,10,51,41,12,22,0,0,0,0,0,0,0,0,0,0,0,0,0,0,0,0,0,0,0,0,0,0,0,0,0,0,0,0,0,0,0,0,0,0,0,0,0,0,0,0,0,0,0,0,0,0,0,0,0,0,0,0,0,0,0,0,0,0,0,0,0,0],"split_type":[0,0,0,0,0,0,0,0,0,0,0,0,0,0,0,0,0,0,0,0,0,0,0,0,0,0,0,0,0,0,0,0,0,0,0,0,0,0,0,0,0,0,0,0,0,0,0,0,0,0,0,0,0,0,0,0,0,0,0,0,0,0,0,0,0,0,0,0,0,0,0,0,0,0,0,0,0,0,0,0,0,0,0,0,0,0,0,0,0,0,0,0,0,0,0,0,0,0,0,0,0,0,0,0,0,0,0,0,0,0,0,0,0,0,0,0,0,0,0,0,0,0,0,0,0],"sum_hessian":[6.000686E4,2.4440879E4,3.556598E4,1.9971085E3,2.244377E4,2.6472094E4,9.093889E3,8.577258E2,1.1393827E3,1.0736856E4,1.1706914E4,3.50216E3,2.2969934E4,1.3462224E3,7.747666E3,5.750327E2,2.8269308E2,7.218515E2,4.1753116E2,1.7081183E3,9.028737E3,2.9720244E3,8.73489E3,3.1826091E3,3.1955072E2,8.816755E3,1.4153179E4,6.865704E2,6.5965204E2,5.3871084E3,2.3605579E3,2.918817E2,2.8315103E2,2.65753E2,1.6940096E1,3.6242334E2,3.594282E2,4.1249677E2,5.034414E0,3.4593793E2,1.3621803E3,6.6309175E3,2.3978206E3,1.559756E3,1.4122684E3,8.718653E3,1.623591E1,2.2143926E3,9.6821655E2,1.17986626E2,2.0156409E2,5.22314E3,3.5936145E3,5.717151E3,8.436027E3,6.7548975E2,1.1080664E1,5.342547E2,1.2539736E2,5.2813945E3,1.05713905E2,1.8172593E3,5.4329865E2,2.5971738E2,3.2164333E1,2.0491109E2,7.823994E1,2.61673E2,4.0799623E0,1.4984442E1,1.9556549E0,2.2592056E2,1.3650276E2,1.743864E2,1.8504181E2,3.1985962E2,9.263713E1,1.1589141E1,3.343488E2,2.1532524E2,1.1468551E3,3.6243713E2,6.26848E3,1.3901965E3,1.0076239E3,9.9883264E2,5.609234E2,4.5816605E2,9.5410236E2,5.426638E3,3.2920154E3,3.7370133E0,1.2498898E1,2.2040005E1,2.1923525E3,4.8101584E2,4.8720074E2,5.604758E1,6.193904E1,1.5370702E2,4.785707E1,7.144625E2,4.5086777E3,1.4423497E3,2.151265E3,3.917028E3,1.8001226E3,6.673484E3,1.7625441E3,2.309282E1,6.523969E2,3.7392607E0,7.3414035E0,5.208661E2,1.3388607E1,1.10624954E2,1.4772408E1,5.135071E3,1.4632349E2,1.03641525E2,2.072378E0,1.2204578E3,5.968015E2,7.8113556E1,4.651851E2],"tree_param":{"num_deleted":"0","num_feature":"65","num_nodes":"125","size_leaf_vector":"1"}},{"base_weights":[4.2269636E-2,-5.728899E-2,2.5914922E-1,-1.0641978E-1,1.3024761E-1,4.0961477E-1,1.9256388E-1,-3.1852898E-1,-6.50593E-2,2.251515E-1,-1.09270364E-1,5.1829827E-1,2.579299E-1,3.254819E-1,1.386952E-1,-3.501952E-1,-2.8213026E-2,-1.2854104E-1,5.095368E-2,1.6001756E-1,3.4770617E-1,-2.9518008E-1,-1.2210411E-2,3.967199E-1,6.0305053E-1,4.527035E-1,6.488605E-2,7.66271E-1,3.1074783E-1,-5.3562637E-2,1.8351355E-1,-3.8399115E-1,-1.0418321E-1,4.2597705E-1,-3.224348E-1,-1.6270252E-1,1.0269931E-1,4.704288E-1,8.915916E-3,1.0601472E-1,3.7969267E-1,-2.4329865E-2,4.1207805E-1,-3.1640056E-1,5.321401E-1,3.1014952E-1,-9.460102E-2,4.0913242E-1,-6.1431485E-1,2.517713E-1,6.180057E-1,2.0859644E-1,6.010252E-1,-9.769517E-2,5.12186E-1,7.783227E-1,1.4214435E-1,3.5062057E-1,-5.237806E-3,1.8320261E-1,-2.635832E-1,9.606929E-2,2.646733E-1,-1.2044337E-1,6.505743E-2,1.20688386E-1,-9.9692516E-2,1.8683788E-1,6.769023E-2,-1.161905E-1,2.0431909E-1,-5.220065E-2,1.16093256E-1,-2.7531905E-2,1.1844569E-1,1.7863508E-2,2.406632E-1,1.0174596E-1,-1.2943344E-2,5.786488E-2,-2.1653917E-2,1.4410476E-1,-4.1267328E-4,-2.560677E-1,1.2792745E-2,2.3431716E-2,1.4424206E-1,-1.76466E-2,-1.14029296E-1,2.593416E-1,-1.3225602E-1,-2.1851003E-2,1.5136363E-1,1.5610401E-1,-4.3589223E-2,1.527521E-1,9.021201E-2,-4.0752072E-2,-1.9648543E-1,1.7272115E-1,-1.9978594E-2,1.569635E-1,1.9909577E-1,-1.3568565E-1,1.0547041E-1,1.5338823E-1,2.8628254E-1,1.3674459E-1,-6.4698234E-2,8.544272E-2,2.7237585E-1,2.1889187E-1,2.6957077E-1,-8.8007204E-2,1.5581143E-1,1.11611865E-1,2.7786335E-2,3.6979496E-2,-8.527832E-2,5.052881E-2,3.8042846E-1,-1.2454665E-1,-5.0379727E-2,7.753587E-2,9.432567E-3,9.1357216E-2,-4.0698774E-2],"categories":[],"categories_nodes":[],"categories_segments":[],"categories_sizes":[],"default_left":[0,0,1,0,0,0,0,0,0,0,0,0,0,0,0,0,0,0,0,0,0,0,0,0,0,0,0,0,0,0,0,0,0,1,0,0,0,0,0,0,0,0,0,0,0,0,0,0,0,0,0,0,0,0,0,0,0,0,0,0,0,0,0,0,0,0,0,0,0,0,0,0,0,0,0,0,0,0,0,0,0,0,0,0,0,0,0,0,0,0,0,0,0,0,0,0,0,0,0,0,0,0,0,0,0,0,0,0,0,0,0,0,0,0,0,0,0,0,0,0,0,0,0,0,0,0,0],"id":9,"left_children":[1,3,5,7,9,11,13,15,17,19,21,23,25,27,29,31,33,35,37,39,41,43,45,47,49,51,53,55,57,59,61,63,65,67,69,71,73,75,77,79,81,83,85,87,89,91,93,95,97,99,101,103,105,107,109,111,113,115,117,119,121,123,125,-1,-1,-1,-1,-1,-1,-1,-1,-1,-1,-1,-1,-1,-1,-1,-1,-1,-1,-1,-1,-1,-1,-1,-1,-1,-1,-1,-1,-1,-1,-1,-1,-1,-1,-1,-1,-1,-1,-1,-1,-1,-1,-1,-1,-1,-1,-1,-1,-1,-1,-1,-1,-1,-1,-1,-1,-1,-1,-1,-1,-1,-1,-1,-1],"loss_changes":[1.4884042E3,4.353213E2,2.1720557E2,3.2841882E2,2.2297774E2,1.0953381E2,1.0761694E2,5.6149048E1,2.307432E2,5.602231E1,5.02339E1,3.9683594E1,1.0445332E2,2.7920471E1,9.2222626E1,4.575354E1,8.0566635E1,1.5998074E2,1.9539923E2,5.439997E1,5.8375244E1,1.6933037E1,4.8638084E1,2.0260345E1,1.1828003E1,4.9949493E1,1.016266E2,9.390869E-1,5.2882477E1,1.0068701E2,6.1567444E1,5.096393E1,7.715607E1,9.206215E0,2.4076797E1,1.0965616E2,1.4814319E2,1.3754814E2,1.731901E2,5.705426E1,3.4718933E1,2.005278E1,4.7652283E1,1.5263466E1,8.223692E0,2.7790932E1,4.5542225E1,1.6938232E1,2.9478788E-1,9.819675E0,9.117065E0,4.9695183E1,2.6764862E1,6.704283E1,3.3259995E1,1.4455414E-1,7.8767526E-1,2.0560516E1,1.6932198E1,1.5043785E1,1.5485573E1,4.3850338E1,7.184195E1,0E0,0E0,0E0,0E0,0E0,0E0,0E0,0E0,0E0,0E0,0E0,0E0,0E0,0E0,0E0,0E0,0E0,0E0,0E0,0E0,0E0,0E0,0E0,0E0,0E0,0E0,0E0,0E0,0E0,0E0,0E0,0E0,0E0,0E0,0E0,0E0,0E0,0E0,0E0,0E0,0E0,0E0,0E0,0E0,0E0,0E0,0E0,0E0,0E0,0E0,0E0,0E0,0E0,0E0,0E0,0E0,0E0,0E0,0E0,0E0,0E0,0E0,0E0,0E0],"parents":[2147483647,0,0,1,1,2,2,3,3,4,4,5,5,6,6,7,7,8,8,9,9,10,10,11,11,12,12,13,13,14,14,15,15,16,16,17,17,18,18,19,19,20,20,21,21,22,22,23,23,24,24,25,25,26,26,27,27,28,28,29,29,30,30,31,31,32,32,33,33,34,34,35,35,36,36,37,37,38,38,39,39,40,40,41,41,42,42,43,43,44,44,45,45,46,46,47,47,48,48,49,49,50,50,51,51,52,52,53,53,54,54,55,55,56,56,57,57,58,58,59,59,60,60,61,61,62,62],"right_children":[2,4,6,8,10,12,14,16,18,20,22,24,26,28,30,32,34,36,38,40,42,44,46,48,50,52,54,56,58,60,62,64,66,68,70,72,74,76,78,80,82,84,86,88,90,92,94,96,98,100,102,104,106,108,110,112,114,116,118,120,122,124,126,-1,-1,-1,-1,-1,-1,-1,-1,-1,-1,-1,-1,-1,-1,-1,-1,-1,-1,-1,-1,-1,-1,-1,-1,-1,-1,-1,-1,-1,-1,-1,-1,-1,-1,-1,-1,-1,-1,-1,-1,-1,-1,-1,-1,-1,-1,-1,-1,-1,-1,-1,-1,-1,-1,-1,-1,-1,-1,-1,-1,-1,-1,-1,-1],"split_conditions":[2.126E3,4.30918E3,5E0,1.5E-1,3.002E1,2.169E3,2.135E3,5.87E2,2.75E2,2.998E1,9.8153E4,2.5E1,3.8E1,2.132E3,1.14948E5,1.22179E5,1.1107E5,1.22179E5,8E0,3E1,7.83031E3,1E0,2.7266E3,7.6E1,1.5E1,1.5E-1,1.911E1,4.49E2,3.9E1,5.88E0,9.201E2,8.11E2,1E0,3E1,2.0541E2,8.11E2,2.9E1,2.998E1,8.6154E4,6.28E2,1.2082E5,5E0,3.6995E4,6E0,9.746E3,1.21323E5,1.05736E5,4.70227E3,5.01E0,6E0,8.02E0,1.08319E5,5.56E2,3.17609E3,5.5E1,5E0,3E1,9.945E3,9.527E3,6.15E2,1.075E2,3.47E3,1.19731E5,-1.2044337E-1,6.505743E-2,1.20688386E-1,-9.9692516E-2,1.8683788E-1,6.769023E-2,-1.161905E-1,2.0431909E-1,-5.220065E-2,1.16093256E-1,-2.7531905E-2,1.1844569E-1,1.7863508E-2,2.406632E-1,1.0174596E-1,-1.2943344E-2,5.786488E-2,-2.1653917E-2,1.4410476E-1,-4.1267328E-4,-2.560677E-1,1.2792745E-2,2.3431716E-2,1.4424206E-1,-1.76466E-2,-1.14029296E-1,2.593416E-1,-1.3225602E-1,-2.1851003E-2,1.5136363E-1,1.5610401E-1,-4.3589223E-2,1.527521E-1,9.021201E-2,-4.0752072E-2,-1.9648543E-1,1.7272115E-1,-1.9978594E-2,1.569635E-1,1.9909577E-1,-1.3568565E-1,1.0547041E-1,1.5338823E-1,2.8628254E-1,1.3674459E-1,-6.4698234E-2,8.544272E-2,2.7237585E-1,2.1889187E-1,2.6957077E-1,-8.8007204E-2,1.5581143E-1,1.11611865E-1,2.7786335E-2,3.6979496E-2,-8.527832E-2,5.052881E-2,3.8042846E-1,-1.2454665E-1,-5.0379727E-2,7.753587E-2,9.432567E-3,9.1357216E-2,-4.0698774E-2],"split_indices":[16,10,14,22,32,16,16,16,16,32,17,32,4,16,17,17,17,17,33,1,10,27,11,4,4,25,2,42,1,23,10,51,15,14,19,51,1,32,17,16,17,4,17,34,3,17,17,11,32,4,2,17,49,11,4,2,4,3,3,35,21,3,17,0,0,0,0,0,0,0,0,0,0,0,0,0,0,0,0,0,0,0,0,0,0,0,0,0,0,0,0,0,0,0,0,0,0,0,0,0,0,0,0,0,0,0,0,0,0,0,0,0,0,0,0,0,0,0,0,0,0,0,0,0,0,0,0],"split_type":[0,0,0,0,0,0,0,0,0,0,0,0,0,0,0,0,0,0,0,0,0,0,0,0,0,0,0,0,0,0,0,0,0,0,0,0,0,0,0,0,0,0,0,0,0,0,0,0,0,0,0,0,0,0,0,0,0,0,0,0,0,0,0,0,0,0,0,0,0,0,0,0,0,0,0,0,0,0,0,0,0,0,0,0,0,0,0,0,0,0,0,0,0,0,0,0,0,0,0,0,0,0,0,0,0,0,0,0,0,0,0,0,0,0,0,0,0,0,0,0,0,0,0,0,0,0,0],"sum_hessian":[6.89307E4,4.7244047E4,2.1686654E4,3.7436797E4,9.807249E3,6.6512993E3,1.50353545E4,6.1077393E3,3.1329057E4,7.0241426E3,2.7831062E3,3.8734922E3,2.7778071E3,4.3346934E3,1.0700661E4,5.5068706E3,6.0086865E2,2.0248867E4,1.108019E4,4.588047E3,2.436096E3,9.5391864E2,1.8291876E3,1.5934067E3,2.2800854E3,1.3820391E3,1.3957681E3,1.3855725E2,4.196136E3,2.0228824E3,8.677778E3,4.841243E3,6.656276E2,2.3604236E2,3.6482632E2,1.7642771E4,2.6060957E3,1.0083316E3,1.0071859E4,3.6839116E3,9.0413513E2,3.5942554E2,2.0766704E3,9.30665E2,2.325367E1,3.7178485E2,1.4574027E3,1.5746697E3,1.873696E1,9.383559E1,2.1862498E3,5.232626E2,8.587764E2,1.0242595E3,3.7150858E2,1.3569006E2,2.8671918E0,3.725876E3,4.7026013E2,9.5095624E2,1.0719261E3,4.1782134E3,4.4995654E3,4.704654E3,1.3658931E2,2.0646834E2,4.591593E2,1.1800564E2,1.1803672E2,3.432523E2,2.1574022E1,1.7288068E4,3.547033E2,1.56495E3,1.0411458E3,4.509936E2,5.57338E2,1.370811E3,8.701048E3,2.4765386E3,1.207373E3,7.150098E2,1.8912535E2,2.5981867E1,3.3344366E2,3.547889E2,1.7218815E3,1.8489778E2,7.457672E2,1.7416492E1,5.8371754E0,1.2538492E2,2.4639993E2,1.1029227E2,1.3471105E3,8.17079E2,7.5759076E2,1.8067076E0,1.6930252E1,4.6108128E1,4.7727455E1,7.1463696E2,1.4716129E3,9.268151E1,4.305811E2,6.867726E2,1.7200385E2,1.7943982E2,8.448197E2,2.370349E2,1.3447368E2,1.01617096E2,3.4072964E1,1.4339987E0,1.4331932E0,3.439859E3,2.860172E2,3.2235797E2,1.4790216E2,9.393205E2,1.1635714E1,4.1343674E2,6.5848944E2,1.1886351E3,2.9895781E3,4.0924304E3,4.071349E2],"tree_param":{"num_deleted":"0","num_feature":"65","num_nodes":"127","size_leaf_vector":"1"}},{"base_weights":[2.0071766E-1,2.7375616E-2,2.4863437E-1,-3.6337316E-2,2.9573667E-1,2.9898724E-1,8.079006E-2,4.812716E-2,-2.3335074E-1,3.4989202E-1,-5.325046E-1,3.6225253E-1,1.633405E-1,1.4600545E-1,1.206884E-2,1.8530862E-1,-3.616685E-3,-2.751038E-1,7.323772E-2,-2.7941084E-1,3.802115E-1,-5.7694495E-1,4.8584884E-1,4.284327E-1,2.6383057E-1,-6.1451685E-1,1.8792401E-1,-3.8275324E-2,1.7946884E-1,-8.375601E-3,2.9010922E-1,2.9159173E-1,-1.0008285E-1,-2.4491379E-1,5.8250792E-2,3.2913946E-2,-3.0876902E-1,-1.9866435E-1,3.7487954E-1,-4.0681496E-1,5.7097834E-1,5.557307E-1,3.3766988E-1,-1.777606E-1,-2.3684466E-1,-1.06111445E-1,8.899944E-1,4.6968743E-1,3.0208516E-1,2.223829E-1,4.1064373E-1,-7.8097515E-2,-7.264425E-1,1.2045653E-1,3.151688E-1,2.637337E-1,-1.0407154E-1,1.5310186E-1,4.441534E-1,6.567898E-2,-1.2904575E-1,3.6461267E-1,-1.0467355E-1,4.1782E-2,1.3621907E-1,1.6829132E-1,-5.0011877E-2,-9.239137E-2,1.01549156E-1,1.6760989E-1,-2.6335483E-4,-1.4096265E-1,7.730697E-2,1.9945887E-1,-9.538545E-2,4.2191043E-2,-1.09827995E-1,1.3927859E-1,-1.0457876E-1,-1.4273617E-1,2.0800234E-1,2.4367973E-1,-9.3560435E-2,-5.7204485E-2,1.7216498E-1,2.9559145E-4,1.07332386E-1,-1.5544079E-1,1.01365134E-1,1.2841184E-1,-1.4367221E-1,3.3832303E-1,1.8364312E-2,1.441264E-1,-4.1473143E-2,-2.4558363E-2,1.3837506E-1,7.698765E-2,-8.8011636E-4,1.064916E-1,1.7670324E-1,3.8769048E-2,-3.0007815E-1,-1.839616E-1,-2.3561005E-1,2.701736E-2,8.5379586E-2,1.3843688E-1,7.831386E-2,1.6321797E-2,1.293495E-1,5.7661226E-3,-7.2357036E-2,-2.0280113E-2,5.3621776E-2,1.0836825E-1,2.2203274E-1,-1.1438511E-2,3.6914777E-2,-1.06923126E-1,-6.6166604E-4,-1.02431804E-1,1.2770467E-1,1.4254908E-1,-9.585319E-2],"categories":[],"categories_nodes":[],"categories_segments":[],"categories_sizes":[],"default_left":[1,0,0,0,0,0,0,0,0,0,0,0,0,0,0,0,0,0,0,0,0,0,0,0,0,0,0,0,0,0,0,0,0,0,0,0,0,0,0,0,0,0,0,0,0,0,0,0,0,0,0,0,0,0,0,0,0,0,0,0,0,0,0,0,0,0,0,0,0,0,0,0,0,0,0,0,0,0,0,0,0,0,0,0,0,0,0,0,0,0,0,0,0,0,0,0,0,0,0,0,0,0,0,0,0,0,0,0,0,0,0,0,0,0,0,0,0,0,0,0,0,0,0,0,0],"id":10,"left_children":[1,3,5,7,9,11,13,15,17,19,21,23,25,27,29,31,33,35,37,39,41,43,45,47,49,51,53,55,57,59,61,63,65,67,69,71,73,75,77,79,81,83,85,-1,87,89,91,93,95,97,99,101,103,105,107,109,111,113,115,117,119,121,123,-1,-1,-1,-1,-1,-1,-1,-1,-1,-1,-1,-1,-1,-1,-1,-1,-1,-1,-1,-1,-1,-1,-1,-1,-1,-1,-1,-1,-1,-1,-1,-1,-1,-1,-1,-1,-1,-1,-1,-1,-1,-1,-1,-1,-1,-1,-1,-1,-1,-1,-1,-1,-1,-1,-1,-1,-1,-1,-1,-1,-1,-1],"loss_changes":[6.2831714E2,2.801385E2,5.0084692E2,2.2035098E2,1.4118509E2,3.9116357E2,6.129744E1,6.57918E1,5.088475E1,5.6415558E1,9.029373E0,2.0237793E2,2.7741705E2,4.3283142E1,3.7865757E1,7.702912E1,1.00498146E2,3.627661E1,3.9201622E1,1.4991658E1,2.0838837E1,8.4428406E-1,2.1582572E0,9.674072E1,7.598236E1,2.6630432E1,1.20647064E2,2.147491E1,4.138301E1,5.5463524E1,1.3458092E1,4.5718384E1,3.046435E1,5.064454E1,1.5855502E2,3.9167355E1,2.8399536E1,1.4341902E1,1.4809233E1,9.364321E0,4.1230903E0,7.5320435E0,1.5359467E1,0E0,1.7602459E0,1.0798692E0,9.621072E-1,9.148828E1,2.7979605E2,7.523755E1,2.7110413E1,1.5014377E1,1.9714661E0,4.582196E1,3.8440796E1,6.75354E0,1.4999388E1,3.0582985E1,1.2925201E1,2.291115E1,6.8070206E1,1.6704926E1,9.271985E0,0E0,0E0,0E0,0E0,0E0,0E0,0E0,0E0,0E0,0E0,0E0,0E0,0E0,0E0,0E0,0E0,0E0,0E0,0E0,0E0,0E0,0E0,0E0,0E0,0E0,0E0,0E0,0E0,0E0,0E0,0E0,0E0,0E0,0E0,0E0,0E0,0E0,0E0,0E0,0E0,0E0,0E0,0E0,0E0,0E0,0E0,0E0,0E0,0E0,0E0,0E0,0E0,0E0,0E0,0E0,0E0,0E0,0E0,0E0,0E0,0E0,0E0],"parents":[2147483647,0,0,1,1,2,2,3,3,4,4,5,5,6,6,7,7,8,8,9,9,10,10,11,11,12,12,13,13,14,14,15,15,16,16,17,17,18,18,19,19,20,20,21,21,22,22,23,23,24,24,25,25,26,26,27,27,28,28,29,29,30,30,31,31,32,32,33,33,34,34,35,35,36,36,37,37,38,38,39,39,40,40,41,41,42,42,44,44,45,45,46,46,47,47,48,48,49,49,50,50,51,51,52,52,53,53,54,54,55,55,56,56,57,57,58,58,59,59,60,60,61,61,62,62],"right_children":[2,4,6,8,10,12,14,16,18,20,22,24,26,28,30,32,34,36,38,40,42,44,46,48,50,52,54,56,58,60,62,64,66,68,70,72,74,76,78,80,82,84,86,-1,88,90,92,94,96,98,100,102,104,106,108,110,112,114,116,118,120,122,124,-1,-1,-1,-1,-1,-1,-1,-1,-1,-1,-1,-1,-1,-1,-1,-1,-1,-1,-1,-1,-1,-1,-1,-1,-1,-1,-1,-1,-1,-1,-1,-1,-1,-1,-1,-1,-1,-1,-1,-1,-1,-1,-1,-1,-1,-1,-1,-1,-1,-1,-1,-1,-1,-1,-1,-1,-1,-1,-1,-1,-1,-1],"split_conditions":[5E0,3.5E1,7E0,2.998E1,2.135E3,6.07E2,2E1,1.1E1,2.2E1,1.83E2,7.443E4,5.9E1,6.28E2,3.37E3,8.01E0,2.134E3,1.83E2,5E0,9.746E3,1.34305E3,5.652E4,6.2E1,2.9E1,3.9E1,5.21E2,1E-2,2E0,9.5E1,4.62E2,7.43E0,7.65E2,1.4423E2,6.9E0,6.58E2,2.75E2,3.055E1,3.6624E4,1.62E2,9.5E1,3.9E1,1E1,2.11E0,1.9868E3,-1.777606E-1,2.4619E2,3.37E3,3.99939E3,2.9E2,4.935E1,7.6E1,2.8E2,1.6905E2,1.18E2,3.001E1,2.134E3,1.32E2,7.09E0,3.3E1,3.38E2,5.04E2,7.51E0,9E0,5E0,4.1782E-2,1.3621907E-1,1.6829132E-1,-5.0011877E-2,-9.239137E-2,1.01549156E-1,1.6760989E-1,-2.6335483E-4,-1.4096265E-1,7.730697E-2,1.9945887E-1,-9.538545E-2,4.2191043E-2,-1.09827995E-1,1.3927859E-1,-1.0457876E-1,-1.4273617E-1,2.0800234E-1,2.4367973E-1,-9.3560435E-2,-5.7204485E-2,1.7216498E-1,2.9559145E-4,1.07332386E-1,-1.5544079E-1,1.01365134E-1,1.2841184E-1,-1.4367221E-1,3.3832303E-1,1.8364312E-2,1.441264E-1,-4.1473143E-2,-2.4558363E-2,1.3837506E-1,7.698765E-2,-8.8011636E-4,1.064916E-1,1.7670324E-1,3.8769048E-2,-3.0007815E-1,-1.839616E-1,-2.3561005E-1,2.701736E-2,8.5379586E-2,1.3843688E-1,7.831386E-2,1.6321797E-2,1.293495E-1,5.7661226E-3,-7.2357036E-2,-2.0280113E-2,5.3621776E-2,1.0836825E-1,2.2203274E-1,-1.1438511E-2,3.6914777E-2,-1.06923126E-1,-6.6166604E-4,-1.02431804E-1,1.2770467E-1,1.4254908E-1,-9.585319E-2],"split_indices":[14,32,27,32,16,16,27,1,42,16,17,36,16,3,32,16,16,4,3,30,17,4,36,22,33,22,6,3,51,32,33,20,30,30,16,30,17,30,36,1,50,30,11,0,19,3,19,30,22,43,30,19,33,32,16,34,32,37,44,10,32,35,49,0,0,0,0,0,0,0,0,0,0,0,0,0,0,0,0,0,0,0,0,0,0,0,0,0,0,0,0,0,0,0,0,0,0,0,0,0,0,0,0,0,0,0,0,0,0,0,0,0,0,0,0,0,0,0,0,0,0,0,0,0,0],"split_type":[0,0,0,0,0,0,0,0,0,0,0,0,0,0,0,0,0,0,0,0,0,0,0,0,0,0,0,0,0,0,0,0,0,0,0,0,0,0,0,0,0,0,0,0,0,0,0,0,0,0,0,0,0,0,0,0,0,0,0,0,0,0,0,0,0,0,0,0,0,0,0,0,0,0,0,0,0,0,0,0,0,0,0,0,0,0,0,0,0,0,0,0,0,0,0,0,0,0,0,0,0,0,0,0,0,0,0,0,0,0,0,0,0,0,0,0,0,0,0,0,0,0,0,0,0],"sum_hessian":[7.564617E4,1.6382591E4,5.9263586E4,1.3240065E4,3.1425254E3,4.5586863E4,1.3676723E4,9.267582E3,3.9724834E3,2.9502012E3,1.9232419E2,3.108652E4,1.4500343E4,7.0167803E3,6.6599424E3,2.5375466E3,6.7300356E3,3.496422E3,4.7606128E2,1.3522812E2,2.814973E3,1.8469756E2,7.6266294E0,1.8585822E4,1.2500697E4,4.434964E2,1.4056847E4,1.078332E3,5.938448E3,6.204679E3,4.5526312E2,1.8489531E3,6.885934E2,1.3728098E3,5.357226E3,3.4449646E2,3.1519258E3,2.5055269E2,2.2550858E2,1.1806187E2,1.7166252E1,5.468214E2,2.2681516E3,1.7589232E2,8.805246E0,3.3935173E0,4.233112E0,1.4008938E4,4.576884E3,9.750493E3,2.7502036E3,7.6855125E1,3.6664127E2,9.187443E3,4.869403E3,1.9236328E2,8.8596875E2,5.401907E3,5.365413E2,3.8452979E3,2.3593813E3,3.8305023E2,7.221288E1,9.5525366E2,8.9369946E2,6.2365673E1,6.262277E2,1.23933E3,1.334798E2,5.65187E2,4.792039E3,1.0609276E2,2.3840369E2,2.8781284E1,3.1231445E3,8.283811E1,1.6771457E2,2.010304E2,2.4478188E1,1.11630905E2,6.430961E0,1.3544425E1,3.621828E0,1.2757155E1,5.340642E2,1.278673E2,2.1402842E3,5.9779205E0,2.827326E0,1.3339766E0,2.0595407E0,3.0091586E0,1.2239532E0,1.3766088E4,2.4285081E2,1.3414506E3,3.235433E3,8.464031E3,1.2864623E3,2.0982805E3,6.51923E2,6.3449738E1,1.3405389E1,1.2939143E2,2.3724983E2,7.7531333E3,1.4343104E3,1.3129954E3,3.5564075E3,8.607482E1,1.0628846E2,4.6695758E2,4.1901117E2,5.620243E2,4.839883E3,4.2084293E2,1.15698425E2,1.3688317E3,2.4764663E3,8.442427E2,1.5151388E3,3.0128635E1,3.529216E2,1.9194881E1,5.3018E1],"tree_param":{"num_deleted":"0","num_feature":"65","num_nodes":"125","size_leaf_vector":"1"}},{"base_weights":[-3.3575964E-1,-2.6641262E-1,-4.5884818E-1,-1.577217E-1,-3.5368115E-1,-4.0591693E-1,-5.3678733E-1,8.279194E-2,-2.069822E-1,7.726578E-2,-4.0574247E-1,-4.8427033E-1,-3.6922795E-1,-4.349198E-1,-5.548904E-1,2.8491044E-1,-3.4585708E-1,-4.0501535E-1,-1.3114037E-1,2.3640728E-1,-1.9405332E-1,-4.62053E-1,-3.016944E-1,-5.081444E-1,-3.724736E-1,-2.2247091E-1,-4.2083395E-1,-4.9691713E-1,-3.7130076E-1,-5.920895E-1,-4.7304392E-1,6.292828E-1,3.384982E-2,-5.3475076E-1,-9.1974735E-2,7.775131E-1,-4.1750774E-1,-4.6985596E-1,-8.046757E-2,1.06365696E-1,6.581457E-1,-4.9933144E-1,-3.4910396E-1,-9.8849565E-2,-4.018505E-1,-5.7591283E-1,-4.815962E-1,-3.9472032E-1,7.7139944E-1,-5.7667184E-1,-1.7726335E-1,-5.358146E-1,-3.9064226E-1,-5.0720626E-1,6.140773E-2,-2.2568788E-1,-4.0443447E-1,-5.949653E-1,-4.4752648E-1,-5.3657734E-1,-4.1886556E-1,2.1070243E-1,-7.291813E-2,-1.1401597E-2,3.1132683E-1,-1.7170954E-1,-1.1616815E-1,-1.2311802E-1,1.4086786E-2,5.3788507E-1,-1.7559463E-1,-1.4502774E-1,-5.6691263E-2,2.7845907E-1,-1.5002672E-1,-6.0579777E-3,-1.1107847E-1,8.6384535E-2,-6.404706E-2,2.0285562E-1,-1.8414554E-1,-1.6319299E-1,-1.3271222E-1,-1.24772534E-1,-4.350009E-2,4.4884183E-2,-7.898604E-2,-1.6074046E-1,-7.465205E-2,-1.7607436E-1,-1.4149198E-1,-1.4677279E-1,3.4114978E-1,3.7619076E-3,-1.3180682E-1,4.4497903E-2,5.1143736E-1,-1.7551711E-1,1.2950793E-1,-3.9008338E-2,-9.840472E-2,-1.682394E-1,-1.14155374E-1,6.720429E-2,-1.2171438E-1,-1.6863462E-1,-1.157546E-1,-1.4039169E-1,9.6309975E-2,-2.8795809E-2,-1.1806081E-1,-1.2605056E-1,-1.8920803E-2,-1.7946848E-1,-1.4416693E-1,-1.6201627E-1,-7.732013E-2,-1.6235429E-1,2.2455145E-2,-1.3013853E-1,6.938813E-2],"categories":[],"categories_nodes":[],"categories_segments":[],"categories_sizes":[],"default_left":[0,0,0,0,0,0,0,0,0,0,0,0,0,0,0,0,0,0,0,0,0,0,0,1,0,0,0,0,0,0,0,0,0,0,0,0,0,0,0,0,0,0,0,0,0,0,0,0,0,0,0,0,0,0,0,0,0,0,0,0,0,0,0,0,0,0,0,0,0,0,0,0,0,0,0,0,0,0,0,0,0,0,0,0,0,0,0,0,0,0,0,0,0,0,0,0,0,0,0,0,0,0,0,0,0,0,0,0,0,0,0,0,0,0,0,0,0,0,0,0,0],"id":11,"left_children":[1,3,5,7,9,11,13,15,17,19,21,23,25,27,29,31,33,35,37,39,-1,41,43,45,47,49,51,53,55,57,59,61,63,65,67,69,71,73,75,77,79,81,83,85,87,89,91,93,95,97,99,101,103,105,107,109,111,113,115,117,119,-1,-1,-1,-1,-1,-1,-1,-1,-1,-1,-1,-1,-1,-1,-1,-1,-1,-1,-1,-1,-1,-1,-1,-1,-1,-1,-1,-1,-1,-1,-1,-1,-1,-1,-1,-1,-1,-1,-1,-1,-1,-1,-1,-1,-1,-1,-1,-1,-1,-1,-1,-1,-1,-1,-1,-1,-1,-1,-1,-1],"loss_changes":[4.5995898E2,3.2698535E2,7.990698E1,1.8195874E2,4.2907178E2,3.308423E1,1.4239258E1,2.2633334E2,1.913858E2,2.3777419E2,9.982788E1,9.651367E0,5.9623535E1,4.507202E0,2.000879E1,1.5344922E2,4.0099617E1,5.2460632E1,1.5817755E2,9.268362E1,0E0,4.643164E1,1.2174164E2,5.183777E0,1.6909973E1,3.27791E1,2.0037964E1,3.474945E0,2.7602768E0,1.6367188E0,6.9599304E0,4.7867615E1,7.4172424E1,2.440918E0,1.5872538E1,5.2588715E1,5.252948E1,5.1158722E1,1.4007303E2,7.520856E1,9.556488E0,2.0915527E1,3.7436188E1,8.104703E1,8.210803E1,6.9750977E-1,2.7627716E1,1.1653328E1,7.183902E0,2.2140503E0,1.293507E1,4.482361E0,4.292169E1,3.706253E0,1.7637346E0,2.3965864E0,2.5527573E0,1.3869629E0,1.4996319E0,2.7345886E0,1.1079803E1,0E0,0E0,0E0,0E0,0E0,0E0,0E0,0E0,0E0,0E0,0E0,0E0,0E0,0E0,0E0,0E0,0E0,0E0,0E0,0E0,0E0,0E0,0E0,0E0,0E0,0E0,0E0,0E0,0E0,0E0,0E0,0E0,0E0,0E0,0E0,0E0,0E0,0E0,0E0,0E0,0E0,0E0,0E0,0E0,0E0,0E0,0E0,0E0,0E0,0E0,0E0,0E0,0E0,0E0,0E0,0E0,0E0,0E0,0E0,0E0],"parents":[2147483647,0,0,1,1,2,2,3,3,4,4,5,5,6,6,7,7,8,8,9,9,10,10,11,11,12,12,13,13,14,14,15,15,16,16,17,17,18,18,19,19,21,21,22,22,23,23,24,24,25,25,26,26,27,27,28,28,29,29,30,30,31,31,32,32,33,33,34,34,35,35,36,36,37,37,38,38,39,39,40,40,41,41,42,42,43,43,44,44,45,45,46,46,47,47,48,48,49,49,50,50,51,51,52,52,53,53,54,54,55,55,56,56,57,57,58,58,59,59,60,60],"right_children":[2,4,6,8,10,12,14,16,18,20,22,24,26,28,30,32,34,36,38,40,-1,42,44,46,48,50,52,54,56,58,60,62,64,66,68,70,72,74,76,78,80,82,84,86,88,90,92,94,96,98,100,102,104,106,108,110,112,114,116,118,120,-1,-1,-1,-1,-1,-1,-1,-1,-1,-1,-1,-1,-1,-1,-1,-1,-1,-1,-1,-1,-1,-1,-1,-1,-1,-1,-1,-1,-1,-1,-1,-1,-1,-1,-1,-1,-1,-1,-1,-1,-1,-1,-1,-1,-1,-1,-1,-1,-1,-1,-1,-1,-1,-1,-1,-1,-1,-1,-1,-1],"split_conditions":[2.86E2,1.5E-1,2.169E3,2E0,5E0,1.487E3,1.14948E5,1.83E2,5E1,1.83E2,2.06E2,9.15E1,2.126E3,4.4E1,1.17811E5,1.235E1,5.27E0,1.38E0,6.71E0,1.01E2,-1.9405332E-1,8.3E1,6.4E1,6E0,3.422222E4,1E-2,7.2857E4,2.84E2,1.456E1,3.70697E4,6.2E1,4.45E2,1.5E1,3.5E1,7.49E0,1.83E2,3.63E1,5E0,6.68E2,8.7E1,2.98E2,1.83E2,2.75E2,8.7197E4,1.83E2,8.01E1,8.46158E3,2.016E2,7.2E2,6.64026E4,3E0,5.42E2,1.83E0,1.3392E2,4.888E3,1.966E1,6.54E2,8.11E2,2.66E1,1.5E3,6.68E2,2.1070243E-1,-7.291813E-2,-1.1401597E-2,3.1132683E-1,-1.7170954E-1,-1.1616815E-1,-1.2311802E-1,1.4086786E-2,5.3788507E-1,-1.7559463E-1,-1.4502774E-1,-5.6691263E-2,2.7845907E-1,-1.5002672E-1,-6.0579777E-3,-1.1107847E-1,8.6384535E-2,-6.404706E-2,2.0285562E-1,-1.8414554E-1,-1.6319299E-1,-1.3271222E-1,-1.24772534E-1,-4.350009E-2,4.4884183E-2,-7.898604E-2,-1.6074046E-1,-7.465205E-2,-1.7607436E-1,-1.4149198E-1,-1.4677279E-1,3.4114978E-1,3.7619076E-3,-1.3180682E-1,4.4497903E-2,5.1143736E-1,-1.7551711E-1,1.2950793E-1,-3.9008338E-2,-9.840472E-2,-1.682394E-1,-1.14155374E-1,6.720429E-2,-1.2171438E-1,-1.6863462E-1,-1.157546E-1,-1.4039169E-1,9.6309975E-2,-2.8795809E-2,-1.1806081E-1,-1.2605056E-1,-1.8920803E-2,-1.7946848E-1,-1.4416693E-1,-1.6201627E-1,-7.732013E-2,-1.6235429E-1,2.2455145E-2,-1.3013853E-1,6.938813E-2],"split_indices":[16,25,16,38,14,16,17,16,36,16,30,22,16,36,17,30,12,21,30,33,0,35,22,14,11,22,17,43,11,10,34,35,32,32,32,16,30,35,33,34,36,16,16,17,16,22,10,19,30,10,51,50,30,30,3,21,35,51,22,22,36,0,0,0,0,0,0,0,0,0,0,0,0,0,0,0,0,0,0,0,0,0,0,0,0,0,0,0,0,0,0,0,0,0,0,0,0,0,0,0,0,0,0,0,0,0,0,0,0,0,0,0,0,0,0,0,0,0,0,0,0],"split_type":[0,0,0,0,0,0,0,0,0,0,0,0,0,0,0,0,0,0,0,0,0,0,0,0,0,0,0,0,0,0,0,0,0,0,0,0,0,0,0,0,0,0,0,0,0,0,0,0,0,0,0,0,0,0,0,0,0,0,0,0,0,0,0,0,0,0,0,0,0,0,0,0,0,0,0,0,0,0,0,0,0,0,0,0,0,0,0,0,0,0,0,0,0,0,0,0,0,0,0,0,0,0,0,0,0,0,0,0,0,0,0,0,0,0,0,0,0,0,0,0,0],"sum_hessian":[5.3898992E4,3.4477707E4,1.9421283E4,1.5355545E4,1.9122162E4,1.1569933E4,7.851351E3,2.6102686E3,1.2745276E4,2.0610405E3,1.7061123E4,3.685957E3,7.883975E3,1.1885125E3,6.6628384E3,1.7740812E3,8.361873E2,3.528237E3,9.217039E3,1.690241E3,3.7079962E2,1.1067811E4,5.9933115E3,3.0344167E3,6.515401E2,2.0524712E3,5.831504E3,5.984788E2,5.9003357E2,4.5765635E3,2.0862751E3,7.4739514E2,1.026686E3,4.788252E2,3.5736212E2,3.6242947E1,3.4919941E3,1.1983765E3,8.0186626E3,1.2928479E3,3.9739297E2,8.3188E3,2.7490112E3,1.9817285E3,4.0115828E3,8.4829987E2,2.186117E3,6.397527E2,1.17873745E1,2.3098096E2,1.8214902E3,1.2093032E3,4.6222007E3,5.877392E2,1.073962E1,1.10820694E2,4.792129E2,4.484242E3,9.232119E1,9.561367E2,1.1301383E3,6.898178E2,5.7577297E1,9.590068E2,6.767929E1,3.7924796E2,9.957724E1,1.07963646E2,2.4939848E2,2.0587606E1,1.5655338E1,2.7093948E3,7.825994E2,2.473777E1,1.1736387E3,6.6389053E3,1.3797576E3,8.247409E2,4.6810706E2,3.922976E2,5.095367E0,4.658643E3,3.6601565E3,2.0703384E3,6.7867303E2,7.89257E2,1.1924716E3,2.1376772E3,1.8739056E3,7.631524E2,8.514742E1,2.1765337E3,9.583297E0,6.32622E1,5.764905E2,7.763719E0,4.023656E0,2.2949237E2,1.4885776E0,1.388341E3,4.3314935E2,1.0394674E3,1.698358E2,1.10299034E2,4.511902E3,4.021511E2,1.8558813E2,3.269854E0,7.4697666E0,6.340071E1,4.741998E1,4.5787775E2,2.1335127E1,4.355784E3,1.2845804E2,6.0823185E1,3.1498005E1,9.491055E2,7.0311556E0,1.105095E3,2.5043385E1],"tree_param":{"num_deleted":"0","num_feature":"65","num_nodes":"121","size_leaf_vector":"1"}},{"base_weights":[3.9748337E-2,-3.8334545E-2,2.0658448E-1,-7.745376E-2,1.0849888E-1,3.079571E-1,1.370818E-1,-1.4915256E-2,-1.9189595E-1,1.7913276E-1,-7.7198364E-2,3.5624912E-1,-2.5927199E-2,1.1192867E-1,2.679879E-1,-4.528506E-2,2.954864E-1,-2.9682726E-1,-7.9245366E-2,-6.1041374E-2,2.0224541E-1,6.3051563E-3,-2.4422137E-1,2.798023E-1,4.3481427E-1,2.0353337E-1,-9.380193E-2,-4.6129603E-2,1.3628805E-1,4.7379422E-1,1.4275576E-1,-7.042115E-2,1.3869861E-1,4.8863247E-1,-2.518781E-1,-3.2562023E-1,5.0947685E-2,1.9405834E-2,-1.970995E-1,-2.639632E-1,2.4962226E-1,2.1986395E-1,-1.5004158E-1,8.961553E-2,-2.5493214E-1,3.304145E-1,-2.8332305E-1,5.470684E-1,2.621069E-1,3.2368106E-1,5.1263064E-1,-1.8212114E-1,3.1589654E-1,4.6175744E-2,-3.4139866E-1,1.8165886E-1,5.9348103E-3,4.9267158E-1,-2.6325378E-1,2.7769184E-1,-2.2747017E-2,-7.871248E-3,-5.874486E-2,3.0140132E-1,1.0121837E-2,-1.1061035E-1,1.7628181E-1,-1.0618461E-1,1.328806E-1,-3.5754472E-2,-1.06882535E-1,6.956832E-2,-7.183509E-2,1.5020574E-2,-1.1736804E-1,-8.751063E-2,2.9475447E-2,-2.0533456E-1,-3.3318606E-4,2.0868433E-1,-2.574165E-2,7.463009E-2,-4.0728482E-3,-9.715858E-2,-5.1488383E-3,1.0703746E-2,1.9772176E-1,2.4706642E-1,-8.620916E-2,2.3552194E-1,-1.3161471E-1,5.001378E-2,-1.0134546E-1,2.0579152E-1,6.373632E-2,1.0384897E-1,5.52619E-2,1.0036923E-1,-1.7252657E-1,4.2433396E-2,1.5812755E-1,-1.0729763E-1,1.7115066E-3,1.5935788E-1,-1.4405455E-1,-4.317639E-2,2.0579503E-1,2.7517033E-1,-1.1663954E-1,2.5731312E-2,8.421154E-2,2.5687674E-2,-4.9088523E-2,1.6501921E-1,8.788386E-2,6.9122665E-2,-1.5600437E-1,2.0777503E-1,4.715742E-2,-4.9015004E-2,5.337832E-2],"categories":[],"categories_nodes":[],"categories_segments":[],"categories_sizes":[],"default_left":[0,0,0,0,0,1,0,0,0,0,0,0,0,0,0,0,0,0,0,0,0,0,0,0,0,0,0,0,0,0,0,0,0,0,0,0,0,0,0,0,0,0,0,0,0,0,0,0,0,0,0,0,0,0,0,0,0,0,0,0,0,0,0,0,0,0,0,0,0,0,0,0,0,0,0,0,0,0,0,0,0,0,0,0,0,0,0,0,0,0,0,0,0,0,0,0,0,0,0,0,0,0,0,0,0,0,0,0,0,0,0,0,0,0,0,0,0,0,0,0,0],"id":12,"left_children":[1,3,5,7,9,11,13,15,17,19,21,23,25,27,29,31,33,35,37,39,41,43,45,47,49,-1,51,53,55,57,59,61,63,65,67,69,71,73,75,77,79,81,83,85,87,89,91,93,95,97,99,101,103,105,107,109,111,113,115,117,119,-1,-1,-1,-1,-1,-1,-1,-1,-1,-1,-1,-1,-1,-1,-1,-1,-1,-1,-1,-1,-1,-1,-1,-1,-1,-1,-1,-1,-1,-1,-1,-1,-1,-1,-1,-1,-1,-1,-1,-1,-1,-1,-1,-1,-1,-1,-1,-1,-1,-1,-1,-1,-1,-1,-1,-1,-1,-1,-1,-1],"loss_changes":[8.69885E2,2.6128632E2,1.4995074E2,2.570668E2,1.255338E2,1.396145E2,4.156143E1,2.1897285E2,1.5000528E2,3.8497513E1,3.67892E1,4.5309753E1,5.241427E1,4.0807785E1,5.2386017E1,9.785811E1,2.1898338E2,6.581372E1,7.1184525E1,3.8481255E1,3.9288177E1,3.831578E1,1.9848415E1,1.8001434E1,3.2079285E1,0E0,3.6228424E1,3.8604977E1,5.430562E1,1.0835831E1,2.8294558E1,1.0313272E2,2.311518E2,1.3008856E2,3.8497314E1,3.8361694E1,2.650134E1,4.1993008E1,7.797652E1,4.079348E1,3.6155277E1,4.064615E1,6.965871E0,4.0973633E1,1.5126289E1,2.0093517E1,2.0257797E1,1.0884865E1,2.3511108E1,1.5239059E1,1.1688049E1,2.7136454E1,3.0701588E1,1.313983E2,2.048098E1,6.466705E1,3.20641E1,8.442902E0,2.6380868E0,3.4780426E1,1.6111063E1,0E0,0E0,0E0,0E0,0E0,0E0,0E0,0E0,0E0,0E0,0E0,0E0,0E0,0E0,0E0,0E0,0E0,0E0,0E0,0E0,0E0,0E0,0E0,0E0,0E0,0E0,0E0,0E0,0E0,0E0,0E0,0E0,0E0,0E0,0E0,0E0,0E0,0E0,0E0,0E0,0E0,0E0,0E0,0E0,0E0,0E0,0E0,0E0,0E0,0E0,0E0,0E0,0E0,0E0,0E0,0E0,0E0,0E0,0E0,0E0],"parents":[2147483647,0,0,1,1,2,2,3,3,4,4,5,5,6,6,7,7,8,8,9,9,10,10,11,11,12,12,13,13,14,14,15,15,16,16,17,17,18,18,19,19,20,20,21,21,22,22,23,23,24,24,26,26,27,27,28,28,29,29,30,30,31,31,32,32,33,33,34,34,35,35,36,36,37,37,38,38,39,39,40,40,41,41,42,42,43,43,44,44,45,45,46,46,47,47,48,48,49,49,50,50,51,51,52,52,53,53,54,54,55,55,56,56,57,57,58,58,59,59,60,60],"right_children":[2,4,6,8,10,12,14,16,18,20,22,24,26,28,30,32,34,36,38,40,42,44,46,48,50,-1,52,54,56,58,60,62,64,66,68,70,72,74,76,78,80,82,84,86,88,90,92,94,96,98,100,102,104,106,108,110,112,114,116,118,120,-1,-1,-1,-1,-1,-1,-1,-1,-1,-1,-1,-1,-1,-1,-1,-1,-1,-1,-1,-1,-1,-1,-1,-1,-1,-1,-1,-1,-1,-1,-1,-1,-1,-1,-1,-1,-1,-1,-1,-1,-1,-1,-1,-1,-1,-1,-1,-1,-1,-1,-1,-1,-1,-1,-1,-1,-1,-1,-1,-1],"split_conditions":[2.126E3,4.30918E3,2.169E3,1.3348E2,3.002E1,3.9E1,2.5616E2,1.3E2,2.4E1,1.271E0,6.28E2,7.8132E2,2.132E3,1.14948E5,2.499E1,6.07E2,4.935E1,4.4613E2,2.1E2,2.75E2,3.1E3,1.23798E5,1.66156E3,8E0,2.499E1,2.0353337E-1,1E0,2.5E1,1.17484E5,4E1,8.0186E2,1.157E1,6.28E2,6E0,1.9E2,7.2E-1,7.5E1,1.494E3,3.001E1,1E0,5.29E2,5.27E0,1.708558E4,7E1,1.66156E3,4.1E1,1.5E-1,9E0,8.9E1,7.6E1,1.5E1,7.297E4,1.17861E5,4.34E0,3.982E1,9.1051E2,5.27E0,4.6E1,2E0,3.878E1,3.000222E4,-7.871248E-3,-5.874486E-2,3.0140132E-1,1.0121837E-2,-1.1061035E-1,1.7628181E-1,-1.0618461E-1,1.328806E-1,-3.5754472E-2,-1.06882535E-1,6.956832E-2,-7.183509E-2,1.5020574E-2,-1.1736804E-1,-8.751063E-2,2.9475447E-2,-2.0533456E-1,-3.3318606E-4,2.0868433E-1,-2.574165E-2,7.463009E-2,-4.0728482E-3,-9.715858E-2,-5.1488383E-3,1.0703746E-2,1.9772176E-1,2.4706642E-1,-8.620916E-2,2.3552194E-1,-1.3161471E-1,5.001378E-2,-1.0134546E-1,2.0579152E-1,6.373632E-2,1.0384897E-1,5.52619E-2,1.0036923E-1,-1.7252657E-1,4.2433396E-2,1.5812755E-1,-1.0729763E-1,1.7115066E-3,1.5935788E-1,-1.4405455E-1,-4.317639E-2,2.0579503E-1,2.7517033E-1,-1.1663954E-1,2.5731312E-2,8.421154E-2,2.5687674E-2,-4.9088523E-2,1.6501921E-1,8.788386E-2,6.9122665E-2,-1.5600437E-1,2.0777503E-1,4.715742E-2,-4.9015004E-2,5.337832E-2],"split_indices":[16,10,16,19,32,14,19,30,36,31,16,11,16,17,32,16,22,20,35,16,31,17,11,33,32,0,15,32,17,1,11,22,16,34,20,11,35,16,32,27,16,12,10,4,11,14,25,34,11,4,4,17,17,22,12,10,12,4,4,12,10,0,0,0,0,0,0,0,0,0,0,0,0,0,0,0,0,0,0,0,0,0,0,0,0,0,0,0,0,0,0,0,0,0,0,0,0,0,0,0,0,0,0,0,0,0,0,0,0,0,0,0,0,0,0,0,0,0,0,0,0],"split_type":[0,0,0,0,0,0,0,0,0,0,0,0,0,0,0,0,0,0,0,0,0,0,0,0,0,0,0,0,0,0,0,0,0,0,0,0,0,0,0,0,0,0,0,0,0,0,0,0,0,0,0,0,0,0,0,0,0,0,0,0,0,0,0,0,0,0,0,0,0,0,0,0,0,0,0,0,0,0,0,0,0,0,0,0,0,0,0,0,0,0,0,0,0,0,0,0,0,0,0,0,0,0,0,0,0,0,0,0,0,0,0,0,0,0,0,0,0,0,0,0,0],"sum_hessian":[6.6773695E4,4.548603E4,2.1287666E4,3.591742E4,9.568611E3,8.657257E3,1.2630409E4,2.3226248E4,1.2691173E4,6.9319375E3,2.6366738E3,7.5632627E3,1.0939944E3,1.0596235E4,2.034173E3,2.1157086E4,2.0691626E3,6.5698657E3,6.1213066E3,6.083766E2,6.323561E3,1.7584801E3,8.781937E2,3.8356213E3,3.7276414E3,9.536335E1,9.98631E2,1.4148627E3,9.181373E3,7.6847644E2,1.2656965E3,1.8614557E4,2.5425283E3,1.5295458E3,5.396167E2,6.0675825E3,5.0228342E2,3.3325728E3,2.788734E3,3.6809296E2,2.4028365E2,6.0227285E3,3.008322E2,1.333784E3,4.2469595E2,5.547574E1,8.22718E2,2.3632452E2,