{"learner":{"attributes":{"scikit_learn":"{\"_estimator_type\": \"classifier\"}"},"feature_names":["NET_WITH_VAT","QTY","LINE_CLAIMED_AMOUNT_SAR","CO_INSURANCE","LINE_ITEM_DISCOUNT","NET_VAT_AMOUNT","PATIENT_VAT_AMOUNT","VAT_PERCENTAGE","TREATMENT_TYPE_INDICATOR","DURATION","QTY_STOCKED_UOM","UNIT_PRICE_STOCKED_UOM","UNIT_PRICE_NET","DISCOUNT_PERCENTAGE","EMERGENCY_INDICATOR","PROVIDER_DEPARTMENT_CODE","DOCTOR_SPECIALTY_CODE","DOCTOR_CODE","PATIENT_AGE","UNIT_OF_AGE","PATIENT_NATIONALITY","PATIENT_MARITAL_STATUS","PATIENT_GENDER","CLAIM_TYPE","TOTAL_CLAIMED_AMOUNT_SAR","TOTAL_DISCOUNT","TOTAL_DEDUCTIBLE","TOTAL_PATIENT_VATAMOUNT","DEPARTMENT_TYPE","TREATMENT_TYPE","PURCHASER_CODE","CONTRACT_NO","NEW_BORN","PatientAgeRange","CombinedText1","CombinedText2","CombinedText3","CombinedText4","CombinedText5","CombinedText6","CombinedText7","CombinedText8","CombinedText9","CombinedText10","CombinedText11","CombinedText12","CombinedText13","CombinedText14","CombinedText15","CombinedText16","ICDText1","ICDText2","ICDText3","ICDText4","ICDText5","ICDText6","ICDText7","ICDText8","ICDText9","ICDText10","ICDText11","ICDText12","ICDText13","ICDText14","ICDText15","ICDText16"],"feature_types":["float","float","float","float","float","float","float","float","int","float","int","float","float","float","int","int","float","int","int","int","int","int","int","int","float","float","float","float","float","int","int","int","int","int","int","int","int","int","int","int","int","int","int","int","int","int","int","int","int","int","int","int","int","int","int","int","int","int","int","int","int","int","int","int","int","int"],"gradient_booster":{"model":{"gbtree_model_param":{"num_parallel_tree":"1","num_trees":"100"},"iteration_indptr":[0,1,2,3,4,5,6,7,8,9,10,11,12,13,14,15,16,17,18,19,20,21,22,23,24,25,26,27,28,29,30,31,32,33,34,35,36,37,38,39,40,41,42,43,44,45,46,47,48,49,50,51,52,53,54,55,56,57,58,59,60,61,62,63,64,65,66,67,68,69,70,71,72,73,74,75,76,77,78,79,80,81,82,83,84,85,86,87,88,89,90,91,92,93,94,95,96,97,98,99,100],"tree_info":[0,0,0,0,0,0,0,0,0,0,0,0,0,0,0,0,0,0,0,0,0,0,0,0,0,0,0,0,0,0,0,0,0,0,0,0,0,0,0,0,0,0,0,0,0,0,0,0,0,0,0,0,0,0,0,0,0,0,0,0,0,0,0,0,0,0,0,0,0,0,0,0,0,0,0,0,0,0,0,0,0,0,0,0,0,0,0,0,0,0,0,0,0,0,0,0,0,0,0,0],"trees":[{"base_weights":[2.3391175E-4,2.6770654E-1,-6.6972613E-1,-4.2750227E-1,4.578426E-1,-1.2328553E0,-2.4350248E-1,-8.0852383E-1,7.5221485E-1,8.2847023E-1,-6.487056E-2,1.6762719E-1,-1.4641174E0,8.3506905E-2,-5.1645637E-1,-3.507234E-1,-1.3370775E0,-1.6247205E0,9.244119E-1,1.1014119E0,4.8397538E-1,3.7009043E-1,-3.161404E-1,-1.3510174E0,4.791815E-1,-8.3134955E-1,-1.5539163E0,3.1168842E-1,-2.7546254E-1,-7.58593E-1,-6.651873E-2,-8.3021176E-1,1.9932456E-1,-1.4538393E0,-4.1251278E-1,-1.8453535E0,5.4182595E-1,6.6064715E-1,1.2458373E0,1.1858732E0,7.4026346E-1,1.3876088E0,1.3984156E-1,-4.4170824E-1,5.388607E-1,-4.2965484E-1,1.6878113E-1,-6.2213093E-1,-6.3453674E-1,6.565494E-1,-1.1066936E0,-1.1945392E0,1.5157369E-1,-1.296107E0,-1.8285447E0,-8.354769E-1,3.6085236E-1,-4.433761E-1,4.5270357E-2,1.5480408E-1,-9.9586105E-1,1.3724601E-1,-8.156897E-1,-4.2247698E-1,1.6963397E-1,-6.8672653E-4,1.6630536E-1,-4.6079496E-1,-2.1108434E-1,1.0138109E-1,-3.4003717E-1,-5.862325E-1,2.8646114E-1,2.636494E-1,-2.6610893E-1,-1.0373705E-1,2.2278023E-1,1.2706984E-2,4.0308052E-1,2.8781575E-1,4.1495988E-1,-1.4385767E-2,3.2476303E-1,1.7782936E-1,4.620022E-1,-1.3673037E-1,9.626133E-2,-7.4825495E-2,-3.8410655E-1,2.2779512E-1,1.03552885E-1,-9.6538454E-2,-3.720803E-1,1.7961885E-1,-2.5818655E-2,-3.334512E-1,2.1113212E-1,1.05093785E-1,4.4045404E-1,3.573174E-1,-3.7721115E-1,-2.3917484E-1,-5.090324E-1,-7.8520454E-2,2.9005143E-1,-2.2001888E-1,-4.1961807E-1,-4.9283278E-1,-5.781603E-1,2.3747702E-1,-4.887383E-1,1.2080094E-1,-1.4416419E-1,-1.1639336E-1,-3.9924657E-1,-1.4495607E-1,1.1746248E-1,-1.4576273E-1,3.7159234E-1,-2.8843427E-1,-5.964264E-1,1.02854796E-1,-9.347018E-2,2.7460111E-2,-3.6418852E-1],"categories":[],"categories_nodes":[],"categories_segments":[],"categories_sizes":[],"default_left":[0,1,0,0,0,0,0,0,0,0,0,0,0,0,0,0,0,0,0,0,0,0,0,0,0,0,0,0,0,0,0,0,0,0,0,0,0,0,0,0,0,0,0,0,0,0,0,0,0,0,0,0,0,0,0,0,0,0,0,0,0,0,0,0,0,0,0,0,0,0,0,0,0,0,0,0,0,0,0,0,0,0,0,0,0,0,0,0,0,0,0,0,0,0,0,0,0,0,0,0,0,0,0,0,0,0,0,0,0,0,0,0,0,0,0,0,0,0,0,0,0,0,0,0,0],"id":0,"left_children":[1,3,5,7,9,11,13,15,17,19,21,23,25,27,29,31,33,35,37,39,41,43,45,47,49,51,53,55,57,59,61,63,65,67,69,71,73,75,77,79,81,83,85,87,89,91,93,95,-1,97,99,101,103,105,107,109,111,113,115,117,119,121,123,-1,-1,-1,-1,-1,-1,-1,-1,-1,-1,-1,-1,-1,-1,-1,-1,-1,-1,-1,-1,-1,-1,-1,-1,-1,-1,-1,-1,-1,-1,-1,-1,-1,-1,-1,-1,-1,-1,-1,-1,-1,-1,-1,-1,-1,-1,-1,-1,-1,-1,-1,-1,-1,-1,-1,-1,-1,-1,-1,-1,-1,-1],"loss_changes":[7.3861196E3,3.8940227E3,2.822454E3,2.8444917E3,4.481416E3,1.6411172E3,5.9764844E2,1.1568179E3,6.339027E2,1.2721201E3,1.0490846E3,3.4080264E2,2.4579199E2,2.4965463E2,3.9753455E2,6.764669E2,2.3900073E2,5.1064117E1,1.21374756E2,2.2944922E2,1.860967E3,4.8178943E2,3.3497052E2,6.6990875E1,1.6873317E2,1.9386743E2,2.6716016E2,1.05386826E2,6.381804E1,5.1431384E2,1.9518965E2,1.1062042E3,8.554184E1,1.20336426E2,1.3578233E2,3.088263E1,5.8130064E0,6.573108E1,7.624774E1,2.7210352E2,3.8689832E2,1.9902368E2,4.676073E2,9.73248E1,1.2400409E2,4.306656E2,1.2657846E2,4.243004E1,0E0,1.3316428E2,2.2428024E1,7.771924E1,4.9877487E1,1.1255786E2,3.0572266E1,1.00557236E2,6.3082397E1,3.7714706E1,7.484468E1,3.4090192E2,6.2398926E1,9.289244E1,9.8895004E1,0E0,0E0,0E0,0E0,0E0,0E0,0E0,0E0,0E0,0E0,0E0,0E0,0E0,0E0,0E0,0E0,0E0,0E0,0E0,0E0,0E0,0E0,0E0,0E0,0E0,0E0,0E0,0E0,0E0,0E0,0E0,0E0,0E0,0E0,0E0,0E0,0E0,0E0,0E0,0E0,0E0,0E0,0E0,0E0,0E0,0E0,0E0,0E0,0E0,0E0,0E0,0E0,0E0,0E0,0E0,0E0,0E0,0E0,0E0,0E0,0E0,0E0],"parents":[2147483647,0,0,1,1,2,2,3,3,4,4,5,5,6,6,7,7,8,8,9,9,10,10,11,11,12,12,13,13,14,14,15,15,16,16,17,17,18,18,19,19,20,20,21,21,22,22,23,23,24,24,25,25,26,26,27,27,28,28,29,29,30,30,31,31,32,32,33,33,34,34,35,35,36,36,37,37,38,38,39,39,40,40,41,41,42,42,43,43,44,44,45,45,46,46,47,47,49,49,50,50,51,51,52,52,53,53,54,54,55,55,56,56,57,57,58,58,59,59,60,60,61,61,62,62],"right_children":[2,4,6,8,10,12,14,16,18,20,22,24,26,28,30,32,34,36,38,40,42,44,46,48,50,52,54,56,58,60,62,64,66,68,70,72,74,76,78,80,82,84,86,88,90,92,94,96,-1,98,100,102,104,106,108,110,112,114,116,118,120,122,124,-1,-1,-1,-1,-1,-1,-1,-1,-1,-1,-1,-1,-1,-1,-1,-1,-1,-1,-1,-1,-1,-1,-1,-1,-1,-1,-1,-1,-1,-1,-1,-1,-1,-1,-1,-1,-1,-1,-1,-1,-1,-1,-1,-1,-1,-1,-1,-1,-1,-1,-1,-1,-1,-1,-1,-1,-1,-1,-1,-1,-1,-1],"split_conditions":[2.086E3,5E0,2.169E3,3.5E1,1E0,5E0,1.139E3,2.5E1,1.83E2,1.83E2,1.765E1,2.132E3,2.134E3,1.15101E5,1.17484E5,1.83E2,1.7E1,1.33998E3,6.28E2,2.3835E2,1E1,5E0,3.6E2,2.126E3,1E0,1.908E1,4.54401E3,5E0,1.18927E5,1.14946E5,1.6E1,1.4423E2,1.28E2,6.28E2,2.4E1,3.9E1,9.39E3,2.7266E3,1.5E-1,1.4E2,3.15E2,7.6E1,5.6E1,4E0,8.1E1,2.75E2,7E0,9.621E3,-6.3453674E-1,3.001E1,2.134E3,4.8E1,2.617699E4,4.94E0,2E1,1.13495E5,5.1E1,1.2158E2,1.075E1,2.5E1,1.0037E4,2.5616E2,3.000222E4,-4.2247698E-1,1.6963397E-1,-6.8672653E-4,1.6630536E-1,-4.6079496E-1,-2.1108434E-1,1.0138109E-1,-3.4003717E-1,-5.862325E-1,2.8646114E-1,2.636494E-1,-2.6610893E-1,-1.0373705E-1,2.2278023E-1,1.2706984E-2,4.0308052E-1,2.8781575E-1,4.1495988E-1,-1.4385767E-2,3.2476303E-1,1.7782936E-1,4.620022E-1,-1.3673037E-1,9.626133E-2,-7.4825495E-2,-3.8410655E-1,2.2779512E-1,1.03552885E-1,-9.6538454E-2,-3.720803E-1,1.7961885E-1,-2.5818655E-2,-3.334512E-1,2.1113212E-1,1.05093785E-1,4.4045404E-1,3.573174E-1,-3.7721115E-1,-2.3917484E-1,-5.090324E-1,-7.8520454E-2,2.9005143E-1,-2.2001888E-1,-4.1961807E-1,-4.9283278E-1,-5.781603E-1,2.3747702E-1,-4.887383E-1,1.2080094E-1,-1.4416419E-1,-1.1639336E-1,-3.9924657E-1,-1.4495607E-1,1.1746248E-1,-1.4576273E-1,3.7159234E-1,-2.8843427E-1,-5.964264E-1,1.02854796E-1,-9.347018E-2,2.7460111E-2,-3.6418852E-1],"split_indices":[30,28,30,13,9,16,24,13,30,30,2,30,30,31,31,30,43,11,30,0,4,36,37,30,29,16,24,15,31,31,16,11,35,30,37,15,17,25,7,2,2,34,34,44,36,37,9,17,0,13,30,18,24,13,13,31,1,26,26,13,17,0,24,0,0,0,0,0,0,0,0,0,0,0,0,0,0,0,0,0,0,0,0,0,0,0,0,0,0,0,0,0,0,0,0,0,0,0,0,0,0,0,0,0,0,0,0,0,0,0,0,0,0,0,0,0,0,0,0,0,0,0,0,0,0],"split_type":[0,0,0,0,0,0,0,0,0,0,0,0,0,0,0,0,0,0,0,0,0,0,0,0,0,0,0,0,0,0,0,0,0,0,0,0,0,0,0,0,0,0,0,0,0,0,0,0,0,0,0,0,0,0,0,0,0,0,0,0,0,0,0,0,0,0,0,0,0,0,0,0,0,0,0,0,0,0,0,0,0,0,0,0,0,0,0,0,0,0,0,0,0,0,0,0,0,0,0,0,0,0,0,0,0,0,0,0,0,0,0,0,0,0,0,0,0,0,0,0,0,0,0,0,0],"sum_hessian":[4.1216113E4,2.945657E4,1.1759543E4,6.325804E3,2.3130766E4,5.06532E3,6.6942227E3,4.78173E3,1.5440743E3,1.3533972E4,9.596794E3,7.179311E2,4.3473887E3,3.045859E3,3.6483638E3,2.5632578E3,2.218472E3,1.0373433E2,1.44034E3,7.5499688E3,5.984003E3,3.5137827E3,6.083011E3,1.21645294E2,5.962858E2,5.4155786E2,3.805831E3,1.8622427E3,1.1836162E3,2.3714614E3,1.2769025E3,1.3691936E3,1.1940642E3,1.9692109E3,2.4926091E2,9.428132E1,9.453009E0,7.928089E2,6.4753107E2,6.117092E3,1.4328771E3,1.64955E3,4.334453E3,6.04495E2,2.9092878E3,4.9292466E3,1.1537645E3,6.3185898E1,5.8459396E1,5.3683136E2,5.945445E1,3.95285E2,1.4627287E2,1.965977E3,1.839854E3,7.587283E1,1.7863699E3,7.766393E2,4.069769E2,4.8906882E2,1.8823925E3,1.00450653E3,2.723959E2,9.681871E2,4.0100656E2,7.62211E2,4.3185324E2,1.7739316E3,1.9527925E2,1.2239159E2,1.2686932E2,9.10474E1,3.233924E0,7.960428E0,1.4925803E0,5.945445E1,7.3335443E2,4.875762E1,5.9877344E2,2.8508284E3,3.2662632E3,4.340921E2,9.98785E2,2.6617682E2,1.3833732E3,1.0099793E3,3.3244739E3,4.9280026E2,1.11694756E2,1.3592432E3,1.5500447E3,4.3516177E3,5.776286E2,4.2886807E2,7.248965E2,4.626999E1,1.691591E1,3.9080728E2,1.4602411E2,3.233924E0,5.6220524E1,2.221457E2,1.7313931E2,9.751524E1,4.875762E1,3.044864E2,1.6614906E3,6.442972E2,1.1955568E3,2.4876339E1,5.0996494E1,1.7022878E3,8.408202E1,7.323594E2,4.427988E1,1.609499E2,2.46027E2,3.077203E2,1.8134851E2,1.8211968E3,6.1195793E1,6.890746E2,3.1543198E2,8.333573E1,1.8906017E2],"tree_param":{"num_deleted":"0","num_feature":"66","num_nodes":"125","size_leaf_vector":"1"}},{"base_weights":[2.5073069E-3,1.9535922E-1,-4.7528628E-1,-3.043264E-1,3.3260682E-1,-8.8412297E-1,-1.7096493E-1,-5.741297E-1,5.548205E-1,6.09854E-1,-4.4965185E-2,1.22964084E-1,-1.0495356E0,3.4428257E-2,-4.0348646E-1,-2.4796025E-1,-9.526745E-1,-1.1931924E0,6.8140286E-1,8.207306E-1,3.5111982E-1,-3.2578143E-1,1.744673E-1,-3.7979236E-1,6.504222E-1,-1.1914723E0,-8.3077884E-1,1.9485845E-1,-2.0873564E-1,-6.1513114E-1,-6.2443282E-2,-5.903003E-1,1.4108403E-1,-1.0371215E0,-2.9118901E-1,-1.3808706E0,2.7360538E-1,4.770295E-1,9.399693E-1,8.3573437E-1,-1.3123438E0,9.7261626E-1,3.3180196E-2,-2.5837183E-1,-1.3053151E0,-7.412401E-1,2.2474664E-1,-9.8488647E-1,-7.966265E-2,7.653636E-1,-1.1004589E0,-6.350943E-1,-1.2919611E0,-8.765912E-1,-2.3681235E-1,-5.900363E-1,2.3143587E-1,-6.713403E-1,-1.0720711E-1,1.5465012E-2,-7.809189E-1,2.4063943E-2,-1.1452967E0,-3.0026746E-1,1.2158005E-1,-3.2902934E-2,1.1336461E-1,-3.1930348E-1,9.130882E-2,-2.8310338E-1,1.2214487E-1,-4.448133E-1,2.7929553E-1,-3.78568E-1,2.973066E-1,9.1616385E-2,2.4122082E-1,-2.5688392E-1,2.9617926E-1,1.6056702E-2,2.6146787E-1,-2.9255995E-1,-5.950704E-1,1.5402906E-1,3.5420904E-1,-1.1370739E-1,7.035292E-2,7.89698E-2,-1.0941658E-1,-4.909717E-1,1.6701051E-3,-3.6884353E-1,2.8289475E-2,1.4974964E-1,1.0574229E-2,-1.3215396E-1,-4.7454032E-1,-9.884912E-2,2.0954916E-1,2.5509807E-1,-2.8915069E-1,-4.7736707E-1,-4.4156358E-2,-7.929324E-2,-4.540659E-1,-4.0656552E-1,-2.9271317E-1,-1.4410058E-1,-2.8374946E-1,1.26921E-1,-2.7598542E-1,1.8326676E-1,-3.5907158E-1,-3.019428E-2,9.254634E-2,-1.2472596E-1,-4.2326576E-1,1.4444789E-2,-1.0707739E-1,-1.30768E-1,2.7970085E-1,9.5861E-2,-2.4577858E-1,-3.3160552E-2,2.847101E-1,1.3775066E-1,-5.5637646E-1],"categories":[],"categories_nodes":[],"categories_segments":[],"categories_sizes":[],"default_left":[0,1,0,0,0,0,0,0,0,0,0,0,1,0,0,0,0,0,0,0,0,0,0,0,0,0,0,0,0,0,0,0,0,0,0,0,0,0,0,0,0,0,0,0,0,0,0,0,0,0,0,0,0,0,0,0,0,0,0,0,0,0,0,0,0,0,0,0,0,0,0,0,0,0,0,0,0,0,0,0,0,0,0,0,0,0,0,0,0,0,0,0,0,0,0,0,0,0,0,0,0,0,0,0,0,0,0,0,0,0,0,0,0,0,0,0,0,0,0,0,0,0,0,0,0,0,0],"id":1,"left_children":[1,3,5,7,9,11,13,15,17,19,21,23,25,27,29,31,33,35,37,39,41,43,45,47,49,51,53,55,57,59,61,63,65,67,69,71,73,75,77,79,81,83,85,87,89,91,93,95,97,99,101,103,105,107,109,111,113,115,117,119,121,123,125,-1,-1,-1,-1,-1,-1,-1,-1,-1,-1,-1,-1,-1,-1,-1,-1,-1,-1,-1,-1,-1,-1,-1,-1,-1,-1,-1,-1,-1,-1,-1,-1,-1,-1,-1,-1,-1,-1,-1,-1,-1,-1,-1,-1,-1,-1,-1,-1,-1,-1,-1,-1,-1,-1,-1,-1,-1,-1,-1,-1,-1,-1,-1,-1],"loss_changes":[3.718778E3,1.972001E3,1.4437893E3,1.4366191E3,2.3613877E3,8.250808E2,3.1781927E2,5.820403E2,3.2858386E2,7.0938477E2,5.8863824E2,1.8574974E2,1.3108301E2,1.3791522E2,2.252486E2,3.3765128E2,1.2160632E2,2.8013962E1,7.257898E1,2.3042188E2,1.15443E3,2.7634146E2,2.4706523E2,6.507864E1,6.961815E1,1.4328442E2,4.54292E1,6.1284683E1,6.593465E1,2.0135089E2,1.12093376E2,5.5159406E2,7.053493E1,7.098657E1,1.13595566E2,2.2374146E1,1.4714898E1,4.319557E1,5.258661E1,1.993667E2,9.479736E0,1.8831714E2,3.209408E2,2.176405E2,1.1705728E2,1.1407555E2,2.6437222E2,3.7928368E1,4.7066555E1,4.8021927E1,9.80685E0,1.2867297E2,4.2333008E1,4.2256104E1,5.51444E1,7.0054306E1,5.2121872E1,4.7185394E1,4.4772453E1,1.6672627E2,6.4606995E1,1.3815155E2,1.01593704E2,0E0,0E0,0E0,0E0,0E0,0E0,0E0,0E0,0E0,0E0,0E0,0E0,0E0,0E0,0E0,0E0,0E0,0E0,0E0,0E0,0E0,0E0,0E0,0E0,0E0,0E0,0E0,0E0,0E0,0E0,0E0,0E0,0E0,0E0,0E0,0E0,0E0,0E0,0E0,0E0,0E0,0E0,0E0,0E0,0E0,0E0,0E0,0E0,0E0,0E0,0E0,0E0,0E0,0E0,0E0,0E0,0E0,0E0,0E0,0E0,0E0,0E0,0E0,0E0],"parents":[2147483647,0,0,1,1,2,2,3,3,4,4,5,5,6,6,7,7,8,8,9,9,10,10,11,11,12,12,13,13,14,14,15,15,16,16,17,17,18,18,19,19,20,20,21,21,22,22,23,23,24,24,25,25,26,26,27,27,28,28,29,29,30,30,31,31,32,32,33,33,34,34,35,35,36,36,37,37,38,38,39,39,40,40,41,41,42,42,43,43,44,44,45,45,46,46,47,47,48,48,49,49,50,50,51,51,52,52,53,53,54,54,55,55,56,56,57,57,58,58,59,59,60,60,61,61,62,62],"right_children":[2,4,6,8,10,12,14,16,18,20,22,24,26,28,30,32,34,36,38,40,42,44,46,48,50,52,54,56,58,60,62,64,66,68,70,72,74,76,78,80,82,84,86,88,90,92,94,96,98,100,102,104,106,108,110,112,114,116,118,120,122,124,126,-1,-1,-1,-1,-1,-1,-1,-1,-1,-1,-1,-1,-1,-1,-1,-1,-1,-1,-1,-1,-1,-1,-1,-1,-1,-1,-1,-1,-1,-1,-1,-1,-1,-1,-1,-1,-1,-1,-1,-1,-1,-1,-1,-1,-1,-1,-1,-1,-1,-1,-1,-1,-1,-1,-1,-1,-1,-1,-1,-1,-1,-1,-1,-1],"split_conditions":[2.086E3,5E0,2.169E3,3.5E1,1E0,5E0,1.4747E3,2.5E1,1.83E2,1.83E2,2E1,2.135E3,1.1E1,1.15101E5,1.17484E5,1.83E2,1.7E1,1.09312E5,6.28E2,6E2,2E1,2.43E2,6E0,2.132E3,1E0,2.134E3,1.3098E2,5E0,1.15414E5,1.14946E5,7.444848E4,1.4423E2,5E0,1.23763E5,9.78E3,2.728E3,1.836E3,1.23529E5,3.49E0,5.48E1,9.931E3,2E0,2.4E1,8E0,2.89E2,1.83E2,1.46E1,2.126E3,3.555E3,5.27E0,2.0536E3,7.4294E4,5.41E2,4.94E0,2.3E1,1.13495E5,3.311E3,7.8762E2,3.8E1,2.5E1,4.702E1,1.120536E4,4.946E3,-3.0026746E-1,1.2158005E-1,-3.2902934E-2,1.1336461E-1,-3.1930348E-1,9.130882E-2,-2.8310338E-1,1.2214487E-1,-4.448133E-1,2.7929553E-1,-3.78568E-1,2.973066E-1,9.1616385E-2,2.4122082E-1,-2.5688392E-1,2.9617926E-1,1.6056702E-2,2.6146787E-1,-2.9255995E-1,-5.950704E-1,1.5402906E-1,3.5420904E-1,-1.1370739E-1,7.035292E-2,7.89698E-2,-1.0941658E-1,-4.909717E-1,1.6701051E-3,-3.6884353E-1,2.8289475E-2,1.4974964E-1,1.0574229E-2,-1.3215396E-1,-4.7454032E-1,-9.884912E-2,2.0954916E-1,2.5509807E-1,-2.8915069E-1,-4.7736707E-1,-4.4156358E-2,-7.929324E-2,-4.540659E-1,-4.0656552E-1,-2.9271317E-1,-1.4410058E-1,-2.8374946E-1,1.26921E-1,-2.7598542E-1,1.8326676E-1,-3.5907158E-1,-3.019428E-2,9.254634E-2,-1.2472596E-1,-4.2326576E-1,1.4444789E-2,-1.0707739E-1,-1.30768E-1,2.7970085E-1,9.5861E-2,-2.4577858E-1,-3.3160552E-2,2.847101E-1,1.3775066E-1,-5.5637646E-1],"split_indices":[30,28,30,13,9,16,24,13,30,30,38,30,28,31,31,30,43,31,30,56,4,40,36,30,29,30,26,15,31,31,24,11,38,31,17,2,24,31,11,11,17,20,35,16,40,30,2,30,24,26,24,31,50,13,15,31,17,24,18,13,25,25,17,0,0,0,0,0,0,0,0,0,0,0,0,0,0,0,0,0,0,0,0,0,0,0,0,0,0,0,0,0,0,0,0,0,0,0,0,0,0,0,0,0,0,0,0,0,0,0,0,0,0,0,0,0,0,0,0,0,0,0,0,0,0,0,0],"split_type":[0,0,0,0,0,0,0,0,0,0,0,0,0,0,0,0,0,0,0,0,0,0,0,0,0,0,0,0,0,0,0,0,0,0,0,0,0,0,0,0,0,0,0,0,0,0,0,0,0,0,0,0,0,0,0,0,0,0,0,0,0,0,0,0,0,0,0,0,0,0,0,0,0,0,0,0,0,0,0,0,0,0,0,0,0,0,0,0,0,0,0,0,0,0,0,0,0,0,0,0,0,0,0,0,0,0,0,0,0,0,0,0,0,0,0,0,0,0,0,0,0,0,0,0,0,0,0],"sum_hessian":[4.0356586E4,2.8752002E4,1.1604585E4,6.195275E3,2.2556727E4,4.9511367E3,6.6534478E3,4.7149434E3,1.4803317E3,1.3005967E4,9.55076E3,6.985272E2,4.2526094E3,3.5332632E3,3.1201848E3,2.5335713E3,2.181372E3,9.93907E1,1.380941E3,7.164498E3,5.841469E3,4.1891973E3,5.3615625E3,3.577813E2,3.407459E2,2.576465E3,1.6761443E3,2.1288972E3,1.4043658E3,1.9248544E3,1.1953304E3,1.3474039E3,1.1861674E3,1.9339153E3,2.4745679E2,8.816809E1,1.1222612E1,7.728879E2,6.0805316E2,7.11506E3,4.9438126E1,1.9762705E3,3.8651985E3,3.9206494E3,2.6854773E2,2.783526E2,5.08321E3,1.1786704E2,2.3991426E2,3.2028293E2,2.0462976E1,3.9527243E2,2.1811929E3,1.5556797E3,1.20464615E2,9.411897E1,2.0347783E3,2.5173735E2,1.1526285E3,4.0089667E2,1.5239576E3,1.1078074E3,8.752298E1,9.53965E2,3.934389E2,5.763599E2,6.0980743E2,1.8956526E3,3.8262707E1,1.2774636E2,1.1971043E2,8.479156E1,3.3765342E0,3.3320436E0,7.8905687E0,5.0813516E2,2.647527E2,1.5160402E1,5.9289276E2,3.1170694E2,6.803353E3,3.454144E1,1.4896685E1,6.1736176E2,1.3589088E3,1.2680642E3,2.5971343E3,6.637496E2,3.2568997E3,2.1417715E2,5.437057E1,1.7539238E2,1.0296022E2,2.0757002E3,3.0075098E3,6.2555634E1,5.5311405E1,1.8204413E2,5.7870144E1,3.0576746E2,1.4515459E1,1.306672E1,7.3962564E0,2.788677E2,1.16404755E2,1.8148892E3,3.663036E2,2.3258046E2,1.3230991E3,6.1468975E1,5.8995636E1,3.159312E1,6.2525856E1,3.8314938E2,1.6516289E3,1.8824277E2,6.349458E1,7.1106305E2,4.415655E2,2.689984E2,1.3189825E2,5.1064255E1,1.4728934E3,9.678491E2,1.399583E2,2.6938618E1,6.058436E1],"tree_param":{"num_deleted":"0","num_feature":"66","num_nodes":"127","size_leaf_vector":"1"}},{"base_weights":[2.0357664E-3,-4.0666318E-1,1.299826E-1,-5.371754E-1,2.40403E-1,3.5433897E-1,-9.0772726E-2,-3.5272035E-1,-8.936913E-1,4.1879514E-1,-1.2912147E0,6.0567237E-2,6.153794E-1,4.5175004E-1,-1.827254E-1,-4.7589758E-1,1.8490894E-1,-9.5030624E-1,-3.2915607E-1,-9.7374076E-1,5.129432E-1,-1.3900244E0,-2.410902E-1,-3.928933E-1,1.7236517E-1,6.9364864E-1,7.105045E-2,1.2009596E0,1.03963785E-1,-6.128825E-1,-1.3141727E-1,-7.361747E-1,-1.7467573E-1,-1.6168623E-1,8.0633336E-1,1.1304234E0,-9.642677E-1,2.773696E-1,-1.0401572E0,-1.127602E0,3.819085E-1,9.0638936E-1,4.1794774E-1,-1.4062089E0,-7.237331E-1,3.7210175E-1,-4.5406908E-1,-2.9268175E-1,-1.3662565E0,3.7336245E-1,-4.546443E-2,7.8433406E-1,3.9158556E-1,4.4804648E-1,-6.1377436E-1,-2.3719294E0,1.2542717E0,-1.1399318E-1,4.8483726E-1,-2.893322E-1,-1.4409122E0,-2.6126295E-1,2.4212424E-2,-2.4735004E-1,-6.536916E-2,1.06885515E-1,-9.211327E-2,9.4933294E-2,-2.5201014E-1,3.1922302E-1,-1.3369562E-1,-3.0730242E-1,4.522879E-1,-1.3418153E-1,-3.0582613E-1,1.9175725E-1,-3.0287322E-1,-9.544488E-2,-4.2921934E-1,-3.5957953E-1,1.7439596E-1,2.0035872E-1,-1.6220054E-1,8.6635955E-2,3.1045967E-1,-1.6709551E-1,1.3378893E-1,-4.278064E-1,-2.595281E-1,7.258622E-2,-3.004508E-1,-2.968748E-1,2.3709625E-2,-7.89735E-2,-5.323576E-1,-4.6044698E-1,1.7904207E-2,1.7376658E-1,1.1867085E-2,-9.1144085E-2,7.601461E-2,1.8204911E-1,2.7821088E-1,2.8163634E-2,2.6683095E-1,-1.3395877E-1,2.166559E-1,-1.1307819E-1,-3.3054185E-1,-7.5158453E-1,-2.527029E-1,3.9687955E-1,1.9206892E-1,2.5932077E-1,-5.129521E-2,1.7118773E-1,-1.7464335E-1,-1.1711872E-1,2.1064883E-1,-4.900928E-1,1.960343E-1,-1.6294673E-2,-1.1057327E-1,2.6851593E-2,-1.5730537E-1],"categories":[],"categories_nodes":[],"categories_segments":[],"categories_sizes":[],"default_left":[1,0,0,0,0,0,0,0,0,0,0,0,0,0,0,0,0,0,0,0,0,0,0,0,0,0,0,0,0,0,0,0,0,0,0,0,0,0,0,0,0,0,0,0,0,0,0,0,0,0,0,0,0,0,0,0,0,0,0,0,0,0,0,0,0,0,0,0,0,0,0,0,0,0,0,0,0,0,0,0,0,0,0,0,0,0,0,0,0,0,0,0,0,0,0,0,0,0,0,0,0,0,0,0,0,0,0,0,0,0,0,0,0,0,0,0,0,0,0,0,0,0,0,0,0],"id":2,"left_children":[1,3,5,7,9,11,13,15,17,19,21,23,25,27,29,31,33,35,37,39,41,43,45,47,49,51,53,55,57,59,61,63,65,67,69,71,73,75,77,79,81,83,85,87,89,-1,91,93,95,97,99,101,103,105,107,109,111,113,115,117,119,121,123,-1,-1,-1,-1,-1,-1,-1,-1,-1,-1,-1,-1,-1,-1,-1,-1,-1,-1,-1,-1,-1,-1,-1,-1,-1,-1,-1,-1,-1,-1,-1,-1,-1,-1,-1,-1,-1,-1,-1,-1,-1,-1,-1,-1,-1,-1,-1,-1,-1,-1,-1,-1,-1,-1,-1,-1,-1,-1,-1,-1,-1,-1],"loss_changes":[2.0316833E3,7.824136E2,1.4655399E3,5.066245E2,4.255427E2,1.1253567E3,7.441519E2,3.3663544E2,8.367529E1,1.8325464E2,1.6527985E1,3.501673E2,3.3100366E2,5.631938E2,2.814152E2,3.2405664E2,2.0431819E2,7.045508E1,1.04236176E2,1.8915466E1,4.8446564E1,5.817871E-1,5.3547235E0,1.3285858E2,2.4260661E2,1.8578442E2,2.5276228E2,1.3351141E2,1.22717316E2,3.6364914E2,2.3030382E2,1.01350586E2,1.3491316E2,1.9792448E2,1.1006081E2,1.4853884E1,6.718994E1,6.1583374E1,3.0895958E1,1.0383713E1,2.941196E0,1.9792725E1,2.9040009E1,3.074646E-1,1.7385454E0,0E0,4.077711E0,5.3618645E1,3.0678116E1,1.9800589E2,2.0543968E2,1.3206738E2,2.3270126E2,1.5514658E2,3.9768616E1,1.5350342E-2,2.7648682E1,5.259582E1,4.9577515E1,9.831E1,1.5507996E2,1.3796039E2,1.8574083E2,0E0,0E0,0E0,0E0,0E0,0E0,0E0,0E0,0E0,0E0,0E0,0E0,0E0,0E0,0E0,0E0,0E0,0E0,0E0,0E0,0E0,0E0,0E0,0E0,0E0,0E0,0E0,0E0,0E0,0E0,0E0,0E0,0E0,0E0,0E0,0E0,0E0,0E0,0E0,0E0,0E0,0E0,0E0,0E0,0E0,0E0,0E0,0E0,0E0,0E0,0E0,0E0,0E0,0E0,0E0,0E0,0E0,0E0,0E0,0E0,0E0,0E0],"parents":[2147483647,0,0,1,1,2,2,3,3,4,4,5,5,6,6,7,7,8,8,9,9,10,10,11,11,12,12,13,13,14,14,15,15,16,16,17,17,18,18,19,19,20,20,21,21,22,22,23,23,24,24,25,25,26,26,27,27,28,28,29,29,30,30,31,31,32,32,33,33,34,34,35,35,36,36,37,37,38,38,39,39,40,40,41,41,42,42,43,43,44,44,46,46,47,47,48,48,49,49,50,50,51,51,52,52,53,53,54,54,55,55,56,56,57,57,58,58,59,59,60,60,61,61,62,62],"right_children":[2,4,6,8,10,12,14,16,18,20,22,24,26,28,30,32,34,36,38,40,42,44,46,48,50,52,54,56,58,60,62,64,66,68,70,72,74,76,78,80,82,84,86,88,90,-1,92,94,96,98,100,102,104,106,108,110,112,114,116,118,120,122,124,-1,-1,-1,-1,-1,-1,-1,-1,-1,-1,-1,-1,-1,-1,-1,-1,-1,-1,-1,-1,-1,-1,-1,-1,-1,-1,-1,-1,-1,-1,-1,-1,-1,-1,-1,-1,-1,-1,-1,-1,-1,-1,-1,-1,-1,-1,-1,-1,-1,-1,-1,-1,-1,-1,-1,-1,-1,-1,-1,-1,-1,-1],"split_conditions":[5E0,3.5E1,2.75E2,2.998E1,2.126E3,5.49E0,4.94E0,1E0,1.7E1,1.83E2,1.49775E3,6E0,1.22181E5,6.07E2,8E0,5.20516E3,2.97E2,3.6624E4,4.1E1,1.33998E3,5.652E4,1.7E3,3.795E3,3.5E1,1.87E2,1.8E2,3.9E1,2E0,2E0,2.998E1,2E0,7.4859E2,2.84914E4,7.3E1,2.134E3,2.66E1,5E0,3.9426E2,1.1E1,3.9E1,6.2E1,6E0,1.66156E3,6.2E1,1.8E1,3.7210175E-1,3.5E1,8.4E2,1.83E2,2.555E1,4.21E2,1.4E2,1.46E2,1.22219E5,1.23763E5,4.5E1,1.4E2,8.077E1,2.085E2,2.384E1,3.001E1,5.05E0,2.1E1,-2.4735004E-1,-6.536916E-2,1.06885515E-1,-9.211327E-2,9.4933294E-2,-2.5201014E-1,3.1922302E-1,-1.3369562E-1,-3.0730242E-1,4.522879E-1,-1.3418153E-1,-3.0582613E-1,1.9175725E-1,-3.0287322E-1,-9.544488E-2,-4.2921934E-1,-3.5957953E-1,1.7439596E-1,2.0035872E-1,-1.6220054E-1,8.6635955E-2,3.1045967E-1,-1.6709551E-1,1.3378893E-1,-4.278064E-1,-2.595281E-1,7.258622E-2,-3.004508E-1,-2.968748E-1,2.3709625E-2,-7.89735E-2,-5.323576E-1,-4.6044698E-1,1.7904207E-2,1.7376658E-1,1.1867085E-2,-9.1144085E-2,7.601461E-2,1.8204911E-1,2.7821088E-1,2.8163634E-2,2.6683095E-1,-1.3395877E-1,2.166559E-1,-1.1307819E-1,-3.3054185E-1,-7.5158453E-1,-2.527029E-1,3.9687955E-1,1.9206892E-1,2.5932077E-1,-5.129521E-2,1.7118773E-1,-1.7464335E-1,-1.1711872E-1,2.1064883E-1,-4.900928E-1,1.960343E-1,-1.6294673E-2,-1.1057327E-1,2.6851593E-2,-1.5730537E-1],"split_indices":[28,13,30,13,30,5,13,23,43,30,4,36,31,30,34,25,35,31,38,11,31,11,11,41,36,12,28,34,20,13,20,12,24,35,30,11,18,11,45,15,50,35,25,18,15,0,18,34,30,11,34,2,36,31,31,18,0,12,0,5,13,16,9,0,0,0,0,0,0,0,0,0,0,0,0,0,0,0,0,0,0,0,0,0,0,0,0,0,0,0,0,0,0,0,0,0,0,0,0,0,0,0,0,0,0,0,0,0,0,0,0,0,0,0,0,0,0,0,0,0,0,0,0,0,0],"split_type":[0,0,0,0,0,0,0,0,0,0,0,0,0,0,0,0,0,0,0,0,0,0,0,0,0,0,0,0,0,0,0,0,0,0,0,0,0,0,0,0,0,0,0,0,0,0,0,0,0,0,0,0,0,0,0,0,0,0,0,0,0,0,0,0,0,0,0,0,0,0,0,0,0,0,0,0,0,0,0,0,0,0,0,0,0,0,0,0,0,0,0,0,0,0,0,0,0,0,0,0,0,0,0,0,0,0,0,0,0,0,0,0,0,0,0,0,0,0,0,0,0,0,0,0,0],"sum_hessian":[3.8850844E4,9.26228E3,2.958856E4,7.7077993E3,1.5544813E3,1.4674293E4,1.4914269E4,5.080979E3,2.6268203E3,1.3929651E3,1.615163E2,6.9048687E3,7.769424E3,2.1609143E3,1.27533545E4,4.1339556E3,9.470232E2,2.3867769E3,2.4004343E2,8.762142E1,1.3053436E3,1.4732985E2,1.4186447E1,1.3651613E3,5.5397075E3,6.792459E3,9.769648E2,6.8430817E2,1.4766062E3,1.3579155E3,1.1395438E4,2.216928E3,1.9170277E3,6.0842065E2,3.3860257E2,1.5375278E1,2.3714016E3,1.2986815E2,1.1017527E2,7.884142E1,8.779994E0,2.5221098E2,1.0531327E3,1.4275188E2,4.577977E0,1.1768436E0,1.30096035E1,1.2389111E3,1.2625008E2,2.8808008E3,2.6589067E3,5.222856E3,1.5696031E3,6.3031964E2,3.4664517E2,9.421243E0,6.748869E2,9.3960986E2,5.369963E2,9.773631E2,3.805525E2,6.211965E3,5.183474E3,1.8936239E3,3.233041E2,3.8220865E2,1.5348191E3,3.571901E2,2.5123053E2,2.809203E2,5.7682297E1,2.0349634E0,1.3340315E1,2.2947118E2,2.1419304E3,1.01761536E2,2.8106615E1,3.9314255E1,7.0861015E1,7.598335E1,2.8580716E0,6.913299E0,1.8666952E0,4.3990463E1,2.0822054E2,2.8889753E1,1.0242429E3,1.3613217E2,6.6197095E0,1.0514543E0,3.526523E0,6.062946E0,6.946657E0,1.2159343E3,2.2976854E1,1.1283497E2,1.3415109E1,1.7814419E3,1.0993589E3,1.42607E3,1.2328369E3,2.3329548E3,2.8899011E3,9.8298346E2,5.866196E2,1.4770346E2,4.8261618E2,2.345755E2,1.1206967E2,8.079018E0,1.3422257E0,6.059744E2,6.891247E1,5.093919E1,8.886707E2,4.9746393E2,3.9532356E1,8.875055E2,8.985759E1,3.486852E2,3.186727E1,2.1217842E3,4.0901807E3,4.6328813E3,5.505926E2],"tree_param":{"num_deleted":"0","num_feature":"66","num_nodes":"125","size_leaf_vector":"1"}},{"base_weights":[2.2401556E-3,1.14169784E-1,-2.7114138E-1,-6.626225E-2,2.435442E-1,-5.6892943E-1,-7.080792E-2,-2.3977602E-1,8.466597E-2,-1.374608E-2,4.0107775E-1,-6.965846E-1,1.0563447E-1,-4.512695E-3,-4.1919786E-1,-7.7465194E-1,-1.8334499E-1,3.4385506E-2,5.321006E-1,-1.1870136E-1,3.5408017E-1,6.700119E-1,2.8568506E-1,-2.9931602E-1,-7.591739E-1,-7.4693114E-1,2.688757E-1,9.199572E-2,-1.465542E-1,-8.541515E-1,-1.6680227E-1,-1.1716585E0,5.0106764E-2,-1.3862523E-1,-9.555942E-1,1.0963456E-3,6.2177676E-1,6.81835E-1,3.919944E-2,-2.3998772E-1,3.9851668E-1,8.1833893E-1,4.1309446E-2,7.9372066E-1,-6.3058786E-2,4.3581334E-1,3.0770432E-2,-5.8590376E-1,4.151809E-1,-5.9497315E-1,-9.406462E-1,-2.7003455E-1,-4.0642893E-1,8.926676E-2,8.524318E-1,2.6854706E-1,9.435594E-3,-3.0770123E-1,1.384956E-1,-1.5306339E0,-7.345793E-1,6.095887E-1,-2.3655501E-1,-3.891926E-1,-5.743317E-2,1.7071809E-1,-1.9859417E-1,-3.7222917E-3,-1.2241957E-1,-3.7879896E-1,6.899255E-3,3.6113016E-2,-7.104675E-2,2.0052376E-1,-4.3114647E-1,2.194869E-1,-3.5350683E-1,-9.635106E-2,2.4972022E-1,-9.123778E-2,6.382452E-2,1.8937711E-1,-2.6853853E-3,2.8876188E-1,-3.3762986E-3,-1.1128729E-1,1.00706644E-1,2.4595243E-1,-1.9892304E-1,-3.4449E-1,4.187868E-2,-4.1754696E-1,1.3965309E-1,1.3223588E-1,-7.281831E-2,-2.009301E-1,5.1225114E-1,1.9235045E-1,-5.1286217E-2,-1.4180228E-1,-2.3091042E-1,-2.9520175E-1,-1.2010327E-1,2.5206847E-2,-4.5910564E-1,-1.21614866E-1,8.429457E-2,-3.1025833E-1,2.952588E-1,1.0040163E-1,-7.346436E-2,-9.924864E-2,2.9600682E-2,9.8991275E-2,-1.4225614E-1,1.18958004E-1,-5.8977786E-2,-4.7317392E-1,3.5291467E-2,-5.9407435E-2,-2.5173718E-1,2.1222994E-1,-3.9227954E-1,-1.620802E-1,1.2991772E-2],"categories":[],"categories_nodes":[],"categories_segments":[],"categories_sizes":[],"default_left":[0,0,0,0,0,1,0,0,0,0,0,0,0,0,0,0,0,0,0,0,0,0,0,0,0,0,0,0,0,0,0,0,0,0,0,0,0,0,0,0,0,0,0,0,0,0,0,0,0,0,0,0,0,0,0,0,0,0,0,0,0,0,0,0,0,0,0,0,0,0,0,0,0,0,0,0,0,0,0,0,0,0,0,0,0,0,0,0,0,0,0,0,0,0,0,0,0,0,0,0,0,0,0,0,0,0,0,0,0,0,0,0,0,0,0,0,0,0,0,0,0,0,0,0,0],"id":3,"left_children":[1,3,5,7,9,11,13,15,17,19,21,23,25,27,29,31,33,35,37,39,41,43,45,47,49,51,53,55,57,59,61,63,65,67,69,71,73,75,77,79,81,83,85,87,89,91,93,95,97,99,101,103,-1,105,107,109,111,113,115,117,119,121,123,-1,-1,-1,-1,-1,-1,-1,-1,-1,-1,-1,-1,-1,-1,-1,-1,-1,-1,-1,-1,-1,-1,-1,-1,-1,-1,-1,-1,-1,-1,-1,-1,-1,-1,-1,-1,-1,-1,-1,-1,-1,-1,-1,-1,-1,-1,-1,-1,-1,-1,-1,-1,-1,-1,-1,-1,-1,-1,-1,-1,-1,-1],"loss_changes":[1.1467178E3,6.206876E2,6.4939606E2,2.9081915E2,6.2766675E2,3.7707373E2,1.5033722E2,1.5578256E2,1.336007E2,2.2711038E2,2.978756E2,9.13125E1,9.7279526E1,7.499116E1,1.1409485E2,1.6138306E2,1.6128947E2,1.0442451E2,4.425139E1,2.8720575E2,1.8960318E2,2.6150806E2,2.572661E2,1.0318434E2,9.419104E1,3.2204105E1,6.1362118E1,4.7477463E1,1.0170401E2,2.9764221E1,3.5872253E1,4.0720337E1,5.9893642E1,1.5029333E2,7.686221E1,1.4348436E2,2.8462875E1,4.3473694E1,4.0527912E1,1.0773796E2,8.2488525E1,6.2891052E1,9.495135E1,9.441431E1,9.191638E1,2.3028125E2,2.7965204E2,7.02335E1,1.925048E1,3.5366394E1,3.495166E1,2.8780653E1,0E0,4.2725445E1,3.5282967E1,3.531772E1,6.745441E1,1.5029E2,6.924745E1,4.521515E0,1.8144608E1,1.1179485E1,5.1537376E1,0E0,0E0,0E0,0E0,0E0,0E0,0E0,0E0,0E0,0E0,0E0,0E0,0E0,0E0,0E0,0E0,0E0,0E0,0E0,0E0,0E0,0E0,0E0,0E0,0E0,0E0,0E0,0E0,0E0,0E0,0E0,0E0,0E0,0E0,0E0,0E0,0E0,0E0,0E0,0E0,0E0,0E0,0E0,0E0,0E0,0E0,0E0,0E0,0E0,0E0,0E0,0E0,0E0,0E0,0E0,0E0,0E0,0E0,0E0,0E0,0E0,0E0],"parents":[2147483647,0,0,1,1,2,2,3,3,4,4,5,5,6,6,7,7,8,8,9,9,10,10,11,11,12,12,13,13,14,14,15,15,16,16,17,17,18,18,19,19,20,20,21,21,22,22,23,23,24,24,25,25,26,26,27,27,28,28,29,29,30,30,31,31,32,32,33,33,34,34,35,35,36,36,37,37,38,38,39,39,40,40,41,41,42,42,43,43,44,44,45,45,46,46,47,47,48,48,49,49,50,50,51,51,53,53,54,54,55,55,56,56,57,57,58,58,59,59,60,60,61,61,62,62],"right_children":[2,4,6,8,10,12,14,16,18,20,22,24,26,28,30,32,34,36,38,40,42,44,46,48,50,52,54,56,58,60,62,64,66,68,70,72,74,76,78,80,82,84,86,88,90,92,94,96,98,100,102,104,-1,106,108,110,112,114,116,118,120,122,124,-1,-1,-1,-1,-1,-1,-1,-1,-1,-1,-1,-1,-1,-1,-1,-1,-1,-1,-1,-1,-1,-1,-1,-1,-1,-1,-1,-1,-1,-1,-1,-1,-1,-1,-1,-1,-1,-1,-1,-1,-1,-1,-1,-1,-1,-1,-1,-1,-1,-1,-1,-1,-1,-1,-1,-1,-1,-1,-1,-1,-1,-1],"split_conditions":[2.086E3,1.5E-1,2.169E3,2E1,1E0,3.9E1,2.5616E2,1E0,1.19E2,1E0,6.9E-1,2.134E3,2.132E3,1.4747E3,2.499E1,3.002E1,2.4E2,6.35E2,7.3E1,1.474E3,1.83E2,2.3993E2,2.75E2,1.908E1,7.8135E2,2.126E3,3.001E1,2.7E1,1.17484E5,1.08873E5,1.08873E5,1.487E3,1.1E1,3.605E1,2.89E2,7.1E1,8.2E2,6.96E2,4.48E2,6.7578E3,5.2E1,2.4599E2,1E0,3.6E2,2E0,8.03E0,1.22E2,7.4E1,1.6317E2,6E0,7.2E1,5.6E1,-4.0642893E-1,2.4E1,3.785E1,2.97E2,3.37E3,1.14946E5,8.842E3,3.2E1,8.26E1,7.23E2,3.02E3,-3.891926E-1,-5.743317E-2,1.7071809E-1,-1.9859417E-1,-3.7222917E-3,-1.2241957E-1,-3.7879896E-1,6.899255E-3,3.6113016E-2,-7.104675E-2,2.0052376E-1,-4.3114647E-1,2.194869E-1,-3.5350683E-1,-9.635106E-2,2.4972022E-1,-9.123778E-2,6.382452E-2,1.8937711E-1,-2.6853853E-3,2.8876188E-1,-3.3762986E-3,-1.1128729E-1,1.00706644E-1,2.4595243E-1,-1.9892304E-1,-3.4449E-1,4.187868E-2,-4.1754696E-1,1.3965309E-1,1.3223588E-1,-7.281831E-2,-2.009301E-1,5.1225114E-1,1.9235045E-1,-5.1286217E-2,-1.4180228E-1,-2.3091042E-1,-2.9520175E-1,-1.2010327E-1,2.5206847E-2,-4.5910564E-1,-1.21614866E-1,8.429457E-2,-3.1025833E-1,2.952588E-1,1.0040163E-1,-7.346436E-2,-9.924864E-2,2.9600682E-2,9.8991275E-2,-1.4225614E-1,1.18958004E-1,-5.8977786E-2,-4.7317392E-1,3.5291467E-2,-5.9407435E-2,-2.5173718E-1,2.1222994E-1,-3.9227954E-1,-1.620802E-1,1.2991772E-2],"split_indices":[30,7,30,38,29,28,0,9,54,14,4,30,30,24,13,13,40,36,43,30,30,0,30,16,25,30,13,18,31,31,31,30,16,11,40,41,34,55,39,25,18,0,20,34,35,13,11,18,12,39,52,18,0,35,11,41,17,31,17,9,25,38,24,0,0,0,0,0,0,0,0,0,0,0,0,0,0,0,0,0,0,0,0,0,0,0,0,0,0,0,0,0,0,0,0,0,0,0,0,0,0,0,0,0,0,0,0,0,0,0,0,0,0,0,0,0,0,0,0,0,0,0,0,0,0],"split_type":[0,0,0,0,0,0,0,0,0,0,0,0,0,0,0,0,0,0,0,0,0,0,0,0,0,0,0,0,0,0,0,0,0,0,0,0,0,0,0,0,0,0,0,0,0,0,0,0,0,0,0,0,0,0,0,0,0,0,0,0,0,0,0,0,0,0,0,0,0,0,0,0,0,0,0,0,0,0,0,0,0,0,0,0,0,0,0,0,0,0,0,0,0,0,0,0,0,0,0,0,0,0,0,0,0,0,0,0,0,0,0,0,0,0,0,0,0,0,0,0,0,0,0,0,0],"sum_hessian":[3.7473047E4,2.6587857E4,1.0885189E4,1.1103228E4,1.5484629E4,4.3770425E3,6.5081475E3,5.164873E3,5.938355E3,5.880791E3,9.603838E3,3.6805068E3,6.9653546E2,5.4685483E3,1.0395988E3,4.916918E2,4.673181E3,5.339415E3,5.989399E2,4.57581E3,1.3049811E3,2.8820732E3,6.721765E3,5.017253E2,3.1787815E3,1.1135936E2,5.851761E2,3.2563872E3,2.2121614E3,3.8086667E2,6.5873206E2,3.3163507E2,1.6005673E2,4.418492E3,2.5468861E2,5.053992E3,2.8542252E2,4.5909262E2,1.3984724E2,3.7070515E3,8.687584E2,5.246317E2,7.803494E2,2.4658652E3,4.16208E2,4.2299106E3,2.4918542E3,3.5822122E2,1.435041E2,1.6710507E3,1.507731E3,6.3209953E1,4.814941E1,4.48338E2,1.3683807E2,1.0368579E3,2.2195293E3,1.4131735E3,7.9898785E2,5.543587E1,3.254308E2,5.366528E1,6.0506683E2,2.9366742E2,3.796765E1,9.269993E1,6.735681E1,3.009674E3,1.4088182E3,1.9363748E2,6.1051136E1,3.36663E3,1.6873625E3,2.7976114E2,5.6613646E0,4.477162E2,1.1376429E1,9.656888E1,4.3278374E1,3.2473362E3,4.5971545E2,5.525818E2,3.1617664E2,4.4680704E2,7.782469E1,3.2497467E2,4.5537476E2,2.4228599E3,4.3005184E1,6.475738E1,3.5145065E2,6.68987E1,4.163012E3,9.9683435E2,1.4950199E3,3.462672E2,1.195401E1,1.035038E2,4.0000298E1,9.8518646E2,6.858642E2,1.394963E3,1.1276797E2,5.0075672E1,1.3134282E1,1.2491829E2,3.2341974E2,8.485932E0,1.2835214E2,9.188644E2,1.179935E2,4.605715E2,1.7589578E3,2.9236792E2,1.1208055E3,4.51292E2,3.476959E2,5.395319E1,1.4826821E0,5.3540234E1,2.7189056E2,5.16598E1,2.0054753E0,2.8972226E2,3.1534454E2],"tree_param":{"num_deleted":"0","num_feature":"66","num_nodes":"125","size_leaf_vector":"1"}},{"base_weights":[1.8007591E-3,6.8122484E-2,-2.7215144E-1,3.1504893E-1,1.1057142E-3,-3.9793617E-1,1.8710797E-1,4.643794E-1,2.1567978E-2,1.1694693E-1,-1.086207E-1,-5.4371333E-1,-1.4512908E-1,3.0686602E-1,-1.0533789E0,5.316492E-1,-3.6347508E-1,-1.2338282E0,5.44208E-2,-3.5223415E-1,1.6368033E-1,-3.101593E-1,-4.2945594E-2,-5.8771354E-1,4.81689E-2,-1.9013217E-1,1.1066056E0,-9.558948E-1,3.7774822E-1,-1.1769841E0,-1.4098778E-1,6.2419033E-1,2.533156E-1,-1.1056409E0,7.6487434E-1,-9.179306E-1,-1.0885259E0,-8.86465E-2,2.8724286E-1,1.3879031E-2,-6.847536E-1,3.2737318E-1,-4.588716E-2,-7.274869E-1,-1.1197162E-1,-9.780687E-4,-3.2588887E-1,-4.706176E-1,-7.9914844E-1,4.71684E-1,-5.7427186E-1,-7.845031E-2,-1.0958043E0,9.70297E-1,4.8565152E-1,-1.173549E0,5.0188136E-1,4.581784E-1,4.2005178E-2,-5.5175517E-2,-1.1840769E0,-6.126272E-1,2.4017592E-1,4.5677766E-2,2.0588541E-1,5.868867E-2,3.2252848E-1,1.1277395E-1,-3.7656495E-1,2.793466E-1,6.847436E-2,-6.239078E-1,-8.05358E-2,-1.3618456E-1,6.3777952E-3,-1.7622663E-1,9.930922E-2,-1.0476961E-1,8.049129E-2,-3.0706105E-1,-1.0512935E-1,1.22034095E-1,-4.435957E-2,-4.7047596E-2,9.856727E-2,-2.7180123E-1,1.09872036E-1,6.551541E-2,-6.8119764E-2,5.6913476E-2,-2.9358683E-2,-1.1449872E-2,-2.0709002E-1,-1.8560885E-1,-3.3198748E-2,-1.2667707E-1,-2.9551432E-1,2.6410264E-1,-3.5331003E-2,-2.0347579E-1,2.4388967E-1,6.4354725E-3,-1.9562532E-1,-3.5500726E-1,-1.4676982E-1,3.2484138E-1,1.0878756E-1,-3.795723E-1,1.9708131E-1,3.4298113E-1,2.5688497E-2,1.4986585E-1,-5.787423E-2,3.6850932E-1,-1.0883484E-2,-3.6205244E-1,-2.238283E-1,-2.8577462E-1,-6.17528E-3,1.7270651E-1,-1.7307669E-1],"categories":[],"categories_nodes":[],"categories_segments":[],"categories_sizes":[],"default_left":[0,0,0,0,0,0,0,0,0,0,0,0,0,0,0,0,0,0,0,0,0,0,0,0,0,0,0,0,0,0,0,0,0,0,0,0,0,0,0,0,0,0,0,0,0,0,0,0,0,0,0,0,0,0,0,0,0,0,0,0,0,0,0,0,0,0,0,0,0,0,0,0,0,0,0,0,0,0,0,0,0,0,0,0,0,0,0,0,0,0,0,0,0,0,0,0,0,0,0,0,0,0,0,0,0,0,0,0,0,0,0,0,0,0,0,0,0,0,0,0,0],"id":4,"left_children":[1,3,5,7,9,11,13,15,17,19,21,23,25,27,29,31,33,35,37,39,41,43,45,47,49,51,53,55,57,59,61,63,65,67,69,71,-1,73,75,77,79,81,83,85,87,89,91,93,95,97,99,101,103,105,-1,107,109,111,113,-1,115,117,119,-1,-1,-1,-1,-1,-1,-1,-1,-1,-1,-1,-1,-1,-1,-1,-1,-1,-1,-1,-1,-1,-1,-1,-1,-1,-1,-1,-1,-1,-1,-1,-1,-1,-1,-1,-1,-1,-1,-1,-1,-1,-1,-1,-1,-1,-1,-1,-1,-1,-1,-1,-1,-1,-1,-1,-1,-1,-1],"loss_changes":[6.584544E2,4.828271E2,4.0811957E2,2.7295142E2,2.9172226E2,2.0428094E2,2.260343E2,2.3007416E2,8.673797E1,2.4484973E2,1.559925E2,9.1614746E1,1.1453317E2,1.2444971E2,1.4945053E1,9.818555E1,2.6112567E2,3.724002E1,6.8270035E1,1.23163315E2,3.4833237E2,2.3950012E2,1.0557217E2,8.066919E1,6.466287E1,1.981494E2,3.3571472E0,2.405803E1,3.5447266E1,6.124573E-1,3.225299E0,8.384363E1,4.5032654E1,4.211107E1,1.08441925E1,3.620373E1,0E0,5.0989883E1,3.0069626E1,4.466614E1,5.9687515E1,2.1519653E2,1.8506079E2,1.8240317E2,7.4769356E1,1.4307573E2,1.2038067E2,1.1235364E2,8.1230225E1,3.5251385E1,1.4883167E1,1.0006075E2,1.0842926E1,3.5891113E0,0E0,1.1683342E1,2.6545215E0,2.8636658E1,2.3720272E1,0E0,2.6461792E-1,1.5773804E0,3.1251204E0,0E0,0E0,0E0,0E0,0E0,0E0,0E0,0E0,0E0,0E0,0E0,0E0,0E0,0E0,0E0,0E0,0E0,0E0,0E0,0E0,0E0,0E0,0E0,0E0,0E0,0E0,0E0,0E0,0E0,0E0,0E0,0E0,0E0,0E0,0E0,0E0,0E0,0E0,0E0,0E0,0E0,0E0,0E0,0E0,0E0,0E0,0E0,0E0,0E0,0E0,0E0,0E0,0E0,0E0,0E0,0E0,0E0,0E0],"parents":[2147483647,0,0,1,1,2,2,3,3,4,4,5,5,6,6,7,7,8,8,9,9,10,10,11,11,12,12,13,13,14,14,15,15,16,16,17,17,18,18,19,19,20,20,21,21,22,22,23,23,24,24,25,25,26,26,27,27,28,28,29,29,30,30,31,31,32,32,33,33,34,34,35,35,37,37,38,38,39,39,40,40,41,41,42,42,43,43,44,44,45,45,46,46,47,47,48,48,49,49,50,50,51,51,52,52,53,53,55,55,56,56,57,57,58,58,60,60,61,61,62,62],"right_children":[2,4,6,8,10,12,14,16,18,20,22,24,26,28,30,32,34,36,38,40,42,44,46,48,50,52,54,56,58,60,62,64,66,68,70,72,-1,74,76,78,80,82,84,86,88,90,92,94,96,98,100,102,104,106,-1,108,110,112,114,-1,116,118,120,-1,-1,-1,-1,-1,-1,-1,-1,-1,-1,-1,-1,-1,-1,-1,-1,-1,-1,-1,-1,-1,-1,-1,-1,-1,-1,-1,-1,-1,-1,-1,-1,-1,-1,-1,-1,-1,-1,-1,-1,-1,-1,-1,-1,-1,-1,-1,-1,-1,-1,-1,-1,-1,-1,-1,-1,-1,-1],"split_conditions":[8.55E2,5.4E-1,3.002E1,6.07E2,2.75E2,5.88958E3,2.126E3,2.2E2,6.28E2,6E0,5.6E1,2.28438E3,1.23763E5,1.83E2,1.7E3,9.607E3,2E0,1.6905E2,2E0,4.76E1,2E0,6.28E2,1.6E1,6.89E3,2.126E3,1.22242E5,4.41E2,8.8E2,2E0,4.73984E3,1.07E2,3.804E0,4.75E2,5.5E1,1.20979E5,1.054E1,-1.0885259E0,1.275E1,2.8E1,1.79E0,9.514E1,1.22181E5,3.6E2,2.102E1,2.086E3,6.07E2,5.04E0,1E0,1.11642E4,1.708558E4,2.672E3,1E0,1.18E2,7E0,4.8565152E-1,3.9E1,1.9E1,1E0,5.4059E3,-5.5175517E-2,6.2E1,7.1E1,3.3E1,4.5677766E-2,2.0588541E-1,5.868867E-2,3.2252848E-1,1.1277395E-1,-3.7656495E-1,2.793466E-1,6.847436E-2,-6.239078E-1,-8.05358E-2,-1.3618456E-1,6.3777952E-3,-1.7622663E-1,9.930922E-2,-1.0476961E-1,8.049129E-2,-3.0706105E-1,-1.0512935E-1,1.22034095E-1,-4.435957E-2,-4.7047596E-2,9.856727E-2,-2.7180123E-1,1.09872036E-1,6.551541E-2,-6.8119764E-2,5.6913476E-2,-2.9358683E-2,-1.1449872E-2,-2.0709002E-1,-1.8560885E-1,-3.3198748E-2,-1.2667707E-1,-2.9551432E-1,2.6410264E-1,-3.5331003E-2,-2.0347579E-1,2.4388967E-1,6.4354725E-3,-1.9562532E-1,-3.5500726E-1,-1.4676982E-1,3.2484138E-1,1.0878756E-1,-3.795723E-1,1.9708131E-1,3.4298113E-1,2.5688497E-2,1.4986585E-1,-5.787423E-2,3.6850932E-1,-1.0883484E-2,-3.6205244E-1,-2.238283E-1,-2.8577462E-1,-6.17528E-3,1.7270651E-1,-1.7307669E-1],"split_indices":[28,4,13,30,30,25,30,11,30,28,34,11,31,30,11,17,40,0,20,12,9,30,9,17,30,31,36,11,20,24,35,12,36,34,31,0,0,26,34,4,4,31,37,16,30,30,13,9,24,24,30,52,50,51,0,15,18,53,24,0,18,50,50,0,0,0,0,0,0,0,0,0,0,0,0,0,0,0,0,0,0,0,0,0,0,0,0,0,0,0,0,0,0,0,0,0,0,0,0,0,0,0,0,0,0,0,0,0,0,0,0,0,0,0,0,0,0,0,0,0,0],"split_type":[0,0,0,0,0,0,0,0,0,0,0,0,0,0,0,0,0,0,0,0,0,0,0,0,0,0,0,0,0,0,0,0,0,0,0,0,0,0,0,0,0,0,0,0,0,0,0,0,0,0,0,0,0,0,0,0,0,0,0,0,0,0,0,0,0,0,0,0,0,0,0,0,0,0,0,0,0,0,0,0,0,0,0,0,0,0,0,0,0,0,0,0,0,0,0,0,0,0,0,0,0,0,0,0,0,0,0,0,0,0,0,0,0,0,0,0,0,0,0,0,0],"sum_hessian":[3.623855E4,2.9176014E4,7.0625376E3,6.22735E3,2.2948664E4,5.5441943E3,1.5183434E3,4.1268984E3,2.100452E3,1.1163248E4,1.1785416E4,3.5157449E3,2.0284492E3,1.3853525E3,1.3299094E2,3.8170874E3,3.0981088E2,5.2633297E1,2.0478185E3,1.0106153E3,1.0152633E4,2.8956748E3,8.889741E3,3.2724778E3,2.432671E2,1.958871E3,6.957834E1,7.296691E1,1.3123856E3,1.1686833E2,1.6122597E1,2.86371E3,9.5337756E2,1.8689911E2,1.22911766E2,4.772119E1,4.912106E0,1.2687816E3,7.7903687E2,4.8146603E2,5.2914923E2,5.699893E3,4.4527397E3,9.315086E2,1.9641661E3,7.7423604E3,1.1473812E3,2.1081677E3,1.1643102E3,1.4491063E2,9.835648E1,1.7447997E3,2.1407124E2,5.7240498E1,1.233784E1,6.3657467E1,9.309448E0,1.058458E3,2.5392757E2,1.0197796E0,1.1584856E2,6.934643E0,9.187954E0,3.3338193E2,2.530328E3,8.9199963E2,6.137792E1,1.7E1,1.6989911E2,9.3274284E1,2.9637484E1,1.6322325E1,3.1398865E1,2.9271915E2,9.7606244E2,3.65492E1,7.424877E2,1.9821071E2,2.8325534E2,2.617973E2,2.6735193E2,4.883978E3,8.159152E2,3.4354788E3,1.01726105E3,8.009499E2,1.305587E2,5.0726382E2,1.4569022E3,2.6080938E3,5.1342666E3,6.417718E2,5.0560934E2,1.4931825E3,6.1498517E2,3.8567172E2,7.786384E2,8.528828E1,5.962235E1,9.197365E1,6.3828316E0,1.486823E3,2.579767E2,1.8623848E2,2.783276E1,4.7638554E1,9.601946E0,6.091494E1,2.7425249E0,2.9764977E0,6.3329506E0,9.954347E2,6.3023304E1,1.4809122E1,2.3911844E2,1.0845599E2,7.3925643E0,4.0183225E0,2.9163206E0,6.7228866E0,2.4650674E0],"tree_param":{"num_deleted":"0","num_feature":"66","num_nodes":"121","size_leaf_vector":"1"}},{"base_weights":[1.3125186E-3,4.9995378E-2,-2.0613633E-1,2.731713E-1,8.964697E-3,-2.992619E-1,1.3700898E-1,3.5129932E-1,-1.9043936E-1,-1.3143577E-1,6.499724E-2,-4.089372E-1,-6.790293E-2,2.2717507E-1,-9.597773E-1,1.4553718E-1,6.0981876E-1,-1.5227962E0,-9.057141E-2,-8.005753E-2,-4.631461E-1,-3.8627848E-2,1.6157849E-1,-4.7088364E-1,-1.3214356E-1,-5.1269567E-1,1.0916421E-1,-8.384151E-1,2.7896592E-1,-1.1017267E0,-1.2468791E-1,3.462236E-1,-3.9057115E-1,8.704291E-1,3.2896134E-1,-1.736804E-1,-5.4657906E-1,-2.3779191E-1,2.814101E-1,-1.0272051E-1,5.651194E-1,-2.9046884E-1,-8.094457E-1,3.1877268E-2,-3.550646E-1,2.1455573E-1,-1.706313E-1,-8.772344E-1,-3.8310272E-1,3.4648892E-1,-3.2388118E-1,-5.780731E-2,-6.35849E-1,3.0139133E-1,-2.0493808E-1,-1.0783536E0,3.2148194E-1,-3.8795E-2,3.3672646E-1,-1.1105968E0,-6.807127E-2,-3.5958457E-1,4.9495867E-1,2.19109E-1,2.4051594E-2,3.155297E-2,-2.4290499E-1,1.9427921E-1,3.8393638E-1,-1.611453E-1,1.2956606E-1,-3.262057E-1,3.8515887E-1,-4.7478378E-2,-3.370918E-1,2.0867755E-1,-6.75542E-2,2.8284894E-2,-5.3018924E-2,2.6075113E-1,3.3900008E-2,-1.0164049E-1,2.52597E-1,8.16689E-2,-2.851365E-1,-5.2826278E-2,2.3572922E-2,-2.3620899E-1,4.0921005E-3,1.0101488E-1,1.635615E-2,-1.0448218E-1,1.6022049E-1,-2.6944917E-1,2.3644073E-1,-6.1200324E-2,-1.655614E-1,2.2146352E-1,-8.470536E-2,-6.281211E-2,-2.4303678E-1,-1.4972362E-1,2.2116704E-1,-7.872777E-2,-2.6340014E-1,-1.7661031E-2,1.4770943E-1,3.0860057E-1,-1.0639632E-1,-3.4634435E-1,1.3280173E-1,-1.8930429E-1,1.4736871E-1,8.321361E-2,-1.5214007E-1,2.0961693E-1,8.055112E-2,-3.416686E-1,-1.907274E-1,-1.5190533E-1,1.5722819E-1,3.035926E-1,-1.5746626E-1],"categories":[],"categories_nodes":[],"categories_segments":[],"categories_sizes":[],"default_left":[0,0,0,0,0,0,0,0,0,0,0,0,0,0,0,0,0,0,0,0,0,0,0,0,0,0,0,0,0,0,0,0,0,0,0,0,0,0,0,0,0,0,0,0,0,0,0,0,0,0,0,0,0,0,0,0,0,0,0,0,0,0,0,0,0,0,0,0,0,0,0,0,0,0,0,0,0,0,0,0,0,0,0,0,0,0,0,0,0,0,0,0,0,0,0,0,0,0,0,0,0,0,0,0,0,0,0,0,0,0,0,0,0,0,0,0,0,0,0,0,0,0,0],"id":5,"left_children":[1,3,5,7,9,11,13,15,17,19,21,23,25,27,29,31,33,35,37,39,41,43,45,47,49,51,53,55,57,59,61,63,65,67,69,71,-1,73,75,77,79,81,83,85,87,89,91,93,95,97,99,101,103,105,107,109,111,113,115,117,-1,119,121,-1,-1,-1,-1,-1,-1,-1,-1,-1,-1,-1,-1,-1,-1,-1,-1,-1,-1,-1,-1,-1,-1,-1,-1,-1,-1,-1,-1,-1,-1,-1,-1,-1,-1,-1,-1,-1,-1,-1,-1,-1,-1,-1,-1,-1,-1,-1,-1,-1,-1,-1,-1,-1,-1,-1,-1,-1,-1,-1,-1],"loss_changes":[3.5564996E2,2.61177E2,2.139335E2,1.6050406E2,1.8955434E2,1.3356754E2,1.4158076E2,2.0156546E2,8.494629E1,1.1709887E2,1.7236526E2,6.117743E1,1.3350333E2,7.3174194E1,1.2757309E1,2.2738376E2,1.2266376E2,1.7652245E1,3.2701412E1,8.7093445E1,5.4873672E1,1.8538199E2,1.569191E2,1.0375006E2,6.01802E1,2.7000885E1,7.328698E1,1.746502E1,2.3160507E1,4.6848297E-1,2.6424208E0,1.5706505E2,1.19717186E2,7.859369E1,7.244747E1,1.3629122E1,0E0,2.9939524E1,3.57069E1,8.387193E1,2.7690903E1,3.4029682E1,4.694313E1,6.6012024E1,2.413316E2,1.5029062E2,1.537321E2,1.8749298E1,7.247507E1,4.6442772E1,2.5879131E1,3.6827858E1,3.41046E1,5.1817932E1,8.551062E1,6.4391594E0,2.1391575E0,2.899801E1,2.617041E1,5.0756836E-1,0E0,1.9328097E0,3.2070756E0,0E0,0E0,0E0,0E0,0E0,0E0,0E0,0E0,0E0,0E0,0E0,0E0,0E0,0E0,0E0,0E0,0E0,0E0,0E0,0E0,0E0,0E0,0E0,0E0,0E0,0E0,0E0,0E0,0E0,0E0,0E0,0E0,0E0,0E0,0E0,0E0,0E0,0E0,0E0,0E0,0E0,0E0,0E0,0E0,0E0,0E0,0E0,0E0,0E0,0E0,0E0,0E0,0E0,0E0,0E0,0E0,0E0,0E0,0E0,0E0],"parents":[2147483647,0,0,1,1,2,2,3,3,4,4,5,5,6,6,7,7,8,8,9,9,10,10,11,11,12,12,13,13,14,14,15,15,16,16,17,17,18,18,19,19,20,20,21,21,22,22,23,23,24,24,25,25,26,26,27,27,28,28,29,29,30,30,31,31,32,32,33,33,34,34,35,35,37,37,38,38,39,39,40,40,41,41,42,42,43,43,44,44,45,45,46,46,47,47,48,48,49,49,50,50,51,51,52,52,53,53,54,54,55,55,56,56,57,57,58,58,59,59,61,61,62,62],"right_children":[2,4,6,8,10,12,14,16,18,20,22,24,26,28,30,32,34,36,38,40,42,44,46,48,50,52,54,56,58,60,62,64,66,68,70,72,-1,74,76,78,80,82,84,86,88,90,92,94,96,98,100,102,104,106,108,110,112,114,116,118,-1,120,122,-1,-1,-1,-1,-1,-1,-1,-1,-1,-1,-1,-1,-1,-1,-1,-1,-1,-1,-1,-1,-1,-1,-1,-1,-1,-1,-1,-1,-1,-1,-1,-1,-1,-1,-1,-1,-1,-1,-1,-1,-1,-1,-1,-1,-1,-1,-1,-1,-1,-1,-1,-1,-1,-1,-1,-1,-1,-1,-1,-1],"split_conditions":[8.55E2,7.1E-1,3.002E1,2.3993E2,1E0,1E0,2.126E3,1.4423E2,2.72E1,1.21547E5,2.1E1,6.898E2,3.18426E3,1.83E2,1.7E3,1.26E2,1.68E2,8.7197E4,9.24E2,1.21078E5,7E0,1.8E1,7.6E1,8.01E0,2.75E2,9E0,6.889E3,4.2194E2,3E0,8.15E2,7.443E4,2.86E2,8.25E0,2E0,5E0,8.4414E4,-5.4657906E-1,1E0,1.474E3,6.07E2,9E0,1.23991E5,1.83E2,6E0,1.83E2,2.75E2,6.75E2,3.03E2,2.998E1,2.145987E4,2.998E1,5E0,8.11E0,3.1E1,5.9963E4,3.9E1,3.37E3,2.75E2,5.652E4,6.2E1,-6.807127E-2,9.1872E2,7.98764E3,2.19109E-1,2.4051594E-2,3.155297E-2,-2.4290499E-1,1.9427921E-1,3.8393638E-1,-1.611453E-1,1.2956606E-1,-3.262057E-1,3.8515887E-1,-4.7478378E-2,-3.370918E-1,2.0867755E-1,-6.75542E-2,2.8284894E-2,-5.3018924E-2,2.6075113E-1,3.3900008E-2,-1.0164049E-1,2.52597E-1,8.16689E-2,-2.851365E-1,-5.2826278E-2,2.3572922E-2,-2.3620899E-1,4.0921005E-3,1.0101488E-1,1.635615E-2,-1.0448218E-1,1.6022049E-1,-2.6944917E-1,2.3644073E-1,-6.1200324E-2,-1.655614E-1,2.2146352E-1,-8.470536E-2,-6.281211E-2,-2.4303678E-1,-1.4972362E-1,2.2116704E-1,-7.872777E-2,-2.6340014E-1,-1.7661031E-2,1.4770943E-1,3.0860057E-1,-1.0639632E-1,-3.4634435E-1,1.3280173E-1,-1.8930429E-1,1.4736871E-1,8.321361E-2,-1.5214007E-1,2.0961693E-1,8.055112E-2,-3.416686E-1,-1.907274E-1,-1.5190533E-1,1.5722819E-1,3.035926E-1,-1.5746626E-1],"split_indices":[28,13,13,0,20,9,30,2,5,31,28,11,25,30,11,2,0,31,0,31,9,15,41,13,30,18,17,12,35,34,31,30,16,36,15,31,0,14,30,30,39,31,30,15,30,30,34,54,13,24,13,18,16,18,31,15,17,30,31,18,0,5,25,0,0,0,0,0,0,0,0,0,0,0,0,0,0,0,0,0,0,0,0,0,0,0,0,0,0,0,0,0,0,0,0,0,0,0,0,0,0,0,0,0,0,0,0,0,0,0,0,0,0,0,0,0,0,0,0,0,0,0,0],"split_type":[0,0,0,0,0,0,0,0,0,0,0,0,0,0,0,0,0,0,0,0,0,0,0,0,0,0,0,0,0,0,0,0,0,0,0,0,0,0,0,0,0,0,0,0,0,0,0,0,0,0,0,0,0,0,0,0,0,0,0,0,0,0,0,0,0,0,0,0,0,0,0,0,0,0,0,0,0,0,0,0,0,0,0,0,0,0,0,0,0,0,0,0,0,0,0,0,0,0,0,0,0,0,0,0,0,0,0,0,0,0,0,0,0,0,0,0,0,0,0,0,0,0,0],"sum_hessian":[3.5213625E4,2.85212E4,6.692426E3,4.4283984E3,2.40928E4,5.2639736E3,1.4284523E3,3.7899546E3,6.384437E2,6.8720913E3,1.722071E4,3.5705798E3,1.6933939E3,1.3206735E3,1.0777883E2,2.111178E3,1.6787766E3,4.352469E1,5.94919E2,5.9515103E3,9.205811E2,8.307707E3,8.913003E3,2.9170437E3,6.53536E2,4.8163388E2,1.21176E3,6.0509525E1,1.260164E3,9.184725E1,1.5931584E1,1.5363981E3,5.747799E2,8.696866E2,8.0909E2,8.185973E0,3.5338715E1,4.264873E2,1.6843172E2,5.7503594E3,2.0115071E2,6.1550653E2,3.050746E2,6.794686E3,1.5130214E3,7.687446E3,1.2255568E3,5.166058E2,2.400438E3,1.8669193E2,4.668441E2,1.02926445E2,3.7870743E2,7.5174243E2,4.600176E2,5.0196156E1,1.0313372E1,1.9388156E2,1.0662823E3,9.0658516E1,1.1887323E0,1.1856643E1,4.0749416E0,6.2796423E2,9.084339E2,2.6365915E2,3.111208E2,5.648152E2,3.0487143E2,8.548866E1,7.236014E2,5.1878886E0,2.9980838E0,3.924336E2,3.4053715E1,9.246253E1,7.596919E1,1.5702563E3,4.180103E3,1.19717834E2,8.143288E1,5.9098444E2,2.452209E1,3.5076183E1,2.699984E2,1.2454707E3,5.5492153E3,6.959267E2,8.170947E2,4.3589795E3,3.3284668E3,9.7921844E2,2.4633832E2,5.106489E2,5.956901E0,1.1656395E3,1.2347985E3,1.1492677E2,7.176515E1,3.7901785E2,8.7826256E1,6.642845E1,3.6497993E1,1.4979358E2,2.2891386E2,2.606782E2,4.910642E2,4.915207E1,4.1086554E2,4.8033077E1,2.1630766E0,1.1489465E0,9.164426E0,1.1598693E2,7.789463E1,1.6762192E2,8.9866046E2,8.4239685E1,6.418833E0,1.0534078E1,1.3225648E0,2.7092102E0,1.3657315E0],"tree_param":{"num_deleted":"0","num_feature":"66","num_nodes":"123","size_leaf_vector":"1"}},{"base_weights":[1.3241086E-3,4.9188275E-2,-1.3089243E-1,8.37629E-2,-1.6793029E-1,-1.5592468E-1,3.9685535E-1,1.50036E-1,-4.952494E-2,-1.9471173E-1,3.9735836E-1,-1.177595E-1,-6.0428613E-1,-1.7857502E-1,5.1666427E-1,2.6097146E-1,6.716074E-2,-1.6069005E0,9.0976735E-4,4.458064E-3,-2.7977198E-1,7.929558E-1,5.7771355E-2,-1.6288102E-1,1.13185875E-1,-7.0866483E-1,4.0626863E-1,1.753913E-1,-1.4832078E0,5.630541E-1,-1.2985501E0,3.2121596E-1,6.6983834E-2,-3.7281784E-1,1.3092631E-1,-5.884112E-1,-1.793607E0,-9.1529116E-2,1.6589935E-1,1.6270939E0,-4.1818336E-2,-3.2980248E-1,2.004928E-1,1.0337747E0,5.808045E-1,3.2096606E-1,-5.7044226E-1,-1.886678E-1,6.6818374E-1,8.832554E-2,1.2487444E0,-6.1509806E-1,-1.4696963E0,1.0170826E0,-1.50554E-1,-2.4940674E-1,8.2951087E-1,-1.3705291E-1,-4.6124846E-1,8.333611E-1,4.073018E-1,-1.2676805E-1,-4.1351807E-1,8.25433E-2,2.7070317E-1,4.4725128E-2,-8.359234E-2,-2.0169902E-1,4.693869E-2,1.2619223E-1,9.896487E-3,-7.402029E-2,-5.8599746E-1,-2.5952783E-1,-5.534623E-1,-6.360351E-2,4.3498306E-3,1.591038E-1,1.6652504E-2,-3.6223966E-1,5.5082303E-1,-5.659112E-2,9.452397E-2,-2.2388253E-1,-8.277935E-2,8.1334576E-2,-4.3159723E-1,1.6319762E-1,3.949782E-1,-2.0511435E-1,2.2023758E-1,2.4903639E-1,-6.0304224E-2,-1.2948081E-2,-4.0015495E-1,-9.613257E-2,-3.1338155E-2,2.377292E-1,-1.7733663E-1,1.1542718E-1,-3.8875593E-3,4.1040543E-1,-8.806792E-2,-6.655381E-2,-2.6217055E-1,-5.0576735E-1,1.7923567E-1,4.094622E-2,3.7741464E-1,-4.106011E-1,1.0445028E-1,1.2510581E-1,-3.2914758E-1,2.9840642E-1,-3.5316116E-1,2.955845E-1,5.4621927E-2,4.461669E-2,1.7802088E-1],"categories":[],"categories_nodes":[],"categories_segments":[],"categories_sizes":[],"default_left":[0,0,0,0,0,0,0,0,0,0,0,0,0,0,0,0,0,0,0,0,0,0,0,0,0,0,0,0,0,0,0,0,0,0,0,0,0,0,0,0,0,0,0,0,0,0,0,0,0,0,0,0,0,0,0,0,0,0,0,0,0,0,0,0,0,0,0,0,0,0,0,0,0,0,0,0,0,0,0,0,0,0,0,0,0,0,0,0,0,0,0,0,0,0,0,0,0,0,0,0,0,0,0,0,0,0,0,0,0,0,0,0,0,0,0,0,0,0,0],"id":6,"left_children":[1,3,5,7,9,11,13,15,17,19,21,23,25,27,29,31,33,35,37,39,41,43,45,47,49,51,53,55,57,59,61,63,65,67,69,71,73,75,77,79,81,83,85,87,89,91,93,95,97,99,101,103,105,107,109,111,113,-1,-1,115,117,-1,-1,-1,-1,-1,-1,-1,-1,-1,-1,-1,-1,-1,-1,-1,-1,-1,-1,-1,-1,-1,-1,-1,-1,-1,-1,-1,-1,-1,-1,-1,-1,-1,-1,-1,-1,-1,-1,-1,-1,-1,-1,-1,-1,-1,-1,-1,-1,-1,-1,-1,-1,-1,-1,-1,-1,-1,-1],"loss_changes":[2.1814053E2,1.899962E2,1.2109653E2,1.9285985E2,5.271427E1,1.4961745E2,2.871479E1,1.3404727E2,5.695449E2,5.6251045E1,2.1126034E1,8.403692E1,7.2643555E1,3.3642647E1,2.9688545E1,7.284598E1,2.3425583E2,4.219757E1,1.07151215E2,7.475386E1,5.597014E1,3.114727E0,1.438297E1,1.4468173E2,3.7108482E1,4.3394623E1,2.2211159E1,1.6255304E1,1.6307831E-1,1.38069E1,3.8051605E-2,1.2712189E2,4.2002792E1,1.6766325E2,2.0689026E2,1.664532E1,7.530884E0,5.7525032E1,1.01467125E2,1.8569107E1,5.0782856E1,4.7077866E1,2.587212E1,3.823845E0,8.439667E0,1.6422451E1,1.0294412E1,7.257109E1,3.2265144E1,3.8772526E1,5.583393E0,5.6364136E1,3.1125427E1,6.418358E0,2.1616226E1,2.0674446E1,8.784989E0,0E0,0E0,1.1879654E1,1.0264347E1,0E0,0E0,0E0,0E0,0E0,0E0,0E0,0E0,0E0,0E0,0E0,0E0,0E0,0E0,0E0,0E0,0E0,0E0,0E0,0E0,0E0,0E0,0E0,0E0,0E0,0E0,0E0,0E0,0E0,0E0,0E0,0E0,0E0,0E0,0E0,0E0,0E0,0E0,0E0,0E0,0E0,0E0,0E0,0E0,0E0,0E0,0E0,0E0,0E0,0E0,0E0,0E0,0E0,0E0,0E0,0E0,0E0,0E0],"parents":[2147483647,0,0,1,1,2,2,3,3,4,4,5,5,6,6,7,7,8,8,9,9,10,10,11,11,12,12,13,13,14,14,15,15,16,16,17,17,18,18,19,19,20,20,21,21,22,22,23,23,24,24,25,25,26,26,27,27,28,28,29,29,30,30,31,31,32,32,33,33,34,34,35,35,36,36,37,37,38,38,39,39,40,40,41,41,42,42,43,43,44,44,45,45,46,46,47,47,48,48,49,49,50,50,51,51,52,52,53,53,54,54,55,55,56,56,59,59,60,60],"right_children":[2,4,6,8,10,12,14,16,18,20,22,24,26,28,30,32,34,36,38,40,42,44,46,48,50,52,54,56,58,60,62,64,66,68,70,72,74,76,78,80,82,84,86,88,90,92,94,96,98,100,102,104,106,108,110,112,114,-1,-1,116,118,-1,-1,-1,-1,-1,-1,-1,-1,-1,-1,-1,-1,-1,-1,-1,-1,-1,-1,-1,-1,-1,-1,-1,-1,-1,-1,-1,-1,-1,-1,-1,-1,-1,-1,-1,-1,-1,-1,-1,-1,-1,-1,-1,-1,-1,-1,-1,-1,-1,-1,-1,-1,-1,-1,-1,-1,-1,-1],"split_conditions":[2.90646E3,1.5E1,1.23798E5,6.07E2,5.2E2,1.22181E5,2.40239E3,8.25E0,6.28E2,5.04E0,5.57E2,3.5E1,1.1508E2,7.86055E3,5.29E2,1.1999E5,1.1E1,2E-2,2E0,6.07E2,8.01E0,1.457E1,4.4E1,1.22081E5,1.2232E2,1.0124E2,1.22242E5,7.6E1,9E0,9.3E0,1.619E1,3.001E1,9.751E3,1.83E2,5.1E-1,1.6905E2,5E0,2.135E3,2.074E3,1.913E2,1.15924E5,1.17E1,3.001E1,4.48E0,3.4693E2,2.75E2,2.5E1,3.6E1,2.87E2,7.297E4,9.24E2,1.324894E4,1E0,7.06E3,5E0,3.4E1,4.88E2,-1.3705291E-1,-4.6124846E-1,9.926E3,2E1,-1.2676805E-1,-4.1351807E-1,8.25433E-2,2.7070317E-1,4.4725128E-2,-8.359234E-2,-2.0169902E-1,4.693869E-2,1.2619223E-1,9.896487E-3,-7.402029E-2,-5.8599746E-1,-2.5952783E-1,-5.534623E-1,-6.360351E-2,4.3498306E-3,1.591038E-1,1.6652504E-2,-3.6223966E-1,5.5082303E-1,-5.659112E-2,9.452397E-2,-2.2388253E-1,-8.277935E-2,8.1334576E-2,-4.3159723E-1,1.6319762E-1,3.949782E-1,-2.0511435E-1,2.2023758E-1,2.4903639E-1,-6.0304224E-2,-1.2948081E-2,-4.0015495E-1,-9.613257E-2,-3.1338155E-2,2.377292E-1,-1.7733663E-1,1.1542718E-1,-3.8875593E-3,4.1040543E-1,-8.806792E-2,-6.655381E-2,-2.6217055E-1,-5.0576735E-1,1.7923567E-1,4.094622E-2,3.7741464E-1,-4.106011E-1,1.0445028E-1,1.2510581E-1,-3.2914758E-1,2.9840642E-1,-3.5316116E-1,2.955845E-1,5.4621927E-2,4.461669E-2,1.7802088E-1],"split_indices":[24,9,31,30,39,31,25,16,30,13,39,13,26,24,30,31,16,4,20,30,13,25,43,31,26,26,31,50,34,4,0,13,17,30,4,0,15,30,30,24,31,11,13,25,24,30,9,18,50,31,0,24,14,17,16,37,35,0,0,17,15,0,0,0,0,0,0,0,0,0,0,0,0,0,0,0,0,0,0,0,0,0,0,0,0,0,0,0,0,0,0,0,0,0,0,0,0,0,0,0,0,0,0,0,0,0,0,0,0,0,0,0,0,0,0,0,0,0,0],"split_type":[0,0,0,0,0,0,0,0,0,0,0,0,0,0,0,0,0,0,0,0,0,0,0,0,0,0,0,0,0,0,0,0,0,0,0,0,0,0,0,0,0,0,0,0,0,0,0,0,0,0,0,0,0,0,0,0,0,0,0,0,0,0,0,0,0,0,0,0,0,0,0,0,0,0,0,0,0,0,0,0,0,0,0,0,0,0,0,0,0,0,0,0,0,0,0,0,0,0,0,0,0,0,0,0,0,0,0,0,0,0,0,0,0,0,0,0,0,0,0],"sum_hessian":[3.446789E4,2.5307033E4,9.160858E3,2.1831184E4,3.4758499E3,8.746688E3,4.1417017E2,1.4581081E4,7.2501016E3,3.3192507E3,1.5659924E2,8.061725E3,6.849629E2,7.128842E1,3.4288174E2,6.2340864E3,8.346995E3,2.2645726E2,7.023644E3,9.936208E2,2.32563E3,7.171764E1,8.488159E1,6.74433E3,1.3173953E3,6.211083E2,6.3854626E1,5.6755398E1,1.4533023E1,3.3501E2,7.871731E0,4.7563164E3,1.4777701E3,1.0559761E3,7.2910186E3,3.5725464E1,1.907318E2,4.5018394E3,2.521805E3,2.660438E1,9.670164E2,2.106503E3,2.1912695E2,3.177552E1,3.9942123E1,6.0164368E1,2.4717224E1,6.5421104E3,2.0221956E2,1.2902266E3,2.7168642E1,5.547157E2,6.639256E1,3.0056818E1,3.379781E1,3.4784424E1,2.1970972E1,1.2030559E0,1.33299675E1,1.2087743E2,2.1413257E2,1.1831661E0,6.688565E0,4.4083013E3,3.480154E2,1.1945781E3,2.8319196E2,6.7419073E2,3.8178534E2,1.8411989E3,5.44982E3,2.9517225E1,6.2082376E0,1.09153385E1,1.7981645E2,2.106817E3,2.3950225E3,5.853888E2,1.936416E3,1.4987054E0,2.5105675E1,6.8549347E2,2.8152292E2,2.3979839E2,1.8667046E3,2.10876E2,8.250949E0,1.2701932E1,1.907359E1,3.9451294E0,3.5996994E1,3.0157501E1,3.0006868E1,1.5244473E1,9.47275E0,2.5495588E3,3.9925515E3,1.8439711E2,1.7822437E1,3.278621E2,9.623645E2,2.5323277E1,1.8453656E0,2.2090617E2,3.3380954E2,6.027326E1,6.1193047E0,6.794215E0,2.3262602E1,9.311157E0,2.4486652E1,1.975943E1,1.5024995E1,2.0765997E1,1.204976E0,9.7598595E1,2.3278837E1,9.036853E1,1.2376404E2],"tree_param":{"num_deleted":"0","num_feature":"66","num_nodes":"119","size_leaf_vector":"1"}},{"base_weights":[1.2076446E-3,-1.2544173E-1,3.6781043E-2,-2.1547934E-1,1.43708605E-2,-4.580489E-2,1.1584511E-1,-1.5569954E-1,-5.77581E-1,1.6045827E-1,-2.3601443E-1,-7.5910024E-2,2.8625408E-1,2.3450314E-1,4.8753336E-2,-1.72474E-1,2.6477075E0,2.2281158E-1,-7.401304E-1,2.4047022E-1,-3.8129023E-1,-2.7524158E-1,2.2052665E0,1.9917944E-2,-1.7511128E-1,4.2242426E-1,-1.4906612E-1,5.4285087E-2,3.5933524E-1,-1.147205E0,1.0267013E-1,1.392397E0,-1.8302777E-1,1.1735764E0,3.8000324E0,2.546262E0,-8.3736114E-2,-1.1380552E0,-5.643636E-1,-5.7720804E-1,2.9147428E-1,-1.8592957E0,-1.7027794E-1,-1.707465E-1,-9.662325E-1,3.9559323E-1,8.705744E-1,8.641015E-2,-1.3210538E-1,-5.3913146E-1,-8.620673E-2,-5.0243425E-1,4.7715777E-1,-4.1896313E-1,2.8960416E-1,4.607898E-1,-1.2538001E-1,6.792571E-1,1.24902174E-1,4.8821688E-2,-1.5338376E0,2.3902683E-1,-3.213806E-2,5.9645873E-1,2.0178738E-1,-3.468557E-2,-1.1103011E-1,4.2743806E-2,8.6375064E-1,1.3002654E0,3.8187918E-1,4.659153E-1,9.889558E-1,-3.5712335E-1,1.0025331E-1,-3.603526E-1,1.022496E-1,-6.9938204E-3,-2.485611E-1,-3.058306E-1,2.5108555E-1,9.116349E-2,-5.316831E-1,-7.26367E-1,-3.891749E-1,-1.6772279E-1,1.009827E-1,2.932893E-2,-1.05302386E-1,1.9567882E-1,-3.286063E-1,3.2798764E-1,-1.6432863E-1,-1.7418016E-2,5.2245546E-2,-1.5118566E-2,-1.9834232E-1,1.7244179E-2,-2.224379E-1,-1.8251404E-3,-9.2929244E-2,1.7851403E-1,-1.9526415E-1,1.6306753E-1,-8.068721E-2,-1.598203E-1,2.2082405E-1,1.6553962E-1,-1.387554E-1,-1.1839075E-1,2.0034336E-1,-1.548779E-1,6.6900393E-4,2.659125E-1,1.3800663E-1,1.569973E-1,-8.079753E-3,-2.996309E-1,1.5853903E-1,-5.4882675E-1,-1.2240143E-1,1.3249473E-1,2.3613254E-2,-1.405318E-1,1.9489858E-2],"categories":[],"categories_nodes":[],"categories_segments":[],"categories_sizes":[],"default_left":[1,0,0,0,0,0,0,0,0,0,0,0,0,0,0,0,0,0,0,0,0,0,0,0,0,0,0,0,0,0,0,0,0,0,0,0,0,0,0,0,0,0,0,0,0,0,0,0,0,0,0,0,0,0,0,0,0,0,0,0,0,0,0,0,0,0,0,0,0,0,0,0,0,0,0,0,0,0,0,0,0,0,0,0,0,0,0,0,0,0,0,0,0,0,0,0,0,0,0,0,0,0,0,0,0,0,0,0,0,0,0,0,0,0,0,0,0,0,0,0,0,0,0,0,0],"id":7,"left_children":[1,3,5,7,9,11,13,15,17,19,21,23,25,27,29,31,33,35,37,39,41,43,45,47,49,51,53,55,57,59,61,63,65,67,69,71,73,75,77,79,81,83,85,87,89,91,-1,93,95,97,99,101,103,105,107,109,111,113,115,117,119,121,123,-1,-1,-1,-1,-1,-1,-1,-1,-1,-1,-1,-1,-1,-1,-1,-1,-1,-1,-1,-1,-1,-1,-1,-1,-1,-1,-1,-1,-1,-1,-1,-1,-1,-1,-1,-1,-1,-1,-1,-1,-1,-1,-1,-1,-1,-1,-1,-1,-1,-1,-1,-1,-1,-1,-1,-1,-1,-1,-1,-1,-1,-1],"loss_changes":[1.5298521E2,9.3738785E1,1.7310532E2,9.795543E1,1.06765015E2,1.2964862E2,1.0781311E2,1.8333807E2,8.3618454E1,7.999075E1,1.0360312E2,1.1303184E2,6.3970146E1,1.1003134E2,5.581041E2,6.4115944E1,3.4937454E1,7.788176E1,3.6664337E1,6.717471E1,7.3782394E1,7.6328804E1,2.0434448E1,6.115358E1,1.8902573E2,4.1823685E1,3.0622478E1,1.463458E2,2.1665164E2,1.7272864E2,1.5222842E2,9.8209915E0,4.8403427E1,2.002925E1,1.1452164E1,4.375328E0,4.540078E1,1.5572479E1,5.3144936E1,6.0058357E1,3.926976E1,6.2018585E0,4.1378857E1,4.4634155E1,2.9752136E1,4.49282E0,0E0,5.33601E1,7.954642E1,1.3844778E2,8.412474E1,7.944415E0,3.859581E1,2.140469E1,1.972306E1,1.09023315E2,6.932699E1,5.507367E1,1.0097624E2,4.684548E1,9.315961E1,1.3369876E2,1.7648814E2,0E0,0E0,0E0,0E0,0E0,0E0,0E0,0E0,0E0,0E0,0E0,0E0,0E0,0E0,0E0,0E0,0E0,0E0,0E0,0E0,0E0,0E0,0E0,0E0,0E0,0E0,0E0,0E0,0E0,0E0,0E0,0E0,0E0,0E0,0E0,0E0,0E0,0E0,0E0,0E0,0E0,0E0,0E0,0E0,0E0,0E0,0E0,0E0,0E0,0E0,0E0,0E0,0E0,0E0,0E0,0E0,0E0,0E0,0E0,0E0,0E0,0E0],"parents":[2147483647,0,0,1,1,2,2,3,3,4,4,5,5,6,6,7,7,8,8,9,9,10,10,11,11,12,12,13,13,14,14,15,15,16,16,17,17,18,18,19,19,20,20,21,21,22,22,23,23,24,24,25,25,26,26,27,27,28,28,29,29,30,30,31,31,32,32,33,33,34,34,35,35,36,36,37,37,38,38,39,39,40,40,41,41,42,42,43,43,44,44,45,45,47,47,48,48,49,49,50,50,51,51,52,52,53,53,54,54,55,55,56,56,57,57,58,58,59,59,60,60,61,61,62,62],"right_children":[2,4,6,8,10,12,14,16,18,20,22,24,26,28,30,32,34,36,38,40,42,44,46,48,50,52,54,56,58,60,62,64,66,68,70,72,74,76,78,80,82,84,86,88,90,92,-1,94,96,98,100,102,104,106,108,110,112,114,116,118,120,122,124,-1,-1,-1,-1,-1,-1,-1,-1,-1,-1,-1,-1,-1,-1,-1,-1,-1,-1,-1,-1,-1,-1,-1,-1,-1,-1,-1,-1,-1,-1,-1,-1,-1,-1,-1,-1,-1,-1,-1,-1,-1,-1,-1,-1,-1,-1,-1,-1,-1,-1,-1,-1,-1,-1,-1,-1,-1,-1,-1,-1,-1,-1],"split_conditions":[5E0,5.20516E3,5.42E0,2.249013E4,1.414E1,1.19E2,1.26E2,3.9032E2,6.5733E4,7.2E1,8.7E1,7.48E0,1.18E1,1.01E2,1.35E2,3.6624E4,1.5E-1,3E0,3.9E1,1.83E2,1.17E2,6.7E1,6.037E1,2.5E1,7.51E0,7.2E1,2.87E1,5.635E1,1.13495E5,1.74E2,2.75E2,1E0,2.086E3,1.28E2,2E0,1E2,3.1E1,4.22E2,2.9E1,7.1E1,2.786E3,8.11E0,1.120536E4,1.487E3,1.1E1,1.5E1,8.705744E-1,1.83E2,1.21939E5,1.134E1,2.37E2,2.06E2,8.5E1,2E0,3.387E1,5.646E1,2.4E1,1.0137E2,1.1E2,1.075E2,1.84E2,2.06E2,1.344E2,5.9645873E-1,2.0178738E-1,-3.468557E-2,-1.1103011E-1,4.2743806E-2,8.6375064E-1,1.3002654E0,3.8187918E-1,4.659153E-1,9.889558E-1,-3.5712335E-1,1.0025331E-1,-3.603526E-1,1.022496E-1,-6.9938204E-3,-2.485611E-1,-3.058306E-1,2.5108555E-1,9.116349E-2,-5.316831E-1,-7.26367E-1,-3.891749E-1,-1.6772279E-1,1.009827E-1,2.932893E-2,-1.05302386E-1,1.9567882E-1,-3.286063E-1,3.2798764E-1,-1.6432863E-1,-1.7418016E-2,5.2245546E-2,-1.5118566E-2,-1.9834232E-1,1.7244179E-2,-2.224379E-1,-1.8251404E-3,-9.2929244E-2,1.7851403E-1,-1.9526415E-1,1.6306753E-1,-8.068721E-2,-1.598203E-1,2.2082405E-1,1.6553962E-1,-1.387554E-1,-1.1839075E-1,2.0034336E-1,-1.548779E-1,6.6900393E-4,2.659125E-1,1.3800663E-1,1.569973E-1,-8.079753E-3,-2.996309E-1,1.5853903E-1,-5.4882675E-1,-1.2240143E-1,1.3249473E-1,2.3613254E-2,-1.405318E-1,1.9489858E-2],"split_indices":[28,25,5,24,16,54,2,26,31,51,18,13,12,11,2,31,7,18,18,30,51,18,0,28,13,53,11,0,31,34,30,21,30,35,1,34,18,40,15,50,30,16,25,30,15,13,0,30,31,25,35,54,44,48,12,2,35,3,11,3,35,11,0,0,0,0,0,0,0,0,0,0,0,0,0,0,0,0,0,0,0,0,0,0,0,0,0,0,0,0,0,0,0,0,0,0,0,0,0,0,0,0,0,0,0,0,0,0,0,0,0,0,0,0,0,0,0,0,0,0,0,0,0,0,0],"split_type":[0,0,0,0,0,0,0,0,0,0,0,0,0,0,0,0,0,0,0,0,0,0,0,0,0,0,0,0,0,0,0,0,0,0,0,0,0,0,0,0,0,0,0,0,0,0,0,0,0,0,0,0,0,0,0,0,0,0,0,0,0,0,0,0,0,0,0,0,0,0,0,0,0,0,0,0,0,0,0,0,0,0,0,0,0,0,0,0,0,0,0,0,0,0,0,0,0,0,0,0,0,0,0,0,0,0,0,0,0,0,0,0,0,0,0,0,0,0,0,0,0,0,0,0,0],"sum_hessian":[3.395433E4,7.4451997E3,2.6509129E4,4.5284146E3,2.9167852E3,1.2965992E4,1.3543136E4,3.8879744E3,6.404404E2,1.8422706E3,1.0745145E3,1.1888893E4,1.0770996E3,4.8908022E3,8.652334E3,3.8657815E3,2.2192793E1,1.0804698E2,5.3239343E2,1.6056805E3,2.3659015E2,1.0583951E3,1.6119326E1,6.0476694E3,5.841223E3,8.204795E2,2.5662015E2,2.0019929E3,2.8888093E3,3.723675E2,8.279966E3,2.5019773E1,3.8407617E3,1.0622377E1,1.15704155E1,1.1742152E1,9.630483E1,1.6143661E2,3.7095682E2,9.367065E1,1.5120099E3,2.8581787E1,2.0800836E2,9.204476E2,1.3794756E2,4.9162655E0,1.120306E1,4.207721E3,1.8399482E3,1.145579E3,4.695644E3,4.538629E1,7.750932E2,1.589E2,9.772015E1,6.131451E2,1.3888479E3,1.2208561E3,1.6679531E3,9.118023E1,2.8118726E2,4.115957E3,4.1640093E3,1.2724605E1,1.229517E1,2.8245789E3,1.01618286E3,7.2955003E0,3.3268769E0,8.961099E0,2.609317E0,6.3740425E0,5.36811E0,2.589198E1,7.041285E1,1.550085E2,6.4281073E0,1.2205843E2,2.4889839E2,7.1569115E1,2.2101528E1,1.503824E3,8.185853E0,1.26382885E1,1.5943499E1,1.17658035E2,9.035033E1,3.6990738E2,5.505402E2,9.89284E0,1.2805472E2,2.7347353E0,2.1815302E0,1.5900228E3,2.6176985E3,1.594735E3,2.4521336E2,2.9029428E2,8.552848E2,3.4575032E3,1.2381411E3,5.04911E0,4.033718E1,7.120001E2,6.309309E1,1.4514233E2,1.3757671E1,7.26576E1,2.5062557E1,1.19296776E2,4.9384827E2,3.410719E2,1.047776E3,6.26212E2,5.9464417E2,4.5957025E2,1.2083829E3,2.8296083E1,6.2884144E1,2.2221918E2,5.8968075E1,1.817313E3,2.298644E3,7.573445E2,3.4066646E3],"tree_param":{"num_deleted":"0","num_feature":"66","num_nodes":"125","size_leaf_vector":"1"}},{"base_weights":[1.1394585E-3,4.960984E-3,-7.7845603E-1,-9.191371E-2,3.2078266E-2,-6.585401E-1,-1.4059728E0,-5.8863457E-2,-3.675382E-1,-3.0955384E-2,9.371848E-2,-4.2289943E-1,-1.1013359E0,-1.5876164E0,1.6111782E-1,1.3577367E-2,-2.3307337E-1,-7.328768E-1,3.614067E-2,-4.7273412E-2,4.2097607E-1,1.3929373E-1,-5.7746537E-2,-7.1761966E-1,-3.8642557E-3,-1.2865278E0,9.1329676E-1,-5.424934E-1,-1.131996E0,-8.214475E-2,2.947478E-1,-4.7677776E-1,-5.4961834E-2,-8.3536094E-1,1.2748679E0,1.8729122E0,-1.07452184E-1,-7.6272324E-2,1.7877059E-1,4.6974248E-1,-7.687875E-1,2.5148374E-1,7.6423414E-2,-2.4825056E-1,1.2967998E-1,-1.5290912E0,-5.059677E-1,-4.8805487E-1,1.3797148E-1,-1.3569949E0,1.8845293E-1,3.1608197E-1,6.412975E-2,1.8457651E-1,-4.3174636E-1,-4.2983614E-2,7.509045E-2,1.447272E-1,-2.2865657E-3,-9.843735E-2,-2.3659879E-1,-1.3156132E-1,7.203038E-2,-6.326033E-2,-3.3046755E-1,4.426425E-1,-1.7396551E-1,1.3083586E0,4.2645833E-1,-3.919594E-1,7.1269274E-3,-1.3902725E-2,-1.120267E-1,8.831856E-2,-1.3224708E-1,1.5177447E-1,-1.5907583E-1,2.451976E-1,-3.1260616E-1,1.1652878E-1,1.2531022E-2,-9.15456E-2,4.75354E-2,2.2864798E-2,-9.921024E-2,-9.871569E-2,6.625961E-2,-5.074315E-1,-3.723041E-2,-2.1088427E-1,9.0126686E-2,1.4601402E-1,-1.15027055E-1,5.688358E-2,-4.2120454E-1],"categories":[],"categories_nodes":[],"categories_segments":[],"categories_sizes":[],"default_left":[0,1,0,0,0,0,0,0,0,0,0,0,0,0,0,0,0,0,0,0,0,0,0,0,0,0,0,0,0,0,0,0,0,0,0,0,0,0,0,0,0,0,0,0,0,0,0,0,0,0,0,0,0,0,0,0,0,0,0,0,0,0,0,0,0,0,0,0,0,0,0,0,0,0,0,0,0,0,0,0,0,0,0,0,0,0,0,0,0,0,0,0,0,0,0],"id":8,"left_children":[1,3,5,7,9,11,13,15,17,19,21,23,25,27,-1,29,31,33,35,37,39,41,43,45,47,49,51,-1,53,55,57,59,61,63,65,67,69,71,73,75,77,79,81,83,85,87,89,-1,91,93,-1,-1,-1,-1,-1,-1,-1,-1,-1,-1,-1,-1,-1,-1,-1,-1,-1,-1,-1,-1,-1,-1,-1,-1,-1,-1,-1,-1,-1,-1,-1,-1,-1,-1,-1,-1,-1,-1,-1,-1,-1,-1,-1,-1,-1],"loss_changes":[9.957022E1,8.737094E1,1.1341988E1,6.623912E1,1.0096574E2,1.4012032E1,9.773174E0,8.198478E1,1.1485843E2,9.476993E1,9.0700615E1,1.1381857E1,1.8923141E1,3.026123E-1,0E0,1.2353988E2,8.2792625E1,8.517473E1,9.80141E1,8.1304276E1,2.6345299E1,7.121684E1,1.0855988E2,8.520529E0,9.218226E0,6.786476E0,2.2524166E-1,0E0,6.4126644E0,6.963362E1,6.615879E1,3.7087006E1,1.24994644E2,6.452161E1,8.389427E0,2.406382E1,5.4296143E1,9.774116E1,1.011676E2,1.5852409E1,8.658071E0,1.04138824E2,2.0267899E2,4.036048E1,6.418893E1,2.2307434E0,7.2661276E0,0E0,6.88744E0,3.3740616E0,0E0,0E0,0E0,0E0,0E0,0E0,0E0,0E0,0E0,0E0,0E0,0E0,0E0,0E0,0E0,0E0,0E0,0E0,0E0,0E0,0E0,0E0,0E0,0E0,0E0,0E0,0E0,0E0,0E0,0E0,0E0,0E0,0E0,0E0,0E0,0E0,0E0,0E0,0E0,0E0,0E0,0E0,0E0,0E0,0E0],"parents":[2147483647,0,0,1,1,2,2,3,3,4,4,5,5,6,6,7,7,8,8,9,9,10,10,11,11,12,12,13,13,15,15,16,16,17,17,18,18,19,19,20,20,21,21,22,22,23,23,24,24,25,25,26,26,28,28,29,29,30,30,31,31,32,32,33,33,34,34,35,35,36,36,37,37,38,38,39,39,40,40,41,41,42,42,43,43,44,44,45,45,46,46,48,48,49,49],"right_children":[2,4,6,8,10,12,14,16,18,20,22,24,26,28,-1,30,32,34,36,38,40,42,44,46,48,50,52,-1,54,56,58,60,62,64,66,68,70,72,74,76,78,80,82,84,86,88,90,-1,92,94,-1,-1,-1,-1,-1,-1,-1,-1,-1,-1,-1,-1,-1,-1,-1,-1,-1,-1,-1,-1,-1,-1,-1,-1,-1,-1,-1,-1,-1,-1,-1,-1,-1,-1,-1,-1,-1,-1,-1,-1,-1,-1,-1,-1,-1],"split_conditions":[7.64E2,5E0,9.931E3,3E1,5.42E0,1.90526E3,1.2177E5,2.134E3,1.1796E5,2E0,1.31E2,9.557E1,3.5E1,1.7E2,1.6111782E-1,6.36E2,2.169E3,8.7E1,2.31285E3,5.04E2,7.7E1,1.22E2,2.32E2,1E0,2E0,6.7661E2,2.67E2,-5.424934E-1,1.9E2,6.7578E3,5.1E1,7.4412E4,3.6E1,5.9963E4,5E0,3.9E1,1.83E2,2.63E2,3.84E0,9.9954E2,7.2722E4,6.07E2,1.3348E2,8.546E1,1.35E2,1.46E2,6E0,-4.8805487E-1,1.4423E2,3.7433332E-1,1.8845293E-1,3.1608197E-1,6.412975E-2,1.8457651E-1,-4.3174636E-1,-4.2983614E-2,7.509045E-2,1.447272E-1,-2.2865657E-3,-9.843735E-2,-2.3659879E-1,-1.3156132E-1,7.203038E-2,-6.326033E-2,-3.3046755E-1,4.426425E-1,-1.7396551E-1,1.3083586E0,4.2645833E-1,-3.919594E-1,7.1269274E-3,-1.3902725E-2,-1.120267E-1,8.831856E-2,-1.3224708E-1,1.5177447E-1,-1.5907583E-1,2.451976E-1,-3.1260616E-1,1.1652878E-1,1.2531022E-2,-9.15456E-2,4.75354E-2,2.2864798E-2,-9.921024E-2,-9.871569E-2,6.625961E-2,-5.074315E-1,-3.723041E-2,-2.1088427E-1,9.0126686E-2,1.4601402E-1,-1.15027055E-1,5.688358E-2,-4.2120454E-1],"split_indices":[55,28,17,15,5,24,31,30,31,49,37,26,13,3,0,30,30,18,25,36,11,11,36,20,34,0,35,0,3,25,18,31,18,31,1,15,30,40,4,25,31,30,0,0,2,36,40,0,11,12,0,0,0,0,0,0,0,0,0,0,0,0,0,0,0,0,0,0,0,0,0,0,0,0,0,0,0,0,0,0,0,0,0,0,0,0,0,0,0,0,0,0,0,0,0],"split_type":[0,0,0,0,0,0,0,0,0,0,0,0,0,0,0,0,0,0,0,0,0,0,0,0,0,0,0,0,0,0,0,0,0,0,0,0,0,0,0,0,0,0,0,0,0,0,0,0,0,0,0,0,0,0,0,0,0,0,0,0,0,0,0,0,0,0,0,0,0,0,0,0,0,0,0,0,0,0,0,0,0,0,0,0,0,0,0,0,0,0,0,0,0,0,0],"sum_hessian":[3.3419008E4,3.3256977E4,1.6202986E2,7.2728423E3,2.5984135E4,1.3775491E2,2.4274958E1,6.4952124E3,7.776301E2,1.2847105E4,1.313703E4,9.118464E1,4.6570267E1,2.2366913E1,1.9080437E0,4.588233E3,1.9069795E3,4.0777185E2,3.6985828E2,1.2400261E4,4.4684464E2,1.0098508E4,3.0385225E3,5.311482E1,3.8069824E1,4.298074E1,3.589527E0,1.3068063E1,9.298851E0,3.423454E3,1.1647784E3,8.0451294E2,1.1024666E3,3.8852377E2,1.9248049E1,2.5944561E1,3.4391373E2,1.0990912E4,1.4093484E3,4.2983173E2,1.7012897E1,3.6256514E3,6.4728564E3,1.5067289E3,1.5317937E3,9.700116E0,4.34147E1,2.2181554E0,3.585167E1,4.1736E1,1.2447397E0,2.5682364E0,1.0212905E0,1.2403196E0,8.058531E0,2.8921772E3,5.3127704E2,7.18328E2,4.4645044E2,5.462206E2,2.5829236E2,4.791262E2,6.233404E2,1.1665232E2,2.7187146E2,1.7553934E1,1.6941158E0,2.6537564E0,2.3290806E1,3.30373E1,3.108764E2,9.986224E3,1.0046887E3,1.1881487E3,2.2119966E2,4.1530322E2,1.4528506E1,2.207439E0,1.4805459E1,2.1928452E3,1.4328062E3,1.1447974E3,5.328059E3,3.0531146E2,1.2014175E3,2.5356395E2,1.2782297E3,8.512603E0,1.1875138E0,3.4994694E1,8.420007E0,2.1522547E1,1.4329122E1,1.1419506E0,4.059405E1],"tree_param":{"num_deleted":"0","num_feature":"66","num_nodes":"95","size_leaf_vector":"1"}},{"base_weights":[5.6685257E-4,-3.135428E-2,6.8251126E-2,-1.1032458E-3,-1.2445072E-1,2.0516482E-1,-1.6387474E-2,-1.1426313E-1,3.6576863E-2,-1.7934573E-1,-3.1227147E-2,3.4801328E-1,8.057707E-2,-7.79414E-1,7.5571933E-3,-2.6731384E-1,-6.790125E-3,1.934076E-1,9.9751E-3,-3.3099565E-1,-1.1187795E-1,9.7188294E-2,-2.8825247E-1,4.1441247E-1,-5.9143674E-1,2.0596756E-1,-2.5554752E-1,-8.903593E-1,7.032141E-1,-6.1970744E-2,1.5660341E-1,-4.7880918E-1,-1.5592499E-1,1.01901695E-1,-1.5856345E-1,-2.873946E-1,2.2823437E-1,-8.856813E-2,6.275309E-2,-4.380137E-1,1.4043961E-2,2.418531E-1,-1.4781417E-1,3.9127763E-2,6.2550336E-1,-5.0532216E-1,-3.5805117E-2,-2.080646E0,4.4175804E-1,-1.0277925E0,6.9367045E-1,3.7053794E-1,-4.9160838E-2,-1.077874E0,3.5909373E-1,-3.0684426E-1,-1.121465E0,9.3625414E-1,-2.3866154E-1,-1.259771E-1,1.4525111E-1,-1.3938083E-1,2.84785E-1,-1.6421941E-1,4.6784535E-2,1.6537614E-4,-1.3036722E-1,1.3032341E-1,-4.6781925E-3,-3.8702062E-1,-2.7856106E-2,-9.469262E-3,-3.0625382E-1,-1.8341918E-1,7.3781304E-2,-1.2917674E-2,-1.03637174E-1,4.1334577E-2,-2.7540818E-2,-1.8112747E-1,-9.2631895E-3,-7.725723E-2,1.4365934E-1,9.69303E-2,-9.2793636E-2,-3.8037352E-2,-2.1448477E-1,3.0511396E-2,-1.1366395E-1,1.3592467E-2,3.2944086E-1,-2.043242E-2,-1.8469027E-1,-4.306366E-2,2.5317892E-1,-7.345832E-1,-1.93693E-1,2.197746E-1,8.231552E-2,-3.555404E-1,4.1827966E-2,2.5607485E-1,-2.0083356E-1,1.19334534E-1,-1.3401827E-1,1.6008647E-2,-2.4272417E-1,-3.434961E-1,9.852033E-2,2.159354E-1,-6.4825984E-3,1.3677156E-2,-2.978959E-1,-2.6381198E-1,-3.6938414E-1,3.9098868E-1,-7.405835E-2,-2.8473645E-2,-2.7253765E-1,6.9313705E-2,-4.104043E-2,5.728404E-3,-1.2377249E-1,1.04615815E-1,-5.61749E-2],"categories":[],"categories_nodes":[],"categories_segments":[],"categories_sizes":[],"default_left":[0,0,0,0,0,0,0,0,0,0,0,0,0,0,0,0,0,0,0,0,0,0,0,0,0,0,0,0,0,0,0,0,0,0,0,0,0,0,0,0,0,0,0,0,0,0,0,0,0,0,0,0,0,0,0,0,0,0,0,0,0,0,0,0,0,0,0,0,0,0,0,0,0,0,0,0,0,0,0,0,0,0,0,0,0,0,0,0,0,0,0,0,0,0,0,0,0,0,0,0,0,0,0,0,0,0,0,0,0,0,0,0,0,0,0,0,0,0,0,0,0,0,0,0,0],"id":9,"left_children":[1,3,5,7,9,11,13,15,17,19,21,23,25,27,29,31,33,35,37,39,41,43,45,47,49,51,53,55,57,59,61,63,65,67,69,71,73,75,77,79,81,83,85,87,89,91,93,95,97,99,101,103,105,107,109,111,113,115,-1,117,119,121,123,-1,-1,-1,-1,-1,-1,-1,-1,-1,-1,-1,-1,-1,-1,-1,-1,-1,-1,-1,-1,-1,-1,-1,-1,-1,-1,-1,-1,-1,-1,-1,-1,-1,-1,-1,-1,-1,-1,-1,-1,-1,-1,-1,-1,-1,-1,-1,-1,-1,-1,-1,-1,-1,-1,-1,-1,-1,-1,-1,-1,-1,-1],"loss_changes":[7.131052E1,6.3163322E1,1.2257732E2,7.218569E1,2.8143242E1,7.188933E1,1.1944964E2,6.9560905E1,5.2984516E1,3.538147E1,6.7353E1,1.1765506E2,9.107853E1,3.3347153E1,6.570647E1,4.102423E1,4.101783E1,3.0906296E1,5.6486233E1,3.934562E1,3.0510183E1,4.172145E1,3.7235992E1,1.209028E2,7.06192E1,6.60842E1,2.971946E2,2.4673294E1,5.777046E0,5.7366043E1,7.6560486E1,2.6266937E1,4.9886936E1,5.6612934E1,7.702504E1,2.339315E1,2.568666E1,4.4271065E1,8.202829E1,5.4856216E1,3.208245E1,1.0017547E1,2.5863956E1,3.2140594E1,3.6884384E1,1.7583908E1,3.001394E1,8.578209E0,8.451047E1,1.7330536E1,7.5895796E0,2.1477356E1,4.8181526E1,2.4105682E1,4.6263817E1,1.310524E1,2.4400482E0,5.9359303E0,0E0,8.022452E1,2.4733679E1,2.6425081E1,4.2549515E1,0E0,0E0,0E0,0E0,0E0,0E0,0E0,0E0,0E0,0E0,0E0,0E0,0E0,0E0,0E0,0E0,0E0,0E0,0E0,0E0,0E0,0E0,0E0,0E0,0E0,0E0,0E0,0E0,0E0,0E0,0E0,0E0,0E0,0E0,0E0,0E0,0E0,0E0,0E0,0E0,0E0,0E0,0E0,0E0,0E0,0E0,0E0,0E0,0E0,0E0,0E0,0E0,0E0,0E0,0E0,0E0,0E0,0E0,0E0,0E0,0E0,0E0],"parents":[2147483647,0,0,1,1,2,2,3,3,4,4,5,5,6,6,7,7,8,8,9,9,10,10,11,11,12,12,13,13,14,14,15,15,16,16,17,17,18,18,19,19,20,20,21,21,22,22,23,23,24,24,25,25,26,26,27,27,28,28,29,29,30,30,31,31,32,32,33,33,34,34,35,35,36,36,37,37,38,38,39,39,40,40,41,41,42,42,43,43,44,44,45,45,46,46,47,47,48,48,49,49,50,50,51,51,52,52,53,53,54,54,55,55,56,56,57,57,59,59,60,60,61,61,62,62],"right_children":[2,4,6,8,10,12,14,16,18,20,22,24,26,28,30,32,34,36,38,40,42,44,46,48,50,52,54,56,58,60,62,64,66,68,70,72,74,76,78,80,82,84,86,88,90,92,94,96,98,100,102,104,106,108,110,112,114,116,-1,118,120,122,124,-1,-1,-1,-1,-1,-1,-1,-1,-1,-1,-1,-1,-1,-1,-1,-1,-1,-1,-1,-1,-1,-1,-1,-1,-1,-1,-1,-1,-1,-1,-1,-1,-1,-1,-1,-1,-1,-1,-1,-1,-1,-1,-1,-1,-1,-1,-1,-1,-1,-1,-1,-1,-1,-1,-1,-1,-1,-1,-1,-1,-1,-1],"split_conditions":[7E0,9.607E3,4.4E1,8.6154E4,4.2E1,2.75E2,3E0,2.1E1,1.049E1,9.792E3,1.19386E5,1.245E2,1.62E2,3.81E2,3.6E2,5.646E1,6.07E2,1E0,1.969E1,1.18E2,5.05E0,2.169E3,7.14E0,1.82E0,7.6E1,7.2E1,1.84E2,1.44E0,3.45E1,3.81E2,1E0,5.4E2,1.95E2,6.2E1,6.28E2,1.7699E2,8.7197E4,1.2828E2,2.134E3,1.908E1,8.006E1,1.21078E5,4.65E2,1.362126E4,2.4E1,6E0,4E1,4E0,1.6E1,3.001E1,2.73E2,2.1E2,3.9E1,7.125E1,2.6087E2,1.15565E5,7.02E0,2.86E2,-2.3866154E-1,3.21E2,4.76E2,3.27E2,5.4E2,-1.6421941E-1,4.6784535E-2,1.6537614E-4,-1.3036722E-1,1.3032341E-1,-4.6781925E-3,-3.8702062E-1,-2.7856106E-2,-9.469262E-3,-3.0625382E-1,-1.8341918E-1,7.3781304E-2,-1.2917674E-2,-1.03637174E-1,4.1334577E-2,-2.7540818E-2,-1.8112747E-1,-9.2631895E-3,-7.725723E-2,1.4365934E-1,9.69303E-2,-9.2793636E-2,-3.8037352E-2,-2.1448477E-1,3.0511396E-2,-1.1366395E-1,1.3592467E-2,3.2944086E-1,-2.043242E-2,-1.8469027E-1,-4.306366E-2,2.5317892E-1,-7.345832E-1,-1.93693E-1,2.197746E-1,8.231552E-2,-3.555404E-1,4.1827966E-2,2.5607485E-1,-2.0083356E-1,1.19334534E-1,-1.3401827E-1,1.6008647E-2,-2.4272417E-1,-3.434961E-1,9.852033E-2,2.159354E-1,-6.4825984E-3,1.3677156E-2,-2.978959E-1,-2.6381198E-1,-3.6938414E-1,3.9098868E-1,-7.405835E-2,-2.8473645E-2,-2.7253765E-1,6.9313705E-2,-4.104043E-2,5.728404E-3,-1.2377249E-1,1.04615815E-1,-5.61749E-2],"split_indices":[40,17,37,31,18,30,38,36,25,17,31,4,2,39,37,2,30,29,12,50,16,30,26,11,36,40,0,4,11,36,20,35,11,36,30,0,31,26,30,16,26,31,55,24,28,35,51,37,39,13,41,38,37,4,0,31,13,30,0,37,34,40,40,0,0,0,0,0,0,0,0,0,0,0,0,0,0,0,0,0,0,0,0,0,0,0,0,0,0,0,0,0,0,0,0,0,0,0,0,0,0,0,0,0,0,0,0,0,0,0,0,0,0,0,0,0,0,0,0,0,0,0,0,0,0],"split_type":[0,0,0,0,0,0,0,0,0,0,0,0,0,0,0,0,0,0,0,0,0,0,0,0,0,0,0,0,0,0,0,0,0,0,0,0,0,0,0,0,0,0,0,0,0,0,0,0,0,0,0,0,0,0,0,0,0,0,0,0,0,0,0,0,0,0,0,0,0,0,0,0,0,0,0,0,0,0,0,0,0,0,0,0,0,0,0,0,0,0,0,0,0,0,0,0,0,0,0,0,0,0,0,0,0,0,0,0,0,0,0,0,0,0,0,0,0,0,0,0,0,0,0,0,0],"sum_hessian":[3.30036E4,2.2427105E4,1.0576494E4,1.692761E4,5.499496E3,4.039945E3,6.536549E3,4.2280405E3,1.2699569E4,3.4607173E3,2.0387788E3,1.881212E3,2.1587332E3,1.979234E2,6.3386255E3,1.7435664E3,2.484474E3,1.8408088E3,1.0858761E4,1.064375E3,2.3963423E3,1.3599435E3,6.7883545E2,1.7575494E3,1.2366255E2,1.5725021E3,5.86231E2,1.8451555E2,1.3407852E1,4.3227217E3,2.0159038E3,6.00359E2,1.1432074E3,1.4478972E3,1.0365768E3,1.2384266E2,1.7169662E3,3.7870945E3,7.0716665E3,8.121941E2,2.5218092E2,2.2046906E2,2.1758733E3,1.226255E3,1.3368837E2,3.6445392E2,3.143815E2,1.8239695E1,1.7393098E3,9.2466095E1,3.1196457E1,9.556247E2,6.168774E2,2.504291E2,3.358019E2,5.3006924E1,1.3150864E2,1.1928421E1,1.4794312E0,3.3029148E3,1.0198069E3,6.0917346E2,1.4067303E3,5.4193744E2,5.842156E1,7.327197E2,4.1048764E2,3.7733942E2,1.0705579E3,5.5870388E1,9.807064E2,9.258998E1,3.1252676E1,3.476154E1,1.6822046E3,3.2181504E3,5.6894415E2,4.760701E3,2.310965E3,5.7686884E2,2.3532529E2,1.5946222E2,9.27187E1,1.925054E2,2.796365E1,2.099279E3,7.659415E1,1.0672426E3,1.5901248E2,6.0506996E1,7.318138E1,7.375369E1,2.9070023E2,2.8082584E2,3.3555676E1,1.3954998E1,4.284697E0,6.3411206E2,1.1051978E3,8.14687E1,1.0997403E1,2.8255495E1,2.9409618E0,9.25293E2,3.0331661E1,5.4436523E2,7.251213E1,2.3919937E2,1.122973E1,1.7197554E2,1.6382637E2,3.56361E1,1.7370821E1,4.3849274E1,8.7659355E1,9.026518E0,2.9019032E0,3.1778728E3,1.2504198E2,7.820916E2,2.3771527E2,3.86121E2,2.2305247E2,1.2391553E3,1.6757513E2],"tree_param":{"num_deleted":"0","num_feature":"66","num_nodes":"125","size_leaf_vector":"1"}},{"base_weights":[1.42936E-4,1.3541232E-2,-1.571411E-1,1.028069E-2,6.973441E-1,-1.1717927E-1,-6.6744953E-1,-4.4010486E-2,3.9598674E-2,-2.9612444E-2,1.0774814E0,-1.3237146E-1,1.5616637E0,-5.3007163E-2,-1.0896943E0,-1.7856126E-1,6.156818E-3,1.0305717E-1,-1.881968E-2,-3.7867647E-1,1.589207E-1,1.5376339E0,4.9258187E-1,-1.0222942E-1,-8.183586E-1,2.0188637E0,2.1212138E-2,-3.3980846E-1,8.500295E-2,4.1257706E-1,-1.2374284E0,-3.6497143E-1,-4.0186215E-2,4.251952E-2,-3.5972747E-1,1.2331922E-1,-1.5509503E-1,-6.3995995E-2,1.18119724E-1,-3.1738874E-1,8.179129E-1,1.6945064E0,-4.0604374E-1,-4.588181E-1,7.187352E-1,3.001199E-1,-1.4318082E-1,-4.4657248E-1,-1.3472228E0,1.1027483E0,8.0692E-1,-5.511207E-1,2.436958E-1,4.080485E-1,-1.6109633E-1,-7.976573E-2,1.054716E0,-4.1086224E-1,-6.638805E-1,-5.470141E-2,-2.061473E-1,1.5959413E-3,-1.4439118E-1,-7.7713316E-4,7.0619814E-2,-2.0545365E-1,-1.0159606E-2,2.2512747E-2,7.144035E-2,-3.2676598E-1,7.377893E-3,-5.6060255E-2,-2.987184E-3,6.3477255E-2,-1.795934E-2,-2.9102388E-1,-1.8185066E-2,3.708551E-1,1.1856256E-1,3.916106E-1,7.9892266E-1,-3.0842713E-1,1.9697712E-1,-2.3320666E-2,3.2091862E-1,-6.158926E-2,1.9362873E-1,-5.163871E-2,1.7469181E-1,-2.7593204E-1,7.185574E-2,-3.6684394E-1,-8.199122E-1,-6.9550686E-2,3.9949065E-1,-2.807364E-1,9.165079E-2,1.5519877E-1,-1.900457E-1,5.0003845E-2,-1.1974678E-1,-1.2404628E-1,1.7474946E-1,4.0848014E-1,3.0274525E-2,9.965186E-2,-2.5200918E-1],"categories":[],"categories_nodes":[],"categories_segments":[],"categories_sizes":[],"default_left":[0,0,0,0,0,0,0,0,0,0,0,0,0,0,0,0,0,0,0,0,0,0,0,0,0,0,0,0,0,0,0,0,0,0,0,0,0,0,0,0,0,0,0,0,0,0,0,0,0,0,0,0,0,0,0,0,0,0,0,0,0,0,0,0,0,0,0,0,0,0,0,0,0,0,0,0,0,0,0,0,0,0,0,0,0,0,0,0,0,0,0,0,0,0,0,0,0,0,0,0,0,0,0,0,0,0,0],"id":10,"left_children":[1,3,5,7,9,11,13,15,17,19,21,23,25,27,29,31,33,35,37,-1,39,41,43,45,47,49,51,-1,53,55,57,59,61,63,65,67,69,71,73,75,77,79,-1,81,83,85,87,89,91,93,-1,95,-1,97,99,101,103,-1,105,-1,-1,-1,-1,-1,-1,-1,-1,-1,-1,-1,-1,-1,-1,-1,-1,-1,-1,-1,-1,-1,-1,-1,-1,-1,-1,-1,-1,-1,-1,-1,-1,-1,-1,-1,-1,-1,-1,-1,-1,-1,-1,-1,-1,-1,-1,-1,-1],"loss_changes":[6.885758E1,6.712553E1,5.2228416E1,4.7702538E1,3.9514885E1,6.0906506E1,4.8214386E1,7.0937485E1,7.214399E1,1.1827743E1,2.4500175E1,4.8703175E1,1.50439415E1,1.1545064E1,2.4973694E1,7.360705E1,1.0187295E2,4.88106E1,6.269686E1,0E0,1.415932E1,2.5900917E1,9.537104E0,3.7301872E1,1.8897171E1,7.1795425E0,3.1250615E0,0E0,5.5557404E0,3.4413793E0,6.714035E0,7.142032E1,3.29084E1,6.0598824E1,7.330959E1,4.7926163E1,1.1404756E2,5.059556E1,4.183778E1,4.369787E0,2.8456783E0,1.5300079E1,0E0,6.2810802E0,9.857475E0,3.6646366E1,4.3218132E1,1.9611359E1,3.6302948E0,2.9581394E0,0E0,1.6127818E0,0E0,3.7585626E0,3.1809301E0,1.7747451E0,1.2321053E0,0E0,3.9243174E0,0E0,0E0,0E0,0E0,0E0,0E0,0E0,0E0,0E0,0E0,0E0,0E0,0E0,0E0,0E0,0E0,0E0,0E0,0E0,0E0,0E0,0E0,0E0,0E0,0E0,0E0,0E0,0E0,0E0,0E0,0E0,0E0,0E0,0E0,0E0,0E0,0E0,0E0,0E0,0E0,0E0,0E0,0E0,0E0,0E0,0E0,0E0,0E0],"parents":[2147483647,0,0,1,1,2,2,3,3,4,4,5,5,6,6,7,7,8,8,9,9,10,10,11,11,12,12,13,13,14,14,15,15,16,16,17,17,18,18,20,20,21,21,22,22,23,23,24,24,25,25,26,26,28,28,29,29,30,30,31,31,32,32,33,33,34,34,35,35,36,36,37,37,38,38,39,39,40,40,41,41,43,43,44,44,45,45,46,46,47,47,48,48,49,49,51,51,53,53,54,54,55,55,56,56,58,58],"right_children":[2,4,6,8,10,12,14,16,18,20,22,24,26,28,30,32,34,36,38,-1,40,42,44,46,48,50,52,-1,54,56,58,60,62,64,66,68,70,72,74,76,78,80,-1,82,84,86,88,90,92,94,-1,96,-1,98,100,102,104,-1,106,-1,-1,-1,-1,-1,-1,-1,-1,-1,-1,-1,-1,-1,-1,-1,-1,-1,-1,-1,-1,-1,-1,-1,-1,-1,-1,-1,-1,-1,-1,-1,-1,-1,-1,-1,-1,-1,-1,-1,-1,-1,-1,-1,-1,-1,-1,-1,-1],"split_conditions":[6.4E1,2.892E2,1.384886E4,2.1E1,5E0,1.294527E4,2.75E2,6.7E1,6.4E1,2.3694E2,3.47E3,1.9334E2,5.939E1,1.83E2,1.1E1,1.04946E5,2.92E2,4.59E2,5.1E2,-3.7867647E-1,3.049E3,8.8E2,3.519E1,2.006E3,9.6821E2,7.76E0,2.998E1,-3.3980846E-1,3.5E1,4.3E1,1.2338E5,4.43E1,5.5E1,1.624E2,1.0375E2,1.3348E2,4.89E2,1.1E1,6.07E2,3.19288E3,2.068E1,4.4E1,-4.0604374E-1,3E0,1.2E1,1.15101E5,9.48265E3,2.998E1,1.9E-1,2E0,8.0692E-1,2.52E2,2.436958E-1,2.97E2,5.6E1,2.34E2,2E0,-4.1086224E-1,5.3E0,-5.470141E-2,-2.061473E-1,1.5959413E-3,-1.4439118E-1,-7.7713316E-4,7.0619814E-2,-2.0545365E-1,-1.0159606E-2,2.2512747E-2,7.144035E-2,-3.2676598E-1,7.377893E-3,-5.6060255E-2,-2.987184E-3,6.3477255E-2,-1.795934E-2,-2.9102388E-1,-1.8185066E-2,3.708551E-1,1.1856256E-1,3.916106E-1,7.9892266E-1,-3.0842713E-1,1.9697712E-1,-2.3320666E-2,3.2091862E-1,-6.158926E-2,1.9362873E-1,-5.163871E-2,1.7469181E-1,-2.7593204E-1,7.185574E-2,-3.6684394E-1,-8.199122E-1,-6.9550686E-2,3.9949065E-1,-2.807364E-1,9.165079E-2,1.5519877E-1,-1.900457E-1,5.0003845E-2,-1.1974678E-1,-1.2404628E-1,1.7474946E-1,4.0848014E-1,3.0274525E-2,9.965186E-2,-2.5200918E-1],"split_indices":[18,26,25,36,50,25,30,34,37,25,17,26,4,30,15,31,2,35,34,0,17,11,0,17,25,13,13,0,13,39,31,12,34,0,4,0,35,38,30,24,5,18,0,42,15,31,25,13,6,35,0,35,0,38,34,35,43,0,2,0,0,0,0,0,0,0,0,0,0,0,0,0,0,0,0,0,0,0,0,0,0,0,0,0,0,0,0,0,0,0,0,0,0,0,0,0,0,0,0,0,0,0,0,0,0,0,0],"split_type":[0,0,0,0,0,0,0,0,0,0,0,0,0,0,0,0,0,0,0,0,0,0,0,0,0,0,0,0,0,0,0,0,0,0,0,0,0,0,0,0,0,0,0,0,0,0,0,0,0,0,0,0,0,0,0,0,0,0,0,0,0,0,0,0,0,0,0,0,0,0,0,0,0,0,0,0,0,0,0,0,0,0,0,0,0,0,0,0,0,0,0,0,0,0,0,0,0,0,0,0,0,0,0,0,0,0,0],"sum_hessian":[3.2673135E4,3.0109188E4,2.5639478E3,2.996731E4,1.4187653E2,2.3788884E3,1.8505922E2,1.0508017E4,1.9459295E4,4.903204E1,9.284448E1,2.3584675E3,2.04211E1,7.583343E1,1.09225784E2,2.8531614E3,7.654855E3,9.326918E3,1.0132377E4,5.749074E0,4.3282967E1,5.105196E1,4.1792522E1,2.2602996E3,9.816778E1,1.5507862E1,4.9132385E0,7.77787E0,6.805556E1,9.619083E0,9.9606705E1,1.2148943E3,1.6382671E3,6.9636685E3,6.911869E2,8.64862E3,6.782974E2,7.619302E3,2.5130752E3,2.5424732E1,1.7858234E1,4.8817028E1,2.2349334E0,7.8288207E0,3.3963703E1,2.0821817E2,2.0520815E3,5.8727413E1,3.9440365E1,7.6732736E0,7.834588E0,3.0268176E0,1.8864207E0,2.91428E1,3.8912754E1,5.9402995E0,3.6787841E0,7.983053E1,1.9776178E1,7.763699E2,4.3852448E2,1.4859622E3,1.52305E2,5.6445337E3,1.3191344E3,3.4543707E2,3.4574985E2,6.089713E3,2.5589072E3,1.0861103E2,5.696864E2,2.326629E3,5.292673E3,1.6476157E3,8.6545935E2,6.3939376E0,1.9030796E1,8.008887E0,9.849346E0,3.6500217E1,1.2316811E1,5.235206E0,2.593614E0,1.0627171E1,2.333653E1,8.468015E1,1.23538025E2,1.9740751E3,7.800637E1,3.4554436E1,2.4172976E1,3.791865E1,1.5217125E0,1.1214575E0,6.5518165E0,2.0250523E0,1.0017655E0,2.6830923E1,2.3118758E0,1.6497616E1,2.241514E1,4.199681E0,1.7406188E0,2.4597957E0,1.2189885E0,2.8387158E0,1.6937462E1],"tree_param":{"num_deleted":"0","num_feature":"66","num_nodes":"107","size_leaf_vector":"1"}},{"base_weights":[-9.2535665E-5,2.7106775E-3,-5.039413E-1,-8.72644E-3,1.24476396E-1,-1.1164619E0,-6.11918E-2,6.488849E-3,-1.3563147E-1,1.7362203E-1,-4.6506077E-1,-4.7265503E-1,-7.863234E-1,-2.2285683E-1,8.5454947E-1,3.2088805E-2,-7.217155E-2,-9.1433235E-2,-5.6256074E-1,2.4196835E-1,-7.5550124E-2,-5.3752667E-1,1.0278231E0,-8.456898E-1,1.3451074E-1,-5.2894694E-1,2.463551E-1,1.0568366E0,1.9257848E-1,-3.6465727E-2,7.078751E-2,-3.5727048E-1,-4.7533903E-2,-1.422202E-1,4.628343E-1,-1.392014E-1,-1.1167376E0,2.8978813E-1,3.6648933E-2,-4.700349E-1,6.3903295E-2,-3.7467155E-1,-9.966803E-1,8.3510764E-2,1.4364723E0,-9.018637E-1,8.50502E-2,-3.338062E-1,-1.4914792E0,-7.21571E-1,4.497861E-1,9.845966E-2,3.490421E-1,7.097269E-1,-1.3223791E-1,-1.5935732E-2,1.6540954E-1,-8.179514E-3,3.3764318E-2,-8.156001E-2,-3.2185143E-1,4.3304056E-2,-2.5516843E-2,-3.424642E-2,-3.451182E-1,8.594642E-2,3.8154796E-1,-3.1579185E-1,7.1302705E-2,-3.9626265E-1,-3.1108536E-2,8.928607E-2,-3.248185E-1,3.290324E-2,-1.6949144E-1,-2.658674E-1,6.6301614E-2,-8.12545E-2,9.73253E-2,-1.3459043E-1,9.6776776E-2,-4.3630865E-1,-1.784216E-1,2.07161E-1,-2.2896522E-1,1.8437572E-1,5.7379425E-1,-3.1809157E-1,-9.345811E-2,-4.1627103E-1,-4.4405278E-2,-4.980894E-1,-3.414225E-2,1.0015278E-2,-3.54463E-1,2.8229943E-1,4.505478E-2,2.4572188E-2,2.928236E-1],"categories":[],"categories_nodes":[],"categories_segments":[],"categories_sizes":[],"default_left":[0,0,0,0,0,0,0,0,0,0,0,0,0,0,0,0,0,0,0,0,0,0,0,0,0,0,0,0,0,0,1,0,0,0,0,0,0,0,0,0,0,0,0,0,0,0,0,0,0,0,0,0,0,0,0,0,0,0,0,0,0,0,0,0,0,0,0,0,0,0,0,0,0,0,0,0,0,0,0,0,0,0,0,0,0,0,0,0,0,0,0,0,0,0,0,0,0,0,0],"id":11,"left_children":[1,3,5,7,9,11,13,15,17,19,21,-1,23,25,27,29,31,33,35,37,39,41,43,45,-1,47,49,51,53,55,57,59,61,63,65,67,69,71,73,75,77,79,81,83,85,87,-1,89,91,93,95,-1,-1,97,-1,-1,-1,-1,-1,-1,-1,-1,-1,-1,-1,-1,-1,-1,-1,-1,-1,-1,-1,-1,-1,-1,-1,-1,-1,-1,-1,-1,-1,-1,-1,-1,-1,-1,-1,-1,-1,-1,-1,-1,-1,-1,-1,-1,-1],"loss_changes":[4.5907715E1,4.501657E1,4.870189E1,5.705731E1,8.049441E1,1.0187202E1,1.5800387E1,5.3137142E1,5.96434E1,4.3659576E1,2.36862E1,0E0,3.740036E0,1.3115575E1,1.942811E0,5.2818954E1,4.5494324E1,8.079786E1,6.942957E1,1.973645E1,3.041706E1,1.4925331E1,3.8326483E0,3.052618E0,0E0,9.839471E0,7.4875135E0,5.547409E-1,1.942197E0,7.0355385E1,5.2109936E1,3.119522E1,4.2959175E1,7.4227615E1,3.4012505E1,5.8526684E1,2.6397125E1,1.785669E1,1.680502E1,4.1722023E1,3.5754173E1,8.016134E0,8.878582E0,2.6628766E0,1.5982218E0,3.620903E0,0E0,9.005379E0,1.9015999E0,2.3666728E0,4.373203E0,0E0,0E0,4.420458E-1,0E0,0E0,0E0,0E0,0E0,0E0,0E0,0E0,0E0,0E0,0E0,0E0,0E0,0E0,0E0,0E0,0E0,0E0,0E0,0E0,0E0,0E0,0E0,0E0,0E0,0E0,0E0,0E0,0E0,0E0,0E0,0E0,0E0,0E0,0E0,0E0,0E0,0E0,0E0,0E0,0E0,0E0,0E0,0E0,0E0],"parents":[2147483647,0,0,1,1,2,2,3,3,4,4,5,5,6,6,7,7,8,8,9,9,10,10,12,12,13,13,14,14,15,15,16,16,17,17,18,18,19,19,20,20,21,21,22,22,23,23,25,25,26,26,27,27,28,28,29,29,30,30,31,31,32,32,33,33,34,34,35,35,36,36,37,37,38,38,39,39,40,40,41,41,42,42,43,43,44,44,45,45,47,47,48,48,49,49,50,50,53,53],"right_children":[2,4,6,8,10,12,14,16,18,20,22,-1,24,26,28,30,32,34,36,38,40,42,44,46,-1,48,50,52,54,56,58,60,62,64,66,68,70,72,74,76,78,80,82,84,86,88,-1,90,92,94,96,-1,-1,98,-1,-1,-1,-1,-1,-1,-1,-1,-1,-1,-1,-1,-1,-1,-1,-1,-1,-1,-1,-1,-1,-1,-1,-1,-1,-1,-1,-1,-1,-1,-1,-1,-1,-1,-1,-1,-1,-1,-1,-1,-1,-1,-1,-1,-1],"split_conditions":[8.4E2,4E0,5.47E0,1E0,6E2,1.83E2,3.8E2,9.527E3,2.722473E4,3.6E1,4.6E1,-4.7265503E-1,1.5E1,6.28E2,9E0,3.543E3,9.662E3,3.03153E3,4.3E1,1.908E1,5.59E1,9.931E3,6.2876E2,1.19E2,1.3451074E-1,2.4E1,9E0,7.466E2,8.932E1,1.222316E4,1.1E1,1.44E1,9.751E3,1.362126E4,4.3E1,7.6031E3,1.23763E5,4.64E2,2.68E2,4.3619E2,1.8E1,3E0,1.83E2,3.8E1,2.9E1,2.169E3,8.50502E-2,8.21E0,2.55288E3,1.15414E5,3.65E3,9.845966E-2,3.490421E-1,1.518E2,-1.3223791E-1,-1.5935732E-2,1.6540954E-1,-8.179514E-3,3.3764318E-2,-8.156001E-2,-3.2185143E-1,4.3304056E-2,-2.5516843E-2,-3.424642E-2,-3.451182E-1,8.594642E-2,3.8154796E-1,-3.1579185E-1,7.1302705E-2,-3.9626265E-1,-3.1108536E-2,8.928607E-2,-3.248185E-1,3.290324E-2,-1.6949144E-1,-2.658674E-1,6.6301614E-2,-8.12545E-2,9.73253E-2,-1.3459043E-1,9.6776776E-2,-4.3630865E-1,-1.784216E-1,2.07161E-1,-2.2896522E-1,1.8437572E-1,5.7379425E-1,-3.1809157E-1,-9.345811E-2,-4.1627103E-1,-4.4405278E-2,-4.980894E-1,-3.414225E-2,1.0015278E-2,-3.54463E-1,2.8229943E-1,4.505478E-2,2.4572188E-2,2.928236E-1],"split_indices":[34,54,12,51,51,30,37,17,24,4,18,0,27,30,18,17,17,25,18,16,4,17,24,54,0,40,18,24,26,25,28,27,17,24,18,25,31,58,52,25,15,42,30,36,1,30,0,25,25,31,17,0,0,0,0,0,0,0,0,0,0,0,0,0,0,0,0,0,0,0,0,0,0,0,0,0,0,0,0,0,0,0,0,0,0,0,0,0,0,0,0,0,0,0,0,0,0,0,0],"split_type":[0,0,0,0,0,0,0,0,0,0,0,0,0,0,0,0,0,0,0,0,0,0,0,0,0,0,0,0,0,0,0,0,0,0,0,0,0,0,0,0,0,0,0,0,0,0,0,0,0,0,0,0,0,0,0,0,0,0,0,0,0,0,0,0,0,0,0,0,0,0,0,0,0,0,0,0,0,0,0,0,0,0,0,0,0,0,0,0,0,0,0,0,0,0,0,0,0,0,0],"sum_hessian":[3.2501477E4,3.232264E4,1.7883565E2,2.954819E4,2.7744517E3,7.439391E1,1.04441734E2,2.638563E4,3.1625586E3,2.5616133E3,2.128385E2,2.9542723E1,4.4851192E1,8.941333E1,1.50283985E1,1.9907383E4,6.478248E3,2.8669673E3,2.9559122E2,2.0102449E3,5.513683E2,2.0359573E2,9.242775E0,4.30942E1,1.7569907E0,5.40358E1,3.5377533E1,1.1053987E1,3.9744117E0,7.182927E3,1.2724456E4,5.1423083E2,5.964017E3,2.6270015E3,2.39966E2,1.6828346E2,1.2730774E2,1.6301617E3,3.800831E2,1.4338666E2,4.0798163E2,1.5163057E2,5.1965157E1,3.155458E0,6.0873175E0,4.1243763E1,1.8504385E0,4.6047146E1,7.988655E0,5.7017174E0,2.9675816E1,1.9318188E0,9.122168E0,2.1215832E0,1.8528285E0,6.985924E3,1.9700313E2,3.8007292E3,8.923727E3,4.6063364E2,5.3597202E1,9.750372E2,4.98898E3,2.5569348E3,7.0066536E1,1.9813103E2,4.1834988E1,4.8628754E1,1.1965472E2,1.05703575E2,2.1604164E1,1.6216909E3,8.470807E0,3.3966953E2,4.041356E1,8.931367E1,5.4072998E1,1.785332E2,2.2944844E2,1.3741103E2,1.4219551E1,2.3073519E1,2.8891636E1,1.9453131E0,1.210145E0,3.073344E0,3.0139732E0,3.1888933E1,9.354828E0,5.932184E0,4.011496E1,6.93384E0,1.0548154E0,2.5097957E0,3.1919215E0,1.0431744E1,1.9244072E1,1.0214444E0,1.1001387E0],"tree_param":{"num_deleted":"0","num_feature":"66","num_nodes":"99","size_leaf_vector":"1"}},{"base_weights":[-3.4167836E-4,-2.651193E-1,4.3481602E-3,-3.8663337E-1,1.2569069E-2,1.1697726E-1,-1.05113005E-2,-4.8325154E-1,5.9712145E-2,6.440606E-2,-4.5648584E-1,-1.632463E-3,2.1226594E-1,3.3184998E-2,-4.6978384E-2,-5.0997454E-1,8.663047E-1,4.2537114E-1,-3.524616E-1,-6.836884E-2,7.215292E-1,-6.2306922E-2,5.134125E-1,7.956769E-2,5.412881E-1,3.5209003E-1,1.3698566E-2,-1.6159403E-1,-2.8251624E-3,-1.2894969E0,-4.6947956E-1,1.071518E0,-1.3683387E-2,9.197084E-1,-1.9209294E-1,-6.3440186E-1,3.6113566E-1,1.1913614E-1,-5.1038283E-1,2.586403E-1,1.2746177E0,1.910757E-1,-2.3985969E-1,6.417812E-1,-8.158397E-1,-3.601474E-1,1.1033187E-1,-9.662491E-2,6.3339454E-1,-9.424089E-3,5.072034E-1,-8.8770375E-2,6.551025E-2,-8.5205115E-2,-1.306111E0,1.505391E-1,-5.4434128E-2,-4.763244E-1,-1.2366222E-2,-1.5415347E-1,6.8759814E-2,3.628794E-1,1.11312576E-1,3.8467976E-1,1.0192034E-1,-2.5133416E-1,5.3200245E-2,-3.7537152E-1,-7.3228955E-2,2.8527886E-1,-1.4365952E-1,8.629656E-2,-1.2987237E-1,-2.5442445E-1,6.253395E-2,1.7013381E-1,-1.6848536E-1,4.8747408E-1,-1.17626615E-1,-1.4638794E-2,1.1943626E-1,-1.4551885E-1,-4.5561777E-5,2.3060304E-1,-1.6776322E-1,-3.8899016E-1,1.6322473E-1,3.183706E-2,-2.555337E-1,8.409041E-2,5.8449456E-3,3.2919828E-2,-2.2367139E-1,2.473352E-1,1.2292386E-1,8.5377336E-2,-1.1751297E-1,6.992713E-2,2.0852603E-1,-1.9820254E-2,-2.545476E-1,6.473335E-2,-7.536911E-4,1.9492023E-1,-5.240693E-2,-1.785727E-1,-4.2726377E-1,8.0703035E-2,-4.105145E-2,-6.45407E-2,3.2116892E-3],"categories":[],"categories_nodes":[],"categories_segments":[],"categories_sizes":[],"default_left":[0,0,0,0,0,0,0,0,0,0,0,0,0,0,0,0,0,0,0,0,0,0,0,0,0,0,0,0,0,0,0,0,0,0,0,0,0,0,0,0,0,0,0,0,0,0,0,0,0,0,0,0,0,0,1,0,0,0,0,0,0,0,0,0,0,0,0,0,0,0,0,0,0,0,0,0,0,0,0,0,0,0,0,0,0,0,0,0,0,0,0,0,0,0,0,0,0,0,0,0,0,0,0,0,0,0,0,0,0,0,0],"id":12,"left_children":[1,3,5,7,9,11,13,15,17,19,-1,21,23,25,27,29,31,33,35,37,39,41,43,45,47,49,51,53,55,57,59,61,-1,63,65,67,69,71,73,75,77,79,81,83,85,87,89,91,93,95,97,99,101,103,105,107,109,-1,-1,-1,-1,-1,-1,-1,-1,-1,-1,-1,-1,-1,-1,-1,-1,-1,-1,-1,-1,-1,-1,-1,-1,-1,-1,-1,-1,-1,-1,-1,-1,-1,-1,-1,-1,-1,-1,-1,-1,-1,-1,-1,-1,-1,-1,-1,-1,-1,-1,-1,-1,-1,-1],"loss_changes":[4.0208897E1,1.9020828E1,5.325036E1,1.693576E1,1.3817284E1,4.1914616E1,4.4793312E1,1.206855E1,1.0798323E1,1.4692458E1,0E0,5.169098E1,8.9742165E1,7.9462944E1,7.754191E1,9.3937E0,1.2896605E0,1.1742626E1,7.0214605E0,1.1708173E1,6.9149923E0,6.6618385E1,3.0269424E1,1.9878963E1,3.477687E1,4.1296303E1,6.3993553E1,3.7243524E2,8.7567154E1,5.5451393E0,9.500282E0,7.863188E-2,0E0,4.02573E0,4.364665E0,5.608042E0,5.507922E0,9.379659E0,1.0383756E1,4.53378E0,8.0156765E0,3.032668E1,5.1166355E1,2.4742668E1,1.1031363E1,2.2127354E1,2.1171865E1,1.0180956E1,2.1728973E1,2.5071236E1,2.6375946E1,6.976297E1,8.182951E1,2.628886E2,2.1529572E1,9.48754E1,8.665517E1,0E0,0E0,0E0,0E0,0E0,0E0,0E0,0E0,0E0,0E0,0E0,0E0,0E0,0E0,0E0,0E0,0E0,0E0,0E0,0E0,0E0,0E0,0E0,0E0,0E0,0E0,0E0,0E0,0E0,0E0,0E0,0E0,0E0,0E0,0E0,0E0,0E0,0E0,0E0,0E0,0E0,0E0,0E0,0E0,0E0,0E0,0E0,0E0,0E0,0E0,0E0,0E0,0E0,0E0],"parents":[2147483647,0,0,1,1,2,2,3,3,4,4,5,5,6,6,7,7,8,8,9,9,11,11,12,12,13,13,14,14,15,15,16,16,17,17,18,18,19,19,20,20,21,21,22,22,23,23,24,24,25,25,26,26,27,27,28,28,29,29,30,30,31,31,33,33,34,34,35,35,36,36,37,37,38,38,39,39,40,40,41,41,42,42,43,43,44,44,45,45,46,46,47,47,48,48,49,49,50,50,51,51,52,52,53,53,54,54,55,55,56,56],"right_children":[2,4,6,8,10,12,14,16,18,20,-1,22,24,26,28,30,32,34,36,38,40,42,44,46,48,50,52,54,56,58,60,62,-1,64,66,68,70,72,74,76,78,80,82,84,86,88,90,92,94,96,98,100,102,104,106,108,110,-1,-1,-1,-1,-1,-1,-1,-1,-1,-1,-1,-1,-1,-1,-1,-1,-1,-1,-1,-1,-1,-1,-1,-1,-1,-1,-1,-1,-1,-1,-1,-1,-1,-1,-1,-1,-1,-1,-1,-1,-1,-1,-1,-1,-1,-1,-1,-1,-1,-1,-1,-1,-1,-1],"split_conditions":[1.2E2,1.24E2,1.049E1,1.913E1,2.728E3,1.83E2,2.75E2,1.13E0,6.07E2,2.135E3,-4.5648584E-1,3.63E2,6.12E0,1.234E3,6.28E2,1E0,3.21E2,2.1E2,2.2E1,9E0,7.366E1,5.1E-1,5.2E2,1.2E1,1.4885E2,4.241E1,2.1E1,6.07E2,2.086E3,2.135E3,2.2E1,3.3E1,-1.3683387E-2,1.07292E5,7.5E0,1.08873E5,2E0,3.894E1,4.3E1,2.611E1,3.74E2,1.34E0,2E0,2.1E1,6.47E2,8.938E1,2.126E3,4.4E1,1.93E2,4.73984E3,1.5E-1,2.36E2,7.3E1,7.48E0,5E0,3E1,2.135E3,-4.763244E-1,-1.2366222E-2,-1.5415347E-1,6.8759814E-2,3.628794E-1,1.11312576E-1,3.8467976E-1,1.0192034E-1,-2.5133416E-1,5.3200245E-2,-3.7537152E-1,-7.3228955E-2,2.8527886E-1,-1.4365952E-1,8.629656E-2,-1.2987237E-1,-2.5442445E-1,6.253395E-2,1.7013381E-1,-1.6848536E-1,4.8747408E-1,-1.17626615E-1,-1.4638794E-2,1.1943626E-1,-1.4551885E-1,-4.5561777E-5,2.3060304E-1,-1.6776322E-1,-3.8899016E-1,1.6322473E-1,3.183706E-2,-2.555337E-1,8.409041E-2,5.8449456E-3,3.2919828E-2,-2.2367139E-1,2.473352E-1,1.2292386E-1,8.5377336E-2,-1.1751297E-1,6.992713E-2,2.0852603E-1,-1.9820254E-2,-2.545476E-1,6.473335E-2,-7.536911E-4,1.9492023E-1,-5.240693E-2,-1.785727E-1,-4.2726377E-1,8.0703035E-2,-4.105145E-2,-6.45407E-2,3.2116892E-3],"split_indices":[24,50,25,16,30,30,30,27,30,30,0,41,13,17,30,18,35,36,15,9,24,4,39,34,24,26,36,30,30,30,45,50,0,31,13,31,38,0,18,11,39,25,1,1,39,0,30,18,35,24,7,45,36,13,28,15,30,0,0,0,0,0,0,0,0,0,0,0,0,0,0,0,0,0,0,0,0,0,0,0,0,0,0,0,0,0,0,0,0,0,0,0,0,0,0,0,0,0,0,0,0,0,0,0,0,0,0,0,0,0,0],"split_type":[0,0,0,0,0,0,0,0,0,0,0,0,0,0,0,0,0,0,0,0,0,0,0,0,0,0,0,0,0,0,0,0,0,0,0,0,0,0,0,0,0,0,0,0,0,0,0,0,0,0,0,0,0,0,0,0,0,0,0,0,0,0,0,0,0,0,0,0,0,0,0,0,0,0,0,0,0,0,0,0,0,0,0,0,0,0,0,0,0,0,0,0,0,0,0,0,0,0,0,0,0,0,0,0,0,0,0,0,0,0,0],"sum_hessian":[3.2378523E4,5.6255255E2,3.181597E4,3.9104315E2,1.7150943E2,3.7075173E3,2.8108453E4,3.2139062E2,6.9652504E1,1.668306E2,4.6788344E0,1.6520839E3,2.0554336E3,1.2786844E4,1.532161E4,3.1576028E2,5.630357E0,3.689191E1,3.2760593E1,1.395332E2,2.72974E1,1.4787589E3,1.7332498E2,1.4655878E3,5.898458E2,7.353535E2,1.205149E4,4.2601616E3,1.1061448E4,1.4070076E1,3.0169022E2,4.4532094E0,1.1771475E0,2.021691E1,1.6675003E1,2.356221E1,9.198381E0,9.848552E1,4.1047676E1,1.56594095E1,1.1637989E1,6.092426E2,8.6951624E2,1.5853236E2,1.479262E1,9.513323E1,1.3704545E3,7.441454E1,5.154313E2,2.2106618E2,5.1428735E2,4.0469832E3,8.0045073E3,3.9946213E3,2.6554007E2,2.7846125E3,8.276836E3,1.1137125E1,2.9329503E0,2.839258E2,1.7764395E1,3.1127853E0,1.340424E0,1.169509E1,8.521819E0,5.607095E0,1.1067908E1,8.276416E0,1.5285795E1,5.3264427E0,3.871939E0,7.58195E1,2.2666021E1,2.7805246E1,1.3242429E1,1.1604102E1,4.055308E0,9.637523E0,2.000467E0,2.8260065E2,3.26642E2,4.293252E2,4.4019104E2,1.4370827E2,1.48241005E1,1.0963178E1,3.8294427E0,4.92284E1,4.590483E1,4.766331E2,8.938214E2,5.7091118E1,1.732343E1,2.7652115E2,2.3891011E2,1.2510429E2,9.596188E1,2.1006009E2,3.0422723E2,3.930611E3,1.16372025E2,2.4936504E3,5.510857E3,4.329048E2,3.5617166E3,3.8691418E1,2.2684865E2,1.9718027E3,8.1280975E2,2.386637E3,5.890199E3],"tree_param":{"num_deleted":"0","num_feature":"66","num_nodes":"111","size_leaf_vector":"1"}},{"base_weights":[-1.5173298E-4,9.742458E-3,-1.1765415E-1,-2.3240822E-3,1.1803405E-1,-2.6202293E-2,-2.9577765E-1,4.2524267E-2,-3.0227233E-2,1.2865216E-1,-1.4343408E0,-3.2843888E-1,1.0853621E-1,-4.3325357E-2,-4.971442E-1,6.775426E-2,-1.9663452E-1,-3.3323658E-1,-1.0013069E-2,1.5428376E-1,-4.8601443E-1,-1.8238574E0,-4.9826527E-1,-1.4705667E-1,-5.647275E-1,3.1693393E-1,-1.346528E-1,-4.9651077E-1,3.0514023E-1,-6.897633E-1,-3.738373E-3,3.3449776E-2,2.8499863E-1,-3.325801E-1,1.1974536E-1,-1.2517168E-1,-7.1135694E-1,-2.4458991E-2,1.8278107E-1,1.3529737E-1,7.9750866E-1,-1.0068965E0,-1.6066742E-1,-5.939702E-1,-1.591653E-1,2.1566378E-1,-9.916429E-1,-3.584837E-1,1.0068861E-1,5.4446654E-3,-7.8751755E-1,5.985795E-1,1.3499016E-1,6.792885E-2,-5.3235024E-1,-2.912522E-2,-8.985046E-1,-5.6037825E-1,5.694201E-1,-8.0438715E-1,-3.361776E-2,5.897785E-1,-4.960437E-1,1.8795446E-2,-1.2239648E-1,1.6534044E-1,-1.0268267E-2,-8.244375E-2,-4.9089158E-1,1.4887094E-1,-4.493522E-2,-1.1832289E-3,-2.6536876E-1,-1.5868902E-1,-3.18189E-1,-5.949274E-3,-2.046829E-1,1.893E-2,1.4822413E-1,8.35772E-2,1.0514633E-2,-1.8957205E-1,3.061745E-1,-3.9632094E-1,3.632001E-2,6.989023E-2,-2.16938E-1,-3.6983605E-2,-3.7975273E-1,-1.5338692E-1,1.0813506E-1,2.7637017E-1,-4.6374593E-3,1.9190502E-1,-1.2883464E-1,-2.540198E-1,2.8052622E-1,1.9605054E-1,-1.9723574E-2,4.055031E-3,2.5974002E-1,7.628103E-2,-7.433707E-2,-9.224183E-3,-2.8794676E-1,-1.6385147E-1,8.6158656E-2,-1.8462082E-3,-3.53481E-1,1.6198765E-3,-5.382534E-1,3.0435857E-1,-8.249092E-3,-3.890684E-1,-1.3215119E-1,-1.2676212E-1,2.821971E-1,4.9951777E-2,3.8943E-1,-2.0944104E-1,2.3721342E-1],"categories":[],"categories_nodes":[],"categories_segments":[],"categories_sizes":[],"default_left":[0,0,0,0,0,0,0,0,0,0,0,0,0,0,0,0,0,0,0,0,0,0,0,0,0,0,0,0,0,0,0,0,0,0,0,0,0,0,0,0,0,0,0,0,0,0,0,0,0,0,0,0,0,0,0,0,0,0,0,0,0,0,0,0,0,0,0,0,0,0,0,0,0,0,0,0,0,0,0,0,0,0,0,0,0,0,0,0,0,0,0,0,0,0,0,0,0,0,0,0,0,0,0,0,0,0,0,0,0,0,0,0,0,0,0,0,0,0,0,0,0],"id":13,"left_children":[1,3,5,7,9,11,13,15,17,19,21,23,25,27,29,31,33,35,37,39,41,43,45,47,49,51,53,55,57,59,61,63,65,67,69,71,73,75,77,79,81,83,85,-1,-1,-1,87,89,91,93,95,97,99,101,103,105,107,109,111,113,115,117,119,-1,-1,-1,-1,-1,-1,-1,-1,-1,-1,-1,-1,-1,-1,-1,-1,-1,-1,-1,-1,-1,-1,-1,-1,-1,-1,-1,-1,-1,-1,-1,-1,-1,-1,-1,-1,-1,-1,-1,-1,-1,-1,-1,-1,-1,-1,-1,-1,-1,-1,-1,-1,-1,-1,-1,-1,-1,-1],"loss_changes":[3.7307384E1,3.8675636E1,4.0590183E1,3.332795E1,4.9095963E1,6.714132E1,4.295378E1,6.164791E1,1.0055634E2,4.6521927E1,6.4713554E0,2.1704353E1,5.78435E1,5.9561504E1,4.4682755E1,6.88555E1,4.197547E1,8.068666E1,4.2872482E1,3.44638E1,1.987867E1,1.7582169E0,5.110715E0,1.5170988E1,2.8002914E1,3.1407616E1,4.2496216E1,3.0770432E1,4.9107624E1,2.5405731E1,3.915978E1,1.0291366E2,1.0706832E2,5.0931747E1,2.988506E1,6.1077892E1,2.264151E1,4.3582516E1,3.9946487E1,3.950652E1,2.6459892E1,1.6204456E1,1.6547901E1,0E0,0E0,0E0,1.1848121E0,1.7335033E1,1.2768318E1,1.7629665E1,1.6958603E1,8.831543E0,3.3243927E1,2.065691E1,3.8131405E1,1.2721706E1,2.1983406E1,3.5189716E1,4.3573963E1,5.1011276E1,1.9848112E1,1.8002645E1,1.960092E1,0E0,0E0,0E0,0E0,0E0,0E0,0E0,0E0,0E0,0E0,0E0,0E0,0E0,0E0,0E0,0E0,0E0,0E0,0E0,0E0,0E0,0E0,0E0,0E0,0E0,0E0,0E0,0E0,0E0,0E0,0E0,0E0,0E0,0E0,0E0,0E0,0E0,0E0,0E0,0E0,0E0,0E0,0E0,0E0,0E0,0E0,0E0,0E0,0E0,0E0,0E0,0E0,0E0,0E0,0E0,0E0,0E0,0E0],"parents":[2147483647,0,0,1,1,2,2,3,3,4,4,5,5,6,6,7,7,8,8,9,9,10,10,11,11,12,12,13,13,14,14,15,15,16,16,17,17,18,18,19,19,20,20,21,21,22,22,23,23,24,24,25,25,26,26,27,27,28,28,29,29,30,30,31,31,32,32,33,33,34,34,35,35,36,36,37,37,38,38,39,39,40,40,41,41,42,42,46,46,47,47,48,48,49,49,50,50,51,51,52,52,53,53,54,54,55,55,56,56,57,57,58,58,59,59,60,60,61,61,62,62],"right_children":[2,4,6,8,10,12,14,16,18,20,22,24,26,28,30,32,34,36,38,40,42,44,46,48,50,52,54,56,58,60,62,64,66,68,70,72,74,76,78,80,82,84,86,-1,-1,-1,88,90,92,94,96,98,100,102,104,106,108,110,112,114,116,118,120,-1,-1,-1,-1,-1,-1,-1,-1,-1,-1,-1,-1,-1,-1,-1,-1,-1,-1,-1,-1,-1,-1,-1,-1,-1,-1,-1,-1,-1,-1,-1,-1,-1,-1,-1,-1,-1,-1,-1,-1,-1,-1,-1,-1,-1,-1,-1,-1,-1,-1,-1,-1,-1,-1,-1,-1,-1,-1],"split_conditions":[6.4E1,1E0,4.18982E3,7.49E0,2.40239E3,2E0,2E0,2.55E1,7.51E0,6.08E2,8.126E3,1.53205E3,1E0,2.9E1,8.5E1,1.624E2,6.2258E2,4.62E1,7.5E2,1.66156E3,1E0,3.85E2,9.33E1,2.2E1,2.75E2,1.5E1,2.75E2,1.487E3,1.88549E3,1E0,1.13495E5,1.35E2,1.8E1,2.87E0,2.75E2,2.87E2,