{"learner":{"attributes":{"scikit_learn":"{\"_estimator_type\": \"classifier\"}"},"feature_names":["NET_WITH_VAT","QTY","LINE_CLAIMED_AMOUNT","LINE_CLAIMED_AMOUNT_SAR","CO_PAY","CO_INSURANCE","LINE_ITEM_DISCOUNT","NET_AMOUNT","NET_VAT_AMOUNT","PATIENT_VAT_AMOUNT","VAT_PERCENTAGE","TREATMENT_TYPE_INDICATOR","DURATION","QTY_STOCKED_UOM","UNIT_PRICE","UNIT_PRICE_STOCKED_UOM","UNIT_PRICE_NET","DISCOUNT_PERCENTAGE","EMERGENCY_INDICATOR","PROVIDER_DEPARTMENT_CODE","DOCTOR_SPECIALTY_CODE","DOCTOR_CODE","PATIENT_AGE","UNIT_OF_AGE","PATIENT_NATIONALITY","PATIENT_MARITAL_STATUS","PATIENT_GENDER","HIS_INSURANCE_CODE","CLAIM_TYPE","TOTAL_CLAIMED_AMOUNT","TOTAL_CLAIMED_AMOUNT_SAR","TOTAL_NET_AMOUNT","TOTAL_DISCOUNT","TOTAL_DEDUCTIBLE","TOTAL_PATIENT_VATAMOUNT","TOTAL_NET_VAT_AMOUNT","DEPARTMENT_TYPE","TREATMENT_TYPE","PURCHASER_CODE","NEW_BORN","PatientAgeRange","CombinedText1","CombinedText2","CombinedText3","CombinedText4","CombinedText5","CombinedText6","CombinedText7","CombinedText8","CombinedText9","CombinedText10","CombinedText11","CombinedText12","CombinedText13","CombinedText14","CombinedText15","CombinedText16"],"feature_types":["float","float","float","float","float","float","float","float","float","float","float","int","float","int","float","float","float","float","int","int","float","int","int","int","int","int","int","int","int","float","float","float","float","float","float","float","float","int","int","int","int","int","int","int","int","int","int","int","int","int","int","int","int","int","int","int","int"],"gradient_booster":{"model":{"gbtree_model_param":{"num_parallel_tree":"1","num_trees":"100"},"iteration_indptr":[0,1,2,3,4,5,6,7,8,9,10,11,12,13,14,15,16,17,18,19,20,21,22,23,24,25,26,27,28,29,30,31,32,33,34,35,36,37,38,39,40,41,42,43,44,45,46,47,48,49,50,51,52,53,54,55,56,57,58,59,60,61,62,63,64,65,66,67,68,69,70,71,72,73,74,75,76,77,78,79,80,81,82,83,84,85,86,87,88,89,90,91,92,93,94,95,96,97,98,99,100],"tree_info":[0,0,0,0,0,0,0,0,0,0,0,0,0,0,0,0,0,0,0,0,0,0,0,0,0,0,0,0,0,0,0,0,0,0,0,0,0,0,0,0,0,0,0,0,0,0,0,0,0,0,0,0,0,0,0,0,0,0,0,0,0,0,0,0,0,0,0,0,0,0,0,0,0,0,0,0,0,0,0,0,0,0,0,0,0,0,0,0,0,0,0,0,0,0,0,0,0,0,0,0],"trees":[{"base_weights":[-5.361784E-1,-9.2962664E-1,-3.5071835E-2,-1.0415123E0,-9.676791E-2,1.1999956E0,-1.1759409E0,-6.659339E-1,-1.0747842E0,8.517341E-1,-1.0662199E0,7.922291E-1,2.8713849E0,-1.1792599E0,-4.6038345E-1,1.5157768E-1,-8.629804E-1,-9.488734E-1,-1.1447294E0,3.4452498E0,2.9037437E-1,-4.231429E-1,-1.1557703E0,1.17629714E-1,1.632139E0,6.0195637E-1,4.746425E0,-3.5499045E-1,-9.7378147E-1,6.3936484E-1,-3.2479522E-1,-8.97385E-1,1.1832576E0,-1.0894601E0,-3.513883E-1,-1.0739567E0,-7.2057676E-1,-1.1574222E0,-8.6902237E-1,3.6036139E0,-2.40125E-1,7.2640574E-1,-5.0539947E-1,3.8585863E-1,-5.332506E-1,-3.5073063E-1,3.0275065E-1,2.6582808E-3,4.038721E0,1.8899349E0,-2.6070315E-1,1.6710006E0,-7.815799E-1,9.804611E-1,5.6981764E0,1.1855042E0,-1.1069722E0,4.016094E-2,-3.0051088E-1,5.767009E-1,5.7221044E-2,-3.340531E-1,2.0854043E-4,8.4438133E-1,-2.1209018E-1,-2.4322851E-1,-3.525507E-1,-9.530909E-2,-3.5456848E-1,-3.4832358E-1,-1.3964717E-1,2.1092094E-1,-3.1814808E-1,1.1485226E0,4.016094E-2,8.2238846E-2,5.02816E-1,3.6104187E-1,-2.8714946E-1,-2.09895E-1,2.1408343E-1,1.3413174E-1,-1.9168727E-1,1.7612208E0,-3.1433874E-1,7.881103E-1,2.2032349E-1,1.4853255E0,-2.1083425E-1,6.498262E-1,-2.885487E-1,-2.814289E-1,9.6537125E-1,1.3338683E0,-3.4636876E-1,1.839583E0,9.509735E-1,6.131437E-1,-6.1892863E-2,1.755183E-1,-3.5042596E-1],"categories":[],"categories_nodes":[],"categories_segments":[],"categories_sizes":[],"default_left":[0,0,0,0,0,0,0,0,0,0,0,0,0,0,0,0,0,0,0,0,1,0,0,0,0,0,0,0,0,0,0,0,0,0,0,0,0,0,0,0,0,0,0,0,0,0,0,0,0,0,0,0,0,0,0,0,0,0,0,0,0,0,0,0,0,0,0,0,0,0,0,0,0,0,0,0,0,0,0,0,0,0,0,0,0,0,0,0,0,0,0,0,0,0,0,0,0,0,0,0,0],"id":0,"left_children":[1,3,5,7,9,11,13,15,17,19,21,23,25,27,29,31,33,35,37,39,41,43,45,47,49,51,53,-1,55,-1,-1,57,59,61,63,65,67,69,71,73,-1,75,77,-1,79,-1,-1,81,83,85,87,89,91,93,95,97,99,-1,-1,-1,-1,-1,-1,-1,-1,-1,-1,-1,-1,-1,-1,-1,-1,-1,-1,-1,-1,-1,-1,-1,-1,-1,-1,-1,-1,-1,-1,-1,-1,-1,-1,-1,-1,-1,-1,-1,-1,-1,-1,-1,-1],"loss_changes":[2.0351931E3,5.3874023E2,6.400253E3,6.2984375E1,6.3163043E2,1.4842207E3,5.0651855E0,6.7379395E1,4.013965E1,5.0457703E2,1.9071136E1,9.9403503E2,1.8157505E3,7.98584E-1,2.2533554E1,8.9726295E1,3.8609848E1,4.713159E1,9.508057E0,4.4367615E1,9.979995E1,8.796759E0,9.768188E0,4.3917203E2,3.8184668E2,2.8898273E2,8.3269385E2,0E0,1.5971249E1,0E0,0E0,4.5656357E0,3.0249367E1,6.104187E0,1.199052E2,2.7863281E1,1.1055115E2,6.71875E0,4.1757042E1,4.602173E1,0E0,7.922943E1,7.9917786E1,0E0,9.046005E0,0E0,0E0,2.7046487E2,2.64746E2,5.840281E2,2.2134418E2,1.4551651E2,5.651587E1,3.6319785E2,1.8507959E2,4.5361214E0,5.7013702E0,0E0,0E0,0E0,0E0,0E0,0E0,0E0,0E0,0E0,0E0,0E0,0E0,0E0,0E0,0E0,0E0,0E0,0E0,0E0,0E0,0E0,0E0,0E0,0E0,0E0,0E0,0E0,0E0,0E0,0E0,0E0,0E0,0E0,0E0,0E0,0E0,0E0,0E0,0E0,0E0,0E0,0E0,0E0,0E0],"parents":[2147483647,0,0,1,1,2,2,3,3,4,4,5,5,6,6,7,7,8,8,9,9,10,10,11,11,12,12,13,13,14,14,15,15,16,16,17,17,18,18,19,19,20,20,21,21,22,22,23,23,24,24,25,25,26,26,28,28,31,31,32,32,33,33,34,34,35,35,36,36,37,37,38,38,39,39,41,41,42,42,44,44,47,47,48,48,49,49,50,50,51,51,52,52,53,53,54,54,55,55,56,56],"right_children":[2,4,6,8,10,12,14,16,18,20,22,24,26,28,30,32,34,36,38,40,42,44,46,48,50,52,54,-1,56,-1,-1,58,60,62,64,66,68,70,72,74,-1,76,78,-1,80,-1,-1,82,84,86,88,90,92,94,96,98,100,-1,-1,-1,-1,-1,-1,-1,-1,-1,-1,-1,-1,-1,-1,-1,-1,-1,-1,-1,-1,-1,-1,-1,-1,-1,-1,-1,-1,-1,-1,-1,-1,-1,-1,-1,-1,-1,-1,-1,-1,-1,-1,-1,-1],"split_conditions":[1.494E3,3.5E1,2.135E3,5E0,3.501E1,6.1E1,2.256E1,1.3E1,7.14E0,2E1,4E1,1E1,1.670328E4,1.5825E2,1.2E1,5.046E1,5.4481E2,1.83E2,2.86E2,1.66156E3,3.9E1,1.16E0,8.3E2,1.0278E4,7.71664E3,5.7219E2,2.134E3,-3.5499045E-1,2E0,6.3936484E-1,-3.2479522E-1,5E0,2.7E2,1.0298E4,1.97735E3,4.6228E2,5.29E2,3.025E1,5.29E2,4.49E2,-2.40125E-1,6.9E1,1E0,3.8585863E-1,4.845E1,-3.5073063E-1,3.0275065E-1,1.033198E4,4.6E1,4.244E1,1E0,1.5E1,9.926E3,1.8E1,9.36926E3,4.26E0,1.6173E2,4.016094E-2,-3.0051088E-1,5.767009E-1,5.7221044E-2,-3.340531E-1,2.0854043E-4,8.4438133E-1,-2.1209018E-1,-2.4322851E-1,-3.525507E-1,-9.530909E-2,-3.5456848E-1,-3.4832358E-1,-1.3964717E-1,2.1092094E-1,-3.1814808E-1,1.1485226E0,4.016094E-2,8.2238846E-2,5.02816E-1,3.6104187E-1,-2.8714946E-1,-2.09895E-1,2.1408343E-1,1.3413174E-1,-1.9168727E-1,1.7612208E0,-3.1433874E-1,7.881103E-1,2.2032349E-1,1.4853255E0,-2.1083425E-1,6.498262E-1,-2.885487E-1,-2.814289E-1,9.6537125E-1,1.3338683E0,-3.4636876E-1,1.839583E0,9.509735E-1,6.131437E-1,-6.1892863E-2,1.755183E-1,-3.5042596E-1],"split_indices":[27,17,27,36,17,22,34,22,17,36,17,20,29,33,22,33,32,27,27,32,36,6,42,21,32,32,27,0,22,0,0,41,2,21,29,31,27,17,27,45,0,44,26,0,0,0,0,31,22,33,25,34,21,19,32,4,33,0,0,0,0,0,0,0,0,0,0,0,0,0,0,0,0,0,0,0,0,0,0,0,0,0,0,0,0,0,0,0,0,0,0,0,0,0,0,0,0,0,0,0,0],"split_type":[0,0,0,0,0,0,0,0,0,0,0,0,0,0,0,0,0,0,0,0,0,0,0,0,0,0,0,0,0,0,0,0,0,0,0,0,0,0,0,0,0,0,0,0,0,0,0,0,0,0,0,0,0,0,0,0,0,0,0,0,0,0,0,0,0,0,0,0,0,0,0,0,0,0,0,0,0,0,0,0,0,0,0,0,0,0,0,0,0,0,0,0,0,0,0,0,0,0,0,0,0],"sum_hessian":[1.0321737E4,5.781493E3,4.5402446E3,5.0965728E3,6.849203E2,2.1800942E3,2.3601506E3,4.164652E2,4.6801074E3,3.4626224E2,3.3865805E2,1.7537164E3,4.263778E2,2.3486084E3,1.1542074E1,8.093031E1,3.3553488E2,1.6765881E3,3.0035193E3,6.069773E1,2.855645E2,4.2094624E1,2.9656342E2,9.7320056E2,7.805158E2,1.9349948E2,2.3287833E2,2.2986382E3,4.9970394E1,1.7652584E0,9.776816E0,4.0193577E1,4.0736732E1,2.31792E2,1.0374288E2,1.0807455E3,5.958426E2,2.8682734E3,1.3524596E2,5.8660896E1,2.0368366E0,1.845374E2,1.010271E2,1.9010476E0,4.0193577E1,2.9520554E2,1.3578911E0,9.4645013E2,2.6750456E1,6.869571E2,9.35587E1,1.0903866E2,8.446083E1,4.73904E1,1.8548793E2,2.444204E0,4.7526188E1,3.666306E0,3.652727E1,2.281257E1,1.7924162E1,2.2676782E2,5.024197E0,9.776816E0,9.3966064E1,3.0267392E2,7.780716E2,3.1896863E2,2.76874E2,2.852522E3,1.5751537E1,1.4393646E1,1.2085231E2,5.499459E1,3.666306E0,1.258765E2,5.8660896E1,2.0775734E1,8.0251366E1,3.5848324E1,4.3452516E0,5.5931537E2,3.8713477E2,1.9553633E1,7.196823E0,4.1863782E2,2.6831927E2,6.5178776E0,8.704082E1,9.192923E1,1.7109428E1,8.2016624E1,2.444204E0,1.7652584E1,2.9737816E1,1.57108E2,2.8379925E1,1.222102E0,1.222102E0,1.3578911E0,4.6168297E1],"tree_param":{"num_deleted":"0","num_feature":"57","num_nodes":"101","size_leaf_vector":"1"}},{"base_weights":[-4.8913446E-1,-8.387367E-1,-1.1701439E-1,-9.550193E-1,-1.3380376E-1,5.745704E-1,-1.1138109E0,-5.751694E-1,-9.920002E-1,4.3264055E-1,-9.829524E-1,6.606499E-1,-7.4191946E-1,-1.1211842E0,-6.82219E-1,-2.5536236E-1,-9.960107E-1,-8.4868884E-1,-1.0753536E0,1.6091402E-1,1.3044245E0,-3.321286E-1,-1.0890635E0,-2.5370723E-1,8.024596E-1,7.79803E-1,-1.042092E0,-3.4028536E-1,-1.0503689E0,1.2903068E0,-3.28861E-1,-3.2025376E-1,1.4126655E0,-1.0197343E0,5.0261724E-1,-9.903362E-1,-6.102678E-1,-1.090571E0,-7.6678264E-1,3.3638996E-1,-3.1525683E-1,1.5583606E0,-2.5133878E-1,-7.600886E-1,9.836326E-2,-1.1051966E0,2.1844918E-1,-3.9363462E-1,3.4420142E0,1.7074176E0,7.277099E-1,3.2532067E0,-3.2318002E-1,-6.404352E-1,-1.1275939E0,-1.0796454E0,2.9991207E-1,8.635795E-1,-2.7296767E-1,3.880742E-2,-2.7809742E-1,-3.191964E-1,-2.2085598E-1,2.7760443E-1,-4.0234942E-2,-2.0929246E-1,-3.3376527E-1,-7.229304E-2,-3.3633113E-1,-3.285072E-1,-1.118015E-1,7.2104454E-2,-3.0554974E-1,1.481885E-1,-1.2485277E-1,5.180717E-1,-1.529498E-1,1.6982432E-2,-2.8867048E-1,2.5457647E-1,-2.6864362E-1,-1.5553981E-1,2.86184E-1,-3.3782274E-1,-2.4826844E-1,-1.7211144E-1,4.3095204E-1,1.4215429E0,-2.6650703E-1,6.977693E-1,1.9317754E-1,1.1417372E-1,3.1547403E-1,1.0629098E0,7.780564E-2,-3.2477218E-1,6.337366E-1,9.51428E-2,-3.4323165E-1,-3.2695955E-1,2.3460282E-1,5.923488E-1,-2.6948798E-1],"categories":[],"categories_nodes":[],"categories_segments":[],"categories_sizes":[],"default_left":[0,0,0,0,0,0,0,0,0,0,0,0,0,0,0,0,0,0,0,0,0,0,0,0,0,0,0,0,0,0,0,0,0,0,0,0,0,0,0,0,0,0,0,0,0,0,0,0,0,0,0,0,0,0,0,0,0,0,0,0,0,0,0,0,0,0,0,0,0,0,0,0,0,0,0,0,0,0,0,0,0,0,0,0,0,0,0,0,0,0,0,0,0,0,0,0,0,0,0,0,0,0,0],"id":1,"left_children":[1,3,5,7,9,11,13,15,17,19,21,23,25,27,29,31,33,35,37,39,41,43,45,47,49,51,53,-1,55,57,-1,59,-1,61,63,65,67,69,71,73,-1,75,77,79,81,83,-1,85,87,89,91,93,-1,95,97,99,101,-1,-1,-1,-1,-1,-1,-1,-1,-1,-1,-1,-1,-1,-1,-1,-1,-1,-1,-1,-1,-1,-1,-1,-1,-1,-1,-1,-1,-1,-1,-1,-1,-1,-1,-1,-1,-1,-1,-1,-1,-1,-1,-1,-1,-1,-1],"loss_changes":[1.2002605E3,3.898269E2,3.0825688E3,5.6790283E1,3.2498843E2,2.9966998E2,5.0637207E0,4.8824394E1,4.3521973E1,9.583825E1,1.830606E1,3.2158667E2,7.5038864E1,4.777832E-1,2.862284E1,6.868855E1,6.0983124E0,4.575232E1,1.0189697E1,6.632468E1,3.839949E1,7.3211794E0,7.6058655E0,1.7384605E2,1.4392554E2,1.2910829E2,3.9537048E0,0E0,1.1962006E1,2.4422415E1,0E0,5.6531994E1,0E0,1.1615753E0,9.634216E-1,2.9968445E1,9.672775E1,6.737793E0,2.9075409E1,3.243245E1,0E0,2.9759186E1,3.1983085E0,5.080801E0,1.1310183E1,4.032898E-1,0E0,1.0703348E2,7.3100266E1,1.0571127E2,2.2265417E2,9.472084E0,0E0,3.419011E1,3.009369E0,6.3387756E0,1.5880023E1,0E0,0E0,0E0,0E0,0E0,0E0,0E0,0E0,0E0,0E0,0E0,0E0,0E0,0E0,0E0,0E0,0E0,0E0,0E0,0E0,0E0,0E0,0E0,0E0,0E0,0E0,0E0,0E0,0E0,0E0,0E0,0E0,0E0,0E0,0E0,0E0,0E0,0E0,0E0,0E0,0E0,0E0,0E0,0E0,0E0,0E0],"parents":[2147483647,0,0,1,1,2,2,3,3,4,4,5,5,6,6,7,7,8,8,9,9,10,10,11,11,12,12,13,13,14,14,15,15,16,16,17,17,18,18,19,19,20,20,21,21,22,22,23,23,24,24,25,25,26,26,28,28,29,29,31,31,33,33,34,34,35,35,36,36,37,37,38,38,39,39,41,41,42,42,43,43,44,44,45,45,47,47,48,48,49,49,50,50,51,51,53,53,54,54,55,55,56,56],"right_children":[2,4,6,8,10,12,14,16,18,20,22,24,26,28,30,32,34,36,38,40,42,44,46,48,50,52,54,-1,56,58,-1,60,-1,62,64,66,68,70,72,74,-1,76,78,80,82,84,-1,86,88,90,92,94,-1,96,98,100,102,-1,-1,-1,-1,-1,-1,-1,-1,-1,-1,-1,-1,-1,-1,-1,-1,-1,-1,-1,-1,-1,-1,-1,-1,-1,-1,-1,-1,-1,-1,-1,-1,-1,-1,-1,-1,-1,-1,-1,-1,-1,-1,-1,-1,-1,-1],"split_conditions":[1.494E3,3.5E1,2.135E3,5E0,3.501E1,3.9E1,1.7854E2,9.638E3,7.14E0,9.818E3,4E1,3.311E3,2.074E3,2.692E3,1.2E1,9.264E2,6.97E2,1.83E2,2.86E2,1.5E1,2.087478E4,1E0,8.3E2,1.8488E2,3.396E3,6.33E3,2.126E3,-3.4028536E-1,1.2285E2,1.9375E2,-3.28861E-1,2.2E1,1.4126655E0,2.85E2,3.235E1,4.6228E2,5.29E2,3.025E1,6.07E2,3.064249E4,-3.1525683E-1,6.8E1,2.32E2,1.8E1,1.52399E3,9.943E3,2.1844918E-1,6.8E1,1.713E1,2.544E1,7.674E3,2.4E1,-3.2318002E-1,9.621E3,1.239E2,1.436E1,2.728E3,8.635795E-1,-2.7296767E-1,3.880742E-2,-2.7809742E-1,-3.191964E-1,-2.2085598E-1,2.7760443E-1,-4.0234942E-2,-2.0929246E-1,-3.3376527E-1,-7.229304E-2,-3.3633113E-1,-3.285072E-1,-1.118015E-1,7.2104454E-2,-3.0554974E-1,1.481885E-1,-1.2485277E-1,5.180717E-1,-1.529498E-1,1.6982432E-2,-2.8867048E-1,2.5457647E-1,-2.6864362E-1,-1.5553981E-1,2.86184E-1,-3.3782274E-1,-2.4826844E-1,-1.7211144E-1,4.3095204E-1,1.4215429E0,-2.6650703E-1,6.977693E-1,1.9317754E-1,1.1417372E-1,3.1547403E-1,1.0629098E0,7.780564E-2,-3.2477218E-1,6.337366E-1,9.51428E-2,-3.4323165E-1,-3.2695955E-1,2.3460282E-1,5.923488E-1,-2.6948798E-1],"split_indices":[27,17,27,36,17,19,33,21,17,21,17,21,27,27,22,32,45,27,27,34,29,24,42,33,21,29,27,0,33,33,0,22,0,16,5,31,27,17,27,31,0,22,43,36,32,21,0,22,34,33,21,1,0,21,31,34,27,0,0,0,0,0,0,0,0,0,0,0,0,0,0,0,0,0,0,0,0,0,0,0,0,0,0,0,0,0,0,0,0,0,0,0,0,0,0,0,0,0,0,0,0,0,0],"split_type":[0,0,0,0,0,0,0,0,0,0,0,0,0,0,0,0,0,0,0,0,0,0,0,0,0,0,0,0,0,0,0,0,0,0,0,0,0,0,0,0,0,0,0,0,0,0,0,0,0,0,0,0,0,0,0,0,0,0,0,0,0,0,0,0,0,0,0,0,0,0,0,0,0,0,0,0,0,0,0,0,0,0,0,0,0,0,0,0,0,0,0,0,0,0,0,0,0,0,0,0,0,0,0],"sum_hessian":[9.225854E3,4.756204E3,4.46965E3,4.0824302E3,6.73774E2,2.6390684E3,1.8305815E3,3.6365894E2,3.7187712E3,4.0446002E2,2.6931393E2,2.477569E3,1.6149911E2,1.7982622E3,3.2319347E1,2.0754643E2,1.561125E2,1.3716477E3,2.3471235E3,3.0925336E2,9.5206665E1,3.833282E1,2.3098112E2,3.3255304E2,2.145016E3,2.6345081E1,1.3515404E2,1.5048584E3,2.934038E2,5.239189E0,2.7080158E1,2.0579187E2,1.7545719E0,1.5399431E2,2.118203E0,8.5847125E2,5.1317645E2,2.2343984E3,1.1272507E2,2.707662E2,3.8487144E1,8.184588E1,1.3360787E1,1.8838995E1,1.9493824E1,2.2933693E2,1.644198E0,3.2128217E2,1.1270893E1,1.6199388E2,1.9830222E3,1.0975362E1,1.53697195E1,2.5211208E1,1.0994283E2,2.8737347E2,6.0303397E0,2.8636365E0,2.3755524E0,1.18653015E2,8.713885E1,1.30824E2,2.317031E1,1.0006157E0,1.1175872E0,2.5484517E2,6.036261E2,2.9870782E2,2.1446863E2,2.2201023E3,1.4296068E1,2.2549301E1,9.0175766E1,2.2417271E2,4.6593494E1,7.583112E1,6.014755E0,9.964656E0,3.3961318E0,1.0535223E0,1.7785473E1,1.1556346E1,7.937479E0,2.1045409E2,1.8882847E1,2.9312747E2,2.81547E1,8.601471E0,2.6694221E0,1.0167639E2,6.0317486E1,9.581897E2,1.0248325E3,9.839404E0,1.1359577E0,2.2245184E1,2.9660246E0,1.036581E0,1.0890625E2,2.8621683E2,1.1566441E0,2.244959E0,3.7853806E0],"tree_param":{"num_deleted":"0","num_feature":"57","num_nodes":"103","size_leaf_vector":"1"}},{"base_weights":[-4.2346373E-1,-7.545769E-1,-1.1556523E-1,-8.7671113E-1,-1.2460354E-1,3.642905E-1,-1.0701686E0,-4.823522E-1,-9.193373E-1,2.3469767E-1,-1.0384269E0,2.3234732E-1,8.243475E-1,-1.0783495E0,-6.2258357E-1,-1.009606E0,-2.3129277E-1,-7.525853E-1,-1.0185753E0,-4.2529875E-1,4.4279772E-1,-1.0579593E0,1.6227764E-1,4.205547E-1,-2.191918E-1,3.6794968E-2,1.3356837E0,-3.284221E-1,-9.915866E-1,8.580075E-1,-3.1444904E-1,-1.0612707E0,2.4747151E-1,5.7131505E-1,-4.88098E-1,-9.13467E-1,-5.059459E-1,-1.0368543E0,-6.7299515E-1,-8.135333E-1,1.2774823E0,7.1366817E-1,-1.5498672E-1,-3.2525796E-1,-7.3705083E-1,2.873818E-1,1.9865673E0,-8.9118683E-1,2.1700116E-1,-8.5392606E-1,7.0046157E-1,1.9673313E-1,1.5270208E0,3.5526756E-2,-1.039923E0,5.2623385E-1,-2.4576423E-1,-3.209769E-1,-5.3318746E-2,6.994584E-1,-2.694846E-1,1.2161403E-1,8.7445503E-1,1.19744994E-1,-1.9031243E-1,-1.750752E-1,-3.199029E-1,-2.682954E-1,6.9456133E-3,-3.1235892E-1,1.4892276E-2,1.0453171E-1,-2.7060324E-1,-2.862748E-1,-1.7759843E-2,7.154827E-1,-2.9667225E-1,3.257068E-1,4.6788417E-2,-3.4500858E-1,3.9767884E-3,4.3491736E-1,-3.0996698E-1,5.396871E-2,5.9414756E-1,7.178688E-1,-2.1818669E-1,4.1648995E-2,-3.4138507E-1,1.6415708E-1,-2.355842E-1,2.0125058E-1,-3.3935738E-1,2.7577174E-1,-3.5871118E-1,3.2324642E-1,-3.2697567E-1,2.4829043E-1,5.2433634E-1,-1.673019E-1,5.9662426E-1,1.6474116E-1,-3.1717402E-1],"categories":[],"categories_nodes":[],"categories_segments":[],"categories_sizes":[],"default_left":[0,0,0,0,0,0,0,0,0,0,0,0,0,0,0,0,0,0,0,0,0,0,0,0,0,1,0,0,0,0,0,0,0,0,0,0,0,0,0,0,0,0,0,0,0,0,0,0,0,0,0,0,0,0,0,0,0,0,0,0,0,0,0,0,0,0,0,0,0,0,0,0,0,0,0,0,0,0,0,0,0,0,0,0,0,0,0,0,0,0,0,0,0,0,0,0,0,0,0,0,0,0,0],"id":2,"left_children":[1,3,5,7,9,11,13,15,17,19,21,23,25,27,29,31,33,35,37,39,41,43,-1,45,47,49,51,-1,53,55,-1,57,59,61,63,65,67,69,71,73,75,77,79,-1,81,83,85,87,89,91,93,95,97,99,101,-1,-1,-1,-1,-1,-1,-1,-1,-1,-1,-1,-1,-1,-1,-1,-1,-1,-1,-1,-1,-1,-1,-1,-1,-1,-1,-1,-1,-1,-1,-1,-1,-1,-1,-1,-1,-1,-1,-1,-1,-1,-1,-1,-1,-1,-1,-1,-1],"loss_changes":[8.257772E2,3.001958E2,1.923695E3,5.450952E1,2.0873093E2,1.6946231E2,4.472412E0,4.2256325E1,4.8035156E1,6.2898796E1,6.1061554E0,1.847915E2,2.5064413E2,8.745117E-1,1.8278938E1,6.9679565E0,4.536515E1,4.3348206E1,1.0962891E1,7.373397E1,5.639898E1,6.9548035E-1,0E0,3.194136E2,1.8780211E2,1.460775E2,8.1949585E1,0E0,1.1436249E1,1.1518787E1,0E0,5.69397E-1,1.37627125E1,1.961738E1,2.183099E1,3.3014282E1,9.004834E1,8.314087E0,2.267395E1,9.513493E0,5.4579754E1,4.9502174E1,1.8299763E1,0E0,1.220998E1,2.57198E2,1.3415793E2,6.423999E1,1.2913977E2,4.5371292E1,5.9829086E1,6.3993084E1,4.842389E1,1.4186423E1,6.6181183E0,0E0,0E0,0E0,0E0,0E0,0E0,0E0,0E0,0E0,0E0,0E0,0E0,0E0,0E0,0E0,0E0,0E0,0E0,0E0,0E0,0E0,0E0,0E0,0E0,0E0,0E0,0E0,0E0,0E0,0E0,0E0,0E0,0E0,0E0,0E0,0E0,0E0,0E0,0E0,0E0,0E0,0E0,0E0,0E0,0E0,0E0,0E0,0E0],"parents":[2147483647,0,0,1,1,2,2,3,3,4,4,5,5,6,6,7,7,8,8,9,9,10,10,11,11,12,12,13,13,14,14,15,15,16,16,17,17,18,18,19,19,20,20,21,21,23,23,24,24,25,25,26,26,28,28,29,29,31,31,32,32,33,33,34,34,35,35,36,36,37,37,38,38,39,39,40,40,41,41,42,42,44,44,45,45,46,46,47,47,48,48,49,49,50,50,51,51,52,52,53,53,54,54],"right_children":[2,4,6,8,10,12,14,16,18,20,22,24,26,28,30,32,34,36,38,40,42,44,-1,46,48,50,52,-1,54,56,-1,58,60,62,64,66,68,70,72,74,76,78,80,-1,82,84,86,88,90,92,94,96,98,100,102,-1,-1,-1,-1,-1,-1,-1,-1,-1,-1,-1,-1,-1,-1,-1,-1,-1,-1,-1,-1,-1,-1,-1,-1,-1,-1,-1,-1,-1,-1,-1,-1,-1,-1,-1,-1,-1,-1,-1,-1,-1,-1,-1,-1,-1,-1,-1,-1],"split_conditions":[1.494E3,3.5E1,2.135E3,5E0,4E1,6.1E1,1.7854E2,1.1907E2,7.05E0,5.05E0,8.3E2,1.570725E4,1.670328E4,2.692E3,1.2E1,6.2E1,1.3E1,1.83E2,2.86E2,4.72882E3,2.030314E4,9.943E3,1.6227764E-1,9.51926E3,4.796E3,1.1E1,2.134E3,-3.284221E-1,1.1E1,1.9375E2,-3.1444904E-1,1.126E1,2.162E2,1.9375E2,5.437E1,4.6228E2,2E0,8.3E2,5.29E2,1E0,1.5E1,8.11E0,4.51263E3,-3.2525796E-1,4.5251E2,1.0104E4,4.7E1,2.126E3,4.3E1,4.946E3,1.2285E2,1.8E1,6.3E1,9.591E1,2.658E3,5.2623385E-1,-2.4576423E-1,-3.209769E-1,-5.3318746E-2,6.994584E-1,-2.694846E-1,1.2161403E-1,8.7445503E-1,1.19744994E-1,-1.9031243E-1,-1.750752E-1,-3.199029E-1,-2.682954E-1,6.9456133E-3,-3.1235892E-1,1.4892276E-2,1.0453171E-1,-2.7060324E-1,-2.862748E-1,-1.7759843E-2,7.154827E-1,-2.9667225E-1,3.257068E-1,4.6788417E-2,-3.4500858E-1,3.9767884E-3,4.3491736E-1,-3.0996698E-1,5.396871E-2,5.9414756E-1,7.178688E-1,-2.1818669E-1,4.1648995E-2,-3.4138507E-1,1.6415708E-1,-2.355842E-1,2.0125058E-1,-3.3935738E-1,2.7577174E-1,-3.5871118E-1,3.2324642E-1,-3.2697567E-1,2.4829043E-1,5.2433634E-1,-1.673019E-1,5.9662426E-1,1.6474116E-1,-3.1717402E-1],"split_indices":[27,17,27,36,17,22,33,32,17,20,42,29,29,27,22,55,22,27,27,29,29,21,0,31,21,36,27,0,36,33,0,34,0,33,0,31,24,42,27,18,34,20,32,0,31,21,22,27,22,21,33,19,22,33,21,0,0,0,0,0,0,0,0,0,0,0,0,0,0,0,0,0,0,0,0,0,0,0,0,0,0,0,0,0,0,0,0,0,0,0,0,0,0,0,0,0,0,0,0,0,0,0,0],"split_type":[0,0,0,0,0,0,0,0,0,0,0,0,0,0,0,0,0,0,0,0,0,0,0,0,0,0,0,0,0,0,0,0,0,0,0,0,0,0,0,0,0,0,0,0,0,0,0,0,0,0,0,0,0,0,0,0,0,0,0,0,0,0,0,0,0,0,0,0,0,0,0,0,0,0,0,0,0,0,0,0,0,0,0,0,0,0,0,0,0,0,0,0,0,0,0,0,0,0,0,0,0,0,0],"sum_hessian":[8.099739E3,3.9020422E3,4.1976963E3,3.2680645E3,6.339777E2,2.793893E3,1.4038033E3,3.199881E2,2.9480764E3,4.5558997E2,1.7838777E2,2.1723684E3,6.215248E2,1.3772214E3,2.6581877E1,1.0224352E2,2.1774458E2,1.103098E3,1.8449784E3,1.089638E2,3.4662616E2,1.7653462E2,1.8531432E0,1.5333265E3,6.390418E2,2.4509892E2,3.7642584E2,1.148614E3,2.2860742E2,5.7079263E0,2.0873951E1,9.83569E1,3.8866189E0,5.2485134E1,1.6525945E2,6.659792E2,4.371188E2,1.7503934E3,9.458501E1,8.915799E1,1.9805815E1,2.384052E2,1.0822096E2,1.6099501E2,1.5539619E1,1.4142435E3,1.19083015E2,2.5112215E2,3.8791968E2,1.0452586E2,1.4057306E2,5.443357E1,3.2199228E2,1.0286717E1,2.1832071E2,3.6903844E0,2.017542E0,9.719415E1,1.1627486E0,1.0116177E0,2.8750012E0,5.011005E1,2.3750846E0,2.3144821E1,1.4211462E2,2.1242209E2,4.5355707E2,2.5168501E2,1.854338E2,1.7434675E3,6.925852E0,1.7227415E1,7.735759E1,7.491759E1,1.4240401E1,1.3269453E1,6.536361E0,1.424419E2,9.59633E1,1.4807727E1,9.341323E1,1.3890163E0,1.4150603E1,1.3308608E3,8.338269E1,1.036782E2,1.5404816E1,4.8618923E1,2.0250322E2,2.9213388E2,9.578577E1,1.5864257E1,8.8661606E1,1.26493576E2,1.4079485E1,3.2410263E1,2.2023308E1,7.8393105E1,2.4359917E2,8.438425E0,1.8482927E0,2.023376E0,2.1629733E2],"tree_param":{"num_deleted":"0","num_feature":"57","num_nodes":"103","size_leaf_vector":"1"}},{"base_weights":[-3.6732695E-1,-2.47681E-1,-1.0375172E0,-6.750506E-1,2.4978046E-1,-3.2019377E-1,-8.8991535E-1,-8.027056E-1,-1.2474467E-1,3.0112422E-1,-7.071255E-1,-3.1953245E-1,-2.3642838E-1,-6.2843245E-1,-9.2555225E-1,1.3105111E-1,-9.9647653E-1,9.575143E-1,2.3768273E-1,5.019694E-1,-9.741267E-1,-8.0895287E-1,1.3462824E0,-6.87416E-1,9.116419E-1,-1.0416409E0,-7.735511E-1,-3.5432613E-1,2.75583E-1,4.907485E-1,-1.0229117E0,-4.033467E-1,1.1218622E0,1.12372525E-1,6.7431545E-1,1.4056077E0,-2.953014E-1,-5.7892853E-1,-1.0643014E0,1.5099366E-1,-3.1117755E-1,-2.2444884E-1,3.1445022E0,-2.7034312E-1,-1.4740631E-1,-4.5628328E-2,2.0204697E0,-1.2243056E-1,-3.1541693E-1,-2.8951276E-2,-3.0043268E-1,-6.281172E-2,-2.8506255E-1,-1.1357959E-1,1.1749258E-1,-1.6379221E-1,3.8559768E-1,-1.964796E-1,-3.1716955E-1,-2.3036884E-1,4.0275958E-1,1.0224922E-1,3.954222E-1,-4.5791134E-2,9.142615E-2,-1.2741791E-2,3.3917132E-1,4.8739177E-1,-1.06322475E-1,-3.019196E-1,3.3698893E-1,4.6937324E-2,-3.244449E-1,-2.5628603E-1,5.1108515E-1,-2.6552904E-1,3.3868518E-1,1.4738916E0,3.0380917E-1],"categories":[],"categories_nodes":[],"categories_segments":[],"categories_sizes":[],"default_left":[0,0,0,0,0,0,0,0,0,0,0,0,0,0,0,0,0,0,0,0,0,0,0,0,0,0,0,0,0,0,0,0,0,0,0,0,0,0,0,0,0,0,0,0,0,0,0,0,0,0,0,0,0,0,0,0,0,0,0,0,0,0,0,0,0,0,0,0,0,0,0,0,0,0,0,0,0,0,0],"id":3,"left_children":[1,3,5,7,9,-1,11,13,15,17,19,-1,21,23,25,27,29,31,33,35,37,39,41,43,45,47,49,51,53,55,57,59,61,63,65,67,-1,69,71,73,-1,75,77,-1,-1,-1,-1,-1,-1,-1,-1,-1,-1,-1,-1,-1,-1,-1,-1,-1,-1,-1,-1,-1,-1,-1,-1,-1,-1,-1,-1,-1,-1,-1,-1,-1,-1,-1,-1],"loss_changes":[5.659712E2,1.2743018E3,3.7530518E0,2.263783E2,1.363149E2,0E0,2.0999847E1,5.5439087E1,1.3575589E2,1.09283875E2,4.6126183E1,0E0,3.781398E1,9.918823E1,2.6239502E1,3.3148205E1,5.9314423E0,5.2216248E1,1.3120439E2,3.6613655E1,3.5225525E0,6.8163433E0,3.217543E1,4.337021E1,2.5160158E2,4.920288E0,1.0290515E2,9.175931E0,2.7753187E1,3.2452137E0,1.0253143E0,1.7371853E1,3.1237762E1,9.515611E1,1.7496312E2,7.023155E0,0E0,1.8425938E1,2.1275253E0,1.1930707E1,0E0,7.1510854E0,1.4859741E1,0E0,0E0,0E0,0E0,0E0,0E0,0E0,0E0,0E0,0E0,0E0,0E0,0E0,0E0,0E0,0E0,0E0,0E0,0E0,0E0,0E0,0E0,0E0,0E0,0E0,0E0,0E0,0E0,0E0,0E0,0E0,0E0,0E0,0E0,0E0,0E0],"parents":[2147483647,0,0,1,1,2,2,3,3,4,4,6,6,7,7,8,8,9,9,10,10,12,12,13,13,14,14,15,15,16,16,17,17,18,18,19,19,20,20,21,21,22,22,23,23,24,24,25,25,26,26,27,27,28,28,29,29,30,30,31,31,32,32,33,33,34,34,35,35,37,37,38,38,39,39,41,41,42,42],"right_children":[2,4,6,8,10,-1,12,14,16,18,20,-1,22,24,26,28,30,32,34,36,38,40,42,44,46,48,50,52,54,56,58,60,62,64,66,68,-1,70,72,74,-1,76,78,-1,-1,-1,-1,-1,-1,-1,-1,-1,-1,-1,-1,-1,-1,-1,-1,-1,-1,-1,-1,-1,-1,-1,-1,-1,-1,-1,-1,-1,-1,-1,-1,-1,-1,-1,-1],"split_conditions":[2.135E3,1.494E3,2.692E3,3.025E1,3.9E1,-3.2019377E-1,1E0,2.1E1,4E1,2.1089E2,2.074E3,-3.1953245E-1,1.766E2,2E1,1.83E2,5.5E1,4.603E1,2.134E3,6.1E1,6.33E3,2.126E3,1.1E1,1E0,8.02E0,2.1E2,2.48E0,2.75E2,2.32E2,9.9338E2,3.565E1,7.1654E2,1.6244E2,2.6E1,4.946E3,1.670328E4,1.95E2,-2.953014E-1,9.621E3,1.239E2,9.591E1,-3.1117755E-1,2E1,1.8E-1,-2.7034312E-1,-1.4740631E-1,-4.5628328E-2,2.0204697E0,-1.2243056E-1,-3.1541693E-1,-2.8951276E-2,-3.0043268E-1,-6.281172E-2,-2.8506255E-1,-1.1357959E-1,1.1749258E-1,-1.6379221E-1,3.8559768E-1,-1.964796E-1,-3.1716955E-1,-2.3036884E-1,4.0275958E-1,1.0224922E-1,3.954222E-1,-4.5791134E-2,9.142615E-2,-1.2741791E-2,3.3917132E-1,4.8739177E-1,-1.06322475E-1,-3.019196E-1,3.3698893E-1,4.6937324E-2,-3.244449E-1,-2.5628603E-1,5.1108515E-1,-2.6552904E-1,3.3868518E-1,1.4738916E0,3.0380917E-1],"split_indices":[27,27,27,17,19,0,37,36,17,29,27,0,35,36,27,41,32,27,22,29,27,19,26,20,14,32,27,43,31,0,29,31,22,21,29,46,0,21,31,33,0,19,4,0,0,0,0,0,0,0,0,0,0,0,0,0,0,0,0,0,0,0,0,0,0,0,0,0,0,0,0,0,0,0,0,0,0,0,0],"split_type":[0,0,0,0,0,0,0,0,0,0,0,0,0,0,0,0,0,0,0,0,0,0,0,0,0,0,0,0,0,0,0,0,0,0,0,0,0,0,0,0,0,0,0,0,0,0,0,0,0,0,0,0,0,0,0,0,0,0,0,0,0,0,0,0,0,0,0,0,0,0,0,0,0,0,0,0,0,0,0],"sum_hessian":[7.0604756E3,5.992103E3,1.0683726E3,3.2229268E3,2.7691763E3,8.837463E2,1.8462628E2,2.6157017E3,6.072253E2,2.62881E3,1.4036615E2,1.4509735E2,3.9528923E1,1.0840123E3,1.5316893E3,4.7012445E2,1.3710083E2,2.3044496E2,2.3983652E3,2.5230715E1,1.1513544E2,2.9387331E1,1.0141593E1,1.0445602E3,3.9452156E1,8.651163E2,6.6657306E2,1.0753644E2,3.6258798E2,2.0876372E0,1.350132E2,2.467475E1,2.057702E2,1.8645198E3,5.338454E2,1.572475E1,9.505965E0,2.2768908E1,9.236653E1,5.7114186E0,2.3675913E1,5.880342E0,4.261251E0,4.9804395E2,5.465162E2,3.4182003E1,5.2701564E0,1.376003E1,8.513562E2,1.6822197E2,4.9835107E2,8.758256E1,1.9953884E1,5.4293465E1,3.0829453E2,1.0415509E0,1.0460863E0,1.3231221E1,1.21781975E2,2.0875908E1,3.7988422E0,4.1864265E1,1.6390594E2,7.843148E2,1.0802051E3,2.0799202E2,3.2585336E2,1.4052815E1,1.6719345E0,1.8525482E1,4.2434254E0,1.169458E0,9.119707E1,3.7397885E0,1.9716301E0,4.18399E0,1.696352E0,1.616037E0,2.6452138E0],"tree_param":{"num_deleted":"0","num_feature":"57","num_nodes":"79","size_leaf_vector":"1"}},{"base_weights":[-3.117131E-1,-2.0746732E-1,-1.0127674E0,-5.935488E-1,1.7596807E-1,-3.1424809E-1,-8.461892E-1,-7.262356E-1,-1.0418282E-1,2.1211964E-1,-6.4010257E-1,-3.1295723E-1,-2.1029672E-1,-2.7289373E-1,-7.8615373E-1,8.691658E-2,-9.564308E-1,1.9767892E-1,2.1819084E0,3.712425E-1,-8.939397E-1,-7.5456226E-1,8.906976E-1,5.098567E-2,-8.242235E-1,-5.7311755E-1,-9.3763196E-1,2.0901139E-1,-3.8493574E-1,3.8851944E-1,-9.8806244E-1,-3.0020937E-1,2.5785863E-1,-3.2891637E-1,2.797572E0,1.0072212E0,-2.8157008E-1,-5.002597E-1,-9.912942E-1,1.249992E-1,-3.0122402E-1,-2.8713572E-1,1.7437172E0,-9.394754E-2,3.5159287E-1,-2.611808E-1,1.4435263E-1,-2.3534967E-1,-9.265545E-2,-2.9057923E-1,-1.3132189E-1,8.838839E-2,-1.8495645E-1,-2.250607E-1,2.243486E-1,-1.7200008E-1,3.6853844E-1,-3.0974406E-1,-1.5467954E-1,7.3692076E-2,-2.2683588E-1,7.213816E-2,5.5725485E-1,1.1828473E0,5.604437E-1,1.0415369E-1,4.6347743E-1,-2.78047E-1,2.2953631E-1,-3.081976E-1,-5.583174E-2,-2.393427E-1,3.6468968E-1,3.7011385E-1,-2.6432964E-1,1.9079155E-1,6.218046E-1],"categories":[],"categories_nodes":[],"categories_segments":[],"categories_sizes":[],"default_left":[0,0,0,0,0,0,0,0,0,0,0,0,0,0,0,1,0,0,0,0,0,0,0,0,0,0,0,0,0,0,0,0,0,0,0,0,0,0,0,0,0,0,0,0,0,0,0,0,0,0,0,0,0,0,0,0,0,0,0,0,0,0,0,0,0,0,0,0,0,0,0,0,0,0,0,0,0],"id":4,"left_children":[1,3,5,7,9,-1,11,13,15,17,19,-1,21,23,25,27,29,31,33,35,37,39,41,43,45,47,49,51,53,55,57,59,61,-1,63,65,-1,67,69,71,-1,73,75,-1,-1,-1,-1,-1,-1,-1,-1,-1,-1,-1,-1,-1,-1,-1,-1,-1,-1,-1,-1,-1,-1,-1,-1,-1,-1,-1,-1,-1,-1,-1,-1,-1,-1],"loss_changes":[4.5726904E2,8.0701697E2,3.7996216E0,1.7629553E2,8.08395E1,0E0,1.7938225E1,5.7824707E1,9.463412E1,7.410127E1,3.0185558E1,0E0,2.196643E1,4.485592E1,6.0347412E1,2.7453293E1,4.9111786E0,7.804809E1,4.135424E1,2.0969446E1,3.078125E0,5.463314E0,1.2772495E1,6.528604E1,6.0452576E0,4.369876E1,1.6620178E1,2.6906298E1,4.1119102E1,3.2597542E0,1.6555023E0,7.013435E1,6.418182E1,0E0,9.933289E0,5.3777046E0,0E0,1.177828E1,1.9482727E0,7.274427E0,0E0,6.497014E0,1.3147869E0,0E0,0E0,0E0,0E0,0E0,0E0,0E0,0E0,0E0,0E0,0E0,0E0,0E0,0E0,0E0,0E0,0E0,0E0,0E0,0E0,0E0,0E0,0E0,0E0,0E0,0E0,0E0,0E0,0E0,0E0,0E0,0E0,0E0,0E0],"parents":[2147483647,0,0,1,1,2,2,3,3,4,4,6,6,7,7,8,8,9,9,10,10,12,12,13,13,14,14,15,15,16,16,17,17,18,18,19,19,20,20,21,21,22,22,23,23,24,24,25,25,26,26,27,27,28,28,29,29,30,30,31,31,32,32,34,34,35,35,37,37,38,38,39,39,41,41,42,42],"right_children":[2,4,6,8,10,-1,12,14,16,18,20,-1,22,24,26,28,30,32,34,36,38,40,42,44,46,48,50,52,54,56,58,60,62,-1,64,66,-1,68,70,72,-1,74,76,-1,-1,-1,-1,-1,-1,-1,-1,-1,-1,-1,-1,-1,-1,-1,-1,-1,-1,-1,-1,-1,-1,-1,-1,-1,-1,-1,-1,-1,-1,-1,-1,-1,-1],"split_conditions":[2.135E3,1.494E3,2.692E3,3.025E1,3.9E1,-3.1424809E-1,1E0,5E0,4E1,2.4266E2,2.074E3,-3.1295723E-1,1.766E2,9.638E3,7.14E0,3.9E1,4.603E1,3.311E3,1E0,6.33E3,2.126E3,1.1E1,2.2E1,8.984E3,6E0,1.83E2,2.86E2,2.76E2,1.52399E3,5.98E2,9.943E3,2.08807E3,6.220403E4,-3.2891637E-1,1.1E1,7.62E0,-2.8157008E-1,9.621E3,6.43E2,9.591E1,-3.0122402E-1,1.89606E3,1.5469E3,-9.394754E-2,3.5159287E-1,-2.611808E-1,1.4435263E-1,-2.3534967E-1,-9.265545E-2,-2.9057923E-1,-1.3132189E-1,8.838839E-2,-1.8495645E-1,-2.250607E-1,2.243486E-1,-1.7200008E-1,3.6853844E-1,-3.0974406E-1,-1.5467954E-1,7.3692076E-2,-2.2683588E-1,7.213816E-2,5.5725485E-1,1.1828473E0,5.604437E-1,1.0415369E-1,4.6347743E-1,-2.78047E-1,2.2953631E-1,-3.081976E-1,-5.583174E-2,-2.393427E-1,3.6468968E-1,3.7011385E-1,-2.6432964E-1,1.9079155E-1,6.218046E-1],"split_indices":[27,27,27,17,19,0,37,36,17,33,27,0,35,21,17,36,32,21,26,29,27,19,19,21,12,27,27,6,32,42,21,31,29,0,19,6,0,21,42,33,0,29,31,0,0,0,0,0,0,0,0,0,0,0,0,0,0,0,0,0,0,0,0,0,0,0,0,0,0,0,0,0,0,0,0,0,0],"split_type":[0,0,0,0,0,0,0,0,0,0,0,0,0,0,0,0,0,0,0,0,0,0,0,0,0,0,0,0,0,0,0,0,0,0,0,0,0,0,0,0,0,0,0,0,0,0,0,0,0,0,0,0,0,0,0,0,0,0,0,0,0,0,0,0,0,0,0,0,0,0,0,0,0,0,0,0,0],"sum_hessian":[6.25881E3,5.449738E3,8.0907245E2,2.715226E3,2.7345117E3,6.651268E2,1.4394566E2,2.1356746E3,5.795515E2,2.6192214E3,1.152903E2,1.0940968E2,3.4535984E1,2.4996773E2,1.8857069E3,4.7413446E2,1.0541706E2,2.6012517E3,1.7969673E1,2.3038223E1,9.2252075E1,2.3321758E1,1.1214224E1,1.580365E2,9.193122E1,7.856153E2,1.1000916E3,3.7711148E2,9.702298E1,2.163057E0,1.03254005E2,2.80078E2,2.3211738E3,2.7176828E0,1.5251989E1,1.5663713E1,7.374509E0,1.9507336E1,7.274474E1,5.264212E0,1.8057547E1,4.9889565E0,6.2252674E0,1.19831055E2,3.820545E1,8.909874E1,2.8324802E0,4.3538812E2,3.5022717E2,1.0350393E3,6.5052216E1,3.422587E2,3.4852776E1,7.362113E1,2.3401846E1,1.1563195E0,1.0067375E0,9.329753E1,9.956473E0,1.27675995E2,1.52402E2,2.297338E3,2.3835863E1,5.380209E0,9.87178E0,7.770695E0,7.8930187E0,1.4789354E1,4.717981E0,6.9364876E1,3.3798656E0,2.9969325E0,2.2672796E0,1.0986824E0,3.890274E0,2.0970337E0,4.128234E0],"tree_param":{"num_deleted":"0","num_feature":"57","num_nodes":"77","size_leaf_vector":"1"}},{"base_weights":[-2.5789595E-1,-1.6927913E-1,-9.931221E-1,-5.117601E-1,1.1948209E-1,-3.0985802E-1,-8.077263E-1,-3.6530957E-1,-9.476785E-1,1.6667567E-1,-4.8123565E-1,-3.0783972E-1,-1.801731E-1,-6.569183E-1,8.776427E-2,-3.1310818E-1,-7.9686207E-1,1.0806533E-1,1.2533277E0,-8.8780713E-1,1.0624297E0,-7.058984E-1,7.11613E-1,-3.2429823E-1,-9.8743594E-1,-7.544705E-1,2.5685102E-1,8.0085903E-1,-9.691654E-1,1.5693603E-1,-9.997164E-1,3.9331808E0,9.61095E-1,-1.3108573E0,1.1335367E0,4.5601428E-1,-9.618954E-2,1.0115216E-1,-2.9207236E-1,-2.2852534E-1,1.3190796E0,-2.7514768E-1,-7.9312045E-3,-5.3355973E-2,-3.015548E-1,4.8626116E-1,-2.384377E-1,2.0445655E-1,5.4469146E-3,1.4485492E0,-6.629445E-2,1.8768331E-1,-2.9909042E-1,2.7408985E-2,5.121281E-1,5.530187E-1,-3.4651306E-1,-2.6567206E-1,1.6365224E0,-3.0466056E-1,3.4996766E-1,-3.5076472E-1,-5.9639364E-1,6.2612396E-1,-3.4200928E-1,-4.29513E-1,2.2721425E-1,-2.384665E-1,2.986375E-1,3.5951713E-1,-2.533522E-1,7.5799696E-2,4.4003156E-1],"categories":[],"categories_nodes":[],"categories_segments":[],"categories_sizes":[],"default_left":[0,0,0,0,0,0,0,0,0,0,0,0,0,0,0,0,0,0,0,0,0,0,0,0,0,0,0,0,0,0,0,0,0,0,0,0,0,0,0,0,0,0,0,0,0,0,0,0,0,0,0,0,0,0,0,0,0,0,0,0,0,0,0,0,0,0,0,0,0,0,0,0,0],"id":5,"left_children":[1,3,5,7,9,-1,11,13,15,17,19,-1,21,23,25,-1,27,29,31,33,35,37,39,41,43,45,47,49,51,53,55,57,59,61,63,-1,65,67,-1,69,71,-1,-1,-1,-1,-1,-1,-1,-1,-1,-1,-1,-1,-1,-1,-1,-1,-1,-1,-1,-1,-1,-1,-1,-1,-1,-1,-1,-1,-1,-1,-1,-1],"loss_changes":[3.700912E2,5.0173782E2,3.6676025E0,1.4781104E2,7.8129745E1,0E0,1.5227325E1,2.2978351E2,7.6102905E0,1.6248044E2,1.269608E2,0E0,1.4681842E1,1.15993164E2,9.7283844E1,0E0,6.436928E1,1.3137163E2,9.8476944E1,1.3785786E2,2.2581524E1,4.3173494E0,6.9918633E0,9.335885E1,7.4386597E0,1.222995E1,5.7616657E1,9.586773E1,9.889114E0,2.3588757E2,4.7412888E1,9.661366E1,4.953714E1,1.0368042E1,6.3377834E1,0E0,1.5814118E1,5.414918E0,0E0,5.802948E0,7.7352333E-1,0E0,0E0,0E0,0E0,0E0,0E0,0E0,0E0,0E0,0E0,0E0,0E0,0E0,0E0,0E0,0E0,0E0,0E0,0E0,0E0,0E0,0E0,0E0,0E0,0E0,0E0,0E0,0E0,0E0,0E0,0E0,0E0],"parents":[2147483647,0,0,1,1,2,2,3,3,4,4,6,6,7,7,8,8,9,9,10,10,12,12,13,13,14,14,16,16,17,17,18,18,19,19,20,20,21,21,22,22,23,23,24,24,25,25,26,26,27,27,28,28,29,29,30,30,31,31,32,32,33,33,34,34,36,36,37,37,39,39,40,40],"right_children":[2,4,6,8,10,-1,12,14,16,18,20,-1,22,24,26,-1,28,30,32,34,36,38,40,42,44,46,48,50,52,54,56,58,60,62,64,-1,66,68,-1,70,72,-1,-1,-1,-1,-1,-1,-1,-1,-1,-1,-1,-1,-1,-1,-1,-1,-1,-1,-1,-1,-1,-1,-1,-1,-1,-1,-1,-1,-1,-1,-1,-1],"split_conditions":[2.135E3,1.494E3,2.692E3,2.75E2,1.041528E4,-3.0985802E-1,1E0,1.83E2,2.86E2,4.127739E4,6.3E1,-3.0783972E-1,1.766E2,2.1E1,1.2381E2,-3.1310818E-1,5.29E2,2.291967E4,3.310974E4,6.220403E4,1.6E1,1.1E1,2.2E1,8.02E0,1.7055E2,4.27E1,3.9E1,5.05E0,2E0,1.956614E4,1.1E1,1.2E1,4.0364E3,6E1,4.3E1,4.5601428E-1,4.11E1,6.0615E2,-2.9207236E-1,1E0,8E0,-2.7514768E-1,-7.9312045E-3,-5.3355973E-2,-3.015548E-1,4.8626116E-1,-2.384377E-1,2.0445655E-1,5.4469146E-3,1.4485492E0,-6.629445E-2,1.8768331E-1,-2.9909042E-1,2.7408985E-2,5.121281E-1,5.530187E-1,-3.4651306E-1,-2.6567206E-1,1.6365224E0,-3.0466056E-1,3.4996766E-1,-3.5076472E-1,-5.9639364E-1,6.2612396E-1,-3.4200928E-1,-4.29513E-1,2.2721425E-1,-2.384665E-1,2.986375E-1,3.5951713E-1,-2.533522E-1,7.5799696E-2,4.4003156E-1],"split_indices":[27,27,27,27,32,0,37,27,27,29,22,0,35,36,32,0,27,31,31,29,20,19,19,20,29,29,36,20,22,31,19,6,32,22,22,0,6,29,0,25,42,0,0,0,0,0,0,0,0,0,0,0,0,0,0,0,0,0,0,0,0,0,0,0,0,0,0,0,0,0,0,0,0],"split_type":[0,0,0,0,0,0,0,0,0,0,0,0,0,0,0,0,0,0,0,0,0,0,0,0,0,0,0,0,0,0,0,0,0,0,0,0,0,0,0,0,0,0,0,0,0,0,0,0,0,0,0,0,0,0,0,0,0,0,0,0,0,0,0,0,0,0,0,0,0,0,0,0,0],"sum_hessian":[5.681885E3,5.0718096E3,6.10075E2,2.3197417E3,2.7520679E3,4.986275E2,1.11447525E2,1.7377631E3,5.819786E2,2.5522783E3,1.9978952E2,8.220335E1,2.924418E1,1.0570023E3,6.807608E2,3.5197662E2,2.3000195E2,2.422705E3,1.2957312E2,1.5847513E2,4.13144E1,1.8529263E1,1.0714917E1,5.2781305E2,5.291893E2,1.132402E2,5.675206E2,2.2034464E1,2.0796748E2,2.3211636E3,1.01541725E2,1.1515332E1,1.18057785E2,1.3133856E2,2.7136562E1,2.9393105E1,1.1921295E1,4.7699246E0,1.3759338E1,4.450681E0,6.2642365E0,1.7580754E2,3.5200552E2,1.1587821E1,5.1760144E2,1.2358929E0,1.120043E2,2.0353984E2,3.6398074E2,3.7051454E0,1.8329319E1,3.195053E0,2.0477243E2,2.2279773E3,9.3186066E1,4.6971474E0,9.6844574E1,2.8642857E0,8.651047E0,1.0744972E1,1.0731281E2,1.1087273E2,2.0465841E1,1.917607E1,7.9604936E0,4.3842516E0,7.537044E0,2.4381819E0,2.3317428E0,1.0568961E0,3.3937848E0,1.0917802E0,5.1724563E0],"tree_param":{"num_deleted":"0","num_feature":"57","num_nodes":"73","size_leaf_vector":"1"}},{"base_weights":[-2.1551539E-1,-1.411989E-1,-9.7643054E-1,-3.8318622E-1,1.6155958E-1,-3.065021E-1,-7.7163535E-1,-3.3083436E-1,-1.1718098E0,8.630242E-2,1.359681E0,-3.035995E-1,-1.5637645E-1,-4.3979043E-1,1.5962759E-1,-1.1843894E0,1.1885962E-1,-6.9548535E-1,1.6940221E-1,3.1192142E-1,1.3956062E0,-2.830651E-1,3.4659326E-1,-3.031125E-1,-9.140997E-1,4.606742E-1,-7.5653744E-1,-1.2082063E0,-3.9977384E-1,1.3818785E0,-9.255355E-1,5.148707E-1,4.2132378E-2,-3.520765E-1,3.9050534E-1,1.4155471E0,-4.6764985E-2,3.880269E-1,1.3664507E-3,-1.729492E-1,1.7240731E-2,-3.091211E-1,-2.231246E-1,-9.379868E-3,3.4013128E-1,6.692832E-2,-3.8537046E-1,-3.7056255E-1,-1.974133E-1,-2.455195E-1,2.2681525E-1,5.13273E-1,-1.8442957E-1,-8.964497E-2,-3.472561E-1,1.2579107E-1,7.00571E-1,-6.7790866E-2,1.0773225E-1,3.9347172E-1,5.685529E-1,2.26903E-1,-1.3373955E-1],"categories":[],"categories_nodes":[],"categories_segments":[],"categories_sizes":[],"default_left":[0,0,0,0,0,0,0,0,0,0,0,0,0,0,0,0,0,0,0,0,0,0,0,0,0,0,0,0,0,0,0,0,0,0,0,0,0,0,0,0,0,0,0,0,0,0,0,0,0,0,0,0,0,0,0,0,0,0,0,0,0,0,0],"id":6,"left_children":[1,3,5,7,9,-1,11,13,15,17,19,-1,21,23,25,27,-1,29,31,33,35,-1,37,39,41,43,45,47,49,51,53,55,57,-1,-1,59,-1,-1,61,-1,-1,-1,-1,-1,-1,-1,-1,-1,-1,-1,-1,-1,-1,-1,-1,-1,-1,-1,-1,-1,-1,-1,-1],"loss_changes":[2.9242087E2,3.454582E2,3.4752808E0,1.0780112E2,1.8877829E2,0E0,1.2759533E1,1.3146243E2,3.6791687E0,1.2824481E2,4.222534E0,0E0,1.051072E1,1.3016147E2,1.2381652E2,2.5385437E0,0E0,9.193066E1,7.839542E1,9.452697E0,3.913269E0,0E0,5.3671064E0,1.5415677E2,8.1414795E0,1.1181051E2,5.7753605E1,1.5110474E0,3.64673E0,1.3739738E1,2.4570251E1,8.253655E1,1.109354E2,0E0,0E0,3.3958893E0,0E0,0E0,4.738617E0,0E0,0E0,0E0,0E0,0E0,0E0,0E0,0E0,0E0,0E0,0E0,0E0,0E0,0E0,0E0,0E0,0E0,0E0,0E0,0E0,0E0,0E0,0E0,0E0],"parents":[2147483647,0,0,1,1,2,2,3,3,4,4,6,6,7,7,8,8,9,9,10,10,12,12,13,13,14,14,15,15,17,17,18,18,19,19,20,20,22,22,23,23,24,24,25,25,26,26,27,27,28,28,29,29,30,30,31,31,32,32,35,35,38,38],"right_children":[2,4,6,8,10,-1,12,14,16,18,20,-1,22,24,26,28,-1,30,32,34,36,-1,38,40,42,44,46,48,50,52,54,56,58,-1,-1,60,-1,-1,62,-1,-1,-1,-1,-1,-1,-1,-1,-1,-1,-1,-1,-1,-1,-1,-1,-1,-1,-1,-1,-1,-1,-1,-1],"split_conditions":[2.135E3,2.134E3,2.692E3,2.126E3,1.0105E4,-3.065021E-1,1E0,1.494E3,9.332E1,2.2E1,5E0,-3.035995E-1,6.075E1,2.75E2,3E1,5.83E2,1.1885962E-1,9.325E1,8.3623E2,1.7599E2,6.97E2,-2.830651E-1,5.05E0,1.83E2,2.86E2,4.017E1,8.6917E2,2.205E1,2.5565E2,2.1E1,1E0,7.633E1,9.51926E3,-3.520765E-1,3.9050534E-1,6.991E1,-4.6764985E-2,3.880269E-1,1.2E1,-1.729492E-1,1.7240731E-2,-3.091211E-1,-2.231246E-1,-9.379868E-3,3.4013128E-1,6.692832E-2,-3.8537046E-1,-3.7056255E-1,-1.974133E-1,-2.455195E-1,2.2681525E-1,5.13273E-1,-1.8442957E-1,-8.964497E-2,-3.472561E-1,1.2579107E-1,7.00571E-1,-6.7790866E-2,1.0773225E-1,3.9347172E-1,5.685529E-1,2.26903E-1,-1.3373955E-1],"split_indices":[27,27,27,27,21,0,37,27,33,22,19,0,35,27,19,45,0,29,29,32,45,0,20,27,27,6,32,20,0,1,24,35,31,0,0,33,0,0,22,0,0,0,0,0,0,0,0,0,0,0,0,0,0,0,0,0,0,0,0,0,0,0,0],"split_type":[0,0,0,0,0,0,0,0,0,0,0,0,0,0,0,0,0,0,0,0,0,0,0,0,0,0,0,0,0,0,0,0,0,0,0,0,0,0,0,0,0,0,0,0,0,0,0,0,0,0,0,0,0,0,0,0,0,0,0,0,0,0,0],"sum_hessian":[5.172587E3,4.7134253E3,4.5916162E2,2.6194768E3,2.0939482E3,3.7281165E2,8.635E1,2.457742E3,1.6173483E2,1.9712037E3,1.2274445E2,6.162871E1,2.472129E1,2.0110834E3,4.4665866E2,1.6069032E2,1.0445077E0,1.886884E2,1.7825154E3,4.3900843E0,1.1835437E2,9.296237E0,1.5425055E1,1.5624761E3,4.4860724E2,3.365631E2,1.1009556E2,1.5543231E2,5.258011E0,1.831313E1,1.7037527E2,4.7906595E2,1.3034493E3,1.6811552E0,2.7089293E0,1.16939E2,1.4153693E0,3.387581E0,1.2037474E1,8.883502E2,6.741259E2,2.6359454E2,1.8501268E2,1.9499924E2,1.4156387E2,3.8761173E1,7.133438E1,1.4697362E2,8.458696E0,4.0742917E0,1.1837192E0,1.5845088E1,2.468041E0,4.6646214E1,1.2372906E2,4.56339E2,2.272695E1,7.0632074E2,5.9712866E2,9.917437E1,1.7764631E1,4.220432E0,7.8170414E0],"tree_param":{"num_deleted":"0","num_feature":"57","num_nodes":"63","size_leaf_vector":"1"}},{"base_weights":[-1.758703E-1,-1.14392914E-1,-9.58652E-1,-3.1337848E-1,1.1346148E-1,-1.012711E0,-7.259719E-1,-2.6882488E-1,-1.0732981E0,5.7259724E-2,1.1463734E0,-3.0487767E-1,-4.4721115E-1,-2.998044E-1,-1.2987031E-1,-4.2579836E-1,-5.10926E-2,-1.0880387E0,9.522116E-2,-1.528681E-1,3.0075172E-1,1.189138E0,3.342282E-1,-1.8424743E-1,-5.0046346E-3,-6.23887E-1,5.455503E-1,-6.546121E-1,-2.8447235E-1,6.2054697E-2,-5.403524E-1,-1.1156645E0,-3.1782565E-1,-2.9659012E-1,1.0265774E0,3.467044E-1,-3.274305E-1,2.420786E-1,1.2281462E0,9.272625E-1,-5.504746E-1,1.3513681E-1,-2.7813783E-1,-3.20637E-1,9.315462E-1,2.0664182E-1,-2.1931435E-1,-2.4461744E-3,-1.452449E-1,-2.1673262E-2,1.6744485E-1,-2.5591472E-1,-9.126881E-2,-3.4562424E-1,-1.5467428E-1,2.3741883E-1,-2.209269E-1,-3.7474215E-2,-2.3788898E-1,3.9501974E-1,-7.602622E-2,6.2579826E-2,2.8615168E-1,-2.782611E-1,3.2731926E-1,3.8625064E-1,2.502189E-1,8.233669E-2,3.1528717E-1,1.1037462E-1,-3.598956E-1,-1.9850102E-1,2.4420641E-1,6.701842E-2,-1.9517624E-1,8.356328E-2,4.232439E-1],"categories":[],"categories_nodes":[],"categories_segments":[],"categories_sizes":[],"default_left":[0,0,0,0,0,0,0,0,0,0,0,0,0,0,0,0,0,0,0,0,0,0,0,0,0,0,0,0,0,0,0,0,0,0,0,0,0,0,0,0,0,0,0,0,0,0,0,0,0,0,0,0,0,0,0,0,0,0,0,0,0,0,0,0,0,0,0,0,0,0,0,0,0,0,0,0,0],"id":7,"left_children":[1,3,5,7,9,11,13,15,17,19,21,-1,23,-1,25,27,29,31,-1,33,35,37,39,-1,-1,41,43,45,47,49,51,53,55,57,59,61,-1,63,65,67,69,71,-1,73,75,-1,-1,-1,-1,-1,-1,-1,-1,-1,-1,-1,-1,-1,-1,-1,-1,-1,-1,-1,-1,-1,-1,-1,-1,-1,-1,-1,-1,-1,-1,-1,-1],"loss_changes":[2.2947264E2,2.006387E2,3.632782E0,7.9685776E1,1.1971399E2,1.05773926E-1,1.1114521E1,7.628529E1,3.0202332E0,1.0022152E2,3.2987366E0,0E0,2.4325824E-1,0E0,7.9627247E0,4.1761337E1,5.1873245E1,2.3975372E0,0E0,1.7856744E2,5.8422012E1,3.4231415E0,4.0332346E0,0E0,0E0,3.2694316E0,3.7035677E0,5.1283463E1,4.4337944E1,5.077179E1,1.2734653E1,2.1259308E0,3.3115706E0,7.984762E1,4.284059E1,7.3508606E1,0E0,6.2047515E0,1.1828918E0,6.623769E-2,2.4219894E0,3.1201608E0,0E0,8.4237874E-1,1.8918309E0,0E0,0E0,0E0,0E0,0E0,0E0,0E0,0E0,0E0,0E0,0E0,0E0,0E0,0E0,0E0,0E0,0E0,0E0,0E0,0E0,0E0,0E0,0E0,0E0,0E0,0E0,0E0,0E0,0E0,0E0,0E0,0E0],"parents":[2147483647,0,0,1,1,2,2,3,3,4,4,5,5,6,6,7,7,8,8,9,9,10,10,12,12,14,14,15,15,16,16,17,17,19,19,20,20,21,21,22,22,25,25,26,26,27,27,28,28,29,29,30,30,31,31,32,32,33,33,34,34,35,35,37,37,38,38,39,39,40,40,41,41,43,43,44,44],"right_children":[2,4,6,8,10,12,14,16,18,20,22,-1,24,-1,26,28,30,32,-1,34,36,38,40,-1,-1,42,44,46,48,50,52,54,56,58,60,62,-1,64,66,68,70,72,-1,74,76,-1,-1,-1,-1,-1,-1,-1,-1,-1,-1,-1,-1,-1,-1,-1,-1,-1,-1,-1,-1,-1,-1,-1,-1,-1,-1,-1,-1,-1,-1,-1,-1],"split_conditions":[2.135E3,2.134E3,2.692E3,2.126E3,1.0105E4,8.11E2,1E0,1.35E2,9.332E1,1.414E1,2.05E2,-3.0487767E-1,2.19256E3,-2.998044E-1,1.766E2,1.83E2,3E1,5.83E2,9.522116E-2,6.3E1,4.703136E4,5E0,4E0,-1.8424743E-1,-5.0046346E-3,1.1E1,1E0,1.37E1,2.75E2,1.494E3,1E0,2.205E1,1.03375E3,1.53219E3,1.05E1,5.04466E3,-3.274305E-1,1.7599E2,2.32E2,6.2E-1,1.6306E2,9.591E1,-2.7813783E-1,2.275E3,5.171E3,2.0664182E-1,-2.1931435E-1,-2.4461744E-3,-1.452449E-1,-2.1673262E-2,1.6744485E-1,-2.5591472E-1,-9.126881E-2,-3.4562424E-1,-1.5467428E-1,2.3741883E-1,-2.209269E-1,-3.7474215E-2,-2.3788898E-1,3.9501974E-1,-7.602622E-2,6.2579826E-2,2.8615168E-1,-2.782611E-1,3.2731926E-1,3.8625064E-1,2.502189E-1,8.233669E-2,3.1528717E-1,1.1037462E-1,-3.598956E-1,-1.9850102E-1,2.4420641E-1,6.701842E-2,-1.9517624E-1,8.356328E-2,4.232439E-1],"split_indices":[27,27,27,27,21,44,37,14,33,20,48,0,32,0,35,27,19,45,0,22,29,19,1,0,0,19,26,35,27,27,24,20,29,35,34,32,0,32,44,6,29,33,0,29,21,0,0,0,0,0,0,0,0,0,0,0,0,0,0,0,0,0,0,0,0,0,0,0,0,0,0,0,0,0,0,0,0],"split_type":[0,0,0,0,0,0,0,0,0,0,0,0,0,0,0,0,0,0,0,0,0,0,0,0,0,0,0,0,0,0,0,0,0,0,0,0,0,0,0,0,0,0,0,0,0,0,0,0,0,0,0,0,0,0,0,0,0,0,0,0,0,0,0,0,0,0,0,0,0,0,0,0,0,0,0,0,0],"sum_hessian":[4.769703E3,4.423445E3,3.462582E2,2.3611094E3,2.0623354E3,2.7825775E2,6.800045E1,2.2316243E3,1.2948495E2,1.9569132E3,1.0542216E2,2.7573077E2,2.526982E0,4.6156364E1,2.1844082E1,1.2961866E3,9.3543774E2,1.2834225E2,1.1427103E0,1.0506228E3,9.062904E2,9.9707695E1,5.714456E0,1.5135504E0,1.0134315E0,1.2660343E1,9.183739E0,4.935206E2,8.02666E2,7.6044806E2,1.7498973E2,1.234653E2,4.876948E0,9.3717175E2,1.1345109E2,8.7805884E2,2.8231602E1,4.2294245E0,9.547827E1,3.392373E0,2.322083E0,3.772337E0,8.888006E0,2.88316E0,6.300579E0,2.613665E1,4.6738394E2,3.371501E2,4.655159E2,5.9911475E2,1.6133328E2,7.416312E1,1.0082661E2,1.1553421E2,7.9310923E0,1.0921966E0,3.7847514E0,6.972662E2,2.3990553E2,9.246259E1,2.098849E1,7.164349E2,1.6162396E2,1.7399023E0,2.489522E0,8.100971E1,1.4468559E1,1.0531452E0,2.339228E0,1.141071E0,1.181012E0,1.7471104E0,2.0252268E0,1.2103859E0,1.6727741E0,3.336195E0,2.964384E0],"tree_param":{"num_deleted":"0","num_feature":"57","num_nodes":"77","size_leaf_vector":"1"}},{"base_weights":[-1.395886E-1,-8.908702E-2,-9.424658E-1,-2.977789E-1,4.8950847E-2,-1.005084E0,-6.8540066E-1,-1.6921349E-1,-8.4383863E-1,1.8094112E-1,-9.132611E-2,-3.0293614E-1,-4.019595E-1,-2.9610562E-1,-1.1259353E-1,-4.063796E-1,7.117039E-2,-3.0514145E-1,-6.1591667E-1,1.1121978E-1,1.0639188E0,-5.528484E-1,1.0749264E-1,-1.7045698E-1,-4.26103E-3,-2.6528233E-1,2.5671458E-1,-1.4201838E-2,-9.236314E-1,-6.556153E-1,1.931731E-1,7.150687E-1,-9.147201E-1,7.3424774E-1,4.7000837E-2,7.829041E-1,8.4887975E-1,-7.3776245E-1,4.318534E-1,1.9266809E0,-2.7899563E-3,-1.0366296E-1,9.157696E-1,-4.5794513E-2,5.1766044E-1,-2.8055463E-2,-2.9058066E-1,3.0795354E-1,-2.0952143E-1,2.0293169E-1,1.801389E-2,5.32125E-1,-3.0420226E-1,2.4113628E-1,-2.8958407E-1,-3.2994163E-1,2.8460035E-1,-2.4600084E-1,4.2556632E-2,3.173985E-1,-1.0396568E-1,-3.0215648E-1,-3.0665083E-2,2.3385526E-1,-4.7794166E-1,6.4849836E-1,4.5202243E-1,-4.7801185E-2,1.8542357E-1,1.7290628E-1,-1.793894E-1,6.341609E-2,3.2136995E-1],"categories":[],"categories_nodes":[],"categories_segments":[],"categories_sizes":[],"default_left":[0,0,0,0,0,0,0,0,0,0,0,0,0,0,0,0,0,0,0,0,0,0,0,0,0,0,0,0,0,0,0,0,0,1,0,0,0,0,0,0,0,0,0,0,0,0,0,0,0,0,0,0,0,0,0,0,0,0,0,0,0,0,0,0,0,0,0,0,0,0,0,0,0],"id":8,"left_children":[1,3,5,7,9,11,13,15,17,19,21,-1,23,-1,25,27,29,-1,31,33,35,37,39,-1,-1,-1,41,43,45,47,49,51,53,55,57,59,-1,61,63,65,67,69,71,-1,-1,-1,-1,-1,-1,-1,-1,-1,-1,-1,-1,-1,-1,-1,-1,-1,-1,-1,-1,-1,-1,-1,-1,-1,-1,-1,-1,-1,-1],"loss_changes":[1.795987E2,1.2015199E2,3.5308838E0,1.1642613E2,4.6507187E1,1.8592834E-1,9.303394E0,7.672235E1,1.1862305E1,7.954464E1,1.1181549E2,0E0,2.0307451E-1,0E0,5.90535E0,1.373807E2,5.9441387E1,0E0,5.59758E1,4.7995197E1,4.4715347E1,6.711876E1,1.709506E2,0E0,0E0,0E0,3.4795976E0,9.3293655E1,1.0812225E1,7.654026E0,3.6859737E1,4.9510235E1,1.0684471E1,4.5129482E1,8.970218E1,2.6148655E1,0E0,5.2847427E1,4.2519096E1,1.5488129E0,7.827863E1,3.7433822E0,3.3635187E-1,0E0,0E0,0E0,0E0,0E0,0E0,0E0,0E0,0E0,0E0,0E0,0E0,0E0,0E0,0E0,0E0,0E0,0E0,0E0,0E0,0E0,0E0,0E0,0E0,0E0,0E0,0E0,0E0,0E0,0E0],"parents":[2147483647,0,0,1,1,2,2,3,3,4,4,5,5,6,6,7,7,8,8,9,9,10,10,12,12,14,14,15,15,16,16,18,18,19,19,20,20,21,21,22,22,26,26,27,27,28,28,29,29,30,30,31,31,32,32,33,33,34,34,35,35,37,37,38,38,39,39,40,40,41,41,42,42],"right_children":[2,4,6,8,10,12,14,16,18,20,22,-1,24,-1,26,28,30,-1,32,34,36,38,40,-1,-1,-1,42,44,46,48,50,52,54,56,58,60,-1,62,64,66,68,70,72,-1,-1,-1,-1,-1,-1,-1,-1,-1,-1,-1,-1,-1,-1,-1,-1,-1,-1,-1,-1,-1,-1,-1,-1,-1,-1,-1,-1,-1,-1],"split_conditions":[2.135E3,1.494E3,2.692E3,2.75E2,7.3319E2,8.11E2,1E0,1.83E2,2.86E2,5.5575E2,9.51926E3,-3.0293614E-1,2.19256E3,-2.9610562E-1,6.075E1,2.1E1,1.2381E2,-3.0514145E-1,6.07E2,2.074E3,2.205E1,2E0,1.25304E3,-1.7045698E-1,-4.26103E-3,-2.6528233E-1,5E1,2E1,2E0,4.27E1,7.05E0,4.7542E2,2E0,5E0,2.134E3,1.125E1,8.4887975E-1,2.3E1,7.42816E3,1.6E1,6.3E1,1.2E1,2.29E2,-4.5794513E-2,5.1766044E-1,-2.8055463E-2,-2.9058066E-1,3.0795354E-1,-2.0952143E-1,2.0293169E-1,1.801389E-2,5.32125E-1,-3.0420226E-1,2.4113628E-1,-2.8958407E-1,-3.2994163E-1,2.8460035E-1,-2.4600084E-1,4.2556632E-2,3.173985E-1,-1.0396568E-1,-3.0215648E-1,-3.0665083E-2,2.3385526E-1,-4.7794166E-1,6.4849836E-1,4.5202243E-1,-4.7801185E-2,1.8542357E-1,1.7290628E-1,-1.793894E-1,6.341609E-2,3.2136995E-1],"split_indices":[27,27,27,27,32,44,37,27,27,32,31,0,32,0,35,36,32,0,27,27,20,24,35,0,0,0,22,36,22,29,17,32,22,36,27,34,0,19,31,19,22,22,14,0,0,0,0,0,0,0,0,0,0,0,0,0,0,0,0,0,0,0,0,0,0,0,0,0,0,0,0,0,0],"split_type":[0,0,0,0,0,0,0,0,0,0,0,0,0,0,0,0,0,0,0,0,0,0,0,0,0,0,0,0,0,0,0,0,0,0,0,0,0,0,0,0,0,0,0,0,0,0,0,0,0,0,0,0,0,0,0,0,0,0,0,0,0,0,0,0,0,0,0,0,0,0,0,0,0],"sum_hessian":[4.430514E3,4.1693687E3,2.6114545E2,1.6594221E3,2.5099465E3,2.0765343E2,5.349201E1,1.3442411E3,3.15181E2,1.2930201E3,1.2169264E3,2.0537769E2,2.275754E0,3.4567158E1,1.892485E1,6.763017E2,6.679394E2,1.7707791E2,1.3810309E2,1.1994366E3,9.358349E1,3.6586212E2,8.5106433E2,1.2671852E0,1.0085688E0,5.674143E0,1.3250709E1,3.852412E2,2.9106052E2,9.537925E1,5.725602E2,2.506424E1,1.1303885E2,1.1110493E2,1.0883318E3,8.197953E1,1.1603954E1,3.0823114E2,5.763098E1,4.7702812E1,8.033615E2,9.111282E0,4.1394258E0,3.5768893E2,2.7552277E1,1.5115888E1,2.7594464E2,1.795738E0,9.358351E1,1.2277854E2,4.4978162E2,1.5529797E1,9.534443E0,2.8048804E0,1.1023397E2,1.1197481E1,9.990745E1,1.0657301E2,9.817587E2,6.597412E1,1.6005413E1,2.1605469E2,9.2176445E1,4.971127E1,7.91971E0,2.7927961E1,1.9774849E1,6.4218317E2,1.6117831E2,3.7653058E0,5.345977E0,1.1750712E0,2.9643548E0],"tree_param":{"num_deleted":"0","num_feature":"57","num_nodes":"73","size_leaf_vector":"1"}},{"base_weights":[-1.1459981E-1,-7.429628E-2,-9.234494E-1,-2.0775993E-1,6.682083E-2,-9.9804413E-1,-6.3657385E-1,-1.7047216E-1,-9.475349E-1,2.3413505E-2,1.0023978E0,-3.0128732E-1,-3.6164418E-1,-2.9219952E-1,-9.235989E-2,-9.294494E-2,-5.1374537E-1,-3.35398E-1,-6.081277E-1,-5.300508E-1,7.6352015E-2,6.46342E-1,1.1900578E0,-1.577183E-1,-3.4835616E-3,2.4545938E-1,-2.4839856E-1,-1.9261152E-1,2.7858236E-1,-6.500402E-1,-7.238375E-2,-8.415689E-1,4.133053E-1,9.645128E-1,-7.2367924E-1,1.047786E0,4.0475596E-2,7.867507E-1,-4.0821213E-1,1.2041578E0,7.9204716E-2,-1.0263295E-1,8.7601596E-1,-2.1162035E-2,-2.4345288E-1,-2.963931E-1,1.1463678E-1,-2.1115662E-1,2.536986E-1,2.0220582E-1,-1.5988E-1,3.7575793E-2,-3.119135E-1,-1.5784615E-1,5.6007737E-1,4.175498E-1,-3.863887E-1,-2.616689E-1,7.4354015E-2,-2.9082733E-1,4.1591486E-1,-8.289431E-2,5.4174382E-2,6.9232084E-2,3.3121774E-1,3.6499116E-1,1.1536804E-1,9.1110736E-2,-2.3083411E-1,8.383292E-2,3.0626374E-1],"categories":[],"categories_nodes":[],"categories_segments":[],"categories_sizes":[],"default_left":[0,0,0,0,0,0,0,0,1,0,0,0,0,0,0,0,0,0,0,0,0,0,0,0,0,0,0,0,0,0,0,0,0,0,0,0,0,0,0,0,0,0,0,0,0,0,0,0,0,0,0,0,0,0,0,0,0,0,0,0,0,0,0,0,0,0,0,0,0,0,0],"id":9,"left_children":[1,3,5,7,9,11,13,15,17,19,21,-1,23,-1,25,27,29,-1,31,33,35,37,39,-1,-1,41,-1,43,45,47,49,51,53,55,57,59,61,63,-1,65,-1,67,69,-1,-1,-1,-1,-1,-1,-1,-1,-1,-1,-1,-1,-1,-1,-1,-1,-1,-1,-1,-1,-1,-1,-1,-1,-1,-1,-1,-1],"loss_changes":[1.3646718E2,7.517247E1,3.6167755E0,5.641848E1,7.877915E1,2.5672913E-1,7.9468613E0,5.1952545E1,5.0018005E0,5.440342E1,4.977989E0,0E0,1.7070866E-1,0E0,4.640445E0,5.9121105E1,2.1594925E1,0E0,8.699344E0,4.760884E1,5.9007137E1,1.0053314E1,4.0203094E-1,0E0,0E0,2.944926E0,0E0,9.501115E1,4.467901E1,2.2710869E1,2.9925865E1,5.6548214E0,1.0795949E1,2.0100986E1,2.101007E1,4.253331E1,7.261831E1,5.1126976E0,0E0,8.4739685E-2,0E0,2.7470076E0,1.2361956E-1,0E0,0E0,0E0,0E0,0E0,0E0,0E0,0E0,0E0,0E0,0E0,0E0,0E0,0E0,0E0,0E0,0E0,0E0,0E0,0E0,0E0,0E0,0E0,0E0,0E0,0E0,0E0,0E0],"parents":[2147483647,0,0,1,1,2,2,3,3,4,4,5,5,6,6,7,7,8,8,9,9,10,10,12,12,14,14,15,15,16,16,18,18,19,19,20,20,21,21,22,22,25,25,27,27,28,28,29,29,30,30,31,31,32,32,33,33,34,34,35,35,36,36,37,37,39,39,41,41,42,42],"right_children":[2,4,6,8,10,12,14,16,18,20,22,-1,24,-1,26,28,30,-1,32,34,36,38,40,-1,-1,42,-1,44,46,48,50,52,54,56,58,60,62,64,-1,66,-1,68,70,-1,-1,-1,-1,-1,-1,-1,-1,-1,-1,-1,-1,-1,-1,-1,-1,-1,-1,-1,-1,-1,-1,-1,-1,-1,-1,-1,-1],"split_conditions":[2.135E3,2.134E3,2.692E3,2.126E3,1.0105E4,8.11E2,1E0,3E1,2.1E1,2.2E1,1.95898E3,-3.0128732E-1,2.3E1,-2.9219952E-1,2E0,1.494E3,1E0,-3.35398E-1,1.624E2,7.196E1,2.4E1,1.58353E3,3.1E1,-1.577183E-1,-3.4835616E-3,5E1,-2.4839856E-1,2.75E2,2.5E-1,8.9E1,1E0,2.2E1,4.7E1,5.171E3,3.6E0,2.658E3,8.02E0,1.0158E4,-4.0821213E-1,3.81E2,7.9204716E-2,1E0,4.9349E2,-2.1162035E-2,-2.4345288E-1,-2.963931E-1,1.1463678E-1,-2.1115662E-1,2.536986E-1,2.0220582E-1,-1.5988E-1,3.7575793E-2,-3.119135E-1,-1.5784615E-1,5.6007737E-1,4.175498E-1,-3.863887E-1,-2.616689E-1,7.4354015E-2,-2.9082733E-1,4.1591486E-1,-8.289431E-2,5.4174382E-2,6.9232084E-2,3.3121774E-1,3.6499116E-1,1.1536804E-1,9.1110736E-2,-2.3083411E-1,8.383292E-2,3.0626374E-1],"split_indices":[27,27,27,27,21,44,37,19,36,22,31,0,19,0,12,27,18,0,7,31,22,29,1,0,0,22,0,27,6,22,26,19,22,21,9,21,20,21,0,50,0,25,32,0,0,0,0,0,0,0,0,0,0,0,0,0,0,0,0,0,0,0,0,0,0,0,0,0,0,0,0],"split_type":[0,0,0,0,0,0,0,0,0,0,0,0,0,0,0,0,0,0,0,0,0,0,0,0,0,0,0,0,0,0,0,0,0,0,0,0,0,0,0,0,0,0,0,0,0,0,0,0,0,0,0,0,0,0,0,0,0,0,0,0,0,0,0,0,0,0,0,0,0,0,0],"sum_hessian":[4.1872803E3,3.9895786E3,1.9770169E2,2.050148E3,1.9394307E3,1.549356E2,4.276611E1,1.9529419E3,9.720603E1,1.8544175E3,8.501313E1,1.5285707E2,2.0785203E0,2.5910994E1,1.6855114E1,1.5941735E3,3.587685E2,6.318105E1,3.4024982E1,1.6110246E2,1.6933151E3,3.0875622E1,5.4137505E1,1.073404E0,1.0051165E0,1.2007395E1,4.8477197E0,1.2573547E3,3.3681866E2,2.737578E2,8.50107E1,2.783873E1,6.1862526E0,1.8021133E1,1.4308133E2,5.930463E1,1.6340104E3,2.9425114E1,1.4505093E0,5.302973E1,1.107771E0,8.275967E0,3.7314284E0,1.0511416E3,2.0621312E2,2.4808298E1,3.1201035E2,2.6476117E2,8.996657E0,3.226155E1,5.274914E1,4.7975135E0,2.3041216E1,4.1452556E0,2.0409973E0,1.5468646E1,2.5524883E0,1.2419379E2,1.8887545E1,8.255993E0,5.1048637E1,5.0076627E2,1.1332441E3,1.131923E1,1.8105883E1,5.175724E1,1.272493E0,5.48073E0,2.7952366E0,1.3013294E0,2.430099E0],"tree_param":{"num_deleted":"0","num_feature":"57","num_nodes":"71","size_leaf_vector":"1"}},{"base_weights":[-9.044901E-2,-5.8520477E-2,-9.0241057E-1,-3.1588608E-1,-1.2200474E-2,-9.909487E-1,-5.8712023E-1,4.9091913E-3,-8.8049066E-1,1.6217861E-2,-3.829691E-1,-2.9977491E-1,-9.780904E-2,-2.878061E-1,-7.957951E-2,-7.8326243E-1,2.718991E-1,5.91488E-1,-9.200614E-1,-4.8803806E-2,3.7918448E-1,-9.1157705E-1,-6.236136E-2,-2.4276792E-1,2.0236929E-1,-1.334943E-1,-9.703107E-1,1.4694498E0,1.2351272E-1,-2.3064078E-1,6.746556E-1,-1.9798388E-1,-9.6951586E-1,1.0933725E-2,-7.777653E-1,1.467804E-1,8.7449324E-1,-2.799222E-2,-1.1095679E0,6.8421984E-1,-4.2138317E-1,3.884039E-1,-2.0301114E-1,-2.289132E-1,3.1496823E-1,-2.9499054E-1,-8.580863E-3,6.160419E-1,-2.8730923E-1,2.1384598E-1,-3.7217636E-2,7.333447E-2,-2.0154397E-1,-2.842814E-1,1.3496295E0,-1.1041189E-2,-2.9230824E-1,-6.4714826E-3,3.9207268E-1,-2.7524143E-1,3.1613767E-1,8.701291E-2,-2.005566E-1,5.8709884E-1,2.1568711E-1,1.5710601E-1,-1.8932545E-1,-3.5814846E-1,-3.957682E-3,-1.2261576E-1,3.4786195E-1,-8.524199E-3,-2.5342625E-1,-3.9334204E-2,2.0977232E-1],"categories":[],"categories_nodes":[],"categories_segments":[],"categories_sizes":[],"default_left":[0,0,0,0,0,0,0,0,0,0,0,0,0,0,0,0,0,0,0,0,0,0,0,0,0,0,0,0,0,0,0,0,0,0,0,0,0,0,0,0,0,0,0,0,0,0,0,0,0,0,0,0,0,0,0,0,0,0,0,0,0,0,0,0,0,0,0,0,0,0,0,0,0,0,0],"id":10,"left_children":[1,3,5,7,9,11,13,15,17,19,21,-1,-1,-1,23,25,27,29,31,33,35,37,39,-1,41,43,45,47,49,51,-1,53,55,57,59,61,63,65,67,69,71,73,-1,-1,-1,-1,-1,-1,-1,-1,-1,-1,-1,-1,-1,-1,-1,-1,-1,-1,-1,-1,-1,-1,-1,-1,-1,-1,-1,-1,-1,-1,-1,-1,-1],"loss_changes":[1.03646255E2,4.588948E1,3.6409454E0,1.0634947E2,3.439342E1,3.1806183E-1,6.653015E0,7.921129E1,1.2935623E1,7.158079E1,3.9325466E1,0E0,0E0,0E0,3.488472E0,1.1446693E1,4.9780544E1,8.936534E0,7.220001E0,1.12028534E2,5.291278E1,1.530378E1,3.9347054E1,0E0,2.299974E0,1.7526144E1,8.7470245E-1,4.5775284E1,3.6745266E1,1.2198534E0,0E0,5.5529167E1,8.408203E-1,1.0022836E2,5.082617E1,3.6966267E1,2.3335403E1,6.010626E0,6.5973206E0,2.5254301E1,1.6450052E1,1.8545036E0,0E0,0E0,0E0,0E0,0E0,0E0,0E0,0E0,0E0,0E0,0E0,0E0,0E0,0E0,0E0,0E0,0E0,0E0,0E0,0E0,0E0,0E0,0E0,0E0,0E0,0E0,0E0,0E0,0E0,0E0,0E0,0E0,0E0],"parents":[2147483647,0,0,1,1,2,2,3,3,4,4,5,5,6,6,7,7,8,8,9,9,10,10,14,14,15,15,16,16,17,17,18,18,19,19,20,20,21,21,22,22,24,24,25,25,26,26,27,27,28,28,29,29,31,31,32,32,33,33,34,34,35,35,36,36,37,37,38,38,39,39,40,40,41,41],"right_children":[2,4,6,8,10,12,14,16,18,20,22,-1,-1,-1,24,26,28,30,32,34,36,38,40,-1,42,44,46,48,50,52,-1,54,56,58,60,62,64,66,68,70,72,74,-1,-1,-1,-1,-1,-1,-1,-1,-1,-1,-1,-1,-1,-1,-1,-1,-1,-1,-1,-1,-1,-1,-1,-1,-1,-1,-1,-1,-1,-1,-1,-1,-1],"split_conditions":[2.135E3,1.83E2,2.692E3,2.1E1,1.041528E4,8.11E2,1E0,8.02E0,2.48E0,5.16016E3,1.382409E4,-2.9977491E-1,-9.780904E-2,-2.878061E-1,7.7336E2,2.3E1,8E0,2.87E2,2E0,1.570725E4,5.3E1,2.75E2,1.493692E4,-2.4276792E-1,1.9375E2,6.075E1,3.96E2,2.7448E2,7.01E0,1.5071E2,6.746556E-1,1.0317E2,5.365E1,4.17823E3,7.1E1,9.864E3,5.9E1,1.0695E2,6.3E1,4.71879E3,2.75E2,4.3E1,-2.0301114E-1,-2.289132E-1,3.1496823E-1,-2.9499054E-1,-8.580863E-3,6.160419E-1,-2.8730923E-1,2.1384598E-1,-3.7217636E-2,7.333447E-2,-2.0154397E-1,-2.842814E-1,1.3496295E0,-1.1041189E-2,-2.9230824E-1,-6.4714826E-3,3.9207268E-1,-2.7524143E-1,3.1613767E-1,8.701291E-2,-2.005566E-1,5.8709884E-1,2.1568711E-1,1.5710601E-1,-1.8932545E-1,-3.5814846E-1,-3.957682E-3,-1.2261576E-1,3.4786195E-1,-8.524199E-3,-2.5342625E-1,-3.9334204E-2,2.0977232E-1],"split_indices":[27,27,27,36,32,44,37,20,32,32,32,0,0,0,29,22,41,42,22,29,22,27,32,0,33,35,49,14,17,31,0,33,31,32,22,21,22,0,22,35,27,42,0,0,0,0,0,0,0,0,0,0,0,0,0,0,0,0,0,0,0,0,0,0,0,0,0,0,0,0,0,0,0,0,0],"split_type":[0,0,0,0,0,0,0,0,0,0,0,0,0,0,0,0,0,0,0,0,0,0,0,0,0,0,0,0,0,0,0,0,0,0,0,0,0,0,0,0,0,0,0,0,0,0,0,0,0,0,0,0,0,0,0,0,0,0,0,0,0,0,0,0,0,0,0,0,0,0,0,0,0,0,0],"sum_hessian":[3.9990037E3,3.8487332E3,1.5027057E2,5.861449E2,3.2625881E3,1.1565109E2,3.461948E1,3.7440686E2,2.11738E2,3.031211E3,2.3137723E2,1.1372847E2,1.9226255E0,1.9458385E1,1.5161095E1,9.4247734E1,2.8015912E2,5.177942E0,2.0656007E2,2.5714314E3,4.5977945E2,8.665686E1,1.4472037E2,3.7044199E0,1.1456675E1,2.1449646E1,7.279808E1,2.9905363E1,2.5025377E2,4.036494E0,1.1414479E0,1.3561007E1,1.9299907E2,2.377577E3,1.938546E2,3.1382553E2,1.4595392E2,1.6072151E1,7.058471E1,4.6700825E1,9.801955E1,9.916296E0,1.5403783E0,1.4233032E1,7.216614E0,7.1763916E1,1.0341668E0,2.4229246E1,5.676118E0,7.3475945E1,1.7677782E2,2.1582422E0,1.8782518E0,1.2382888E1,1.1781182E0,1.0417684E0,1.9195729E2,2.3203616E3,5.721539E1,1.8057957E2,1.327503E1,2.674706E2,4.6354923E1,1.6881262E1,1.2907265E2,8.462627E0,7.6095243E0,6.546464E1,5.120071E0,1.4196912E1,3.2503914E1,5.1388397E1,4.663115E1,3.9285321E0,5.987764E0],"tree_param":{"num_deleted":"0","num_feature":"57","num_nodes":"75","size_leaf_vector":"1"}},{"base_weights":[-7.338215E-2,-4.8338946E-2,-8.792872E-1,2.5244963E-1,-8.4055126E-2,-9.831613E-1,-5.4235584E-1,3.2572278E-1,-1.0301908E0,-3.9672646E-1,-5.0689813E-2,-2.982617E-1,-8.4422864E-2,-2.826603E-1,-8.555464E-2,4.7615465E-2,5.861503E-1,-3.5590318E-1,3.4262731E-3,-3.602587E-3,-7.2256696E-1,1.8315996E0,-6.029169E-2,-4.7651303E-1,3.5373235E-1,-3.2822765E-2,1.7503586E0,-3.3682445E-1,6.420493E-1,2.9127672E-1,-2.0448919E-1,2.0286603E-1,-6.059586E-1,-8.614608E-2,-8.9858156E-1,2.8657732E0,-2.5836125E-1,-3.022131E-1,-2.2588046E-2,2.3058777E-1,-2.535367E-1,2.608434E-1,-2.4355931E-2,9.54227E-2,-1.3900314E-1,6.0506546E-1,-1.7721085E-2,1.2609735E-1,3.1900895E-1,-3.0799456E-2,3.2451183E-1,-2.2843991E-1,1.4908889E-1,-7.6921344E-2,7.4826E-1,-1.5205601E-1,-3.190818E-1,5.741684E-1,1.8409597E0,7.5258784E-2,-1.9334567E-1,-1.5656756E-2,1.23316266E-1,1.8721537E-1,-5.5166375E-2,-2.2064702E-1,2.036904E-1],"categories":[],"categories_nodes":[],"categories_segments":[],"categories_sizes":[],"default_left":[0,0,0,0,0,0,0,0,0,0,0,0,0,0,0,0,0,0,0,0,0,0,0,0,0,0,0,0,0,0,0,0,0,0,0,0,0,0,0,0,0,0,0,0,0,0,0,0,0,0,0,0,0,0,0,0,0,0,0,0,0,0,0,0,0,0,0],"id":11,"left_children":[1,3,5,7,9,11,13,15,17,19,21,-1,-1,-1,23,25,27,-1,29,31,33,35,37,39,41,43,45,-1,47,-1,-1,49,51,53,55,57,-1,59,61,63,-1,-1,65,-1,-1,-1,-1,-1,-1,-1,-1,-1,-1,-1,-1,-1,-1,-1,-1,-1,-1,-1,-1,-1,-1,-1,-1],"loss_changes":[7.7619804E1,4.012598E1,3.5235748E0,3.759763E1,3.4799236E1,3.9736176E-1,5.31577E0,2.7190842E1,3.5009613E0,4.1202145E1,5.4637352E1,0E0,0E0,0E0,2.72584E0,2.5098173E1,1.925148E1,0E0,3.2073643E0,1.8378752E1,1.9624832E1,4.519768E1,2.7380924E1,2.3593984E0,1.5003588E0,2.6668972E1,4.105274E0,0E0,1.7159813E1,0E0,0E0,2.9665585E1,6.848176E0,1.7865946E1,8.3606415E0,2.348986E1,0E0,7.67876E1,3.3380806E1,7.069547E-1,0E0,0E0,3.1750677E0,0E0,0E0,0E0,0E0,0E0,0E0,0E0,0E0,0E0,0E0,0E0,0E0,0E0,0E0,0E0,0E0,0E0,0E0,0E0,0E0,0E0,0E0,0E0,0E0],"parents":[2147483647,0,0,1,1,2,2,3,3,4,4,5,5,6,6,7,7,8,8,9,9,10,10,14,14,15,15,16,16,18,18,19,19,20,20,21,21,22,22,23,23,24,24,25,25,26,26,28,28,31,31,32,32,33,33,34,34,35,35,37,37,38,38,39,39,42,42],"right_children":[2,4,6,8,10,12,14,16,18,20,22,-1,-1,-1,24,26,28,-1,30,32,34,36,38,40,42,44,46,-1,48,-1,-1,50,52,54,56,58,-1,60,62,64,-1,-1,66,-1,-1,-1,-1,-1,-1,-1,-1,-1,-1,-1,-1,-1,-1,-1,-1,-1,-1,-1,-1,-1,-1,-1,-1],"split_conditions":[2.135E3,1.44E1,2.692E3,5.992E1,4.326E1,8.11E2,1E0,5.2E1,2E0,4.94E0,4E0,-2.982617E-1,-8.4422864E-2,-2.826603E-1,1.766E2,7.4714E2,6E0,-3.5590318E-1,7.8E1,2.102E1,1.9E1,6.222E1,1.83E2,1.1E1,1.2E1,4.2E1,1E0,-3.3682445E-1,9.131E3,2.9127672E-1,-2.0448919E-1,1.414E1,4.88E2,7.8E2,5.06E0,3.638E1,-2.5836125E-1,5E0,1.0037E4,2E1,-2.535367E-1,2.608434E-1,2.3E1,9.54227E-2,-1.3900314E-1,6.0506546E-1,-1.7721085E-2,1.2609735E-1,3.1900895E-1,-3.0799456E-2,3.2451183E-1,-2.2843991E-1,1.4908889E-1,-7.6921344E-2,7.4826E-1,-1.5205601E-1,-3.190818E-1,5.741684E-1,1.8409597E0,7.5258784E-2,-1.9334567E-1,-1.5656756E-2,1.23316266E-1,1.8721537E-1,-5.5166375E-2,-2.2064702E-1,2.036904E-1],"split_indices":[27,35,27,32,32,44,37,44,24,32,20,0,0,0,35,29,19,0,32,20,22,33,27,19,22,22,24,0,21,0,0,20,43,42,17,33,0,19,21,43,0,0,19,0,0,0,0,0,0,0,0,0,0,0,0,0,0,0,0,0,0,0,0,0,0,0,0],"split_type":[0,0,0,0,0,0,0,0,0,0,0,0,0,0,0,0,0,0,0,0,0,0,0,0,0,0,0,0,0,0,0,0,0,0,0,0,0,0,0,0,0,0,0,0,0,0,0,0,0,0,0,0,0,0,0,0,0,0,0,0,0,0,0,0,0,0,0],"sum_hessian":[3.8470137E3,3.7321E3,1.1491364E2,3.954762E2,3.3366238E3,8.6368675E1,2.8544966E1,3.7481052E2,2.066568E1,3.2067163E2,3.0159521E3,8.4620155E1,1.7485183E0,1.4654792E1,1.3890174E1,1.8182484E2,1.9298567E2,1.7825016E1,2.8406649E0,1.4578922E2,1.7488242E2,1.4343745E1,3.0016084E3,7.304523E0,6.5856504E0,1.7455931E2,7.2655244E0,5.508204E0,1.8747748E2,1.004598E0,1.8360668E0,1.0906752E2,3.672169E1,3.821106E1,1.3667136E2,1.0317187E1,4.0265584E0,4.0378018E2,2.5978281E3,2.6313193E0,4.673204E0,2.2359498E0,4.3497005E0,9.63169E1,7.824242E1,6.232791E0,1.0327336E0,1.2414259E2,6.3334885E1,8.158684E1,2.7480684E1,3.245522E1,4.2664714E0,3.6690735E1,1.5203248E0,4.171689E1,9.495446E1,9.219282E0,1.0979054E0,1.5445862E2,2.4932158E2,2.4326511E3,1.6517715E2,1.090481E0,1.5408381E0,2.1401005E0,2.2096E0],"tree_param":{"num_deleted":"0","num_feature":"57","num_nodes":"67","size_leaf_vector":"1"}},{"base_weights":[-5.6846898E-2,-3.7492618E-2,-8.5733074E-1,-9.467639E-3,-3.2584542E-1,-9.740772E-1,-5.016104E-1,1.6399592E-2,-3.6662537E-1,-5.02299E-1,-1.4224865E-1,-2.966167E-1,-7.259662E-2,-2.765162E-1,-6.786585E-2,-7.7358186E-2,1.0249906E-1,-6.344333E-1,6.926203E-2,-1.4704876E-1,-8.514244E-1,1.0794544E0,-2.5150454E-1,1.8646567E-1,-2.1393152E-1,-4.3885954E-2,-9.297857E-1,8.3801545E-2,1.3561736E0,-7.633215E-1,7.726606E-1,2.8195405E-1,-9.510417E-1,-3.977547E-1,4.5002186E-1,-9.88152E-1,8.2079124E-1,-2.2258082E-1,4.5756808E-1,-6.2960684E-1,-1.2156417E-1,-1.1299189E-1,6.789862E-1,-6.834242E-2,2.208346E-2,-3.027522E-1,-3.0911583E-2,3.376186E-2,-2.0721568E-1,-2.970087E-1,5.0321084E-1,-7.2558254E-2,-2.4642676E-1,3.9782625E-1,-5.6698475E-2,-2.3409237E-1,1.5155941E-1,-3.0108303E-1,-3.9415404E-2,-1.7746949E-1,5.398274E-2,3.5184965E-1,-2.2201742E-1,-3.50618E-1,9.804308E-2,9.899628E-3,2.9399383E-1,-1.43910535E-2,-2.740035E-1,5.619752E-2,-1.7043541E-1,5.81022E-2,-1.9778053E-1,6.814061E-2,2.3689115E-1],"categories":[],"categories_nodes":[],"categories_segments":[],"categories_sizes":[],"default_left":[0,0,0,0,0,0,0,0,0,0,0,0,0,0,0,0,0,0,0,0,0,0,0,0,0,0,0,0,0,0,0,0,0,0,0,0,0,0,0,0,0,0,0,0,0,0,0,0,0,0,0,0,0,0,0,0,0,0,0,0,0,0,0,0,0,0,0,0,0,0,0,0,0,0,0],"id":12,"left_children":[1,3,5,7,9,11,13,15,17,19,21,-1,-1,-1,23,25,27,29,31,33,35,37,39,41,-1,43,45,47,49,51,53,55,57,59,61,63,65,-1,-1,67,69,71,73,-1,-1,-1,-1,-1,-1,-1,-1,-1,-1,-1,-1,-1,-1,-1,-1,-1,-1,-1,-1,-1,-1,-1,-1,-1,-1,-1,-1,-1,-1,-1,-1],"loss_changes":[5.8103683E1,2.9613312E1,3.1883774E0,3.0875174E1,1.0444714E1,4.6406937E-1,4.299784E0,2.5166672E1,2.6390137E1,2.0355362E1,2.1692091E1,0E0,0E0,0E0,2.2430742E0,4.2544693E1,3.797927E1,2.5961597E1,1.910353E1,1.2611557E1,1.9804993E1,1.1980953E1,7.200591E0,1.5539162E0,0E0,3.107468E1,3.5940132E0,3.5741257E1,1.9607197E1,3.6994781E0,6.7628355E0,1.7609406E1,5.231123E-1,6.71513E0,2.2399324E1,1.8724602E1,8.2361126E-1,0E0,0E0,6.1687107E0,1.54825735E1,1.3147476E0,1.7122507E-2,0E0,0E0,0E0,0E0,0E0,0E0,0E0,0E0,0E0,0E0,0E0,0E0,0E0,0E0,0E0,0E0,0E0,0E0,0E0,0E0,0E0,0E0,0E0,0E0,0E0,0E0,0E0,0E0,0E0,0E0,0E0,0E0],"parents":[2147483647,0,0,1,1,2,2,3,3,4,4,5,5,6,6,7,7,8,8,9,9,10,10,14,14,15,15,16,16,17,17,18,18,19,19,20,20,21,21,22,22,23,23,25,25,26,26,27,27,28,28,29,29,30,30,31,31,32,32,33,33,34,34,35,35,36,36,39,39,40,40,41,41,42,42],"right_children":[2,4,6,8,10,12,14,16,18,20,22,-1,-1,-1,24,26,28,30,32,34,36,38,40,42,-1,44,46,48,50,52,54,56,58,60,62,64,66,-1,-1,68,70,72,74,-1,-1,-1,-1,-1,-1,-1,-1,-1,-1,-1,-1,-1,-1,-1,-1,-1,-1,-1,-1,-1,-1,-1,-1,-1,-1,-1,-1,-1,-1,-1,-1],"split_conditions":[2.135E3,3E0,2.692E3,3.9E1,9.51926E3,8.11E2,1E0,2.134E3,2E0,2.8373E2,1.383046E4,-2.966167E-1,-7.259662E-2,-2.765162E-1,2E0,2.126E3,1.8488E2,3.80624E3,1.0478E2,1.8564E2,1.0104E4,2.99924E3,5.2276E3,5E1,-2.1393152E-1,6.23E0,2.205E1,1.2971E2,5.858E1,5.2396E2,4.6E1,1.83E2,1.5E1,2.7E1,5.882E3,2.4E1,2.7555E3,-2.2258082E-1,4.5756808E-1,1.570725E4,9.36926E3,1E0,4.9349E2,-6.834242E-2,2.208346E-2,-3.027522E-1,-3.0911583E-2,3.376186E-2,-2.0721568E-1,-2.970087E-1,5.0321084E-1,-7.2558254E-2,-2.4642676E-1,3.9782625E-1,-5.6698475E-2,-2.3409237E-1,1.5155941E-1,-3.0108303E-1,-3.9415404E-2,-1.7746949E-1,5.398274E-2,3.5184965E-1,-2.2201742E-1,-3.50618E-1,9.804308E-2,9.899628E-3,2.9399383E-1,-1.43910535E-2,-2.740035E-1,5.619752E-2,-1.7043541E-1,5.81022E-2,-1.9778053E-1,6.814061E-2,2.3689115E-1],"split_indices":[27,13,27,19,31,44,37,27,24,35,29,0,0,0,12,27,33,32,33,35,21,32,32,22,0,8,20,33,35,31,22,27,1,46,21,19,31,0,0,29,32,25,32,0,0,0,0,0,0,0,0,0,0,0,0,0,0,0,0,0,0,0,0,0,0,0,0,0,0,0,0,0,0,0,0],"split_type":[0,0,0,0,0,0,0,0,0,0,0,0,0,0,0,0,0,0,0,0,0,0,0,0,0,0,0,0,0,0,0,0,0,0,0,0,0,0,0,0,0,0,0,0,0,0,0,0,0,0,0,0,0,0,0,0,0,0,0,0,0,0,0,0,0,0,0,0,0,0,0,0,0,0,0],"sum_hessian":[3.751445E3,3.6639053E3,8.7539894E1,3.3402952E3,3.236101E2,6.460001E1,2.2939878E1,3.115601E3,2.2469405E2,1.6413004E2,1.5948007E2,6.2989388E1,1.6106257E0,1.10815935E1,1.1858285E1,1.4915181E3,1.6240829E3,1.3889925E2,8.57948E1,8.205584E1,8.207419E1,1.2362472E1,1.471176E2,9.015638E0,2.8426473E0,1.4361753E3,5.5342743E1,1.6012682E3,2.2814741E1,1.2766298E2,1.123626E1,7.1594E1,1.4200796E1,5.8025253E1,2.403059E1,7.6248825E1,5.8253603E0,2.300093E0,1.0062379E1,3.6644268E1,1.10473335E2,6.0859203E0,2.9297178E0,5.5947485E2,8.767005E2,5.029274E1,5.0500035E0,1.5448042E3,5.6464046E1,2.4965017E0,2.031824E1,1.3315772E1,1.1434721E2,6.891361E0,4.344899E0,1.1999838E1,5.9594166E1,1.3134025E1,1.0667717E0,4.3430763E1,1.4594488E1,1.4959338E1,9.071252E0,6.7140144E1,9.108684E0,1.1821945E0,4.643166E0,1.2398192E1,2.4246075E1,6.5645615E1,4.4827724E1,4.3111916E0,1.7747289E0,1.1768183E0,1.7528995E0],"tree_param":{"num_deleted":"0","num_feature":"57","num_nodes":"75","size_leaf_vector":"1"}},{"base_weights":[-4.4986207E-2,-3.0031182E-2,-8.256951E-1,-2.0602131E-2,-6.8190765E-1,-9.6302617E-1,-4.5100302E-1,5.1303734E-3,-2.7404523E-1,-9.964602E-1,-3.261701E-1,-2.9470545E-1,-6.2248938E-2,-2.6916358E-1,-5.9580483E-2,-1.926512E-1,3.609422E-2,7.654127E-2,-6.734805E-1,-2.7626155E-2,-3.0853748E-1,3.2876286E-1,-6.846582E-1,1.4029017E-1,-2.1466047E-1,-8.34011E-3,-8.2405096E-1,-1.6337915E-1,7.487004E-2,4.8007578E-1,-5.296278E-1,-7.652276E-1,4.942685E-1,1.3349963E0,-5.867661E-1,-8.059075E-1,7.11126E-2,-1.10447265E-1,5.9357595E-1,-1.8950509E-2,8.615096E-1,-2.821978E-1,-4.4721466E-2,-2.6312158E-1,-2.1384431E-2,1.4691501E-2,1.2265602E-1,6.636265E-2,8.732767E-1,6.084036E-2,-2.737565E-1,-2.459174E-1,1.2531388E-1,-1.97616E-1,3.418605E-1,-2.0628545E-2,7.0252824E-1,9.077874E-2,-2.6178214E-1,-1.332288E-1,-2.830584E-1,-7.568334E-2,1.1555446E-1,6.4248316E-2,-1.5707988E-1,5.5757128E-2,2.1443275E-1],"categories":[],"categories_nodes":[],"categories_segments":[],"categories_sizes":[],"default_left":[0,0,0,0,0,0,0,0,0,0,0,0,0,0,0,0,0,0,0,0,0,0,0,0,0,0,0,0,0,0,0,0,0,0,0,0,0,0,0,0,0,0,0,0,0,0,0,0,0,0,0,0,0,0,0,0,0,0,0,0,0,0,0,0,0,0,0],"id":13,"left_children":[1,3,5,7,9,11,13,15,17,19,21,-1,-1,-1,23,25,27,29,31,-1,-1,33,35,37,-1,39,41,43,45,47,49,51,53,55,57,59,61,63,65,-1,-1,-1,-1,-1,-1,-1,-1,-1,-1,-1,-1,-1,-1,-1,-1,-1,-1,-1,-1,-1,-1,-1,-1,-1,-1,-1,-1],"loss_changes":[4.2703854E1,2.2064024E1,3.1032486E0,2.3099707E1,5.402315E0,5.178604E-1,3.4955559E0,1.9703669E1,4.5769646E1,6.7729187E-1,6.2135053E0,0E0,0E0,0E0,1.659974E0,5.0676884E1,2.1528355E1,4.3003727E1,1.6738861E1,0E0,0E0,9.717526E0,1.5975223E0,1.1968421E0,0E0,5.3574276E1,7.604454E0,2.9716408E1,2.0130981E1,6.570839E1,1.990625E1,9.495079E0,9.478603E0,7.1219864E0,1.7315266E0,3.0622292E-1,4.2651546E-1,1.0846863E0,5.0082445E-2,0E0,0E0,0E0,0E0,0E0,0E0,0E0,0E0,0E0,0E0,0E0,0E0,0E0,0E0,0E0,0E0,0E0,0E0,0E0,0E0,0E0,0E0,0E0,0E0,0E0,0E0,0E0,0E0],"parents":[2147483647,0,0,1,1,2,2,3,3,4,4,5,5,6,6,7,7,8,8,9,9,10,10,14,14,15,15,16,16,17,17,18,18,21,21,22,22,23,23,25,25,26,26,27,27,28,28,29,29,30,30,31,31,32,32,33,33,34,34,35,35,36,36,37,37,38,38],"right_children":[2,4,6,8,10,12,14,16,18,20,22,-1,-1,-1,24,26,28,30,32,-1,-1,34,36,38,-1,40,42,44,46,48,50,52,54,56,58,60,62,64,66,-1,-1,-1,-1,-1,-1,-1,-1,-1,-1,-1,-1,-1,-1,-1,-1,-1,-1,-1,-1,-1,-1,-1,-1,-1,-1,-1,-1],"split_conditions":[2.135E3,5.889594E4,2.692E3,1.1034E2,6.6E1,8.11E2,1E0,1.83E2,2.1E1,2.14E0,3.8E1,-2.9470545E-1,-6.2248938E-2,-2.6916358E-1,2E0,1.5469E3,2.5E1,1.26E3,2.4266E2,-2.7626155E-2,-3.0853748E-1,1.25E1,4.64E2,5.1E1,-2.1466047E-1,2.2155E2,3E1,5.03E0,4.41E2,4.6601E2,1.2514E2,9.819E3,1.487E3,7.245E1,1E0,1.25E2,4.2E1,1.8E1,4.9349E2,-1.8950509E-2,8.615096E-1,-2.821978E-1,-4.4721466E-2,-2.6312158E-1,-2.1384431E-2,1.4691501E-2,1.2265602E-1,6.636265E-2,8.732767E-1,6.084036E-2,-2.737565E-1,-2.459174E-1,1.2531388E-1,-1.97616E-1,3.418605E-1,-2.0628545E-2,7.0252824E-1,9.077874E-2,-2.6178214E-1,-1.332288E-1,-2.830584E-1,-7.568334E-2,1.1555446E-1,6.4248316E-2,-1.5707988E-1,5.5757128E-2,2.1443275E-1],"split_indices":[27,31,27,33,22,44,37,27,36,0,41,0,0,0,1,31,41,31,33,0,0,8,44,22,0,35,51,17,46,32,33,21,27,0,24,41,46,22,32,0,0,0,0,0,0,0,0,0,0,0,0,0,0,0,0,0,0,0,0,0,0,0,0,0,0,0,0],"split_type":[0,0,0,0,0,0,0,0,0,0,0,0,0,0,0,0,0,0,0,0,0,0,0,0,0,0,0,0,0,0,0,0,0,0,0,0,0,0,0,0,0,0,0,0,0,0,0,0,0,0,0,0,0,0,0,0,0,0,0,0,0,0,0,0,0,0,0],"sum_hessian":[3.6586782E3,3.59093E3,6.7748314E1,3.5407466E3,5.018343E1,4.8428326E1,1.9319984E1,3.2152742E3,3.254724E2,2.5677553E1,2.4505877E1,4.6927765E1,1.5005602E0,8.424335E0,1.089565E1,4.3452484E2,2.7807493E3,1.737657E2,1.5170673E2,1.0099825E0,2.4667572E1,8.698054E0,1.5807822E1,8.953598E0,1.9420518E0,3.3712756E2,9.739726E1,4.5205292E2,2.3286963E3,1.0444401E2,6.932169E1,1.4097534E2,1.07313795E1,3.925487E0,4.7725673E0,1.3565203E1,2.2426198E0,6.25175E0,2.7018483E0,3.3178925E2,5.338315E0,8.2714096E1,1.4683165E1,5.069317E1,4.0135977E2,2.1621792E3,1.6651721E2,9.537797E1,9.066039E0,2.3959826E1,4.536187E1,1.3506029E2,5.91506E0,3.8432515E0,6.8881283E0,2.0286236E0,1.8968635E0,1.14656E0,3.6260073E0,4.9027023E0,8.6625E0,1.2018466E0,1.0407732E0,3.7707572E0,2.4809928E0,1.1996561E0,1.5021921E0],"tree_param":{"num_deleted":"0","num_feature":"57","num_nodes":"67","size_leaf_vector":"1"}},{"base_weights":[-3.608161E-2,-2.4619175E-2,-7.887705E-1,-2.9014718E-2,1.1703947E0,-9.4927377E-1,-4.0123832E-1,1.7126733E-1,-5.3426784E-2,-6.1067915E-1,4.820833E-1,-2.9238206E-1,-5.3261478E-2,-2.6045573E-1,-5.1346697E-2,-8.279964E-3,5.211616E-1,-2.7134264E-1,-2.2056954E-2,6.705131E-2,-3.2266062E-1,-1.9671793E-1,1.3789122E-1,1.365187E-1,-1.2596616E0,-4.0116552E-1,7.787773E-1,4.942822E-2,-4.5146918E-1,1.7769127E0,-3.2276485E-2,2.9378155E-1,-1.6763313E-1,2.2311112E-1,-4.0422276E-2,1.166232E-1,-4.3225333E-1,1.3824707E-1,-4.2224458E-1,2.9748654E-1,-2.9016975E-1,-7.1190265E-3,6.688188E-1,-1.610789E-1,1.8911622E-1,-1.7972583E-1,9.018593E-1,1.1302632E-3,-6.2555104E-2,-1.9762969E-2,1.7017701E-1],"categories":[],"categories_nodes":[],"categories_segments":[],"categories_sizes":[],"default_left":[0,1,0,0,0,0,0,0,0,0,0,0,0,0,0,0,0,0,0,0,0,0,0,0,0,0,0,0,0,0,0,0,0,0,0,0,0,0,0,0,0,0,0,0,0,0,0,0,0,0,0],"id":14,"left_children":[1,3,5,7,9,11,13,15,17,19,-1,-1,-1,-1,21,23,25,27,29,-1,-1,-1,31,33,35,37,39,41,43,45,47,49,-1,-1,-1,-1,-1,-1,-1,-1,-1,-1,-1,-1,-1,-1,-1,-1,-1,-1,-1],"loss_changes":[3.1031488E1,1.866041E1,2.9750366E0,1.7288067E1,1.1104412E1,5.58548E-1,2.8200672E0,2.414043E1,2.1533058E1,1.5152344E0,0E0,0E0,0E0,0E0,1.3583344E0,4.635742E1,3.1273907E1,2.2926556E1,5.0714798E1,0E0,0E0,0E0,1.1707798E0,3.7876305E1,8.484375E0,2.589925E1,3.8938255E1,2.2931175E1,2.3818203E1,4.7313583E1,1.741176E1,8.4678924E-1,0E0,0E0,0E0,0E0,0E0,0E0,0E0,0E0,0E0,0E0,0E0,0E0,0E0,0E0,0E0,0E0,0E0,0E0,0E0],"parents":[2147483647,0,0,1,1,2,2,3,3,4,4,5,5,6,6,7,7,8,8,9,9,14,14,15,15,16,16,17,17,18,18,22,22,23,23,24,24,25,25,26,26,27,27,28,28,29,29,30,30,31,31],"right_children":[2,4,6,8,10,12,14,16,18,20,-1,-1,-1,-1,22,24,26,28,30,-1,-1,-1,32,34,36,38,40,42,44,46,48,50,-1,-1,-1,-1,-1,-1,-1,-1,-1,-1,-1,-1,-1,-1,-1,-1,-1,-1,-1],"split_conditions":[2.135E3,1.356E3,2.692E3,1.44E1,4.14E1,8.11E2,1E0,9.131E3,3.5999E2,4.2E1,4.820833E-1,-2.9238206E-1,-5.3261478E-2,-2.6045573E-1,7.7336E2,7.786E3,6.86E0,6.67E0,3.6858E2,6.705131E-2,-3.2266062E-1,-1.9671793E-1,1.9375E2,1.1E1,7.3E0,6.75E0,3.6858E2,5.57E2,6.43E2,2.134E3,2E0,4.999E3,-1.6763313E-1,2.2311112E-1,-4.0422276E-2,1.166232E-1,-4.3225333E-1,1.3824707E-1,-4.2224458E-1,2.9748654E-1,-2.9016975E-1,-7.1190265E-3,6.688188E-1,-1.610789E-1,1.8911622E-1,-1.7972583E-1,9.018593E-1,1.1302632E-3,-6.2555104E-2,-1.9762969E-2,1.7017701E-1],"split_indices":[27,36,27,35,35,44,37,21,31,22,0,0,0,0,29,21,32,17,31,0,0,0,33,19,32,33,31,44,42,27,13,21,0,0,0,0,0,0,0,0,0,0,0,0,0,0,0,0,0,0,0],"split_type":[0,0,0,0,0,0,0,0,0,0,0,0,0,0,0,0,0,0,0,0,0,0,0,0,0,0,0,0,0,0,0,0,0,0,0,0,0,0,0,0,0,0,0,0,0,0,0,0,0,0,0],"sum_hessian":[3.598001E3,3.5450474E3,5.2953568E1,3.5330278E3,1.2019592E1,3.6420036E1,1.6533531E1,3.8319495E2,3.1498328E3,2.2875917E0,9.732E0,3.5007984E1,1.4120516E0,6.4475985E0,1.0085934E1,2.5388889E2,1.2930606E2,3.9540878E2,2.754424E3,1.0043983E0,1.2831933E0,1.8171881E0,8.268745E0,2.2835643E2,2.5532455E1,2.8109602E1,1.0119646E2,1.4245297E2,2.5295581E2,1.4582352E1,2.7398418E3,7.2293673E0,1.0393778E0,6.9977585E1,1.5837885E2,2.415015E0,2.3117441E1,1.5432512E1,1.2677091E1,9.05858E1,1.0610652E1,1.3878456E2,3.668406E0,2.3490349E2,1.8052334E1,5.1469083E0,9.435444E0,2.2754534E3,4.6438828E2,3.450539E0,3.7788284E0],"tree_param":{"num_deleted":"0","num_feature":"57","num_nodes":"51","size_leaf_vector":"1"}},{"base_weights":[-2.7267901E-2,-1.8418124E-2,-7.505366E-1,1.1953414E-2,-1.665366E-1,-9.320255E-1,-3.6555254E-1,9.179801E-2,-1.02900155E-1,-4.989908E-2,-9.8548E-1,-2.8948417E-1,-4.5498714E-2,3.3987042E-1,-5.7705367E-1,6.7011595E-2,1.5714885E0,-8.042748E-1,1.4226061E-2,-3.4425455E-1,2.1672857E-1,-1.098517E0,3.6062333E-1,-6.661637E-2,1.778205E-1,-3.9045945E-2,-7.365574E-1,5.040425E-2,8.648328E-1,3.021136E-1,1.960737E0,-8.9476174E-1,6.0722446E-1,-2.9058453E-1,4.0018477E-2,-2.0693117E-1,-1.0380172E0,3.6188954E-1,-9.958029E-1,-3.5095382E-1,2.5340518E-1,-8.752677E-2,8.048415E-2,-2.6584736E-1,5.1203337E-3,2.012603E-1,8.621555E-3,-1.5804844E-1,4.3327752E-1,3.785678E-1,-1.3179849E-1,6.59655E-1,3.2367656E-1,1.0943227E-1,-2.819044E-1,-6.4639315E-2,3.5209775E-1,-1.3577327E-1,2.8254207E-2,-8.4469505E-2,2.4450228E-1,-3.7865385E-1,1.5036142E-1,1.6698177E-1,-7.559026E-2,-1.9131137E-1,-3.7645367E-1],"categories":[],"categories_nodes":[],"categories_segments":[],"categories_sizes":[],"default_left":[0,0,0,0,0,0,0,0,0,0,0,0,0,0,0,0,0,0,0,0,0,0,0,0,0,0,0,0,0,0,0,0,0,0,0,0,0,0,0,0,0,0,0,0,0,0,0,0,0,0,0,0,0,0,0,0,0,0,0,0,0,0,0,0,0,0,0],"id":15,"left_children":[1,3,5,7,9,11,13,15,17,19,21,-1,-1,23,25,27,29,31,33,35,37,39,-1,-1,-1,41,43,45,47,49,51,53,55,-1,57,59,61,63,65,-1,-1,-1,-1,-1,-1,-1,-1,-1,-1,-1,-1,-1,-1,-1,-1,-1,-1,-1,-1,-1,-1,-1,-1,-1,-1,-1,-1],"loss_changes":[2.2712263E1,1.5785873E1,2.6562576E0,2.671873E1,5.6984516E1,5.85989E-1,2.4919221E0,6.2928432E1,9.817076E1,4.1176666E1,1.9714027E1,0E0,0E0,7.253752E-1,1.0189395E0,2.2366714E1,1.3376137E1,2.2384338E1,2.6019423E1,2.3535585E1,4.883564E1,1.0864243E1,0E0,0E0,0E0,3.7711433E-1,1.0705156E0,2.2268278E1,2.8522203E1,6.1169124E0,2.132286E0,9.457809E0,5.3312664E0,0E0,2.6713017E1,1.6197075E1,1.4759426E1,2.962732E1,1.9559975E0,0E0,0E0,0E0,0E0,0E0,0E0,0E0,0E0,0E0,0E0,0E0,0E0,0E0,0E0,0E0,0E0,0E0,0E0,0E0,0E0,0E0,0E0,0E0,0E0,0E0,0E0,0E0,0E0],"parents":[2147483647,0,0,1,1,2,2,3,3,4,4,5,5,6,6,7,7,8,8,9,9,10,10,13,13,14,14,15,15,16,16,17,17,18,18,19,19,20,20,21,21,25,25,26,26,27,27,28,28,29,29,30,30,31,31,32,32,34,34,35,35,36,36,37,37,38,38],"right_children":[2,4,6,8,10,12,14,16,18,20,22,-1,-1,24,26,28,30,32,34,36,38,40,-1,-1,-1,42,44,46,48,50,52,54,56,-1,58,60,62,64,66,-1,-1,-1,-1,-1,-1,-1,-1,-1,-1,-1,-1,-1,-1,-1,-1,-1,-1,-1,-1,-1,-1,-1,-1,-1,-1,-1,-1],"split_conditions":[2.135E3,5.72E0,2.692E3,6.74582E3,2.16899E3,8.11E2,1.1E1,7.73365E3,3.12337E3,7.8074E2,7.73365E3,-2.8948417E-1,-4.5498714E-2,2.52E1,2.728E3,1.4185E2,2.132E3,1.5E3,1.83E2,1.06888E3,3E1,1.0037E4,3.6062333E-1,-6.661637E-2,1.778205E-1,1.7363E2,6.6E1,2.21E3,1.636E1,3.8E1,8.697E3,7.73365E3,1E0,-2.9058453E-1,9.51926E3,9.375E1,1.3415E2,1.2576E2,2.75E2,-3.5095382E-1,2.5340518E-1,-8.752677E-2,8.048415E-2,-2.6584736E-1,5.1203337E-3,2.012603E-1,8.621555E-3,-1.5804844E-1,4.3327752E-1,3.785678E-1,-1.3179849E-1,6.59655E-1,3.2367656E-1,1.0943227E-1,-2.819044E-1,-6.4639315E-2,3.5209775E-1,-1.3577327E-1,2.8254207E-2,-8.4469505E-2,2.4450228E-1,-3.7865385E-1,1.5036142E-1,1.6698177E-1,-7.559026E-2,-1.9131137E-1,-3.7645367E-1],"split_indices":[27,34,27,31,31,44,36,29,32,31,29,0,0,6,27,33,27,6,27,29,36,21,0,0,0,33,22,21,16,43,21,29,26,0,31,35,33,33,27,0,0,0,0,0,0,0,0,0,0,0,0,0,0,0,0,0,0,0,0,0,0,0,0,0,0,0,0],"split_type":[0,0,0,0,0,0,0,0,0,0,0,0,0,0,0,0,0,0,0,0,0,0,0,0,0,0,0,0,0,0,0,0,0,0,0,0,0,0,0,0,0,0,0,0,0,0,0,0,0,0,0,0,0,0,0,0,0,0,0,0,0,0,0,0,0,0,0],"sum_hessian":[3.549525E3,3.5076316E3,4.189324E1,2.9115422E3,5.9608936E2,2.7505621E1,1.4387622E1,1.7176539E3,1.1938883E3,5.227044E2,7.338493E1,2.6165236E1,1.3403856E0,3.1787024E0,1.120892E1,1.6903834E3,2.7270466E1,1.7000406E2,1.0238842E3,2.4829593E2,2.744085E2,7.0252625E1,3.132306E0,1.0243027E0,2.1543996E0,2.8478591E0,8.361061E0,1.6569557E3,3.3427795E1,6.816706E0,2.045376E1,1.6010623E2,9.897834E0,2.5247646E1,9.986366E2,2.0835283E2,3.9943092E1,2.45696E2,2.8712515E1,6.8149055E1,2.1035683E0,1.5905983E0,1.2572608E0,6.829493E0,1.5315675E0,5.4895447E1,1.6020602E3,9.853203E0,2.3574593E1,2.6649923E0,4.1517143E0,1.4928996E1,5.524764E0,5.2681303E0,1.5483809E2,4.2886367E0,5.6091967E0,9.819688E1,9.004397E2,1.9484729E2,1.3505537E1,3.5022617E1,4.9204783E0,1.865996E2,5.9096394E1,1.3505038E1,1.5207476E1],"tree_param":{"num_deleted":"0","num_feature":"57","num_nodes":"67","size_leaf_vector":"1"}},{"base_weights":[-2.3497066E-2,-5.068863E-3,-3.193372E-1,-4.277516E-2,2.3117602E-1,-8.1295073E-1,-3.850231E-2,-1.0594432E-3,-6.9137424E-1,5.955322E-2,6.391623E-1,-6.540446E-2,-1.031423E0,5.925113E-1,-3.2643625E-1,-3.5874553E-2,5.011156E-1,-8.00828E-1,2.5148022E-1,2.2964199E-1,-3.5479063E-1,-1.119193E-1,9.296813E-1,6.8236333E-1,-3.9461E-1,-3.3907142E-1,-2.3691105E-2,-2.9372707E-1,9.8815036E-1,-1.0903951E-1,-3.0469605E-1,-2.993295E-3,-9.3462664E-1,6.9172055E-1,-9.352569E-1,-9.384806E-1,3.100251E-1,3.6546063E-1,-6.748592E-1,3.810722E-1,-1.1367686E0,-3.045535E-1,6.5910375E-1,-4.9738535E-1,1.0994395E0,1.3357306E0,-2.2997658E-1,-7.9126865E-2,-2.788404E-1,-3.80316E-1,2.5041193E-1,-8.9522165E-1,5.9707814E-1,1.1419237E0,-2.339005E-1,4.9129465E-1,-3.323598E-1,-3.799829E-3,2.112112E-1,-3.056627E-1,1.4060289E-1,3.7305322E-1,1.2899609E-1,2.2988585E-1,-3.1812188E-1,-3.1076682E-1,-3.4919947E-2,-2.6838198E-1,3.1398186E-1,3.82052E-2,2.3386633E-1,1.1367473E-1,-3.0600062E-1,-4.888438E-2,2.5028422E-1,-3.4706306E-1,-4.6668667E-2,4.2627044E-2,-2.702438E-1,3.4173357E-1,-2.3446889E-1,-5.1886505E-1,2.0236157E-1,6.003756E-1,3.0623332E-1,-1.8997465E-1,6.746657E-1,-1.5399839E-1,4.0976048E-1,-2.963766E-1,-3.5514526E-2,3.1524676E-1,-1.820112E-1,1.725708E-1,3.9032677E-1,-7.623626E-2,2.4139233E-1,-5.279759E-2,-2.7533364E-1],"categories":[],"categories_nodes":[],"categories_segments":[],"categories_sizes":[],"default_left":[0,0,0,0,0,0,0,0,0,0,0,0,0,0,0,0,0,0,0,0,0,0,0,0,0,0,0,0,0,0,0,0,0,0,0,0,0,0,0,0,0,0,0,0,0,0,0,0,0,0,0,0,0,0,0,0,0,0,0,0,0,0,0,0,0,0,0,0,0,0,0,0,0,0,0,0,0,0,0,0,0,0,0,0,0,0,0,0,0,0,0,0,0,0,0,0,0,0,0],"id":16,"left_children":[1,3,5,7,9,11,13,15,17,19,21,23,25,27,29,31,33,35,-1,37,39,41,43,45,47,-1,49,51,53,55,-1,57,59,61,63,65,67,69,71,73,75,77,79,81,83,85,-1,87,-1,-1,-1,89,91,93,-1,95,97,-1,-1,-1,-1,-1,-1,-1,-1,-1,-1,-1,-1,-1,-1,-1,-1,-1,-1,-1,-1,-1,-1,-1,-1,-1,-1,-1,-1,-1,-1,-1,-1,-1,-1,-1,-1,-1,-1,-1,-1,-1,-1],"loss_changes":[1.9096003E1,2.939354E1,2.84412E1,7.698736E1,3.1762882E1,1.2088535E1,2.4169716E1,4.6776657E1,2.9459648E1,2.2689465E1,2.9425743E1,4.6759224E0,5.7020493E0,1.4912612E1,1.3562983E1,7.393704E1,4.8137707E1,2.4906235E1,0E0,2.826083E1,5.438201E1,5.900045E0,2.4046944E1,6.551057E0,2.1306221E0,0E0,7.635089E0,7.8441553E0,8.790346E0,9.614545E0,0E0,1.6523058E1,1.0917358E1,2.1665367E1,5.2305603E0,1.1368752E1,1.7351532E1,1.951385E1,1.1342275E1,1.2229504E1,7.217903E-1,8.486557E0,6.4133406E0,1.7052292E1,4.1290665E0,9.314529E0,0E0,6.541988E0,0E0,0E0,0E0,4.9829674E-1,3.9686272E0,1.6996155E0,0E0,4.763247E0,4.596684E0,0E0,0E0,0E0,0E0,0E0,0E0,0E0,0E0,0E0,0E0,0E0,0E0,0E0,0E0,0E0,0E0,0E0,0E0,0E0,0E0,0E0,0E0,0E0,0E0,0E0,0E0,0E0,0E0,0E0,0E0,0E0,0E0,0E0,0E0,0E0,0E0,0E0,0E0,0E0,0E0,0E0,0E0],"parents":[2147483647,0,0,1,1,2,2,3,3,4,4,5,5,6,6,7,7,8,8,9,9,10,10,11,11,12,12,13,13,14,14,15,15,16,16,17,17,19,19,20,20,21,21,22,22,23,23,24,24,26,26,27,27,28,28,29,29,31,31,32,32,33,33,34,34,35,35,36,36,37,37,38,38,39,39,40,40,41,41,42,42,43,43,44,44,45,45,47,47,51,51,52,52,53,53,55,55,56,56],"right_children":[2,4,6,8,10,12,14,16,18,20,22,24,26,28,30,32,34,36,-1,38,40,42,44,46,48,-1,50,52,54,56,-1,58,60,62,64,66,68,70,72,74,76,78,80,82,84,86,-1,88,-1,-1,-1,90,92,94,-1,96,98,-1,-1,-1,-1,-1,-1,-1,-1,-1,-1,-1,-1,-1,-1,-1,-1,-1,-1,-1,-1,-1,-1,-1,-1,-1,-1,-1,-1,-1,-1,-1,-1,-1,-1,-1,-1,-1,-1,-1,-1,-1,-1],"split_conditions":[1.041528E4,5.16016E3,1.382409E4,1.570725E4,5.3E1,2.75E2,1.493692E4,9.51926E3,7.1E1,1E0,1.487E3,4.7E1,6.3E1,4.71879E3,2.074E3,8.196E3,5.6E1,9.931E3,2.5148022E-1,4.4E1,2.126E3,1.344E2,6.67E0,2.93E2,3E0,-3.3907142E-1,4.017E1,1.25E2,8.370459E4,1.712487E4,-3.0469605E-1,3.41886E3,4.17823E3,1.25304E3,2.2E1,3.5E1,2.134E3,2.53843E3,2.75E2,2.42591E3,6E2,9.016E1,9.66E2,1.96E2,5.2276E3,4E1,-2.2997658E-1,9.7E1,-2.788404E-1,-3.80316E-1,2.5041193E-1,1.28E2,1.6E1,2E0,-2.339005E-1,9E0,2.75E2,-3.799829E-3,2.112112E-1,-3.056627E-1,1.4060289E-1,3.7305322E-1,1.2899609E-1,2.2988585E-1,-3.1812188E-1,-3.1076682E-1,-3.4919947E-2,-2.6838198E-1,3.1398186E-1,3.82052E-2,2.3386633E-1,1.1367473E-1,-3.0600062E-1,-4.888438E-2,2.5028422E-1,-3.4706306E-1,-4.6668667E-2,4.2627044E-2,-2.702438E-1,3.4173357E-1,-2.3446889E-1,-5.1886505E-1,2.0236157E-1,6.003756E-1,3.0623332E-1,-1.8997465E-1,6.746657E-1,-1.5399839E-1,4.0976048E-1,-2.963766E-1,-3.5514526E-2,3.1524676E-1,-1.820112E-1,1.725708E-1,3.9032677E-1,-7.623626E-2,2.4139233E-1,-5.279759E-2,-2.7533364E-1],"split_indices":[32,32,32,29,22,27,32,31,22,24,27,22,22,35,27,31,22,21,0,22,27,6,17,41,45,0,6,41,29,32,0,32,32,35,19,17,27,35,27,35,44,0,0,41,32,41,0,43,0,0,0,42,19,42,0,44,27,0,0,0,0,0,0,0,0,0,0,0,0,0,0,0,0,0,0,0,0,0,0,0,0,0,0,0,0,0,0,0,0,0,0,0,0,0,0,0,0,0,0],"split_type":[0,0,0,0,0,0,0,0,0,0,0,0,0,0,0,0,0,0,0,0,0,0,0,0,0,0,0,0,0,0,0,0,0,0,0,0,0,0,0,0,0,0,0,0,0,0,0,0,0,0,0,0,0,0,0,0,0,0,0,0,0,0,0,0,0,0,0,0,0,0,0,0,0,0,0,0,0,0,0,0,0,0,0,0,0,0,0,0,0,0,0,0,0,0,0,0,0,0,0],"sum_hessian":[3.5019927E3,3.2975986E3,2.0439388E2,2.8444275E3,4.5317114E2,7.343137E1,1.3096251E2,2.67348E3,1.7094763E2,3.197934E2,1.3337776E2,1.6900911E1,5.6530464E1,4.0703056E1,9.0259445E1,2.5010164E3,1.7246349E2,1.5997691E2,1.0970714E1,2.2703923E2,9.275417E1,3.7372646E1,9.600511E1,4.8382955E0,1.2062615E1,5.1371563E1,5.158903E0,1.2642106E1,2.806095E1,6.9496635E1,2.0762812E1,2.413713E3,8.730347E1,1.527166E2,1.9746883E1,1.424769E2,1.7500017E1,1.9791634E2,2.9122889E1,4.8050243E1,4.4703926E1,3.0385952E1,6.9866962E0,1.0001113E1,8.6004E1,3.3884861E0,1.4498096E0,8.309337E0,3.7532783E0,1.9116328E0,3.24727E0,7.543549E0,5.098557E0,2.6141119E1,1.9198301E0,1.8517517E1,5.0979122E1,2.3821057E3,3.1607218E1,8.261738E1,4.6860843E0,4.7926422E1,1.0479018E2,1.0019052E0,1.8744978E1,1.2715067E2,1.5326226E1,6.5588675E0,1.094115E1,1.2649018E2,7.1426155E1,7.161094E0,2.1961794E1,2.2128365E1,2.5921879E1,4.363075E1,1.073178E0,1.7808054E1,1.2577897E1,5.3976107E0,1.5890853E0,4.6433053E0,5.357807E0,4.939073E0,8.1064926E1,1.1707016E0,2.2177844E0,6.8851876E0,1.4241493E0,6.496593E0,1.0469563E0,3.7951195E0,1.3034372E0,6.744016E0,1.9397102E1,5.5362988E0,1.2981217E1,4.125923E1,9.719888E0],"tree_param":{"num_deleted":"0","num_feature":"57","num_nodes":"99","size_leaf_vector":"1"}},{"base_weights":[-2.016491E-2,-1.3458376E-2,-6.922769E-1,-1.9465624E-1,1.0295944E-2,-9.0616333E-1,-3.1207892E-1,-2.594637E-1,9.3318635E-1,4.100972E-2,-1.8569627E-1,-2.85434E-1,-7.4801384E-3,-2.3946545E-1,-3.248368E-2,-4.5593122E-1,1.009633E-1,4.1179964E-1,1.244481E0,5.5319052E-2,-4.1337225E-1,-2.4605146E-1,6.711033E-1,-3.2783774E-1,2.9506755E-1,-2.30586E-2,-6.285999E-1,6.4845186E-1,-1.963611E-1,-6.257525E-1,9.951579E-1,4.6651632E-1,3.2352936E-2,2.731621E-1,-8.849914E-1,-2.8889278E-1,5.661013E-1,1.6963525E0,4.524857E-2,7.173923E-2,-2.1939026E-1,2.0400482E-1,-4.6330452E-2,1.7693403E-1,-2.2753872E-1,-2.1591567E-1,7.896976E-2,-2.2731133E-2,5.5188954E-1,-2.8159E-1,2.4459604E-2,-2.672479E-1,1.1491023E-1,-2.3918954E-1,3.7169397E-1,7.216429E-2,3.669291E-1,-7.136673E-2,1.673856E-2,1.959514E-1,-8.674181E-3,-3.347363E-1,-7.2205976E-2,-9.526289E-2,2.7558786E-1,3.19601E-1,-3.490698E-1,-1.1945731E-1,6.4668906E-1,1.5510182E-1,-3.108083E-1,-1.723945E-1,1.3621974E-1],"categories":[],"categories_nodes":[],"categories_segments":[],"categories_sizes":[],"default_left":[0,0,0,0,0,0,0,0,0,0,0,0,0,0,0,0,0,0,0,0,0,0,0,0,0,0,0,0,0,0,0,0,0,0,0,0,0,0,0,0,0,0,0,0,0,0,0,0,0,0,0,0,0,0,0,0,0,0,0,0,0,0,0,0,0,0,0,0,0,0,0,0,0],"id":17,"left_children":[1,3,5,7,9,11,13,15,17,19,21,-1,-1,-1,23,25,27,29,-1,31,33,35,37,39,41,43,45,47,49,51,53,55,57,59,61,63,65,67,69,-1,-1,-1,71,-1,-1,-1,-1,-1,-1,-1,-1,-1,-1,-1,-1,-1,-1,-1,-1,-1,-1,-1,-1,-1,-1,-1,-1,-1,-1,-1,-1,-1,-1],"loss_changes":[1.5287225E1,1.4468682E1,2.4419994E0,2.8719019E1,1.790067E1,8.1103134E-1,1.8211023E0,2.6190758E1,3.414456E1,1.6736355E1,2.099907E1,0E0,0E0,0E0,1.0322012E0,1.7859577E1,2.1463703E1,1.2433719E1,0E0,2.352739E1,2.5690441E1,1.3284288E1,1.7107277E1,1.4463594E0,7.0321953E-1,3.1647215E1,1.4078148E1,4.013543E1,1.7756325E1,2.383337E0,6.6155605E0,2.2238161E1,1.4977751E1,3.7806737E0,6.6948395E0,1.2706963E1,1.7847797E1,1.0597294E1,9.542382E0,0E0,0E0,0E0,1.2245587E0,0E0,0E0,0E0,0E0,0E0,0E0,0E0,0E0,0E0,0E0,0E0,0E0,0E0,0E0,0E0,0E0,0E0,0E0,0E0,0E0,0E0,0E0,0E0,0E0,0E0,0E0,0E0,0E0,0E0,0E0],"parents":[2147483647,0,0,1,1,2,2,3,3,4,4,5,5,6,6,7,7,8,8,9,9,10,10,14,14,15,15,16,16,17,17,19,19,20,20,21,21,22,22,23,23,24,24,25,25,26,26,27,27,28,28,29,29,30,30,31,31,32,32,33,33,34,34,35,35,36,36,37,37,38,38,42,42],"right_children":[2,4,6,8,10,12,14,16,18,20,22,-1,-1,-1,24,26,28,30,-1,32,34,36,38,40,42,44,46,48,50,52,54,56,58,60,62,64,66,68,70,-1,-1,-1,72,-1,-1,-1,-1,-1,-1,-1,-1,-1,-1,-1,-1,-1,-1,-1,-1,-1,-1,-1,-1,-1,-1,-1,-1,-1,-1,-1,-1,-1,-1],"split_conditions":[2.135E3,3.361E3,2.692E3,1.6595E2,7.3E1,5.62461E4,1E0,4.7E1,8.11E0,6E2,6.56E2,-2.85434E-1,-7.4801384E-3,-2.3946545E-1,1.766E2,2.21E3,5.4E1,2.086E3,1.244481E0,3.396E3,2.1E2,2.53E2,7.49E0,1.1E1,1.2E1,3.5E1,4E1,5.1E1,1E0,3.025E1,5.6E1,5.3E1,8E0,6.3E1,9.39E3,5.76E2,3E1,1E0,4.3413E2,7.173923E-2,-2.1939026E-1,2.0400482E-1,2.3E1,1.7693403E-1,-2.2753872E-1,-2.1591567E-1,7.896976E-2,-2.2731133E-2,5.5188954E-1,-2.8159E-1,2.4459604E-2,-2.672479E-1,1.1491023E-1,-2.3918954E-1,3.7169397E-1,7.216429E-2,3.669291E-1,-7.136673E-2,1.673856E-2,1.959514E-1,-8.674181E-3,-3.347363E-1,-7.2205976E-2,-9.526289E-2,2.7558786E-1,3.19601E-1,-3.490698E-1,-1.1945731E-1,6.4668906E-1,1.5510182E-1,-3.108083E-1,-1.723945E-1,1.3621974E-1],"split_indices":[27,21,27,33,48,31,37,22,20,45,45,0,0,0,35,21,22,27,0,21,47,52,17,19,22,22,22,22,24,17,21,22,20,6,21,49,12,24,29,0,0,0,19,0,0,0,0,0,0,0,0,0,0,0,0,0,0,0,0,0,0,0,0,0,0,0,0,0,0,0,0,0,0],"split_type":[0,0,0,0,0,0,0,0,0,0,0,0,0,0,0,0,0,0,0,0,0,0,0,0,0,0,0,0,0,0,0,0,0,0,0,0,0,0,0,0,0,0,0,0,0,0,0,0,0,0,0,0,0,0,0,0,0,0,0,0,0,0,0,0,0,0,0,0,0,0,0,0,0],"sum_hessian":[3.392543E3,3.3600356E3,3.250742E1,3.886002E2,2.9714353E3,1.9918535E1,1.2588885E1,3.6821213E2,2.0388048E1,2.5695535E3,4.018818E2,1.886923E1,1.049305E0,3.9193351E0,8.669551E0,2.3813861E2,1.3007353E2,1.8513773E1,1.8742756E0,2.4919556E3,7.759805E1,3.761011E2,2.578071E1,4.5583744E0,4.1111765E0,6.822788E1,1.6991072E2,4.5362595E1,8.471094E1,6.6368675E0,1.18769045E1,1.3079637E2,2.3611592E3,3.177056E1,4.5827488E1,3.5786774E2,1.8233355E1,9.123884E0,1.6656824E1,2.0645125E0,2.4938617E0,1.466145E0,2.6450315E0,3.732316E1,3.0904724E1,1.543352E2,1.55755205E1,2.8793127E1,1.6569466E1,2.2427584E1,6.228335E1,5.3484225E0,1.2884452E0,1.150321E0,1.0726584E1,1.0173039E2,2.9065973E1,1.8774063E2,2.1734185E3,1.3555532E1,1.8215027E1,3.3202324E1,1.2625164E1,3.5029355E2,7.5742073E0,1.4447455E1,3.7859E0,1.6647532E0,7.4591312E0,1.1960397E1,4.6964283E0,1.2144401E0,1.4305912E0],"tree_param":{"num_deleted":"0","num_feature":"57","num_nodes":"73","size_leaf_vector":"1"}},{"base_weights":[-1.7112346E-2,-2.1297108E-4,-2.6782104E-1,-1.0278362E-2,8.8081694E-1,-1.19470045E-1,-6.755766E-1,1.0566487E-3,-5.108437E-1,9.8967284E-1,-2.0992218E-1,-5.284132E-1,8.1589185E-2,-3.2000697E-1,2.9364344E-1,-1.5983062E-2,5.894353E-1,-6.70734E-1,2.7166986E-1,1.2930864E-1,1.1050042E0,-7.956489E-1,3.6992205E-5,-2.7848423E-1,3.1278008E-1,5.3645356E-4,-3.778607E-1,3.4487605E-1,9.5224226E-1,-3.112701E-1,-2.3111375E-1,-2.1704642E-1,2.2585322E-1,1.1412717E0,5.6293774E-2,-9.6229005E-1,-1.5246834E-1,9.765566E-1,-7.3876053E-1,-7.9939556E-1,6.345747E-1,6.029957E-1,-7.2758156E-1,1.0437243E-2,-5.0161224E-2,-2.4289411E-1,1.4251586E-2,6.968552E-2,3.073798E-1,-9.0546936E-2,3.5209483E-1,2.0505401E-1,-2.2736208E-1,3.5300982E-1,3.8954787E-2,-3.4595737E-1,-2.4466174E-2,2.4805598E-1,-1.2503158E-1,3.9028314E-1,-1.4944813E-1,3.0758314E-2,-2.802081E-1,-2.8042403E-1,-3.0976014E-2,-3.8915396E-1,2.6486138E-1,2.1428867E-1,-2.4248625E-1,2.2883762E-1,-2.7348825E-1],"categories":[],"categories_nodes":[],"categories_segments":[],"categories_sizes":[],"default_left":[0,0,0,0,0,0,0,0,0,0,0,0,0,0,0,0,0,0,0,0,0,0,0,0,0,0,0,0,0,0,0,0,0,0,0,0,0,0,0,0,0,0,0,0,0,0,0,0,0,0,0,0,0,0,0,0,0,0,0,0,0,0,0,0,0,0,0,0,0,0,0],"id":18,"left_children":[1,3,5,7,9,11,13,15,17,19,-1,21,23,-1,-1,25,27,29,-1,31,33,35,37,39,41,43,45,47,49,-1,51,-1,-1,53,-1,55,57,59,61,63,65,67,69,-1,-1,-1,-1,-1,-1,-1,-1,-1,-1,-1,-1,-1,-1,-1,-1,-1,-1,-1,-1,-1,-1,-1,-1,-1,-1,-1,-1],"loss_changes":[1.4206525E1,2.7875355E1,1.2728127E1,1.7634321E1,6.8014793E0,1.2908799E1,3.7455437E1,3.0488354E1,1.619299E1,3.1943855E0,0E0,7.302368E0,8.891729E0,0E0,0E0,1.7668066E1,7.265774E0,9.825445E0,0E0,3.2608767E0,7.681389E-1,3.5340767E0,1.3972038E1,2.0428722E1,2.0028423E1,1.6251802E1,2.3736416E1,3.7947383E0,9.7655735E0,0E0,1.4815924E1,0E0,0E0,8.5785675E-1,0E0,4.460188E0,2.4813223E0,4.6383824E0,1.9069514E0,2.4580898E0,8.71064E0,8.631729E0,4.701413E0,0E0,0E0,0E0,0E0,0E0,0E0,0E0,0E0,0E0,0E0,0E0,0E0,0E0,0E0,0E0,0E0,0E0,0E0,0E0,0E0,0E0,0E0,0E0,0E0,0E0,0E0,0E0,0E0],"parents":[2147483647,0,0,1,1,2,2,3,3,4,4,5,5,6,6,7,7,8,8,9,9,11,11,12,12,15,15,16,16,17,17,19,19,20,20,21,21,22,22,23,23,24,24,25,25,26,26,27,27,28,28,30,30,33,33,35,35,36,36,37,37,38,38,39,39,40,40,41,41,42,42],"right_children":[2,4,6,8,10,12,14,16,18,20,-1,22,24,-1,-1,26,28,30,-1,32,34,36,38,40,42,44,46,48,50,-1,52,-1,-1,54,-1,56,58,60,62,64,66,68,70,-1,-1,-1,-1,-1,-1,-1,-1,-1,-1,-1,-1,-1,-1,-1,-1,-1,-1,-1,-1,-1,-1,-1,-1,-1,-1,-1,-1],"split_conditions":[9.36926E3,8.82934E3,2.126E3,2.291967E4,4.946E3,7.056E1,6.7E1,1.976E4,1.0278E4,6.66E0,-2.0992218E-1,4E0,4.796E3,-3.2000697E-1,2.9364344E-1,1.9491E3,8.02E0,5.2276E3,2.7166986E-1,4.796E3,4.84E2,1.5E-1,4.65127E3,1E0,5.889594E4,5.6E1,1.8E1,3.5E1,7.05E0,-3.112701E-1,6.24926E3,-2.1704642E-1,2.2585322E-1,5.15E2,5.6293774E-2,2.787476E4,1.041528E4,2.678E1,8E0,6.429571E4,2.4E1,1.0092E4,1.69E0,1.0437243E-2,-5.0161224E-2,-2.4289411E-1,1.4251586E-2,6.968552E-2,3.073798E-1,-9.0546936E-2,3.5209483E-1,2.0505401E-1,-2.2736208E-1,3.5300982E-1,3.8954787E-2,-3.4595737E-1,-2.4466174E-2,2.4805598E-1,-1.2503158E-1,3.9028314E-1,-1.4944813E-1,3.0758314E-2,-2.802081E-1,-2.8042403E-1,-3.0976014E-2,-3.8915396E-1,2.6486138E-1,2.1428867E-1,-2.4248625E-1,2.2883762E-1,-2.7348825E-1],"split_indices":[32,32,27,31,21,7,22,31,21,0,0,46,21,0,0,35,20,32,0,21,45,10,35,24,31,22,19,48,17,0,32,0,0,42,0,32,32,0,43,31,16,21,8,0,0,0,0,0,0,0,0,0,0,0,0,0,0,0,0,0,0,0,0,0,0,0,0,0,0,0,0],"split_type":[0,0,0,0,0,0,0,0,0,0,0,0,0,0,0,0,0,0,0,0,0,0,0,0,0,0,0,0,0,0,0,0,0,0,0,0,0,0,0,0,0,0,0,0,0,0,0,0,0,0,0,0,0,0,0,0,0,0,0,0,0,0,0,0,0,0,0,0,0,0,0],"sum_hessian":[3.3521235E3,3.1413755E3,2.10748E2,3.1068691E3,3.450632E1,1.554754E2,5.5272594E1,3.0390496E3,6.781962E1,3.2632694E1,1.8736271E0,5.0708675E1,1.0476673E2,4.499143E1,1.0281168E1,2.95446E3,8.458965E1,6.1413464E1,6.406155E0,4.1080556E0,2.8524637E1,3.3342064E1,1.7366611E1,4.0884968E1,6.3881763E1,2.8264333E3,1.2802661E2,5.1694347E1,3.2895306E1,3.2736755E1,2.8676708E1,1.6673521E0,2.4407036E0,2.720501E1,1.3196282E0,2.6087046E1,7.2550154E0,7.3412957E0,1.0025315E1,2.611215E1,1.4772817E1,5.0277054E1,1.360471E1,2.347784E3,4.7864926E2,6.30855E1,6.494111E1,4.5499443E1,6.1949043E0,4.8817177E0,2.8013586E1,1.037125E1,1.8305458E1,2.6126451E1,1.0785583E0,2.1185667E1,4.90138E0,1.089538E0,6.1654773E0,6.1142135E0,1.2270824E0,1.9780397E0,8.047276E0,2.1574635E1,4.537517E0,1.2014191E0,1.3571398E1,4.70596E1,3.2174532E0,1.1497388E0,1.2454971E1],"tree_param":{"num_deleted":"0","num_feature":"57","num_nodes":"71","size_leaf_vector":"1"}},{"base_weights":[-1.3733904E-2,6.6135353E-3,-2.0769069E-1,-6.0820137E-3,7.2738683E-1,7.905887E-1,-2.7398098E-1,8.723548E-3,-2.7169552E-1,-4.3780133E-1,1.3837043E0,1.4606133E0,-6.603425E-1,-5.054011E-1,1.3440761E-1,3.2975618E-2,-1.550932E-1,5.040979E-2,-4.5805475E-1,8.934356E-1,-8.430146E-1,2.6040184E0,-1.0223753E-1,3.690977E-1,2.406314E0,1.01151206E-1,-2.6751298E-1,-2.6657596E-1,-1.0525995E0,5.024235E-1,-4.5487186E-1,-1.8575097E-2,1.2236141E-1,-5.2103037E-1,-4.7213323E-2,2.7780592E-1,-6.0339165E-1,-5.197622E-1,9.006851E-1,4.635223E-1,-1.8630725E-1,2.4165156E-1,-3.2640103E-1,1.5955461E0,1.9616785E0,-6.8203795E-1,4.734085E-1,-1.7030159E-1,6.2110937E-1,7.062914E-1,8.780556E-1,-4.9017724E-1,1.1544288E0,-1.0682352E0,-4.2665467E-2,-1.4826508E-1,1.0600437E0,3.2525975E-1,-7.502066E-1,-2.5674364E-2,1.0109231E-1,-1.590468E-2,7.716054E-2,-2.650624E-1,1.7002488E-2,1.3108751E-1,-3.7469868E-2,-2.1381657E-1,1.1618186E-1,-3.0725542E-1,6.984922E-2,-9.479583E-2,-2.8150725E-1,1.733597E-2,3.6911166E-1,2.75275E-1,-1.9206722E-1,-1.8239678E-1,6.757867E-1,2.344438E-1,-2.7055517E-1,6.880259E-2,2.633806E-1,-1.4969937E-2,3.3351046E-1,-2.0574862E-1,9.561352E-2,-1.6159026E-1,4.954348E-1,-3.2575247E-1,-9.0834565E-2,5.1167464E-1,-1.0247048E-1,1.03173435E-1,6.132924E-1,-2.4233384E-1,2.5167486E-1,-9.611734E-5,-2.8097603E-1],"categories":[],"categories_nodes":[],"categories_segments":[],"categories_sizes":[],"default_left":[0,0,0,0,0,0,0,0,0,0,0,0,0,0,0,0,0,0,0,0,0,0,0,0,0,0,0,0,0,0,0,0,1,0,0,0,0,0,0,0,0,0,0,0,0,0,0,0,0,0,0,0,0,0,0,0,0,0,0,0,0,0,0,0,0,0,0,0,0,0,0,0,0,0,0,0,0,0,0,0,0,0,0,0,0,0,0,0,0,0,0,0,0,0,0,0,0,0,0],"id":19,"left_children":[1,3,5,7,9,11,13,15,17,19,21,23,25,27,29,31,33,35,37,39,41,43,45,47,49,-1,-1,51,53,55,57,59,61,63,65,67,69,71,73,-1,-1,75,-1,-1,77,79,-1,-1,81,83,-1,85,87,89,-1,91,93,95,97,-1,-1,-1,-1,-1,-1,-1,-1,-1,-1,-1,-1,-1,-1,-1,-1,-1,-1,-1,-1,-1,-1,-1,-1,-1,-1,-1,-1,-1,-1,-1,-1,-1,-1,-1,-1,-1,-1,-1,-1],"loss_changes":[1.30240135E1,2.7341349E1,2.0951801E1,1.1551205E1,4.015601E1,2.0182617E1,2.7907024E1,1.1060252E1,9.332377E0,1.1215165E1,6.069194E1,1.3392784E1,1.9008904E0,2.4318195E1,2.3505554E1,1.1174749E1,1.4147955E1,8.752145E0,8.713642E0,5.9050746E0,4.3506727E0,2.1535667E1,1.665256E1,2.14759E0,4.3320007E0,0E0,0E0,4.262728E1,6.573334E-1,2.4302795E1,9.87191E0,3.6685314E1,2.0989244E1,1.7147417E1,1.0524887E1,4.995515E0,5.5924816E0,7.7817783E0,1.2178104E0,0E0,0E0,2.7647202E0,0E0,0E0,1.3638733E1,4.7533655E0,0E0,0E0,4.4955015E-1,9.792297E-1,0E0,1.8431376E1,1.6285486E1,4.224167E-1,0E0,1.1902215E1,2.4643066E1,7.7622204E0,4.2785454E0,0E0,0E0,0E0,0E0,0E0,0E0,0E0,0E0,0E0,0E0,0E0,0E0,0E0,0E0,0E0,0E0,0E0,0E0,0E0,0E0,0E0,0E0,0E0,0E0,0E0,0E0,0E0,0E0,0E0,0E0,0E0,0E0,0E0,0E0,0E0,0E0,0E0,0E0,0E0,0E0],"parents":[2147483647,0,0,1,1,2,2,3,3,4,4,5,5,6,6,7,7,8,8,9,9,10,10,11,11,12,12,13,13,14,14,15,15,16,16,17,17,18,18,19,19,20,20,21,21,22,22,23,23,24,24,27,27,28,28,29,29,30,30,31,31,32,32,33,33,34,34,35,35,36,36,37,37,38,38,41,41,44,44,45,45,48,48,49,49,51,51,52,52,53,53,55,55,56,56,57,57,58,58],"right_children":[2,4,6,8,10,12,14,16,18,20,22,24,26,28,30,32,34,36,38,40,42,44,46,48,50,-1,-1,52,54,56,58,60,62,64,66,68,70,72,74,-1,-1,76,-1,-1,78,80,-1,-1,82,84,-1,86,88,90,-1,92,94,96,98,-1,-1,-1,-1,-1,-1,-1,-1,-1,-1,-1,-1,-1,-1,-1,-1,-1,-1,-1,-1,-1,-1,-1,-1,-1,-1,-1,-1,-1,-1,-1,-1,-1,-1,-1,-1,-1,-1,-1,-1],"split_conditions":[1.071E2,1.0317E2,7.1654E2,4E0,9.3355E2,2.1E1,1.3473E2,7.3E1,2.999E1,1E0,4.4023E2,4.227E1,3.97E2,1.2576E2,1.18343E3,2E0,7.1E1,2.39E2,5.95E2,1.6558E2,6E0,8E0,1.66156E3,9.792E3,4.796E3,1.01151206E-1,-2.6751298E-1,1.2369E2,2.135E3,1.0554E2,2.658E3,1.914E1,9E0,2.086E3,4E1,2.3798E2,2.604E2,5.6438E2,8E2,4.635223E-1,-1.8630725E-1,4.8E0,-3.2640103E-1,1.5955461E0,4.3E1,1.644E2,4.734085E-1,-1.7030159E-1,9.475E-1,4.718E2,8.780556E-1,9.854E3,3.7E1,4.26E2,-4.2665467E-2,1.3747E2,1.6E1,1.7363E2,1.4525E2,-2.5674364E-2,1.0109231E-1,-1.590468E-2,7.716054E-2,-2.650624E-1,1.7002488E-2,1.3108751E-1,-3.7469868E-2,-2.1381657E-1,1.1618186E-1,-3.0725542E-1,6.984922E-2,-9.479583E-2,-2.8150725E-1,1.733597E-2,3.6911166E-1,2.75275E-1,-1.9206722E-1,-1.8239678E-1,6.757867E-1,2.344438E-1,-2.7055517E-1,6.880259E-2,2.633806E-1,-1.4969937E-2,3.3351046E-1,-2.0574862E-1,9.561352E-2,-1.6159026E-1,4.954348E-1,-3.2575247E-1,-9.0834565E-2,5.1167464E-1,-1.0247048E-1,1.03173435E-1,6.132924E-1,-2.4233384E-1,2.5167486E-1,-9.611734E-5,-2.8097603E-1],"split_indices":[33,33,29,13,31,19,33,48,17,37,32,35,29,33,31,24,41,41,41,32,22,22,32,21,21,0,0,33,27,35,21,20,36,27,44,31,5,5,2,0,0,4,0,0,22,35,0,0,14,31,0,21,22,48,0,33,19,33,33,0,0,0,0,0,0,0,0,0,0,0,0,0,0,0,0,0,0,0,0,0,0,0,0,0,0,0,0,0,0,0,0,0,0,0,0,0,0,0,0],"split_type":[0,0,0,0,0,0,0,0,0,0,0,0,0,0,0,0,0,0,0,0,0,0,0,0,0,0,0,0,0,0,0,0,0,0,0,0,0,0,0,0,0,0,0,0,0,0,0,0,0,0,0,0,0,0,0,0,0,0,0,0,0,0,0,0,0,0,0,0,0,0,0,0,0,0,0,0,0,0,0,0,0,0,0,0,0,0,0,0,0,0,0,0,0,0,0,0,0,0,0],"sum_hessian":[3.298775E3,2.986442E3,3.12333E2,2.9357244E3,5.0717667E1,1.8768473E1,2.935645E2,2.7816401E3,1.5408423E2,1.8394346E1,3.2323322E1,1.2834818E1,5.9336553E0,1.8723001E2,1.0633451E2,2.4236343E3,3.5800565E2,5.674136E1,9.734287E1,4.011293E0,1.4383054E1,1.7334833E1,1.4988488E1,6.60347E0,6.2313485E0,1.031061E0,4.902594E0,1.3137743E2,5.585259E1,6.554675E1,4.078776E1,1.5376377E3,8.859967E2,8.063967E1,2.7736597E2,4.2525738E1,1.421562E1,9.370472E1,3.6381536E0,2.7904215E0,1.2208716E0,2.6525862E0,1.1730468E1,1.9240631E0,1.5410769E1,1.1585002E1,3.403486E0,1.1343476E0,5.469122E0,2.013222E0,4.2181263E0,1.1408128E2,1.7296137E1,5.4739067E1,1.1135223E0,3.0587831E1,3.495892E1,1.1172936E1,2.9614826E1,1.294448E3,2.4318967E2,3.853748E2,5.0062192E2,4.9222862E1,3.141681E1,3.771104E1,2.3965492E2,3.683569E0,3.884217E1,9.30733E0,4.90829E0,6.420432E1,2.9500399E1,1.3533562E0,2.2847974E0,1.4787089E0,1.1738774E0,1.4565488E0,1.3954221E1,1.1791285E0,1.0405873E1,2.915201E0,2.5539212E0,1.008686E0,1.0045362E0,9.1984505E1,2.2096779E1,3.9062066E0,1.338993E1,5.309916E1,1.6399062E0,2.149547E0,2.8438284E1,2.101686E1,1.3942061E1,3.3065774E0,