{"learner":{"attributes":{"scikit_learn":"{\"_estimator_type\": \"classifier\"}"},"feature_names":["NET_WITH_VAT","QTY","LINE_CLAIMED_AMOUNT_SAR","LINE_ITEM_DISCOUNT","NET_VAT_AMOUNT","PATIENT_VAT_AMOUNT","VAT_PERCENTAGE","TREATMENT_TYPE_INDICATOR","DURATION","QTY_STOCKED_UOM","UNIT_PRICE_STOCKED_UOM","UNIT_PRICE_NET","DISCOUNT_PERCENTAGE","EMERGENCY_INDICATOR","PROVIDER_DEPARTMENT_CODE","DOCTOR_SPECIALTY_CODE","DOCTOR_CODE","PATIENT_AGE","UNIT_OF_AGE","PATIENT_NATIONALITY","PATIENT_MARITAL_STATUS","PATIENT_GENDER","CLAIM_TYPE","TOTAL_CLAIMED_AMOUNT_SAR","TOTAL_DISCOUNT","TOTAL_DEDUCTIBLE","TOTAL_PATIENT_VATAMOUNT","DEPARTMENT_TYPE","TREATMENT_TYPE","PURCHASER_CODE","NEW_BORN","ICD10","PatientAgeRange","CombinedText1","CombinedText2","CombinedText3","CombinedText4","CombinedText5","CombinedText6","CombinedText7","CombinedText8","CombinedText9","CombinedText10","CombinedText11","CombinedText12","CombinedText13","CombinedText14","CombinedText15","CombinedText16"],"feature_types":["float","float","float","float","float","float","float","int","float","int","float","float","float","int","int","float","int","int","int","int","int","int","int","float","float","float","float","float","int","int","int","int","int","int","int","int","int","int","int","int","int","int","int","int","int","int","int","int","int"],"gradient_booster":{"model":{"gbtree_model_param":{"num_parallel_tree":"1","num_trees":"100"},"iteration_indptr":[0,1,2,3,4,5,6,7,8,9,10,11,12,13,14,15,16,17,18,19,20,21,22,23,24,25,26,27,28,29,30,31,32,33,34,35,36,37,38,39,40,41,42,43,44,45,46,47,48,49,50,51,52,53,54,55,56,57,58,59,60,61,62,63,64,65,66,67,68,69,70,71,72,73,74,75,76,77,78,79,80,81,82,83,84,85,86,87,88,89,90,91,92,93,94,95,96,97,98,99,100],"tree_info":[0,0,0,0,0,0,0,0,0,0,0,0,0,0,0,0,0,0,0,0,0,0,0,0,0,0,0,0,0,0,0,0,0,0,0,0,0,0,0,0,0,0,0,0,0,0,0,0,0,0,0,0,0,0,0,0,0,0,0,0,0,0,0,0,0,0,0,0,0,0,0,0,0,0,0,0,0,0,0,0,0,0,0,0,0,0,0,0,0,0,0,0,0,0,0,0,0,0,0,0],"trees":[{"base_weights":[-1.5157776E-1,5.722647E-1,-8.854408E-1,8.595974E-1,-3.4664878E-1,-2.7059424E-1,-1.0298988E0,1.2052706E0,2.4770358E-1,8.267252E-1,-7.26842E-1,-6.946758E-1,5.604394E-1,-1.0549796E0,-7.5820506E-1,2.7019782E0,9.4857055E-1,-7.7198434E-1,4.7787538E-1,1.5729585E0,-8.48415E-1,-8.9055073E-1,1.1889267E-1,-7.9204154E-1,-7.2381E-2,1.0519228E0,-1.8402365E-1,-1.0795916E0,-8.1997746E-1,-9.1140056E-1,7.3117696E-2,7.3161143E-1,2.982708E0,1.5020653E0,-6.890041E-1,-1.212718E0,-1.2187511E-1,9.727633E-1,-1.1639861E-1,2.5635505E0,-6.0000277E-1,-2.6830092E-1,-3.900274E-1,-2.0195812E-1,-1.1835392E0,4.3287134E-1,-4.4708472E-1,-8.8677794E-1,-5.0096387E-1,-7.1554565E-1,1.1310915E0,1.2494208E0,-7.7238995E-1,4.1227353E-1,-8.180072E-1,-1.1413596E0,-9.645488E-1,-2.830236E-1,-1.1770346E0,-9.525018E-1,1.2443826E0,-4.00034E-1,4.265945E-1,4.91852E-3,5.3719693E-1,9.9194753E-1,3.6456144E-1,5.625656E-1,1.7565301E-1,3.2063514E-1,-2.6672348E-1,-3.6907193E-1,3.0405444E-1,-2.8005362E-1,7.437817E-2,-1.9984014E-2,3.6632466E-1,-1.7702165E-1,7.498381E-2,5.903591E-1,1.2120277E0,3.8534328E-1,-2.2330335E-1,1.9309312E-2,-3.3587736E-1,2.585795E-1,-2.2035396E-1,2.651437E-1,-3.6130533E-1,6.526408E-2,6.7053497E-1,-3.7172323E-1,-6.735864E-2,-3.004932E-1,-1.7877673E-1,-1.8071902E-1,1.380848E-1,-2.560942E-1,1.9048672E-2,6.32251E-1,-1.4687465E-1,2.2619644E-1,5.826584E-1,-3.4458926E-1,6.420771E-1,5.999549E-1,-1.0738714E-1,-3.752327E-1,-8.721938E-2,-3.2358086E-1,-3.7745884E-1,-6.2318183E-2,-2.9413816E-1,-3.692192E-1,6.898697E-2,-3.5816395E-1,-1.0602976E-1,-3.327542E-1,-1.868141E-1,6.306194E-1,-1.8956177E-1,-2.537595E-1,1.0953786E-1,2.7613172E-1,-1.2952091E-1],"categories":[],"categories_nodes":[],"categories_segments":[],"categories_sizes":[],"default_left":[0,0,0,0,0,0,0,0,0,0,0,0,0,1,0,0,0,0,0,0,0,0,0,0,0,0,0,0,0,0,0,0,0,0,0,0,0,0,0,0,0,0,0,0,0,0,0,0,0,0,0,0,0,0,0,0,0,0,0,0,0,0,0,0,0,0,0,0,0,0,0,0,0,0,0,0,0,0,0,0,0,0,0,0,0,0,0,0,0,0,0,0,0,0,0,0,0,0,0,0,0,0,0,0,0,0,0,0,0,0,0,0,0,0,0,0,0,0,0,0,0,0,0,0,0],"id":0,"left_children":[1,3,5,7,9,11,13,15,17,19,21,23,25,27,29,31,33,35,37,39,41,43,45,47,49,51,53,55,57,59,61,63,65,67,69,71,73,75,77,79,81,83,-1,85,87,89,91,93,95,97,99,101,103,105,107,109,111,113,115,117,119,121,123,-1,-1,-1,-1,-1,-1,-1,-1,-1,-1,-1,-1,-1,-1,-1,-1,-1,-1,-1,-1,-1,-1,-1,-1,-1,-1,-1,-1,-1,-1,-1,-1,-1,-1,-1,-1,-1,-1,-1,-1,-1,-1,-1,-1,-1,-1,-1,-1,-1,-1,-1,-1,-1,-1,-1,-1,-1,-1,-1,-1,-1,-1],"loss_changes":[7.7475576E3,1.9390317E3,6.4297656E2,1.1829102E3,7.8119507E2,4.8645584E2,3.915918E1,1.3707134E3,4.7461752E2,5.3720374E2,1.8315674E2,5.5300232E1,1.7090434E2,3.015039E1,6.3634094E1,2.869685E2,2.7678674E3,1.0658212E2,4.8512134E2,6.406575E2,3.443815E1,2.2326056E2,3.845292E1,2.1338623E1,9.733917E1,1.0227319E2,7.079789E1,3.339209E1,9.799429E1,3.8536163E1,1.3315286E1,5.0352444E1,2.576482E2,7.793047E2,2.7238696E2,9.902069E0,4.5737095E1,2.3234637E2,1.3033102E2,1.7159717E2,2.64659E1,1.6887655E1,0E0,1.8866443E2,3.449231E1,5.344923E1,1.3349113E1,1.9270477E1,1.941349E1,8.864239E0,7.0379105E1,8.574655E1,3.3235023E1,1.18974014E2,2.0326622E1,2.176123E1,2.02948E1,1.0050249E2,3.8472595E0,2.0712524E1,1.4717275E1,1.19495325E1,1.9671268E1,0E0,0E0,0E0,0E0,0E0,0E0,0E0,0E0,0E0,0E0,0E0,0E0,0E0,0E0,0E0,0E0,0E0,0E0,0E0,0E0,0E0,0E0,0E0,0E0,0E0,0E0,0E0,0E0,0E0,0E0,0E0,0E0,0E0,0E0,0E0,0E0,0E0,0E0,0E0,0E0,0E0,0E0,0E0,0E0,0E0,0E0,0E0,0E0,0E0,0E0,0E0,0E0,0E0,0E0,0E0,0E0,0E0,0E0,0E0,0E0,0E0,0E0],"parents":[2147483647,0,0,1,1,2,2,3,3,4,4,5,5,6,6,7,7,8,8,9,9,10,10,11,11,12,12,13,13,14,14,15,15,16,16,17,17,18,18,19,19,20,20,21,21,22,22,23,23,24,24,25,25,26,26,27,27,28,28,29,29,30,30,31,31,32,32,33,33,34,34,35,35,36,36,37,37,38,38,39,39,40,40,41,41,43,43,44,44,45,45,46,46,47,47,48,48,49,49,50,50,51,51,52,52,53,53,54,54,55,55,56,56,57,57,58,58,59,59,60,60,61,61,62,62],"right_children":[2,4,6,8,10,12,14,16,18,20,22,24,26,28,30,32,34,36,38,40,42,44,46,48,50,52,54,56,58,60,62,64,66,68,70,72,74,76,78,80,82,84,-1,86,88,90,92,94,96,98,100,102,104,106,108,110,112,114,116,118,120,122,124,-1,-1,-1,-1,-1,-1,-1,-1,-1,-1,-1,-1,-1,-1,-1,-1,-1,-1,-1,-1,-1,-1,-1,-1,-1,-1,-1,-1,-1,-1,-1,-1,-1,-1,-1,-1,-1,-1,-1,-1,-1,-1,-1,-1,-1,-1,-1,-1,-1,-1,-1,-1,-1,-1,-1,-1,-1,-1,-1,-1,-1,-1],"split_conditions":[2.86E2,3.53E2,2.126E3,1.83E2,8.68E0,1.494E3,2.672E3,5E0,7.25E0,1.83E2,3.5E1,1.005E2,2.9E1,3.9E1,3.15E1,6.9E1,8.33E0,1.5E2,2.2E1,5E0,2.75E2,1.5E-1,3.224363E4,5E0,5.68693E3,1.528496E4,7.64226E3,1E0,2.169E3,8.11E2,8E1,9.638E3,4.4E2,4.09E2,9E0,5.18E0,2E0,1.5E1,6.2E1,1.5E1,1.1E1,4.862832E4,-3.900274E-1,1E0,1.766E3,1.0099E4,5.15164E3,4.018E1,4.994E0,5.7E1,7.1998E2,6.4848E2,1.8E1,2.074E3,3.66E1,2.622E3,1.45E0,2.134E3,1.493E1,2.03E2,8.26E0,5.2E1,6.4E1,4.91852E-3,5.3719693E-1,9.9194753E-1,3.6456144E-1,5.625656E-1,1.7565301E-1,3.2063514E-1,-2.6672348E-1,-3.6907193E-1,3.0405444E-1,-2.8005362E-1,7.437817E-2,-1.9984014E-2,3.6632466E-1,-1.7702165E-1,7.498381E-2,5.903591E-1,1.2120277E0,3.8534328E-1,-2.2330335E-1,1.9309312E-2,-3.3587736E-1,2.585795E-1,-2.2035396E-1,2.651437E-1,-3.6130533E-1,6.526408E-2,6.7053497E-1,-3.7172323E-1,-6.735864E-2,-3.004932E-1,-1.7877673E-1,-1.8071902E-1,1.380848E-1,-2.560942E-1,1.9048672E-2,6.32251E-1,-1.4687465E-1,2.2619644E-1,5.826584E-1,-3.4458926E-1,6.420771E-1,5.999549E-1,-1.0738714E-1,-3.752327E-1,-8.721938E-2,-3.2358086E-1,-3.7745884E-1,-6.2318183E-2,-2.9413816E-1,-3.692192E-1,6.898697E-2,-3.5816395E-1,-1.0602976E-1,-3.327542E-1,-1.868141E-1,6.306194E-1,-1.8956177E-1,-2.537595E-1,1.0953786E-1,2.7613172E-1,-1.2952091E-1],"split_indices":[29,27,29,29,10,29,29,14,12,29,12,3,14,27,25,2,12,24,14,35,29,6,23,1,23,24,23,19,29,35,33,16,10,33,33,5,19,33,33,12,14,23,0,8,27,16,24,3,11,17,0,24,14,29,3,29,10,29,26,11,15,35,36,0,0,0,0,0,0,0,0,0,0,0,0,0,0,0,0,0,0,0,0,0,0,0,0,0,0,0,0,0,0,0,0,0,0,0,0,0,0,0,0,0,0,0,0,0,0,0,0,0,0,0,0,0,0,0,0,0,0,0,0,0,0],"split_type":[0,0,0,0,0,0,0,0,0,0,0,0,0,0,0,0,0,0,0,0,0,0,0,0,0,0,0,0,0,0,0,0,0,0,0,0,0,0,0,0,0,0,0,0,0,0,0,0,0,0,0,0,0,0,0,0,0,0,0,0,0,0,0,0,0,0,0,0,0,0,0,0,0,0,0,0,0,0,0,0,0,0,0,0,0,0,0,0,0,0,0,0,0,0,0,0,0,0,0,0,0,0,0,0,0,0,0,0,0,0,0,0,0,0,0,0,0,0,0,0,0,0,0,0,0],"sum_hessian":[1.4583021E4,7.341745E3,7.241276E3,5.592961E3,1.748784E3,1.3782014E3,5.8630747E3,3.5733315E3,2.0196296E3,4.276798E2,1.3211042E3,9.126398E2,4.6556158E2,5.3649385E3,4.9813626E2,5.217437E2,3.051588E3,3.7149765E2,1.648132E3,2.9591708E2,1.3176271E2,1.1068068E3,2.1429741E2,7.8892926E2,1.2371055E2,2.8017877E2,1.8538281E2,4.853077E3,5.1186154E2,4.2054266E2,7.75936E1,6.551535E1,4.562284E2,2.280776E3,7.708119E2,2.2088554E2,1.506121E2,8.989145E2,7.492174E2,2.0313419E2,9.278291E1,5.83782E1,7.3384514E1,3.3087082E2,7.75936E2,1.3798485E2,7.631257E1,5.9366425E2,1.9526501E2,8.0887665E1,4.2822884E1,2.5309421E2,2.7084558E1,9.571097E1,8.9671844E1,3.151874E3,1.701203E3,2.0514722E2,3.0671432E2,4.132225E2,7.320151E0,3.3123684E1,4.4469917E1,3.971182E1,2.5803532E1,3.8485693E2,7.137147E1,1.6201323E3,6.606436E2,7.8325615E1,6.9248627E2,2.1960452E2,1.2810264E0,4.6665962E1,1.03946144E2,1.7348758E2,7.2542694E2,3.2647873E2,4.227387E2,1.4640302E2,5.6731167E1,6.0391245E0,8.674379E1,4.2639877E1,1.5738324E1,1.1016827E2,2.2070255E2,7.320151E0,7.6861584E2,1.2425956E2,1.3725283E1,1.5738324E1,6.0574245E1,4.2383673E2,1.698275E2,1.7696465E2,1.8300377E1,6.862641E1,1.2261252E1,2.6535547E1,1.6287334E1,1.4878206E2,1.0431215E2,2.4522505E1,2.5620527E0,3.0744633E1,6.496634E1,4.8496E1,4.1175846E1,2.0571453E3,1.0947285E3,3.531973E1,1.6658833E3,7.1554474E1,1.3359276E2,3.001262E2,6.5881357E0,2.7853174E2,1.3469078E2,4.9411016E0,2.379049E0,2.0862429E1,1.2261252E1,2.818258E1,1.6287334E1],"tree_param":{"num_deleted":"0","num_feature":"49","num_nodes":"125","size_leaf_vector":"1"}},{"base_weights":[-1.4707476E-1,2.535348E-1,-8.925181E-1,4.5922318E-1,-1.5672989E-1,-9.5668066E-1,-7.7666664E-1,6.8504703E-1,1.0797744E-1,3.504661E-1,-3.220986E-1,-8.860608E-1,-1.0595065E0,-8.138637E-1,-3.783298E-1,5.304759E-1,1.5291976E0,-1.2787474E0,1.7586471E-1,7.633706E-1,-4.7661614E-1,-4.858311E-1,2.4916935E-1,-9.4204515E-1,-3.1986725E-1,-1.1461296E0,-7.5713444E-1,-7.3642975E-1,-9.886298E-1,-6.09253E-1,1.7194507E-1,-1.19021446E-1,9.541072E-1,1.64786E0,-1.0301524E0,-1.3201934E0,-7.1546036E-1,4.1414383E-1,-2.5143468E-1,1.1700013E0,-6.8387735E-1,-6.7131484E-1,1.0965637E0,-5.9868133E-1,3.1273067E-1,-1.426895E-1,1.5764751E0,-8.391904E-1,-1.0708226E0,-1.1070454E0,-2.6162732E-2,-1.1578898E0,1.6435137E0,-2.1985602E-1,-9.3209964E-1,-7.4732155E-1,4.7374788E-1,-3.2966664E-1,-1.0564387E0,9.499307E-1,-6.874067E-1,-3.6509028E-1,8.3855695E-1,6.4836696E-2,-2.2992684E-1,3.0915493E-1,-3.6036476E-1,-1.8138662E-1,5.219619E-1,-4.1455582E-1,4.8660588E-2,-4.7734685E-2,-3.990499E-1,-3.5589883E-1,3.564466E-1,1.670816E-1,-8.6078614E-2,-1.0603517E-1,1.3567603E-1,4.5732185E-1,9.232152E-2,6.86206E-2,-3.248068E-1,-1.1848103E-1,-2.6251453E-1,-1.0163106E-1,7.07509E-1,-2.3258366E-1,-6.460435E-2,5.412551E-1,-1.22437375E-2,-9.121569E-2,3.605521E-1,7.5535804E-1,-7.729934E-2,4.2728517E-2,-2.6344746E-1,-3.2711965E-1,1.6586779E-1,-3.4423336E-1,-1.7472114E-2,1.558952E-1,-2.700978E-1,-3.4822726E-1,-3.1592805E-2,9.97685E-1,-6.4752944E-2,9.4939105E-2,-3.0129278E-1,8.660397E-2,-2.8861833E-1,-2.2654954E-1,2.6197982E-1,6.2597E-1,-1.927003E-1,7.399413E-1,-1.9668321E-1,-3.3479545E-1,-2.3041712E-1,5.748446E-1,-2.3346952E-1,-2.451942E-1,6.721864E-2,-1.8306172E-1,4.6648106E-1,3.9477792E-1,-1.398163E-1],"categories":[],"categories_nodes":[],"categories_segments":[],"categories_sizes":[],"default_left":[0,0,0,0,0,0,0,0,0,0,0,1,0,0,0,0,0,0,0,0,0,0,0,0,0,0,0,0,0,0,0,0,0,0,0,0,0,0,0,0,0,0,0,0,0,0,0,0,0,0,0,0,0,1,0,0,0,0,0,0,0,0,0,0,0,0,0,0,0,0,0,0,0,0,0,0,0,0,0,0,0,0,0,0,0,0,0,0,0,0,0,0,0,0,0,0,0,0,0,0,0,0,0,0,0,0,0,0,0,0,0,0,0,0,0,0,0,0,0,0,0,0,0,0,0,0,0],"id":1,"left_children":[1,3,5,7,9,11,13,15,17,19,21,23,25,27,29,31,33,35,37,39,41,43,45,47,49,51,53,55,57,59,61,63,65,67,69,71,73,75,77,79,81,83,85,87,89,91,93,95,97,99,101,103,105,107,109,111,113,115,117,119,121,123,125,-1,-1,-1,-1,-1,-1,-1,-1,-1,-1,-1,-1,-1,-1,-1,-1,-1,-1,-1,-1,-1,-1,-1,-1,-1,-1,-1,-1,-1,-1,-1,-1,-1,-1,-1,-1,-1,-1,-1,-1,-1,-1,-1,-1,-1,-1,-1,-1,-1,-1,-1,-1,-1,-1,-1,-1,-1,-1,-1,-1,-1,-1,-1,-1],"loss_changes":[4.200165E3,7.720909E2,3.5802246E1,4.8328467E2,2.564145E2,2.2005371E1,2.5735352E1,4.831361E2,2.248328E2,2.571174E2,2.1571515E2,5.9269043E1,3.2694946E1,2.1014648E1,1.941733E1,8.6309705E2,1.758678E2,1.6578369E0,2.3177722E2,2.9614252E2,7.760647E1,1.6166302E2,2.676295E2,2.1746948E1,3.9417286E1,3.4516235E1,2.689592E1,1.5081055E1,2.1563782E1,1.3725235E1,1.6668648E1,2.6900308E2,3.1387927E2,1.1472656E2,1.1138573E1,9.7694397E-1,1.021427E1,1.4643741E2,5.868243E1,1.19368164E2,4.0541523E1,1.2264381E1,5.1544422E1,1.0613623E2,1.1740657E2,8.668267E1,2.031312E2,3.6660583E1,2.461908E1,1.8964996E0,6.0242676E1,2.8676758E0,1.5062784E1,3.066359E1,8.220734E0,1.4739868E1,2.038128E1,4.464082E1,6.7702637E0,1.0742396E1,1.2347713E1,1.3189831E1,1.3502465E1,0E0,0E0,0E0,0E0,0E0,0E0,0E0,0E0,0E0,0E0,0E0,0E0,0E0,0E0,0E0,0E0,0E0,0E0,0E0,0E0,0E0,0E0,0E0,0E0,0E0,0E0,0E0,0E0,0E0,0E0,0E0,0E0,0E0,0E0,0E0,0E0,0E0,0E0,0E0,0E0,0E0,0E0,0E0,0E0,0E0,0E0,0E0,0E0,0E0,0E0,0E0,0E0,0E0,0E0,0E0,0E0,0E0,0E0,0E0,0E0,0E0,0E0,0E0,0E0],"parents":[2147483647,0,0,1,1,2,2,3,3,4,4,5,5,6,6,7,7,8,8,9,9,10,10,11,11,12,12,13,13,14,14,15,15,16,16,17,17,18,18,19,19,20,20,21,21,22,22,23,23,24,24,25,25,26,26,27,27,28,28,29,29,30,30,31,31,32,32,33,33,34,34,35,35,36,36,37,37,38,38,39,39,40,40,41,41,42,42,43,43,44,44,45,45,46,46,47,47,48,48,49,49,50,50,51,51,52,52,53,53,54,54,55,55,56,56,57,57,58,58,59,59,60,60,61,61,62,62],"right_children":[2,4,6,8,10,12,14,16,18,20,22,24,26,28,30,32,34,36,38,40,42,44,46,48,50,52,54,56,58,60,62,64,66,68,70,72,74,76,78,80,82,84,86,88,90,92,94,96,98,100,102,104,106,108,110,112,114,116,118,120,122,124,126,-1,-1,-1,-1,-1,-1,-1,-1,-1,-1,-1,-1,-1,-1,-1,-1,-1,-1,-1,-1,-1,-1,-1,-1,-1,-1,-1,-1,-1,-1,-1,-1,-1,-1,-1,-1,-1,-1,-1,-1,-1,-1,-1,-1,-1,-1,-1,-1,-1,-1,-1,-1,-1,-1,-1,-1,-1,-1,-1,-1,-1,-1,-1,-1],"split_conditions":[2.126E3,3.9E1,1E0,1.83E2,7.6E0,2.622E3,2.672E3,2.5E1,5E0,1.83E2,4.45E0,3.9E1,2.672E3,1.05906E3,9.315E1,1.4E1,2.4E2,3.03E2,2.2E1,7.5E1,6.42E1,1.494E3,2.52E2,8.19E1,2.134E3,2.249E1,2.781E3,1.11642E4,7.6E0,5.6E1,3.3E1,8.02E0,4.2E2,1E1,2.66E1,3E0,2.208E1,1.3E2,1.823E1,2E0,1.6E1,8.25E0,7.25E0,3.025E1,2.1E1,3.62E2,1.13E2,1.38E0,2.169E3,6.5E1,1E0,1.752E1,1.6E1,2.9E1,3.361E3,1E0,2E0,1.38E0,7.54869E3,1.4879631E0,9.781E3,3E0,3.9E1,6.4836696E-2,-2.2992684E-1,3.0915493E-1,-3.6036476E-1,-1.8138662E-1,5.219619E-1,-4.1455582E-1,4.8660588E-2,-4.7734685E-2,-3.990499E-1,-3.5589883E-1,3.564466E-1,1.670816E-1,-8.6078614E-2,-1.0603517E-1,1.3567603E-1,4.5732185E-1,9.232152E-2,6.86206E-2,-3.248068E-1,-1.1848103E-1,-2.6251453E-1,-1.0163106E-1,7.07509E-1,-2.3258366E-1,-6.460435E-2,5.412551E-1,-1.22437375E-2,-9.121569E-2,3.605521E-1,7.5535804E-1,-7.729934E-2,4.2728517E-2,-2.6344746E-1,-3.2711965E-1,1.6586779E-1,-3.4423336E-1,-1.7472114E-2,1.558952E-1,-2.700978E-1,-3.4822726E-1,-3.1592805E-2,9.97685E-1,-6.4752944E-2,9.4939105E-2,-3.0129278E-1,8.660397E-2,-2.8861833E-1,-2.2654954E-1,2.6197982E-1,6.2597E-1,-1.927003E-1,7.399413E-1,-1.9668321E-1,-3.3479545E-1,-2.3041712E-1,5.748446E-1,-2.3346952E-1,-2.451942E-1,6.721864E-2,-1.8306172E-1,4.6648106E-1,3.9477792E-1,-1.398163E-1],"split_indices":[29,27,19,29,11,29,29,8,14,29,25,27,29,24,25,15,37,33,14,35,25,29,0,11,29,26,29,23,0,16,3,12,37,10,10,17,11,25,4,8,34,15,12,12,17,33,3,12,29,17,28,26,14,27,16,30,34,12,24,1,16,39,4,0,0,0,0,0,0,0,0,0,0,0,0,0,0,0,0,0,0,0,0,0,0,0,0,0,0,0,0,0,0,0,0,0,0,0,0,0,0,0,0,0,0,0,0,0,0,0,0,0,0,0,0,0,0,0,0,0,0,0,0,0,0,0,0],"split_type":[0,0,0,0,0,0,0,0,0,0,0,0,0,0,0,0,0,0,0,0,0,0,0,0,0,0,0,0,0,0,0,0,0,0,0,0,0,0,0,0,0,0,0,0,0,0,0,0,0,0,0,0,0,0,0,0,0,0,0,0,0,0,0,0,0,0,0,0,0,0,0,0,0,0,0,0,0,0,0,0,0,0,0,0,0,0,0,0,0,0,0,0,0,0,0,0,0,0,0,0,0,0,0,0,0,0,0,0,0,0,0,0,0,0,0,0,0,0,0,0,0,0,0,0,0,0,0],"sum_hessian":[1.4062941E4,9.147586E3,4.915355E3,6.092806E3,3.0547805E3,3.1586992E3,1.7566555E3,3.7079382E3,2.3848677E3,7.5082745E2,2.3039531E3,1.8783102E3,1.2803892E3,1.6056732E3,1.5098225E2,3.1354407E3,5.724975E2,1.10470215E2,2.2743977E3,5.0086002E2,2.4996744E2,1.7908287E3,5.1312427E2,1.7086932E3,1.6961688E2,9.930975E2,2.8729163E2,1.1162903E3,4.89383E2,1.062762E2,4.4706055E1,1.2380393E3,1.8974014E3,5.474706E2,2.5026949E1,1.01647385E2,8.822828E0,1.4601761E3,8.1422144E2,3.9115067E2,1.0970935E2,2.2294835E2,2.7019089E1,1.5693093E3,2.2151945E2,3.9685403E2,1.1627022E2,9.541382E2,7.5455505E2,4.5336933E1,1.2427995E2,9.895109E2,3.5865324E0,7.1128555E1,2.1616309E2,1.1067122E3,9.578114E0,4.6207054E1,4.4317593E2,4.540359E0,1.0173584E2,2.500991E1,1.9696144E1,8.16186E2,4.2185327E2,1.8329427E3,6.445853E1,2.1267603E1,5.26203E2,1.9203657E1,5.8232937E0,1.0100359E0,1.00637344E2,7.3753104E0,1.4475183E0,1.2132637E3,2.4691249E2,7.115618E2,1.0265963E2,2.7666766E2,1.1448302E2,3.349295E1,7.62164E1,9.585423E1,1.2709412E2,1.2982563E1,1.4036526E1,1.0736625E3,4.9564682E2,4.1661896E1,1.7985756E2,3.550204E2,4.183366E1,7.658808E1,3.9682137E1,3.6329304E1,9.178089E2,7.4589075E2,8.66431E0,4.3564804E1,1.7721276E0,7.6758644E1,4.7521313E1,9.8671985E2,2.7910888E0,1.4689941E0,2.1175382E0,4.2600067E1,2.852849E1,4.9713182E0,2.1119176E2,1.101913E3,4.7992005E0,3.5616815E0,6.0164313E0,4.1383886E0,4.2068665E1,3.6494992E2,7.822602E1,2.8423944E0,1.6979647E0,8.913514E1,1.2600703E1,2.27835E1,2.2264094E0,1.4413455E1,5.2826896E0],"tree_param":{"num_deleted":"0","num_feature":"49","num_nodes":"127","size_leaf_vector":"1"}},{"base_weights":[-1.262705E-1,1.6698262E-1,-7.763729E-1,3.2193696E-1,-9.560904E-2,-8.461332E-1,-6.553216E-1,-2.3233442E-2,4.3160444E-1,2.4019329E-1,-2.5263187E-1,-7.6955795E-1,-9.621957E-1,-7.059244E-1,-3.680758E-1,-2.934162E-1,6.062572E-1,1.1420567E-2,5.187489E-1,5.796065E-1,-3.2965317E-1,-3.8173372E-1,7.3201425E-2,-8.270596E-1,-2.5859204E-1,-1.064139E0,-6.3811785E-1,-4.431236E-1,-7.453587E-1,-5.3327507E-1,3.9447275E-1,-6.285579E-1,7.84378E-1,1.3707976E0,4.1188145E-1,2.0937745E-1,-9.3234783E-1,3.8736218E-1,9.240197E-1,8.999728E-1,-2.7400744E-1,-3.882783E-1,1.5627207E0,-4.8599038E-1,2.5948077E-1,9.498124E-1,-1.6519427E-1,-7.138407E-1,-9.668512E-1,-4.401062E-1,8.2133967E-1,-1.0808603E0,6.704764E-1,-1.7555366E-1,-8.116821E-1,-7.3679185E-1,-2.2163297E-1,-1.7271076E-1,-7.6421976E-1,-6.8784744E-1,2.829528E-1,8.440064E-1,-9.6216214E-1,-6.5805614E-2,-2.4942145E-1,3.4252605E-1,-1.7415223E-1,-2.0562021E-1,5.1268923E-1,1.524748E-1,-3.0835205E-1,1.945242E-2,6.312206E-1,3.631653E-1,-3.2083467E-1,2.4711825E-1,6.8095855E-2,3.61029E-1,8.612738E-2,2.22424E-1,6.3646996E-1,9.8851085E-2,-3.9956328E-1,-1.5073803E-1,1.9854929E-1,-1.431724E-1,6.988013E-1,-1.9653472E-1,-4.9882E-2,2.4162082E-1,-9.948627E-2,-3.2614317E-2,4.6436954E-1,-1.2846968E-1,1.1555205E-1,-2.4774499E-1,-7.5169966E-2,-2.9624096E-1,5.2044522E-2,2.2460772E-1,-1.9234905E-1,-2.1329625E-1,6.3018316E-1,-2.7162684E-2,-3.2497627E-1,-2.4216196E-1,3.8657093E-1,6.2982135E-2,-2.6749048E-1,-3.1107438E-1,-1.7419656E-1,-2.731675E-1,1.5452652E-1,-1.24232516E-1,9.1062225E-2,-2.4803184E-1,4.6905124E-1,-2.4021584E-1,-1.1206668E-1,-2.3090613E-1,3.592382E-2,8.5432833E-1,2.1932477E-3,-3.6423177E-2,6.2687045E-1,-3.3890402E-1,-1.6199122E-4],"categories":[],"categories_nodes":[],"categories_segments":[],"categories_sizes":[],"default_left":[0,0,0,0,0,0,0,0,0,0,0,1,0,0,0,0,0,0,0,0,0,0,0,0,0,0,0,0,0,0,0,0,0,0,0,0,0,0,0,0,0,0,0,0,0,0,0,0,0,0,0,0,0,1,0,0,0,0,0,0,0,0,0,0,0,0,0,0,0,0,0,0,0,0,0,0,0,0,0,0,0,0,0,0,0,0,0,0,0,0,0,0,0,0,0,0,0,0,0,0,0,0,0,0,0,0,0,0,0,0,0,0,0,0,0,0,0,0,0,0,0,0,0,0,0,0,0],"id":2,"left_children":[1,3,5,7,9,11,13,15,17,19,21,23,25,27,29,31,33,35,37,39,41,43,45,47,49,51,53,55,57,59,61,63,65,67,69,71,73,75,77,79,81,83,85,87,89,91,93,95,97,99,101,103,105,107,109,111,113,115,117,119,121,123,125,-1,-1,-1,-1,-1,-1,-1,-1,-1,-1,-1,-1,-1,-1,-1,-1,-1,-1,-1,-1,-1,-1,-1,-1,-1,-1,-1,-1,-1,-1,-1,-1,-1,-1,-1,-1,-1,-1,-1,-1,-1,-1,-1,-1,-1,-1,-1,-1,-1,-1,-1,-1,-1,-1,-1,-1,-1,-1,-1,-1,-1,-1,-1,-1],"loss_changes":[2.5255964E3,3.7152094E2,3.422119E1,2.173642E2,1.7875365E2,2.2448242E1,2.1689026E1,2.3580342E2,1.5955176E2,2.0913202E2,9.7184326E1,4.6119934E1,3.34541E1,1.2963501E1,2.896485E1,3.5087842E2,6.1312637E1,1.4022424E2,1.9181091E2,1.8549216E2,4.541467E1,1.10721924E2,1.3730424E2,2.1736755E1,3.1915148E1,2.3477112E1,1.9906525E1,1.0883606E1,1.1899292E1,2.3918953E1,2.595015E1,6.128308E1,1.1310965E2,5.9560165E1,4.678024E1,1.6975539E2,3.9528267E1,1.9066574E2,1.5676978E2,9.3874664E1,1.1894489E2,4.7401207E1,2.0402672E1,7.685458E1,7.513905E1,8.909387E1,7.498178E1,4.060544E1,1.5013855E1,3.3573776E1,4.7581932E1,1.744812E0,8.444378E0,1.9348017E1,8.832474E0,1.625983E1,1.0056648E1,4.309501E1,1.5073853E1,1.05607605E1,2.1646776E1,3.8124165E1,1.7272987E0,0E0,0E0,0E0,0E0,0E0,0E0,0E0,0E0,0E0,0E0,0E0,0E0,0E0,0E0,0E0,0E0,0E0,0E0,0E0,0E0,0E0,0E0,0E0,0E0,0E0,0E0,0E0,0E0,0E0,0E0,0E0,0E0,0E0,0E0,0E0,0E0,0E0,0E0,0E0,0E0,0E0,0E0,0E0,0E0,0E0,0E0,0E0,0E0,0E0,0E0,0E0,0E0,0E0,0E0,0E0,0E0,0E0,0E0,0E0,0E0,0E0,0E0,0E0,0E0],"parents":[2147483647,0,0,1,1,2,2,3,3,4,4,5,5,6,6,7,7,8,8,9,9,10,10,11,11,12,12,13,13,14,14,15,15,16,16,17,17,18,18,19,19,20,20,21,21,22,22,23,23,24,24,25,25,26,26,27,27,28,28,29,29,30,30,31,31,32,32,33,33,34,34,35,35,36,36,37,37,38,38,39,39,40,40,41,41,42,42,43,43,44,44,45,45,46,46,47,47,48,48,49,49,50,50,51,51,52,52,53,53,54,54,55,55,56,56,57,57,58,58,59,59,60,60,61,61,62,62],"right_children":[2,4,6,8,10,12,14,16,18,20,22,24,26,28,30,32,34,36,38,40,42,44,46,48,50,52,54,56,58,60,62,64,66,68,70,72,74,76,78,80,82,84,86,88,90,92,94,96,98,100,102,104,106,108,110,112,114,116,118,120,122,124,126,-1,-1,-1,-1,-1,-1,-1,-1,-1,-1,-1,-1,-1,-1,-1,-1,-1,-1,-1,-1,-1,-1,-1,-1,-1,-1,-1,-1,-1,-1,-1,-1,-1,-1,-1,-1,-1,-1,-1,-1,-1,-1,-1,-1,-1,-1,-1,-1,-1,-1,-1,-1,-1,-1,-1,-1,-1,-1,-1,-1,-1,-1,-1,-1],"split_conditions":[2.126E3,2.9E1,1E0,4.5E1,8.33E0,2.622E3,1.1409E2,7E0,1.733E1,1.83E2,4.45E0,3.9E1,2.672E3,2.7616E2,9.781E3,2.06E2,1.105E1,3.48E2,2.33E2,1.32E2,6E2,1.494E3,6.88E0,1.229E1,4.71E2,1.752E1,2.781E3,5E0,1.45E0,1.07E2,2.9688E3,4.5E0,4.7E2,6.37E0,4.78E2,3.3E2,5.4E1,1.2E2,1.83E2,1.35E2,1.97E2,1E0,2.42E1,3.025E1,5.5E1,2.2761E2,2.75E2,2.135E3,2.169E3,3.5E-1,2.502E1,3.979E1,3.9E1,2.9E1,1.21E2,9.926E3,8.36E0,1.024E0,2.672E3,2.692E3,1.27E2,3.6861E2,4.05E2,-6.5805614E-2,-2.4942145E-1,3.4252605E-1,-1.7415223E-1,-2.0562021E-1,5.1268923E-1,1.524748E-1,-3.0835205E-1,1.945242E-2,6.312206E-1,3.631653E-1,-3.2083467E-1,2.4711825E-1,6.8095855E-2,3.61029E-1,8.612738E-2,2.22424E-1,6.3646996E-1,9.8851085E-2,-3.9956328E-1,-1.5073803E-1,1.9854929E-1,-1.431724E-1,6.988013E-1,-1.9653472E-1,-4.9882E-2,2.4162082E-1,-9.948627E-2,-3.2614317E-2,4.6436954E-1,-1.2846968E-1,1.1555205E-1,-2.4774499E-1,-7.5169966E-2,-2.9624096E-1,5.2044522E-2,2.2460772E-1,-1.9234905E-1,-2.1329625E-1,6.3018316E-1,-2.7162684E-2,-3.2497627E-1,-2.4216196E-1,3.8657093E-1,6.2982135E-2,-2.6749048E-1,-3.1107438E-1,-1.7419656E-1,-2.731675E-1,1.5452652E-1,-1.24232516E-1,9.1062225E-2,-2.4803184E-1,4.6905124E-1,-2.4021584E-1,-1.1206668E-1,-2.3090613E-1,3.592382E-2,8.5432833E-1,2.1932477E-3,-3.6423177E-2,6.2687045E-1,-3.3890402E-1,-1.6199122E-4],"split_indices":[29,27,19,33,11,29,25,1,10,29,25,27,29,23,16,2,10,35,35,34,34,29,12,4,33,26,29,8,10,37,23,4,2,0,35,35,34,33,29,38,35,13,0,12,17,0,29,29,29,3,12,23,17,27,33,16,24,11,29,29,37,24,33,0,0,0,0,0,0,0,0,0,0,0,0,0,0,0,0,0,0,0,0,0,0,0,0,0,0,0,0,0,0,0,0,0,0,0,0,0,0,0,0,0,0,0,0,0,0,0,0,0,0,0,0,0,0,0,0,0,0,0,0,0,0,0,0],"split_type":[0,0,0,0,0,0,0,0,0,0,0,0,0,0,0,0,0,0,0,0,0,0,0,0,0,0,0,0,0,0,0,0,0,0,0,0,0,0,0,0,0,0,0,0,0,0,0,0,0,0,0,0,0,0,0,0,0,0,0,0,0,0,0,0,0,0,0,0,0,0,0,0,0,0,0,0,0,0,0,0,0,0,0,0,0,0,0,0,0,0,0,0,0,0,0,0,0,0,0,0,0,0,0,0,0,0,0,0,0,0,0,0,0,0,0,0,0,0,0,0,0,0,0,0,0,0,0],"sum_hessian":[1.3245989E4,9.12883E3,4.1171587E3,5.7409136E3,3.387917E3,2.6081355E3,1.5090232E3,1.3844009E3,4.3565127E3,1.0792816E3,2.3086353E3,1.5759755E3,1.0321602E3,1.2817632E3,2.2726007E2,9.6902216E2,4.153787E2,7.4851794E2,3.6079946E3,6.7639105E2,4.028906E2,1.6533661E3,6.552692E2,1.4160061E3,1.599693E2,7.8343567E2,2.4872446E2,1.6883534E2,1.1129279E3,1.8704016E2,4.0219902E1,7.394926E2,2.2952951E2,8.297194E1,3.3240677E2,6.193801E2,1.291378E2,2.7261477E3,8.8184686E2,4.9177185E2,1.8461919E2,3.9155518E2,1.1335437E1,1.4223456E3,2.310206E2,1.394628E2,5.1580646E2,7.8573535E2,6.3027075E2,1.3745793E2,2.2511368E1,7.763289E2,7.1067166E0,6.841195E1,1.8031252E2,7.158985E1,9.724548E1,3.5811054E1,1.0771167E3,1.5739157E2,2.9648594E1,3.0493471E1,9.72643E0,2.4577292E2,4.9371973E2,1.8203087E2,4.749865E1,1.1573466E1,7.1398476E1,3.1215933E2,2.024743E1,5.7644073E2,4.2939423E1,7.294503E0,1.2184329E2,7.315487E2,1.994599E3,6.1233563E2,2.6951123E2,4.3669675E2,5.5075108E1,1.1799309E2,6.662611E1,3.5362582E2,3.792936E1,3.1993806E0,8.136056E0,9.29569E2,4.927766E2,1.1991164E2,1.1110896E2,5.064558E1,8.8817215E1,3.4915585E2,1.6665059E2,6.321569E2,1.5357843E2,6.1920874E2,1.1061997E1,1.949071E1,1.17967224E2,1.0444743E1,1.2066625E1,1.9658066E0,7.7436316E2,2.005701E0,5.1010156E0,4.4930794E1,2.3481155E1,8.9534935E1,9.077758E1,6.3103462E1,8.486387E0,7.131875E1,2.5926735E1,2.6392393E1,9.41866E0,9.8412085E2,9.299591E1,1.4295209E2,1.4439486E1,1.9716161E0,2.767698E1,1.768703E1,1.2806439E1,8.134591E0,1.591839E0],"tree_param":{"num_deleted":"0","num_feature":"49","num_nodes":"127","size_leaf_vector":"1"}},{"base_weights":[-1.0513956E-1,1.13174416E-1,-6.7125183E-1,3.4138256E-1,1.0360984E-4,-7.460856E-1,-5.4746825E-1,5.427637E-1,-4.7760536E-3,1.8238536E-1,-2.1675786E-1,-6.633722E-1,-8.777886E-1,-4.6711883E-1,-7.437723E-1,9.8211294E-1,3.3003813E-1,-1.1593512E0,9.5969684E-2,3.7060383E-1,-1.4632909E-1,-4.6480015E-1,-2.0402819E-2,-4.995701E-1,-8.5096425E-1,-9.987762E-1,-5.338219E-1,-6.395619E-1,-3.5131478E-1,-9.083666E-1,-3.8045222E-1,8.8294214E-1,2.1491566E0,-1.7381217E-1,7.873429E-1,-3.6724162E-1,-6.967721E-1,-2.542658E-1,3.971905E-1,2.9846644E-1,1.8930116E0,5.76401E-1,-2.549377E-1,-9.2293686E-1,1.0143631E-1,1.8911906E-1,-3.5932904E-1,2.2624621E0,-5.212615E-1,-2.8754234E-1,-9.610791E-1,-1.0174949E0,4.353089E-1,-8.3680147E-1,-2.85541E-1,-7.154446E-1,-1.0346885E-1,-4.2967388E-1,1.2887157E-1,-1.0294595E0,-4.2530096E-1,2.5254723E-1,-6.392842E-1,2.3081255E-1,4.9342152E-1,7.191595E-1,-1.159543E-1,2.682457E-2,-2.754099E-1,-3.4068012E-1,2.7382144E-1,2.525561E-1,-3.4789672E-1,-1.1690811E-1,1.450734E-1,3.4858357E-2,2.91265E-1,2.4670213E-2,2.5494108E-1,4.4980925E-1,1.1732816E0,2.5859386E-1,-6.353073E-2,-1.2825741E-1,1.7167091E-2,2.1718833E-1,-2.8157905E-1,2.2779725E-1,-2.1119188E-1,-5.938135E-2,1.4638138E-1,-1.9841348E-1,4.8290387E-2,2.4626134E-2,1.0543647E0,-3.1175268E-1,-1.382295E-1,1.4167741E-1,-2.5120065E-1,-2.0243563E-1,-3.257985E-1,-3.0884898E-1,-1.8851669E-1,3.3403906E-1,-1.12399094E-1,3.6942232E-1,-2.932202E-1,2.7579676E-2,-3.0773637E-1,-2.2329491E-1,2.5255436E-1,5.3643936E-1,-1.05607145E-1,-1.3744321E-1,3.2855424E-1,-8.57896E-2,2.792477E-1,-3.2327342E-1,-1.23350166E-1,3.5622114E-1,-1.989823E-1,-1.3557657E-4,7.452231E-1,-2.9037434E-1,-2.5765297E-3],"categories":[],"categories_nodes":[],"categories_segments":[],"categories_sizes":[],"default_left":[0,0,0,0,0,0,0,0,0,0,0,0,0,0,0,0,0,0,0,0,0,1,0,0,0,0,0,0,0,0,0,0,0,0,0,0,0,0,0,0,0,0,1,0,0,0,0,0,0,0,0,0,0,0,1,0,0,0,0,0,0,0,0,0,0,0,0,0,0,0,0,0,0,0,0,0,0,0,0,0,0,0,0,0,0,0,0,0,0,0,0,0,0,0,0,0,0,0,0,0,0,0,0,0,0,0,0,0,0,0,0,0,0,0,0,0,0,0,0,0,0,0,0,0,0],"id":3,"left_children":[1,3,5,7,9,11,13,15,17,19,21,23,25,27,29,31,33,35,37,39,41,43,45,47,49,51,53,55,57,59,61,63,65,67,69,-1,71,73,75,77,79,81,83,85,87,89,91,93,95,97,99,101,103,105,107,109,111,113,115,117,119,121,123,-1,-1,-1,-1,-1,-1,-1,-1,-1,-1,-1,-1,-1,-1,-1,-1,-1,-1,-1,-1,-1,-1,-1,-1,-1,-1,-1,-1,-1,-1,-1,-1,-1,-1,-1,-1,-1,-1,-1,-1,-1,-1,-1,-1,-1,-1,-1,-1,-1,-1,-1,-1,-1,-1,-1,-1,-1,-1,-1,-1,-1,-1],"loss_changes":[1.543604E3,2.3259677E2,3.1790405E1,2.0819125E2,2.3834906E2,2.2986694E1,2.0368958E1,1.7613904E2,1.27992516E2,2.0273962E2,1.3410327E2,4.053662E1,3.407141E1,1.8439774E1,2.2364883E1,6.933209E1,2.9360303E2,1.7936325E0,1.0687537E2,2.2824576E2,9.383211E1,3.1570273E2,1.0928403E2,4.396089E1,3.8187683E1,1.6925354E1,1.6199215E1,1.5151627E1,2.1177902E1,1.4808792E1,1.9843042E1,4.795645E1,3.0804825E1,1.1895493E2,1.6207288E2,0E0,1.0356071E1,4.701149E1,8.766561E1,2.3721846E2,6.885974E1,3.5347927E1,5.596234E1,1.8026184E1,2.8932336E2,1.1009938E2,9.249745E1,1.541304E1,2.1745514E1,4.3332233E1,1.7799011E1,2.1848755E0,5.147364E0,2.9672333E1,3.4077988E1,1.5360489E1,2.299906E1,2.1463326E1,2.6722301E1,5.7362823E0,2.1490826E1,2.0089027E1,1.7722435E1,0E0,0E0,0E0,0E0,0E0,0E0,0E0,0E0,0E0,0E0,0E0,0E0,0E0,0E0,0E0,0E0,0E0,0E0,0E0,0E0,0E0,0E0,0E0,0E0,0E0,0E0,0E0,0E0,0E0,0E0,0E0,0E0,0E0,0E0,0E0,0E0,0E0,0E0,0E0,0E0,0E0,0E0,0E0,0E0,0E0,0E0,0E0,0E0,0E0,0E0,0E0,0E0,0E0,0E0,0E0,0E0,0E0,0E0,0E0,0E0,0E0,0E0],"parents":[2147483647,0,0,1,1,2,2,3,3,4,4,5,5,6,6,7,7,8,8,9,9,10,10,11,11,12,12,13,13,14,14,15,15,16,16,17,17,18,18,19,19,20,20,21,21,22,22,23,23,24,24,25,25,26,26,27,27,28,28,29,29,30,30,31,31,32,32,33,33,34,34,36,36,37,37,38,38,39,39,40,40,41,41,42,42,43,43,44,44,45,45,46,46,47,47,48,48,49,49,50,50,51,51,52,52,53,53,54,54,55,55,56,56,57,57,58,58,59,59,60,60,61,61,62,62],"right_children":[2,4,6,8,10,12,14,16,18,20,22,24,26,28,30,32,34,36,38,40,42,44,46,48,50,52,54,56,58,60,62,64,66,68,70,-1,72,74,76,78,80,82,84,86,88,90,92,94,96,98,100,102,104,106,108,110,112,114,116,118,120,122,124,-1,-1,-1,-1,-1,-1,-1,-1,-1,-1,-1,-1,-1,-1,-1,-1,-1,-1,-1,-1,-1,-1,-1,-1,-1,-1,-1,-1,-1,-1,-1,-1,-1,-1,-1,-1,-1,-1,-1,-1,-1,-1,-1,-1,-1,-1,-1,-1,-1,-1,-1,-1,-1,-1,-1,-1,-1,-1,-1,-1,-1,-1],"split_conditions":[2.126E3,1.7E1,1E0,1.83E2,1.5E-1,2.622E3,1.05906E3,1.6E1,5E0,1.83E2,1.83E2,1.97345E3,2.672E3,7.6E1,2.9E1,6.97E2,4.19E2,1.494E3,5.2E1,1.5E1,2E1,2.1E1,3E1,1.86E0,7.08E0,1.752E1,8.54E1,8.3E1,3E1,7.54869E3,7.01E0,3.3166E2,6.38E0,8.33E0,2.1466668E0,-3.6724162E-1,1E1,4.935E1,9.751E3,3.3E1,2.4E1,5E1,2.5E1,1E0,2.625E1,6.2E1,2E0,1.12E0,2.134E3,2.015E1,8.02E0,1.241E1,1.6E1,2.728E3,2.1E1,1.11642E4,1.08E2,2.786E3,2E0,1.911E1,2.695197E4,7E0,3.06E1,2.3081255E-1,4.9342152E-1,7.191595E-1,-1.159543E-1,2.682457E-2,-2.754099E-1,-3.4068012E-1,2.7382144E-1,2.525561E-1,-3.4789672E-1,-1.1690811E-1,1.450734E-1,3.4858357E-2,2.91265E-1,2.4670213E-2,2.5494108E-1,4.4980925E-1,1.1732816E0,2.5859386E-1,-6.353073E-2,-1.2825741E-1,1.7167091E-2,2.1718833E-1,-2.8157905E-1,2.2779725E-1,-2.1119188E-1,-5.938135E-2,1.4638138E-1,-1.9841348E-1,4.8290387E-2,2.4626134E-2,1.0543647E0,-3.1175268E-1,-1.382295E-1,1.4167741E-1,-2.5120065E-1,-2.0243563E-1,-3.257985E-1,-3.0884898E-1,-1.8851669E-1,3.3403906E-1,-1.12399094E-1,3.6942232E-1,-2.932202E-1,2.7579676E-2,-3.0773637E-1,-2.2329491E-1,2.5255436E-1,5.3643936E-1,-1.05607145E-1,-1.3744321E-1,3.2855424E-1,-8.57896E-2,2.792477E-1,-3.2327342E-1,-1.23350166E-1,3.5622114E-1,-1.989823E-1,-1.3557657E-4,7.452231E-1,-2.9037434E-1,-2.5765297E-3],"split_indices":[29,27,19,29,6,29,24,34,14,29,29,24,29,33,14,33,34,29,34,12,27,27,14,10,12,26,11,36,12,24,12,0,11,12,11,0,17,3,16,10,10,1,27,17,3,33,19,0,29,0,15,26,14,29,27,23,36,29,19,15,23,12,4,0,0,0,0,0,0,0,0,0,0,0,0,0,0,0,0,0,0,0,0,0,0,0,0,0,0,0,0,0,0,0,0,0,0,0,0,0,0,0,0,0,0,0,0,0,0,0,0,0,0,0,0,0,0,0,0,0,0,0,0,0,0],"split_type":[0,0,0,0,0,0,0,0,0,0,0,0,0,0,0,0,0,0,0,0,0,0,0,0,0,0,0,0,0,0,0,0,0,0,0,0,0,0,0,0,0,0,0,0,0,0,0,0,0,0,0,0,0,0,0,0,0,0,0,0,0,0,0,0,0,0,0,0,0,0,0,0,0,0,0,0,0,0,0,0,0,0,0,0,0,0,0,0,0,0,0,0,0,0,0,0,0,0,0,0,0,0,0,0,0,0,0,0,0,0,0,0,0,0,0,0,0,0,0,0,0,0,0,0,0],"sum_hessian":[1.2488079E4,9.013095E3,3.4749846E3,2.9855037E3,6.027591E3,2.1625696E3,1.3124149E3,1.8870979E3,1.0984058E3,3.2749814E3,2.7526091E3,1.3320438E3,8.305259E2,9.3364386E2,3.787711E2,6.144458E2,1.2726521E3,8.730923E1,1.01109656E3,2.0824595E3,1.1925221E3,1.2156244E3,1.5369847E3,7.130681E2,6.189757E2,6.130032E2,2.1752269E2,3.732769E2,5.6036694E2,2.5964456E2,1.1912654E2,5.67941E2,4.6504845E1,6.0580585E2,6.6684625E2,7.5139114E1,1.2170107E1,4.6758362E2,5.4351294E2,1.9893907E3,9.306873E1,1.5523201E2,1.0372902E3,6.7160504E2,5.4401935E2,9.500885E2,5.868962E2,4.751441E0,7.0831665E2,1.01785255E2,5.171904E2,6.0539166E2,7.611515E0,9.6901924E1,1.20620766E2,3.2669885E2,4.6578022E1,4.8184277E2,7.8524185E1,2.0669904E2,5.294552E1,3.458057E1,8.454597E1,4.9600717E2,7.193379E1,4.2410793E1,4.0940523E0,4.4817004E2,1.5763579E2,4.0329815E1,6.265164E2,2.6252055E0,9.544901E0,3.9546893E2,7.211468E1,3.656294E2,1.7788353E2,1.4297838E3,5.596069E2,7.933539E1,1.3733345E1,1.13877144E2,4.135487E1,6.6774133E2,3.6954874E2,5.8999343E0,6.657051E2,2.9946365E2,2.445557E2,4.140768E2,5.360117E2,3.7115665E2,2.1573953E2,2.1219144E0,2.6295266E0,7.239153E1,6.359251E2,4.279066E1,5.89946E1,1.5905507E2,3.5813538E2,5.856811E2,1.9710562E1,3.938929E0,3.672586E0,5.6743355E0,9.1227585E1,8.0465096E1,4.015567E1,3.2126477E2,5.4341E0,4.690138E0,4.1887882E1,4.7369803E2,8.144741E0,5.2177223E1,2.6346958E1,1.91085E2,1.5614015E1,6.295093E0,4.6650425E1,3.1957226E1,2.6233459E0,5.523207E1,2.9313898E1],"tree_param":{"num_deleted":"0","num_feature":"49","num_nodes":"125","size_leaf_vector":"1"}},{"base_weights":[-8.785685E-2,1.21847E-1,-4.700591E-1,1.5394007E-1,-5.8037084E-1,-2.1599516E-1,-5.717993E-1,8.6892694E-2,4.846876E-1,4.82948E-1,-7.258013E-1,-5.656935E-1,2.5151172E-1,-1.0207995E0,-5.4914725E-1,2.5280523E-1,-9.1162756E-2,-7.801318E-1,6.1298794E-1,-1.0005382E0,1.0272111E0,-9.164409E-1,1.8279675E-1,-1.1684709E0,-3.9204425E-1,-1.1449115E0,3.253243E-1,-1.0343778E0,1.310431E-1,-4.8104203E-1,-7.404613E-1,1.927958E-1,1.4247307E0,-3.2632557E-1,1.5329108E-1,-8.336029E-1,5.234645E-1,8.1346226E-1,-1.00484714E-1,-1.2335402E0,1.879933E-1,1.2553678E0,-5.9292936E-1,-1.2631451E0,-5.0406665E-1,-2.5073248E-1,1.4645563E0,-8.961691E-1,-3.6867237E-1,-5.1278895E-1,1.3731082E-1,-1.2312002E0,-3.4109133E-1,-2.5438659E-2,6.141114E-1,-1.0475627E0,-2.1588966E-1,-6.491964E-1,-3.0971363E-1,-9.93156E-1,-5.739767E-1,8.540595E-2,-4.4876013E-2,5.287572E-1,-1.3264202E-1,-2.4014589E-1,-5.5850483E-2,2.1451837E-3,1.6279949E-1,-9.287998E-2,-3.409008E-1,3.1589586E-1,3.8008332E-2,-1.5723497E-1,3.6058626E-1,-1.04468964E-1,-3.9081237E-1,5.144666E-1,1.4242822E-1,-2.865132E-1,7.2947815E-2,-4.0191242E-1,-1.6606879E-1,-2.6902422E-1,5.96223E-2,2.5810012E-1,-4.0899605E-1,5.779051E-1,-2.895505E-1,-3.376398E-1,4.2574633E-2,-1.0002197E-1,-2.3389743E-1,-1.4345372E-1,2.755126E-1,-3.36381E-2,-3.8434103E-1,9.751018E-2,-2.8912476E-1,-1.0847168E-1,1.8782721E-1,3.2021722E-1,-3.3887006E-2,-3.1838694E-1,-8.763631E-2,-1.9710496E-1,1.3090284E-1,-2.7370086E-1,-1.477337E-1,-3.3488713E-2,-1.4394362E-1,-3.0845347E-1,-4.771866E-2,-2.0518088E-1,-8.006476E-2],"categories":[],"categories_nodes":[],"categories_segments":[],"categories_sizes":[],"default_left":[0,0,0,0,0,0,0,0,0,0,0,0,0,0,0,0,0,0,0,0,0,0,0,0,0,0,0,0,0,1,0,0,0,0,0,0,0,0,0,0,0,0,0,0,0,0,0,0,0,0,0,0,0,0,0,0,0,0,0,0,0,0,0,0,0,0,0,0,0,0,0,0,0,0,0,0,0,0,0,0,0,0,0,0,0,0,0,0,0,0,0,0,0,0,0,0,0,0,0,0,0,0,0,0,0,0,0,0,0,0,0,0,0,0,0],"id":4,"left_children":[1,3,5,7,9,11,13,15,17,19,21,23,25,27,29,31,33,35,37,39,41,43,45,47,49,51,53,55,-1,57,59,61,63,65,67,69,-1,71,73,75,-1,77,79,81,83,85,87,89,-1,91,93,95,97,99,101,103,105,107,109,111,113,-1,-1,-1,-1,-1,-1,-1,-1,-1,-1,-1,-1,-1,-1,-1,-1,-1,-1,-1,-1,-1,-1,-1,-1,-1,-1,-1,-1,-1,-1,-1,-1,-1,-1,-1,-1,-1,-1,-1,-1,-1,-1,-1,-1,-1,-1,-1,-1,-1,-1,-1,-1,-1,-1],"loss_changes":[9.446169E2,1.7160286E2,1.0780603E2,1.6136879E2,5.181875E1,1.9559956E2,2.9757568E1,1.788421E2,1.9952536E2,3.384452E1,5.0951233E1,7.116489E1,5.3176556E1,3.2622528E0,3.664624E1,2.2010573E2,1.6793634E2,1.6765762E1,1.5944724E2,5.101177E0,1.1918266E1,3.4034485E1,2.9084887E1,1.4089203E0,3.4120865E1,1.3793182E0,4.9382553E1,1.2953339E0,0E0,6.0218536E1,3.0717499E1,9.3867294E1,9.694159E1,9.87944E1,8.151681E1,1.7372063E1,0E0,1.429627E2,1.3596822E2,1.7847538E-1,0E0,8.805611E0,1.5676061E0,6.3795166E0,3.1205412E1,4.9966778E1,1.6679108E1,7.6334686E0,0E0,2.0516151E1,4.838511E1,1.1440468E0,1.9299963E0,4.8630745E1,8.82233E1,1.1261139E0,1.292172E0,4.3169495E1,3.5011963E1,8.424927E0,1.5036606E1,0E0,0E0,0E0,0E0,0E0,0E0,0E0,0E0,0E0,0E0,0E0,0E0,0E0,0E0,0E0,0E0,0E0,0E0,0E0,0E0,0E0,0E0,0E0,0E0,0E0,0E0,0E0,0E0,0E0,0E0,0E0,0E0,0E0,0E0,0E0,0E0,0E0,0E0,0E0,0E0,0E0,0E0,0E0,0E0,0E0,0E0,0E0,0E0,0E0,0E0,0E0,0E0,0E0,0E0],"parents":[2147483647,0,0,1,1,2,2,3,3,4,4,5,5,6,6,7,7,8,8,9,9,10,10,11,11,12,12,13,13,14,14,15,15,16,16,17,17,18,18,19,19,20,20,21,21,22,22,23,23,24,24,25,25,26,26,27,27,29,29,30,30,31,31,32,32,33,33,34,34,35,35,37,37,38,38,39,39,41,41,42,42,43,43,44,44,45,45,46,46,47,47,49,49,50,50,51,51,52,52,53,53,54,54,55,55,56,56,57,57,58,58,59,59,60,60],"right_children":[2,4,6,8,10,12,14,16,18,20,22,24,26,28,30,32,34,36,38,40,42,44,46,48,50,52,54,56,-1,58,60,62,64,66,68,70,-1,72,74,76,-1,78,80,82,84,86,88,90,-1,92,94,96,98,100,102,104,106,108,110,112,114,-1,-1,-1,-1,-1,-1,-1,-1,-1,-1,-1,-1,-1,-1,-1,-1,-1,-1,-1,-1,-1,-1,-1,-1,-1,-1,-1,-1,-1,-1,-1,-1,-1,-1,-1,-1,-1,-1,-1,-1,-1,-1,-1,-1,-1,-1,-1,-1,-1,-1,-1,-1,-1,-1],"split_conditions":[6.07E2,4.78E2,2.126E3,2.33E2,2.6E1,1.487E3,2.134E3,5E0,7.9E0,3.5E0,6.05E2,6.28E2,6E-2,9.315E1,3.75E0,1.7E1,7.2E1,6.44E2,4.93E2,9E0,2.8E2,1.83E2,2.75E2,1.1718E2,1.005E2,4.22E2,2E0,6.9E1,1.310431E-1,6E0,5.07E0,2.55E1,1.83E2,1.9E1,2.369E2,2.72E2,5.234645E-1,1.83E2,2.75E2,1.98E2,1.879933E-1,1.83E2,1.1258E2,3.15E2,2.34E2,2.3E1,2.57756E3,1.6E1,-3.6867237E-1,8.421E3,5.68693E3,1.5583333E-1,3.03E2,9.13E3,1.414E1,6.35E2,1.2683E2,2.135E3,2.169E3,2.672E3,1.5E1,8.540595E-2,-4.4876013E-2,5.287572E-1,-1.3264202E-1,-2.4014589E-1,-5.5850483E-2,2.1451837E-3,1.6279949E-1,-9.287998E-2,-3.409008E-1,3.1589586E-1,3.8008332E-2,-1.5723497E-1,3.6058626E-1,-1.04468964E-1,-3.9081237E-1,5.144666E-1,1.4242822E-1,-2.865132E-1,7.2947815E-2,-4.0191242E-1,-1.6606879E-1,-2.6902422E-1,5.96223E-2,2.5810012E-1,-4.0899605E-1,5.779051E-1,-2.895505E-1,-3.376398E-1,4.2574633E-2,-1.0002197E-1,-2.3389743E-1,-1.4345372E-1,2.755126E-1,-3.36381E-2,-3.8434103E-1,9.751018E-2,-2.8912476E-1,-1.0847168E-1,1.8782721E-1,3.2021722E-1,-3.3887006E-2,-3.1838694E-1,-8.763631E-2,-1.9710496E-1,1.3090284E-1,-2.7370086E-1,-1.477337E-1,-3.3488713E-2,-1.4394362E-1,-3.0845347E-1,-4.771866E-2,-2.0518088E-1,-8.006476E-2],"split_indices":[29,35,29,35,34,29,29,35,10,3,33,29,3,25,26,38,34,34,33,34,2,29,29,24,3,34,19,17,0,27,12,3,29,35,0,34,0,29,29,23,0,29,25,2,34,37,23,15,0,16,23,11,33,16,15,37,0,29,29,29,26,0,0,0,0,0,0,0,0,0,0,0,0,0,0,0,0,0,0,0,0,0,0,0,0,0,0,0,0,0,0,0,0,0,0,0,0,0,0,0,0,0,0,0,0,0,0,0,0,0,0,0,0,0,0],"split_type":[0,0,0,0,0,0,0,0,0,0,0,0,0,0,0,0,0,0,0,0,0,0,0,0,0,0,0,0,0,0,0,0,0,0,0,0,0,0,0,0,0,0,0,0,0,0,0,0,0,0,0,0,0,0,0,0,0,0,0,0,0,0,0,0,0,0,0,0,0,0,0,0,0,0,0,0,0,0,0,0,0,0,0,0,0,0,0,0,0,0,0,0,0,0,0,0,0,0,0,0,0,0,0,0,0,0,0,0,0,0,0,0,0,0,0],"sum_hessian":[1.1784003E4,7.6095396E3,4.174464E3,7.2777114E3,3.3182825E2,1.1945571E3,2.9799065E3,6.0521206E3,1.2255908E3,3.9644634E1,2.921836E2,6.8326227E2,5.1129483E2,1.409996E2,2.838907E3,3.1326704E3,2.9194504E3,1.1240373E2,1.113187E3,1.0415902E1,2.9228735E1,2.4150339E2,5.068022E1,1.5153159E2,5.3173065E2,2.4940828E1,4.86354E2,1.3998595E2,1.0136704E0,2.0962021E3,7.4270496E2,2.981181E3,1.5148941E2,1.4878319E3,1.4316185E3,1.10728745E2,1.6749917E0,8.6889996E2,2.4428705E2,9.322847E0,1.0930542E0,2.581805E1,3.4106832E0,1.3007747E2,1.1142591E2,3.847217E1,1.2208049E1,3.0398403E1,1.2113318E2,4.3299643E2,9.873424E1,2.204288E1,2.8979487E0,2.200236E2,2.6633038E2,1.3749123E2,2.4947066E0,1.0564928E3,1.0397092E3,2.9300653E2,4.496984E2,2.350506E3,6.306748E2,1.283259E2,2.3163507E1,3.3837558E2,1.1494563E3,1.041674E3,3.899445E2,4.1287167E1,6.9441574E1,6.438213E2,2.2507869E2,1.8478227E2,5.9504772E1,1.1128979E0,8.2099495E0,1.5497975E1,1.0320076E1,2.2806466E0,1.1300364E0,1.16607666E2,1.3469799E1,7.130797E1,4.0117947E1,1.9362688E1,1.9109484E1,1.0432432E1,1.7756164E0,2.4829723E1,5.5686784E0,2.602874E2,1.7270903E2,5.543693E1,4.3297302E1,1.0802388E0,2.096264E1,1.6310382E0,1.2669107E0,1.4543605E2,7.4587555E1,1.6376535E2,1.0256504E2,1.3463986E2,2.8513787E0,1.4838165E0,1.0108902E0,3.9260336E2,6.638894E2,4.811049E2,5.586044E2,2.8097614E2,1.2030397E1,3.3022824E2,1.1947017E2],"tree_param":{"num_deleted":"0","num_feature":"49","num_nodes":"115","size_leaf_vector":"1"}},{"base_weights":[-7.0865355E-2,5.1257122E-2,-4.7473097E-1,1.04705215E-1,-1.83031E-1,-5.5462664E-1,-3.3290106E-1,1.2708262E-1,-7.011512E-1,1.3953047E-1,-3.4559804E-1,-6.1990005E-1,-3.2174274E-1,-2.7055824E-1,-7.982261E-1,-9.178499E-2,2.0705917E-1,-1.0681685E0,-9.53574E-2,4.1810402E-1,-5.0542927E-1,-4.951321E-1,2.755808E-1,-5.0634265E-1,-8.788951E-1,-3.5989664E-2,-7.0424956E-1,-5.805531E-1,-1.4984635E-1,-8.311442E-1,4.010039E-1,1.0943041E-1,-3.098792E-1,1.6810521E-1,6.8892646E-1,-1.1910197E0,6.746817E-1,-3.344951E-1,6.6914904E-1,7.775848E-1,-3.9113072E-1,-8.81995E-1,2.6078284E-1,-5.657503E-1,6.352658E-1,5.2637446E-1,-1.9427352E-1,4.2062977E-1,-5.528617E-1,-1.0312891E0,-7.197197E-1,1.4075856E0,-1.6256988E-1,-7.531559E-1,6.08729E-1,-4.014973E-1,-8.7603635E-1,-4.6394962E-1,2.0172892E-2,-9.046602E-1,-1.0239259E-1,-2.3979627E-2,1.0284466E-1,-1.01919375E-1,5.4690164E-1,2.8010245E-2,1.21302E-1,2.4794127E-1,-8.049187E-2,-3.7433928E-1,-3.678755E-2,7.4160814E-1,-1.9635065E-1,-1.4047782E-1,3.1396222E-1,3.418061E-1,-3.1681883E-1,3.3957317E-1,7.9492375E-2,-2.678923E-1,1.4662304E-2,-3.096849E-1,-9.654335E-2,-2.9164088E-1,1.6151626E-1,-1.0196072E-1,-2.4614783E-1,-5.7725538E-2,3.070775E-1,-2.1268883E-1,2.1597686E-1,-1.3603026E-1,1.077551E-1,7.1511513E-1,-3.042138E-1,-1.8075643E-1,1.4005916E-2,-3.1080312E-1,-1.9921005E-2,2.1560613E-2,-2.2887167E-1,8.8738126E-1,-2.49611E-1,-8.3288535E-2,3.8431314E-1,-2.730123E-1,-1.0390054E-1,-1.6491294E-1,4.7684678E-1,-6.64684E-2,-2.7486938E-1,-2.72122E-1,1.3705918E-1,-1.899242E-1,1.19189166E-1,-5.2023288E-2,1.4903453E-1,-3.017511E-1,-2.1481949E-1,-1.14156194E-1,3.9126113E-1],"categories":[],"categories_nodes":[],"categories_segments":[],"categories_sizes":[],"default_left":[0,0,0,0,0,0,0,0,0,0,0,0,0,0,0,0,0,0,0,0,0,0,0,0,0,0,0,0,1,0,0,0,0,0,0,0,0,0,0,0,0,0,0,0,0,0,0,0,0,0,0,0,0,0,0,0,0,0,0,1,0,0,0,0,0,0,0,0,0,0,0,0,0,0,0,0,0,0,0,0,0,0,0,0,0,0,0,0,0,0,0,0,0,0,0,0,0,0,0,0,0,0,0,0,0,0,0,0,0,0,0,0,0,0,0,0,0,0,0,0,0],"id":5,"left_children":[1,3,5,7,9,11,13,15,17,19,21,23,25,27,29,31,33,35,37,39,41,43,45,47,49,51,53,55,57,59,-1,61,63,65,67,69,71,73,75,77,79,81,83,85,87,89,91,93,95,97,99,101,103,105,107,109,111,113,115,117,119,-1,-1,-1,-1,-1,-1,-1,-1,-1,-1,-1,-1,-1,-1,-1,-1,-1,-1,-1,-1,-1,-1,-1,-1,-1,-1,-1,-1,-1,-1,-1,-1,-1,-1,-1,-1,-1,-1,-1,-1,-1,-1,-1,-1,-1,-1,-1,-1,-1,-1,-1,-1,-1,-1,-1,-1,-1,-1,-1,-1],"loss_changes":[5.535138E2,1.0793018E2,2.9341309E1,1.2663434E2,8.400672E1,2.5113892E1,2.7093857E1,1.1955021E2,4.2087013E1,9.673729E1,9.904856E1,3.7777008E1,4.004877E1,3.1034977E1,8.8914795E0,8.0261734E1,9.3765564E1,2.6082672E1,1.3512582E1,1.0960785E2,4.711787E1,6.889966E1,2.4523544E1,3.929332E1,8.833801E0,3.876854E1,1.0522057E1,1.1962402E1,3.2048626E1,5.7817307E0,0E0,4.2083935E1,5.6494194E1,8.168576E1,4.943123E1,6.5592957E0,2.1715773E1,1.0841475E1,1.5522821E1,4.7015076E1,2.5710379E1,8.860031E0,1.9115374E1,4.6252502E1,1.6574924E1,3.288237E1,1.0612744E1,1.25925476E2,2.572168E1,8.3943176E-1,6.768776E0,6.185859E1,3.2713013E1,9.356796E0,7.8963437E0,1.3390804E1,4.0124893E0,3.0948212E1,3.608829E1,1.1778259E0,4.8681736E0,0E0,0E0,0E0,0E0,0E0,0E0,0E0,0E0,0E0,0E0,0E0,0E0,0E0,0E0,0E0,0E0,0E0,0E0,0E0,0E0,0E0,0E0,0E0,0E0,0E0,0E0,0E0,0E0,0E0,0E0,0E0,0E0,0E0,0E0,0E0,0E0,0E0,0E0,0E0,0E0,0E0,0E0,0E0,0E0,0E0,0E0,0E0,0E0,0E0,0E0,0E0,0E0,0E0,0E0,0E0,0E0,0E0,0E0,0E0,0E0],"parents":[2147483647,0,0,1,1,2,2,3,3,4,4,5,5,6,6,7,7,8,8,9,9,10,10,11,11,12,12,13,13,14,14,15,15,16,16,17,17,18,18,19,19,20,20,21,21,22,22,23,23,24,24,25,25,26,26,27,27,28,28,29,29,31,31,32,32,33,33,34,34,35,35,36,36,37,37,38,38,39,39,40,40,41,41,42,42,43,43,44,44,45,45,46,46,47,47,48,48,49,49,50,50,51,51,52,52,53,53,54,54,55,55,56,56,57,57,58,58,59,59,60,60],"right_children":[2,4,6,8,10,12,14,16,18,20,22,24,26,28,30,32,34,36,38,40,42,44,46,48,50,52,54,56,58,60,-1,62,64,66,68,70,72,74,76,78,80,82,84,86,88,90,92,94,96,98,100,102,104,106,108,110,112,114,116,118,120,-1,-1,-1,-1,-1,-1,-1,-1,-1,-1,-1,-1,-1,-1,-1,-1,-1,-1,-1,-1,-1,-1,-1,-1,-1,-1,-1,-1,-1,-1,-1,-1,-1,-1,-1,-1,-1,-1,-1,-1,-1,-1,-1,-1,-1,-1,-1,-1,-1,-1,-1,-1,-1,-1,-1,-1,-1,-1,-1,-1],"split_conditions":[2.126E3,1.766E3,2.42E2,4.55E2,5E0,1.8813E2,5.75E2,2E0,2.75E2,2.75E2,3.025E1,1.197E1,4.961E1,5.07E0,7.65E2,1.5E-1,6.1E1,1.2E2,4.49E2,4.8E1,1.494E3,2.124E3,3.356E4,1.38E0,1.2726E2,2E-2,1.2928E2,5.5E-1,5E0,2.692E3,4.010039E-1,7.25E0,2.52867E3,1.6469E2,5.95E2,1.20976E3,5.9125E2,6.74E2,1.4879631E0,1E0,4.83E1,4E1,1.22E0,4.23E0,3.47E3,1.83E2,1.146E2,2E0,7.337E1,2.5346E2,4.9E0,5E0,4.59E1,2.790253E4,6.44E2,1.35E1,8.11E2,2.692E3,2.502E1,9E0,3E0,-2.3979627E-2,1.0284466E-1,-1.01919375E-1,5.4690164E-1,2.8010245E-2,1.21302E-1,2.4794127E-1,-8.049187E-2,-3.7433928E-1,-3.678755E-2,7.4160814E-1,-1.9635065E-1,-1.4047782E-1,3.1396222E-1,3.418061E-1,-3.1681883E-1,3.3957317E-1,7.9492375E-2,-2.678923E-1,1.4662304E-2,-3.096849E-1,-9.654335E-2,-2.9164088E-1,1.6151626E-1,-1.0196072E-1,-2.4614783E-1,-5.7725538E-2,3.070775E-1,-2.1268883E-1,2.1597686E-1,-1.3603026E-1,1.077551E-1,7.1511513E-1,-3.042138E-1,-1.8075643E-1,1.4005916E-2,-3.1080312E-1,-1.9921005E-2,2.1560613E-2,-2.2887167E-1,8.8738126E-1,-2.49611E-1,-8.3288535E-2,3.8431314E-1,-2.730123E-1,-1.0390054E-1,-1.6491294E-1,4.7684678E-1,-6.64684E-2,-2.7486938E-1,-2.72122E-1,1.3705918E-1,-1.899242E-1,1.19189166E-1,-5.2023288E-2,1.4903453E-1,-3.017511E-1,-2.1481949E-1,-1.14156194E-1,3.9126113E-1],"split_indices":[29,27,33,37,34,10,0,19,29,29,12,4,4,12,34,6,38,3,33,10,29,29,23,12,10,3,25,26,27,29,0,12,24,10,33,24,2,37,1,8,3,12,3,4,16,29,3,34,11,25,24,15,4,23,10,11,34,29,12,27,1,0,0,0,0,0,0,0,0,0,0,0,0,0,0,0,0,0,0,0,0,0,0,0,0,0,0,0,0,0,0,0,0,0,0,0,0,0,0,0,0,0,0,0,0,0,0,0,0,0,0,0,0,0,0,0,0,0,0,0,0],"split_type":[0,0,0,0,0,0,0,0,0,0,0,0,0,0,0,0,0,0,0,0,0,0,0,0,0,0,0,0,0,0,0,0,0,0,0,0,0,0,0,0,0,0,0,0,0,0,0,0,0,0,0,0,0,0,0,0,0,0,0,0,0,0,0,0,0,0,0,0,0,0,0,0,0,0,0,0,0,0,0,0,0,0,0,0,0,0,0,0,0,0,0,0,0,0,0,0,0,0,0,0,0,0,0,0,0,0,0,0,0,0,0,0,0,0,0,0,0,0,0,0,0],"sum_hessian":[1.1221172E4,8.616541E3,2.6046306E3,7.016436E3,1.6001047E3,1.6642268E3,9.404039E2,6.827684E3,1.8875206E2,5.3624414E2,1.0638606E3,1.2985918E3,3.6563498E2,8.3069183E2,1.0971208E2,1.8271827E3,5.0005015E3,1.1706532E2,7.168673E1,3.747377E2,1.6150645E2,8.5761346E2,2.0624718E2,9.048234E2,3.9376837E2,2.099129E2,1.5572208E2,2.3174594E2,5.9894586E2,1.0864754E2,1.0645473E0,9.5062604E2,8.7655664E2,4.627745E3,3.7275626E2,1.0965268E2,7.412644E0,5.5034424E1,1.6652304E1,2.5950064E2,1.1523707E2,1.0818587E2,5.332058E1,8.0765704E2,4.995642E1,1.3439238E2,7.185479E1,4.285334E1,8.6197003E2,1.9837033E2,1.9539804E2,1.6106567E1,1.9380634E2,1.5054105E2,5.181034E0,1.4577098E2,8.597497E1,2.0973697E2,3.892089E2,9.847233E1,1.0175209E1,5.251725E2,4.2545355E2,8.6528674E2,1.1269909E1,3.5165935E3,1.1111515E3,3.2604376E2,4.67125E1,1.0395999E2,5.692689E0,2.7858121E0,4.6268315E0,5.0777187E1,4.257238E0,1.3352642E1,3.2996616E0,1.5272566E2,1.0677497E2,5.3354565E1,6.1882504E1,8.463654E1,2.3549328E1,9.339485E0,4.3981094E1,4.293154E2,3.7834164E2,1.6114403E1,3.384202E1,1.7843285E1,1.16549095E2,4.9061897E1,2.2792894E1,1.7815134E1,2.5038206E1,7.9603094E2,6.593914E1,1.9733105E2,1.0392727E0,1.0074269E1,1.8532378E2,9.328379E0,6.7781897E0,1.8024794E2,1.3558396E1,1.0775123E2,4.2789818E1,2.5768535E0,2.6041806E0,1.0907276E2,3.6698215E1,8.433078E1,1.6441927E0,1.755312E2,3.420576E1,2.7723907E2,1.11969826E2,6.126947E1,3.7202858E1,9.104448E0,1.07076E0],"tree_param":{"num_deleted":"0","num_feature":"49","num_nodes":"121","size_leaf_vector":"1"}},{"base_weights":[-5.736074E-2,6.2087923E-2,-3.1565216E-1,1.0868295E-1,-2.0215462E-1,-2.3887968E-1,-5.8764595E-1,1.7945343E-1,-1.20532565E-1,-7.76141E-2,-9.514352E-1,-1.0346308E0,-2.1856718E-1,-8.594646E-1,-4.3750864E-1,1.4542662E-1,7.879366E-1,8.407949E-1,-2.1663482E-1,1.6916694E-1,-3.763271E-1,-7.360045E-1,-3.3551753E-1,-5.543127E-1,-1.1506926E0,-6.7671837E-4,-3.2840055E-1,-8.972004E-1,4.5590494E-2,-2.6255006E-1,-6.650569E-1,4.800853E-1,8.7575726E-2,1.2932056E0,-9.242911E-1,1.0408368E0,-6.679837E-1,7.793657E-2,-4.174692E-1,6.7968595E-1,-2.1857515E-1,-8.9527273E-1,1.6261007E-1,-8.378298E-1,1.5171719E0,-1.0471594E0,8.498401E-1,-3.6006182E-1,-6.5177643E-1,-2.4265872E-1,2.325032E-1,-5.031535E-1,-1.6405295E-1,-2.8160155E-1,-9.2026025E-1,6.5566003E-1,-2.7886525E-1,-5.899171E-1,-1.1359417E-1,-7.0181596E-1,8.885546E-1,1.9132586E-1,-9.389945E-2,-2.3237687E-1,3.231512E-2,-1.759445E-1,4.6946672E-1,-3.1731638E-1,2.803697E-1,3.887938E-1,-1.3297337E-2,-3.348419E-1,2.739924E-1,6.3839175E-2,-2.5303078E-1,-2.1836396E-1,7.185301E-2,1.4367099E-1,6.532582E-1,2.0078015E-2,-1.6738537E-1,-2.8134358E-1,3.8606223E-1,9.0840414E-2,-3.2675976E-1,-3.344891E-1,-1.1843439E-1,-6.8384364E-2,8.407796E-1,-3.371735E-1,-6.382066E-2,5.1778704E-1,-2.1008079E-1,-2.5938767E-1,-2.6453216E-2,-9.7874865E-2,1.7038657E-1,1.0707436E-1,-8.8063255E-2,-2.4861832E-1,-9.2554115E-2,-6.935627E-2,7.5455144E-2,3.9676914E-1,-2.8706756E-1,-2.7902868E-1,2.1343585E-2,3.0768046E-1,-2.0719953E-1,6.982899E-3,-2.3724897E-1,2.287297E-1,-5.432719E-2,-2.4941732E-1,-9.753569E-2,5.289496E-1,-2.15551E-1],"categories":[],"categories_nodes":[],"categories_segments":[],"categories_sizes":[],"default_left":[0,0,0,0,0,0,0,0,0,0,0,0,0,0,0,0,0,0,0,0,0,0,0,0,0,0,1,0,0,0,0,0,0,0,0,0,0,0,0,0,0,0,0,0,0,0,0,0,0,0,0,0,0,0,0,0,0,0,0,0,0,0,0,0,0,0,0,0,0,0,0,0,0,0,0,0,0,0,0,0,0,0,0,0,0,0,0,0,0,0,0,0,0,0,0,0,0,0,0,0,0,0,0,0,0,0,0,0,0,0,0,0,0,0,0,0,0],"id":6,"left_children":[1,3,5,7,9,11,13,15,17,19,21,23,25,27,29,31,33,35,37,39,41,43,-1,45,47,49,51,53,55,57,59,61,63,65,67,69,71,73,75,77,79,81,83,85,87,89,91,-1,93,95,97,99,101,103,105,107,-1,109,111,113,115,-1,-1,-1,-1,-1,-1,-1,-1,-1,-1,-1,-1,-1,-1,-1,-1,-1,-1,-1,-1,-1,-1,-1,-1,-1,-1,-1,-1,-1,-1,-1,-1,-1,-1,-1,-1,-1,-1,-1,-1,-1,-1,-1,-1,-1,-1,-1,-1,-1,-1,-1,-1,-1,-1,-1,-1],"loss_changes":[3.3342606E2,9.101144E1,7.121985E1,1.0194155E2,1.0333247E2,4.2879257E1,3.0295502E1,9.929132E1,1.3717383E2,7.018935E1,4.8542175E0,3.0476227E0,6.2262512E1,9.13858E0,1.9181206E1,8.801016E1,2.2097171E2,4.143119E1,7.983089E1,1.0340209E2,1.2059531E2,1.775417E1,0E0,1.112879E1,5.1008606E-1,4.931196E1,4.959651E1,3.371643E0,7.5184903E0,1.3416365E1,1.2655373E1,8.3992004E1,6.744244E1,1.01302155E2,1.5489922E1,3.3159836E1,1.2647897E1,6.823002E1,1.6376863E2,6.674498E1,2.883496E1,2.1587738E1,3.7554028E1,8.078709E0,8.405155E0,4.909706E-1,7.1785965E0,0E0,7.5288963E-1,2.9245512E1,2.9232435E1,5.2839035E1,2.496934E1,1.2830404E1,2.4657288E0,4.558627E0,0E0,1.0641912E1,1.144797E1,9.802666E0,8.731491E0,0E0,0E0,0E0,0E0,0E0,0E0,0E0,0E0,0E0,0E0,0E0,0E0,0E0,0E0,0E0,0E0,0E0,0E0,0E0,0E0,0E0,0E0,0E0,0E0,0E0,0E0,0E0,0E0,0E0,0E0,0E0,0E0,0E0,0E0,0E0,0E0,0E0,0E0,0E0,0E0,0E0,0E0,0E0,0E0,0E0,0E0,0E0,0E0,0E0,0E0,0E0,0E0,0E0,0E0,0E0,0E0],"parents":[2147483647,0,0,1,1,2,2,3,3,4,4,5,5,6,6,7,7,8,8,9,9,10,10,11,11,12,12,13,13,14,14,15,15,16,16,17,17,18,18,19,19,20,20,21,21,23,23,24,24,25,25,26,26,27,27,28,28,29,29,30,30,31,31,32,32,33,33,34,34,35,35,36,36,37,37,38,38,39,39,40,40,41,41,42,42,43,43,44,44,45,45,46,46,48,48,49,49,50,50,51,51,52,52,53,53,54,54,55,55,57,57,58,58,59,59,60,60],"right_children":[2,4,6,8,10,12,14,16,18,20,22,24,26,28,30,32,34,36,38,40,42,44,-1,46,48,50,52,54,56,58,60,62,64,66,68,70,72,74,76,78,80,82,84,86,88,90,92,-1,94,96,98,100,102,104,106,108,-1,110,112,114,116,-1,-1,-1,-1,-1,-1,-1,-1,-1,-1,-1,-1,-1,-1,-1,-1,-1,-1,-1,-1,-1,-1,-1,-1,-1,-1,-1,-1,-1,-1,-1,-1,-1,-1,-1,-1,-1,-1,-1,-1,-1,-1,-1,-1,-1,-1,-1,-1,-1,-1,-1,-1,-1,-1,-1,-1],"split_conditions":[6.07E2,1.65187E3,1.5E0,9E0,2.75E2,6.28E2,5.07E0,2E0,5E0,2.25E0,5.171E3,1.0015E2,2.126E3,2.672E3,1.57692E3,1E0,1.83E2,1.169E1,9E0,1E0,1.83E2,1.911E1,-3.3551753E-1,2.98E2,7.0229E3,1.494E3,6E0,3.42E0,1E0,5.4E1,3.53E2,1.83E2,6.66E0,5.2E1,5.61E2,1.83E2,8.5E1,4.4E2,2.75E2,6.7725E1,1.32E2,4.89E2,1E0,8.64E0,8E0,4.19E2,3.4E1,-3.6006182E-1,1.5E2,2.53E2,9.60772E3,2.135E3,1.1462E2,3.396E3,8.11E2,9.375E1,-2.7886525E-1,3.47E3,1.34E1,1.913E1,3.001E1,1.9132586E-1,-9.389945E-2,-2.3237687E-1,3.231512E-2,-1.759445E-1,4.6946672E-1,-3.1731638E-1,2.803697E-1,3.887938E-1,-1.3297337E-2,-3.348419E-1,2.739924E-1,6.3839175E-2,-2.5303078E-1,-2.1836396E-1,7.185301E-2,1.4367099E-1,6.532582E-1,2.0078015E-2,-1.6738537E-1,-2.8134358E-1,3.8606223E-1,9.0840414E-2,-3.2675976E-1,-3.344891E-1,-1.1843439E-1,-6.8384364E-2,8.407796E-1,-3.371735E-1,-6.382066E-2,5.1778704E-1,-2.1008079E-1,-2.5938767E-1,-2.6453216E-2,-9.7874865E-2,1.7038657E-1,1.0707436E-1,-8.8063255E-2,-2.4861832E-1,-9.2554115E-2,-6.935627E-2,7.5455144E-2,3.9676914E-1,-2.8706756E-1,-2.7902868E-1,2.1343585E-2,3.0768046E-1,-2.0719953E-1,6.982899E-3,-2.3724897E-1,2.287297E-1,-5.432719E-2,-2.4941732E-1,-9.753569E-2,5.289496E-1,-2.15551E-1],"split_indices":[29,24,26,37,29,29,12,37,35,4,16,24,29,29,23,28,29,11,27,8,29,15,0,23,23,29,27,26,19,33,14,29,0,35,33,29,10,10,29,11,33,37,22,4,34,35,17,0,10,36,24,29,25,16,34,0,0,16,10,15,12,0,0,0,0,0,0,0,0,0,0,0,0,0,0,0,0,0,0,0,0,0,0,0,0,0,0,0,0,0,0,0,0,0,0,0,0,0,0,0,0,0,0,0,0,0,0,0,0,0,0,0,0,0,0,0,0],"split_type":[0,0,0,0,0,0,0,0,0,0,0,0,0,0,0,0,0,0,0,0,0,0,0,0,0,0,0,0,0,0,0,0,0,0,0,0,0,0,0,0,0,0,0,0,0,0,0,0,0,0,0,0,0,0,0,0,0,0,0,0,0,0,0,0,0,0,0,0,0,0,0,0,0,0,0,0,0,0,0,0,0,0,0,0,0,0,0,0,0,0,0,0,0,0,0,0,0,0,0,0,0,0,0,0,0,0,0,0,0,0,0,0,0,0,0,0,0],"sum_hessian":[1.0805441E4,7.3890728E3,3.4163687E3,6.28194E3,1.1071329E3,2.6658022E3,7.505664E2,4.800117E3,1.481823E3,9.502862E2,1.5684677E2,6.51111E1,2.6006912E3,2.6538E2,4.851864E2,4.54708E3,2.53037E2,1.339681E2,1.347855E3,5.20615E2,4.2967117E2,7.084325E1,8.600353E1,1.3795372E1,5.1315723E1,8.71933E2,1.7287582E3,2.5476633E2,1.0613672E1,2.755069E2,2.096795E2,6.691057E2,3.8779744E3,1.9557007E2,5.7466927E1,1.18559044E2,1.5409043E1,5.4666E2,8.0119495E2,2.2440291E2,2.962121E2,2.1855864E2,2.1111253E2,6.838113E1,2.4621193E0,1.0399478E1,3.395894E0,4.54041E1,5.911627E0,4.2787054E2,4.4406244E2,8.368563E2,8.919018E2,9.6758E0,2.4509052E2,6.730531E0,3.8831408E0,8.523086E1,1.9027603E2,2.0536867E2,4.31084E0,5.583081E2,1.1079758E2,8.767148E1,3.7903027E3,2.455102E1,1.7101906E2,5.402029E1,3.4466345E0,9.583266E1,2.2726387E1,1.2235518E1,3.173525E0,4.7753287E2,6.912712E1,5.440387E2,2.5715622E2,1.9904152E2,2.536139E1,1.613111E2,1.34901E2,2.1493883E2,3.6198227E0,1.905327E2,2.057983E1,4.1134365E1,2.7246763E1,1.3932645E0,1.0688549E0,9.205778E0,1.1936996E0,2.0971498E0,1.2987442E0,3.9033647E0,2.008262E0,3.884146E2,3.9455936E1,3.5938794E2,8.4674484E1,3.1189368E2,5.2496265E2,7.68238E2,1.2366381E2,2.5825028E0,7.0932975E0,2.427442E2,2.3463151E0,5.4666376E0,1.2638937E0,2.1252274E1,6.397859E1,1.2875176E1,1.7740086E2,1.5190857E2,5.34601E1,2.728673E0,1.5821669E0],"tree_param":{"num_deleted":"0","num_feature":"49","num_nodes":"117","size_leaf_vector":"1"}},{"base_weights":[-4.640989E-2,2.1199882E-2,-3.1235752E-1,3.3660095E-2,-7.271049E-1,-9.099815E-1,-2.8801808E-1,5.3477086E-2,-4.359835E-1,-4.344994E-1,-1.0866507E0,-5.278514E-1,-3.0649137E-1,-2.2201774E-1,-4.8491985E-1,2.1909632E-2,2.978173E-1,-6.0491854E-1,6.324883E-2,-1.1411034E0,-1.5816976E-1,7.284419E-1,-1.2178996E0,-8.9606655E-1,1.6222252E0,-3.7686238E-1,-9.008286E-2,-8.542918E-1,-3.1057557E-1,5.398646E-2,-2.0171446E-1,6.957368E-2,7.3520005E-1,1.6230793E-1,-7.5319964E-1,-5.185998E-1,4.2415294E-1,-3.5235652E-1,-1.01952784E-1,-9.4766E-1,1.3884188E-1,1.4005171E0,-2.0670295E-1,-4.8116052E-1,-1.0912383E0,-2.99932E-1,2.8716503E-2,7.036786E-1,7.9964645E-2,-2.1277937E-1,-6.906587E-1,8.5996315E-2,-2.4790479E-1,-9.1166097E-1,-9.656475E-2,-1.6922271E-1,-5.6382024E-1,5.335903E-2,-4.1957973E-3,-8.512428E-2,1.0165932E-1,-1.4259319E-1,1.0213408E-1,3.6166456E-1,-8.0752164E-2,2.0157844E-1,-2.2028711E-1,-3.471642E-1,-1.3800672E-1,-2.1515873E-1,1.8318492E-1,2.9713315E-1,-4.9117383E-2,-8.9324035E-2,-3.2074675E-1,-6.401931E-2,2.5006178E-1,8.64899E-2,5.5116E-1,-1.1792693E-1,-3.3248627E-1,-1.5873818E-1,9.3725145E-2,-8.094544E-2,-3.0192935E-1,3.7144607E-1,-5.054144E-2,-3.0932616E-2,-2.0344982E-1,-2.806955E-1,1.6785571E-1,1.1646104E-1,-2.7195635E-1,-1.5704139E-4,-1.4351586E-1,-2.374321E-1,1.6124576E-1],"categories":[],"categories_nodes":[],"categories_segments":[],"categories_sizes":[],"default_left":[0,0,0,0,0,0,0,0,0,0,0,0,0,1,0,0,0,0,0,0,0,0,0,0,0,0,0,0,0,0,0,0,0,0,0,0,0,0,0,0,0,0,0,0,0,0,0,0,0,0,0,0,0,0,0,0,0,0,0,0,0,0,0,0,0,0,0,0,0,0,0,0,0,0,0,0,0,0,0,0,0,0,0,0,0,0,0,0,0,0,0,0,0,0,0,0,0],"id":7,"left_children":[1,3,5,7,9,11,13,15,17,19,21,23,-1,25,27,29,31,33,35,37,39,41,43,45,47,49,51,53,55,57,59,61,63,65,67,69,71,-1,-1,73,75,77,-1,-1,79,-1,-1,-1,-1,81,83,85,87,89,91,93,95,-1,-1,-1,-1,-1,-1,-1,-1,-1,-1,-1,-1,-1,-1,-1,-1,-1,-1,-1,-1,-1,-1,-1,-1,-1,-1,-1,-1,-1,-1,-1,-1,-1,-1,-1,-1,-1,-1,-1,-1],"loss_changes":[1.86692E2,7.7218445E1,3.0350159E1,7.582248E1,1.3798149E1,2.9549332E0,2.6190765E1,6.0276222E1,2.7857452E1,1.474663E1,1.522699E1,1.7752281E1,0E0,3.0966896E1,3.2396126E1,4.9666393E1,8.920868E1,2.8171158E1,1.7922993E1,1.7202759E-1,1.3290579E1,5.427872E0,1.0123596E0,1.9698372E0,2.6756716E0,3.5782036E1,2.282669E1,6.956665E0,1.22947235E1,5.098529E1,3.8614742E1,8.704045E1,1.4511197E2,1.9115608E1,2.3962112E1,7.7763033E0,1.7666744E1,0E0,0E0,9.0308094E-1,1.036952E1,1.1739912E0,0E0,0E0,1.0801697E-1,0E0,0E0,0E0,0E0,7.653442E1,3.1509117E1,1.1415123E2,2.6907423E1,5.8365173E0,5.269611E0,1.165987E1,3.1399242E1,0E0,0E0,0E0,0E0,0E0,0E0,0E0,0E0,0E0,0E0,0E0,0E0,0E0,0E0,0E0,0E0,0E0,0E0,0E0,0E0,0E0,0E0,0E0,0E0,0E0,0E0,0E0,0E0,0E0,0E0,0E0,0E0,0E0,0E0,0E0,0E0,0E0,0E0,0E0,0E0],"parents":[2147483647,0,0,1,1,2,2,3,3,4,4,5,5,6,6,7,7,8,8,9,9,10,10,11,11,13,13,14,14,15,15,16,16,17,17,18,18,19,19,20,20,21,21,22,22,23,23,24,24,25,25,26,26,27,27,28,28,29,29,30,30,31,31,32,32,33,33,34,34,35,35,36,36,39,39,40,40,41,41,44,44,49,49,50,50,51,51,52,52,53,53,54,54,55,55,56,56],"right_children":[2,4,6,8,10,12,14,16,18,20,22,24,-1,26,28,30,32,34,36,38,40,42,44,46,48,50,52,54,56,58,60,62,64,66,68,70,72,-1,-1,74,76,78,-1,-1,80,-1,-1,-1,-1,82,84,86,88,90,92,94,96,-1,-1,-1,-1,-1,-1,-1,-1,-1,-1,-1,-1,-1,-1,-1,-1,-1,-1,-1,-1,-1,-1,-1,-1,-1,-1,-1,-1,-1,-1,-1,-1,-1,-1,-1,-1,-1,-1,-1,-1],"split_conditions":[2.126E3,1.528496E4,2.134E3,4.89E2,6.6E1,2.6748E2,5.5E-1,2.65E2,4.4E2,3.727E3,3.049E3,9.3003E2,-3.0649137E-1,6E0,6.88E0,1.2039E2,2.69E2,2.1E1,1.6E0,4.45E0,7E0,1.2317E2,1.83E2,4.53E2,1.075E3,2.502E1,2.169E3,2.672E3,2.169E3,1.8E1,3.9E1,2.415E1,1.83E2,2.7E1,1.83E2,8.4074E2,5.961E1,-3.5235652E-1,-1.01952784E-1,3.53E0,5.7E1,5.877E1,-2.0670295E-1,-4.8116052E-1,1.6E1,-2.99932E-1,2.8716503E-2,7.036786E-1,7.9964645E-2,2.9E1,1.6E1,1E0,4.2076E2,8.11E2,1E0,1.05E2,1.344E1,5.335903E-2,-4.1957973E-3,-8.512428E-2,1.0165932E-1,-1.4259319E-1,1.0213408E-1,3.6166456E-1,-8.0752164E-2,2.0157844E-1,-2.2028711E-1,-3.471642E-1,-1.3800672E-1,-2.1515873E-1,1.8318492E-1,2.9713315E-1,-4.9117383E-2,-8.9324035E-2,-3.2074675E-1,-6.401931E-2,2.5006178E-1,8.64899E-2,5.5116E-1,-1.1792693E-1,-3.3248627E-1,-1.5873818E-1,9.3725145E-2,-8.094544E-2,-3.0192935E-1,3.7144607E-1,-5.054144E-2,-3.0932616E-2,-2.0344982E-1,-2.806955E-1,1.6785571E-1,1.1646104E-1,-2.7195635E-1,-1.5704139E-4,-1.4351586E-1,-2.374321E-1,1.6124576E-1],"split_indices":[29,24,29,35,17,24,26,35,33,16,16,23,0,27,12,25,36,34,3,25,12,0,29,34,23,12,29,29,29,27,27,10,29,33,29,24,0,0,0,0,35,0,0,0,14,0,0,0,0,14,14,28,24,34,19,25,26,0,0,0,0,0,0,0,0,0,0,0,0,0,0,0,0,0,0,0,0,0,0,0,0,0,0,0,0,0,0,0,0,0,0,0,0,0,0,0,0],"split_type":[0,0,0,0,0,0,0,0,0,0,0,0,0,0,0,0,0,0,0,0,0,0,0,0,0,0,0,0,0,0,0,0,0,0,0,0,0,0,0,0,0,0,0,0,0,0,0,0,0,0,0,0,0,0,0,0,0,0,0,0,0,0,0,0,0,0,0,0,0,0,0,0,0,0,0,0,0,0,0,0,0,0,0,0,0,0,0,0,0,0,0,0,0,0,0,0,0],"sum_hessian":[1.0381566E4,8.278028E3,2.1035376E3,8.1433857E3,1.346426E2,8.08943E1,2.0226433E3,7.8145312E3,3.288543E2,7.54491E1,5.919349E1,1.9587156E1,6.1307148E1,1.5164617E3,5.061817E2,6.9214116E3,8.931199E2,2.455508E2,8.330351E1,2.0331028E1,5.5118073E1,3.6848023E0,5.5508686E1,1.7221157E1,2.366E0,6.9680444E2,8.1965717E2,1.6105815E2,3.4512354E2,6.053807E3,8.676046E2,5.8763025E2,3.0548965E2,3.975556E1,2.0579523E2,3.1722935E1,5.1580578E1,1.9069836E1,1.2611908E0,1.4468507E1,4.0649563E1,2.5077274E0,1.1770748E0,1.0833538E1,4.4675148E1,1.5583601E1,1.6375562E0,1.0666481E0,1.2993517E0,4.5865396E2,2.381505E2,3.8763486E2,4.3202234E2,1.495335E2,1.152466E1,2.225639E2,1.2255963E2,2.1442974E3,3.9095095E3,7.5370465E2,1.1389996E2,1.9487271E2,3.9275754E2,2.0792026E2,9.75694E1,2.5507729E1,1.4247834E1,8.529999E1,1.2049525E2,2.7288553E1,4.434381E0,2.5923857E1,2.565672E1,2.8222446E0,1.1646262E1,2.7432833E1,1.3216732E1,1.1750685E0,1.3326589E0,1.6384593E0,4.303669E1,2.8623508E2,1.7241887E2,1.0288571E2,1.3526479E2,6.9426384E1,3.1820847E2,3.2416913E2,1.078532E2,1.4749234E2,2.0411584E0,7.535367E0,3.9892929E0,1.4464053E2,7.792338E1,1.01800644E2,2.075899E1],"tree_param":{"num_deleted":"0","num_feature":"49","num_nodes":"97","size_leaf_vector":"1"}},{"base_weights":[-3.6439907E-2,3.3975106E-2,-2.0078187E-1,5.1331636E-2,-3.900249E-1,-2.772489E-1,-2.9984968E-2,1.8362131E-2,3.0544546E-1,-5.88796E-1,2.2656153E-1,-3.5644516E-1,-1.4254127E-1,-6.42074E-1,3.1213077E-2,1.3359231E-1,-7.263169E-2,4.836452E-2,5.729772E-1,5.220804E-1,-6.5746045E-1,-2.7299947E-1,9.732408E-1,-4.359211E-1,-1.8637985E-1,6.425258E-1,-2.193391E-1,-1.2691474E-3,-8.7453467E-1,3.2893857E-1,-1.2631524E-1,2.7110392E-1,-6.4651564E-2,-3.5442027E-1,3.726502E-2,2.145626E-1,-7.9572207E-1,1.7640753E-1,7.651687E-1,-1.4468204E0,-5.1635706E-1,-5.56039E-1,1.0510689E0,1.1359998E0,-4.865128E-1,-3.4138927E-1,-7.8403753E-1,-3.0912307E-1,2.2885574E-1,-2.8473237E-1,8.232947E-1,-1.7443398E-1,-8.8535213E-1,1.0103511E0,-5.485963E-1,-9.51305E-1,2.4470964E-1,6.0417706E-1,-1.7812838E-1,-2.900646E-1,1.5585075E-1,3.579746E-2,1.4836891E-1,-1.8839712E-1,4.9863588E-2,-2.0086949E-1,-1.4193377E-2,-4.2665087E-2,8.52544E-2,9.100331E-2,-2.915279E-1,-3.505099E-1,1.5365459E-1,1.9355188E-1,-8.229414E-2,3.9895236E-2,2.6126942E-1,-5.040173E-1,-2.0386864E-1,-3.2098103E-1,-7.177291E-2,7.0142876E-3,-2.9017946E-1,4.67051E-1,-1.5352167E-1,-1.4665513E-1,3.835798E-1,8.814637E-2,-3.1513926E-1,-1.3779317E-1,4.9761653E-2,-2.5423586E-1,1.3121516E-1,-1.334837E-1,-1.6579404E-2,4.8951134E-1,1.6856577E-2,-1.8105166E-1,2.9683873E-1,-1.3140634E-1,2.827198E-1,-1.5891556E-1,-2.9106265E-2,-2.8433427E-1,2.6782906E-1,-1.02321126E-1,7.7288157E-1,-2.8009322E-1,1.3315427E-1,-3.032215E-1,9.986679E-2,4.46994E-1,-2.4142745E-1,4.0504046E-2,3.2266074E-1,-1.9505458E-1,8.390726E-2,-4.3235485E-2,-1.9757642E-1,-9.930013E-2,1.4987165E-1],"categories":[],"categories_nodes":[],"categories_segments":[],"categories_sizes":[],"default_left":[0,0,0,0,0,0,0,0,0,0,0,0,0,0,0,0,0,0,0,0,0,0,0,0,0,0,0,0,0,0,0,0,0,0,1,0,0,0,0,0,0,0,0,1,0,0,0,1,0,0,0,0,0,0,0,0,0,0,1,0,0,0,0,0,0,0,0,0,0,0,0,0,0,0,0,0,0,0,0,0,0,0,0,0,0,0,0,0,0,0,0,0,0,0,0,0,0,0,0,0,0,0,0,0,0,0,0,0,0,0,0,0,0,0,0,0,0,0,0,0,0],"id":8,"left_children":[1,3,5,7,9,11,13,15,17,19,21,23,25,27,29,31,33,35,37,-1,39,41,43,45,47,49,51,53,55,57,59,61,63,65,67,69,71,73,75,77,79,81,83,85,87,89,91,93,95,97,99,101,103,105,107,109,111,113,115,117,119,-1,-1,-1,-1,-1,-1,-1,-1,-1,-1,-1,-1,-1,-1,-1,-1,-1,-1,-1,-1,-1,-1,-1,-1,-1,-1,-1,-1,-1,-1,-1,-1,-1,-1,-1,-1,-1,-1,-1,-1,-1,-1,-1,-1,-1,-1,-1,-1,-1,-1,-1,-1,-1,-1,-1,-1,-1,-1,-1,-1],"loss_changes":[1.1723722E2,5.2216076E1,3.967868E1,5.708731E1,3.4332176E1,2.234079E1,3.526341E1,6.326786E1,5.3793777E1,3.49346E1,2.5909185E1,1.7775146E1,4.709359E1,1.2744873E1,4.020196E1,7.259598E1,1.04426796E2,5.6307446E1,2.908574E1,0E0,2.2193672E1,1.6313446E1,7.1520805E0,2.9336868E1,2.1604872E1,1.1908651E1,2.108323E1,1.3720234E1,5.6277122E0,4.1498966E1,2.5952995E1,5.32632E1,1.4202032E2,9.153607E1,1.0757982E2,3.5590786E1,3.278577E1,2.6893665E1,1.7124771E1,4.34848E0,2.6787193E1,8.417612E0,6.9127216E0,6.4848366E0,1.8429568E0,4.2502113E1,1.5191994E1,1.1234261E1,2.3397564E1,5.5141954E0,9.207413E0,1.8279951E1,5.797989E0,1.9290443E1,6.558561E0,4.836605E0,7.5054736E0,4.2416E1,2.28991E1,1.9007317E1,3.473109E1,0E0,0E0,0E0,0E0,0E0,0E0,0E0,0E0,0E0,0E0,0E0,0E0,0E0,0E0,0E0,0E0,0E0,0E0,0E0,0E0,0E0,0E0,0E0,0E0,0E0,0E0,0E0,0E0,0E0,0E0,0E0,0E0,0E0,0E0,0E0,0E0,0E0,0E0,0E0,0E0,0E0,0E0,0E0,0E0,0E0,0E0,0E0,0E0,0E0,0E0,0E0,0E0,0E0,0E0,0E0,0E0,0E0,0E0,0E0,0E0],"parents":[2147483647,0,0,1,1,2,2,3,3,4,4,5,5,6,6,7,7,8,8,9,9,10,10,11,11,12,12,13,13,14,14,15,15,16,16,17,17,18,18,20,20,21,21,22,22,23,23,24,24,25,25,26,26,27,27,28,28,29,29,30,30,31,31,32,32,33,33,34,34,35,35,36,36,37,37,38,38,39,39,40,40,41,41,42,42,43,43,44,44,45,45,46,46,47,47,48,48,49,49,50,50,51,51,52,52,53,53,54,54,55,55,56,56,57,57,58,58,59,59,60,60],"right_children":[2,4,6,8,10,12,14,16,18,20,22,24,26,28,30,32,34,36,38,-1,40,42,44,46,48,50,52,54,56,58,60,62,64,66,68,70,72,74,76,78,80,82,84,86,88,90,92,94,96,98,100,102,104,106,108,110,112,114,116,118,120,-1,-1,-1,-1,-1,-1,-1,-1,-1,-1,-1,-1,-1,-1,-1,-1,-1,-1,-1,-1,-1,-1,-1,-1,-1,-1,-1,-1,-1,-1,-1,-1,-1,-1,-1,-1,-1,-1,-1,-1,-1,-1,-1,-1,-1,-1,-1,-1,-1,-1,-1,-1,-1,-1,-1,-1,-1,-1,-1,-1],"split_conditions":[2.86E2,5.4E2,2E0,4.22E2,2.75E2,2.42E2,6.28E2,1.4E1,1.8E1,2.76E0,3.2E1,1.7E2,2.67E2,1.1147E2,2.074E3,6.19E0,5.5E1,4.4E2,4.27E3,5.220804E-1,4E-1,1.911E1,2.45E2,2.169E3,5.79738E3,3.396E3,1.107E3,5.29E2,2.205E1,1.414E1,1E2,7.51E0,1.3593E2,3.1E1,2.1E1,6.87E2,4.75E2,2.1E2,4.71E2,2.4E2,2.1466668E0,8.02E0,2E0,6E0,2.926E2,2.135E3,1.493E1,3E1,2.988633E4,3.001E1,1.22E0,1.1915E0,7E1,1.195E1,4.534E1,1.0109E4,6.07E2,2.5E1,9E0,7.176E1,1.1E1,3.579746E-2,1.4836891E-1,-1.8839712E-1,4.9863588E-2,-2.0086949E-1,-1.4193377E-2,-4.2665087E-2,8.52544E-2,9.100331E-2,-2.915279E-1,-3.505099E-1,1.5365459E-1,1.9355188E-1,-8.229414E-2,3.9895236E-2,2.6126942E-1,-5.040173E-1,-2.0386864E-1,-3.2098103E-1,-7.177291E-2,7.0142876E-3,-2.9017946E-1,4.67051E-1,-1.5352167E-1,-1.4665513E-1,3.835798E-1,8.814637E-2,-3.1513926E-1,-1.3779317E-1,4.9761653E-2,-2.5423586E-1,1.3121516E-1,-1.334837E-1,-1.6579404E-2,4.8951134E-1,1.6856577E-2,-1.8105166E-1,2.9683873E-1,-1.3140634E-1,2.827198E-1,-1.5891556E-1,-2.9106265E-2,-2.8433427E-1,2.6782906E-1,-1.02321126E-1,7.7288157E-1,-2.8009322E-1,1.3315427E-1,-3.032215E-1,9.986679E-2,4.46994E-1,-2.4142745E-1,4.0504046E-2,3.2266074E-1,-1.9505458E-1,8.390726E-2,-4.3235485E-2,-1.9757642E-1,-9.930013E-2,1.4987165E-1],"split_indices":[29,34,19,34,29,33,29,34,35,0,37,2,33,24,29,4,34,10,16,0,3,15,38,29,24,16,10,29,15,15,25,12,0,10,27,33,10,10,34,35,11,15,8,27,23,29,26,27,23,12,3,11,17,24,25,16,29,12,27,25,3,0,0,0,0,0,0,0,0,0,0,0,0,0,0,0,0,0,0,0,0,0,0,0,0,0,0,0,0,0,0,0,0,0,0,0,0,0,0,0,0,0,0,0,0,0,0,0,0,0,0,0,0,0,0,0,0,0,0,0,0],"split_type":[0,0,0,0,0,0,0,0,0,0,0,0,0,0,0,0,0,0,0,0,0,0,0,0,0,0,0,0,0,0,0,0,0,0,0,0,0,0,0,0,0,0,0,0,0,0,0,0,0,0,0,0,0,0,0,0,0,0,0,0,0,0,0,0,0,0,0,0,0,0,0,0,0,0,0,0,0,0,0,0,0,0,0,0,0,0,0,0,0,0,0,0,0,0,0,0,0,0,0,0,0,0,0,0,0,0,0,0,0,0,0,0,0,0,0,0,0,0,0,0,0],"sum_hessian":[1.0129398E4,7.091656E3,3.037743E3,6.8136177E3,2.78038E2,2.0978823E3,9.398606E2,6.032071E3,7.8154706E2,2.1029086E2,6.774712E1,1.3201208E3,7.777616E2,8.4565346E1,8.552952E2,2.6613708E3,3.3707E3,3.9916025E2,3.823868E2,5.3249955E0,2.0496587E2,4.0970474E1,2.6776653E1,8.986127E2,4.2150818E2,6.864726E1,7.091143E2,2.2778694E1,6.178665E1,2.9557535E2,5.597199E2,1.571166E3,1.0902048E3,9.451064E2,2.4255935E3,3.3411902E2,6.5041214E1,1.2545005E2,2.5693677E2,2.9679464E1,1.752864E2,3.423276E1,6.737715E0,2.4290146E1,2.486506E0,7.0826294E2,1.9034975E2,3.2553568E2,9.597248E1,1.110562E1,5.7541645E1,6.655054E2,4.3608986E1,7.7003074E0,1.5078385E1,5.7961082E1,3.825571E0,1.9145895E2,1.041164E2,3.541614E2,2.0555847E2,9.365628E2,6.346032E2,3.1640726E2,7.7379755E2,4.658683E2,4.792381E2,1.4048445E3,1.02074896E3,3.1154776E2,2.257126E1,5.070203E1,1.4339186E1,6.1282627E1,6.416742E1,3.7137745E1,2.1979903E2,2.1848188E1,7.831276E0,5.752E1,1.177664E2,1.4601829E1,1.9630932E1,5.093227E0,1.6444879E0,1.7638469E0,2.25263E1,1.2440797E0,1.2424262E0,5.7474786E2,1.3351506E2,1.8124579E2,9.103969E0,2.1158047E2,1.1395521E2,9.591943E0,8.638054E1,9.3042755E0,1.8013446E0,4.733742E0,5.2807903E1,1.1801894E2,5.474864E2,4.2580963E1,1.0280217E0,4.55309E0,3.1472178E0,1.0906239E1,4.172147E0,5.560078E1,2.360299E0,1.5576075E0,2.2679636E0,9.659762E1,9.4861336E1,5.105444E1,5.3061966E1,2.5468828E2,9.947313E1,8.5082954E1,1.20475525E2],"tree_param":{"num_deleted":"0","num_feature":"49","num_nodes":"121","size_leaf_vector":"1"}},{"base_weights":[-2.9322937E-2,2.2500878E-2,-1.5853709E-1,3.8173437E-2,-3.7816226E-1,-9.453241E-1,-1.3285342E-1,5.5016167E-2,-3.2657236E-1,-7.1817124E-1,-1.590349E-1,-7.2981393E-1,-1.0772444E0,-2.823109E-1,-4.08196E-2,7.332284E-1,4.425968E-2,-3.6357033E-1,8.704905E-1,-9.134169E-1,-3.9124474E-2,-7.5139546E-1,8.092537E-2,-8.2111174E-1,4.8168895E-1,-4.2569447E-1,-3.3527E-1,-3.6951002E-1,-9.344983E-2,-1.2507273E-1,1.5502596E-1,8.674053E-1,-8.02863E-1,-3.9897713E-1,6.1732847E-2,-3.886125E-1,1.469434E0,1.4373465E-1,1.1765951E0,2.4469642E-1,-9.5803046E-1,-9.260745E-1,7.0665705E-1,-1.036772E0,3.7005533E-2,-3.7531033E-1,2.984508E-1,-9.9342483E-1,-2.9286236E-1,-1.7584257E-1,4.101853E-1,-2.2725415E-1,8.281814E-2,-2.1357836E-1,-6.689289E-1,3.2635695E-1,-3.0260426E-1,-4.4507498E-1,-6.127744E-2,4.3589514E-1,1.3441747E-2,1.1898092E-1,4.3018192E-1,4.5850657E-2,-2.934215E-1,-1.4017576E-1,3.8198954E-1,1.3610056E-1,7.431745E-3,2.9501602E-1,-1.2453463E-1,6.708082E-1,8.2607366E-2,2.0610346E-1,-1.5801229E-1,3.5534814E-2,5.5103767E-1,-1.2560466E-1,-3.06849E-1,-5.2007142E-2,-3.2275558E-1,4.939435E-1,3.4001514E-2,9.036947E-2,-3.275606E-1,-2.5907922E-1,6.528185E-1,1.0251642E-1,-1.7627853E-1,1.814044E-1,-7.893989E-2,-3.1844568E-1,-8.788788E-2,1.582906E-1,-2.1518482E-1,-7.295617E-2,3.1235933E-1,-2.6284257E-1,-1.6185981E-1,1.7449833E-1,-1.5575747E-1,3.4226384E-2,-1.4327559E-1,6.2506534E-2,-1.8098593E-1,-8.579076E-3,-2.1559429E-1,2.4566145E-1,2.2203602E-2,-3.218256E-2,1.5119246E-1],"categories":[],"categories_nodes":[],"categories_segments":[],"categories_sizes":[],"default_left":[0,0,0,0,0,0,0,0,0,0,0,0,0,0,0,0,0,0,0,0,0,0,0,0,0,0,0,0,0,0,0,0,0,0,0,0,0,0,0,0,0,0,0,0,0,0,0,0,0,0,0,0,0,0,0,0,0,0,0,0,0,0,0,0,0,0,0,0,0,0,0,0,0,0,0,0,0,0,0,0,0,0,0,0,0,0,0,0,0,0,0,0,0,0,0,0,0,0,0,0,0,0,0,0,0,0,0,0,0,0,0],"id":9,"left_children":[1,3,5,7,9,11,13,15,17,19,21,23,25,27,29,31,33,35,37,39,41,43,45,47,49,51,-1,53,55,57,59,61,63,65,67,69,71,73,75,-1,77,79,81,83,85,87,89,91,93,-1,-1,-1,-1,95,97,99,101,103,105,107,109,-1,-1,-1,-1,-1,-1,-1,-1,-1,-1,-1,-1,-1,-1,-1,-1,-1,-1,-1,-1,-1,-1,-1,-1,-1,-1,-1,-1,-1,-1,-1,-1,-1,-1,-1,-1,-1,-1,-1,-1,-1,-1,-1,-1,-1,-1,-1,-1,-1,-1],"loss_changes":[6.6135E1,4.4281654E1,5.700408E1,4.1701027E1,1.9664417E1,1.75E0,3.7662884E1,4.7287605E1,1.3586699E1,1.3719883E1,2.31894E1,4.4850082E0,9.228363E-1,1.7152939E1,2.8008991E1,2.1555698E1,4.948474E1,1.3944744E1,1.8948255E0,6.9941254E0,1.6671694E1,1.0614738E1,1.1694207E1,2.8723106E0,3.8476598E0,1.3076832E0,0E0,3.3176994E1,2.9161835E1,2.4196611E1,2.0302307E1,2.4385132E1,1.5978017E0,2.8264599E1,8.9004745E1,1.0888283E1,3.1701584E0,1.7782757E0,4.2456408E0,0E0,2.331787E0,1.1092491E0,7.464588E0,2.8758545E0,2.7806787E1,6.0034766E0,1.3845486E1,9.183521E-1,3.848878E0,0E0,0E0,0E0,0E0,1.7742327E1,6.06736E0,2.4166847E1,1.620089E1,2.049958E1,2.1258919E1,2.3655724E1,2.0220608E1,0E0,0E0,0E0,0E0,0E0,0E0,0E0,0E0,0E0,0E0,0E0,0E0,0E0,0E0,0E0,0E0,0E0,0E0,0E0,0E0,0E0,0E0,0E0,0E0,0E0,0E0,0E0,0E0,0E0,0E0,0E0,0E0,0E0,0E0,0E0,0E0,0E0,0E0,0E0,0E0,0E0,0E0,0E0,0E0,0E0,0E0,0E0,0E0,0E0,0E0],"parents":[2147483647,0,0,1,1,2,2,3,3,4,4,5,5,6,6,7,7,8,8,9,9,10,10,11,11,12,12,13,13,14,14,15,15,16,16,17,17,18,18,19,19,20,20,21,21,22,22,23,23,24,24,25,25,27,27,28,28,29,29,30,30,31,31,32,32,33,33,34,34,35,35,36,36,37,37,38,38,40,40,41,41,42,42,43,43,44,44,45,45,46,46,47,47,48,48,53,53,54,54,55,55,56,56,57,57,58,58,59,59,60,60],"right_children":[2,4,6,8,10,12,14,16,18,20,22,24,26,28,30,32,34,36,38,40,42,44,46,48,50,52,-1,54,56,58,60,62,64,66,68,70,72,74,76,-1,78,80,82,84,86,88,90,92,94,-1,-1,-1,-1,96,98,100,102,104,106,108,110,-1,-1,-1,-1,-1,-1,-1,-1,-1,-1,-1,-1,-1,-1,-1,-1,-1,-1,-1,-1,-1,-1,-1,-1,-1,-1,-1,-1,-1,-1,-1,-1,-1,-1,-1,-1,-1,-1,-1,-1,-1,-1,-1,-1,-1,-1,-1,-1,-1,-1],"split_conditions":[6.07E2,4.78E2,6.28E2,2.91331E4,1.95E0,2.5872E2,7.4E1,1.26E0,8.7E1,2.75E2,5.13E2,1.501E1,5E0,1.715E2,2E0,2.75E2,6.71E0,4.71E2,2.15E0,3.53E0,5E0,5.4E1,3.234E1,1.6E1,1.8E1,1.68E1,-3.3527E-1,7.35E0,2.44E2,3.37E3,2.074E3,1.07E0,6.3E-1,7.36E2,1.235E1,1E0,4.52328E4,6.99E0,1.6E1,2.4469642E-1,3.16E0,3.8656E2,7.7E1,7.195E1,2.75E2,3.47E3,1.6E1,4.19E2,1.8E1,-1.7584257E-1,4.101853E-1,-2.2725415E-1,8.281814E-2,7.2E1,1.525E1,2.169E3,1E0,1E0,3.97E2,2.97E2,1.1995E2,1.1898092E-1,4.3018192E-1,4.5850657E-2,-2.934215E-1,-1.4017576E-1,3.8198954E-1,1.3610056E-1,7.431745E-3,2.9501602E-1,-1.2453463E-1,6.708082E-1,8.2607366E-2,2.0610346E-1,-1.5801229E-1,3.5534814E-2,5.5103767E-1,-1.2560466E-1,-3.06849E-1,-5.2007142E-2,-3.2275558E-1,4.939435E-1,3.4001514E-2,9.036947E-2,-3.275606E-1,-2.5907922E-1,6.528185E-1,1.0251642E-1,-1.7627853E-1,1.814044E-1,-7.893989E-2,-3.1844568E-1,-8.788788E-2,1.582906E-1,-2.1518482E-1,-7.295617E-2,3.1235933E-1,-2.6284257E-1,-1.6185981E-1,1.7449833E-1,-1.5575747E-1,3.4226384E-2,-1.4327559E-1,6.2506534E-2,-1.8098593E-1,-8.579076E-3,-2.1559429E-1,2.4566145E-1,2.2203602E-2,-3.218256E-2,1.5119246E-1],"split_indices":[29,35,29,23,3,24,33,10,17,29,35,26,17,2,19,29,10,35,3,0,8,34,25,15,3,4,0,4,2,16,29,10,0,34,10,17,23,2,14,0,24,23,33,10,29,16,1,35,17,0,0,0,0,11,3,29,21,20,37,33,25,0,0,0,0,0,0,0,0,0,0,0,0,0,0,0,0,0,0,0,0,0,0,0,0,0,0,0,0,0,0,0,0,0,0,0,0,0,0,0,0,0,0,0,0,0,0,0,0,0,0],"split_type":[0,0,0,0,0,0,0,0,0,0,0,0,0,0,0,0,0,0,0,0,0,0,0,0,0,0,0,0,0,0,0,0,0,0,0,0,0,0,0,0,0,0,0,0,0,0,0,0,0,0,0,0,0,0,0,0,0,0,0,0,0,0,0,0,0,0,0,0,0,0,0,0,0,0,0,0,0,0,0,0,0,0,0,0,0,0,0,0,0,0,0,0,0,0,0,0,0,0,0,0,0,0,0,0,0,0,0,0,0,0,0],"sum_hessian":[9.874715E3,7.0485747E3,2.8261404E3,6.7841084E3,2.644662E2,8.8207535E1,2.7379329E3,6.48548E3,2.9862842E2,1.0275264E2,1.6171355E2,3.5972942E1,5.2234592E1,1.042655E3,1.6952778E3,1.0020562E2,6.3852744E3,2.9035074E2,8.277678E0,7.953801E1,2.3214634E1,4.6007965E1,1.15705574E2,3.375168E1,2.2212608E0,3.717784E0,4.8516808E1,7.126572E2,3.2999777E2,1.1855942E3,5.0968353E2,9.255619E1,7.649427E0,2.4134373E2,6.1439307E3,2.8721484E2,3.135885E0,2.8887491E0,5.3889284E0,1.5659091E0,7.79721E1,1.0493306E1,1.2721328E1,3.354918E1,1.2458786E1,3.7121643E1,7.858393E1,2.478598E1,8.965699E0,1.160316E0,1.0609447E0,2.4702766E0,1.2475073E0,4.6973923E2,2.4291798E2,1.0955094E2,2.2044682E2,1.9607747E2,9.895168E2,1.701225E2,3.3956104E2,5.147741E1,4.107878E1,1.2048906E0,6.4445367E0,2.3256903E2,8.774696E0,5.2848517E2,5.6154453E3,4.7587714E0,2.824561E2,1.3783735E0,1.7575115E0,1.5820549E0,1.3066943E0,2.5235949E0,2.8653333E0,9.163381E0,6.8808716E1,2.0995073E0,8.393799E0,4.2361703E0,8.485158E0,1.1501782E0,3.2399002E1,9.187051E0,3.2717352E0,8.340456E0,2.8781189E1,5.0803913E1,2.7780018E1,2.2121178E1,2.6648026E0,2.9736984E0,5.992001E0,4.5969797E2,1.004126E1,9.116189E1,1.5175609E2,8.438416E1,2.5166784E1,6.529771E1,1.5514912E2,3.8159145E1,1.5791832E2,9.4364777E2,4.586904E1,8.2038925E1,8.808357E1,2.7312747E2,6.643355E1],"tree_param":{"num_deleted":"0","num_feature":"49","num_nodes":"111","size_leaf_vector":"1"}},{"base_weights":[-2.2720972E-2,-7.231847E-3,-3.7892908E-1,-4.6917163E-2,1.5153863E-1,-4.8394895E-1,1.827235E-1,7.892302E-3,-2.5629818E-1,1.2854987E0,9.3823075E-2,-5.095198E-1,1.7728322E0,3.5900927E-1,-9.560276E-1,-1.1223823E-2,6.985939E-1,-6.1445713E-1,-1.23322666E-1,-6.748919E-1,1.6782184E0,4.7470975E-1,-8.257879E-3,-4.2840573E-1,-9.2054164E-1,6.710069E-1,9.73616E-2,-9.75426E-2,1.0312111E0,-3.0933085E-1,-5.416418E-2,2.3573407E-3,-6.1499923E-1,1.3462597E0,-1.2803058E-1,-1.1147552E0,-4.8570105E-1,-5.0042546E-1,1.423129E-1,-1.4312352E0,-1.7970403E-1,-8.976382E-1,1.9706819E0,-4.3039328E-1,6.977595E-1,-3.0264586E-1,1.542932E-1,-1.1132848E0,-3.6154103E-1,-9.950923E-1,-5.6955045E-1,-4.1388205E-1,5.2556943E-2,1.2241396E0,-2.3500787E-1,-1.6029678E-2,6.670633E-2,-3.4033424E-1,-4.96165E-2,3.5652912E-1,1.1105413E0,1.9021858E-1,-2.6037714E-1,-1.00305535E-1,-4.3596414E-1,-2.7089167E-1,-1.15925826E-1,-2.627931E-2,-2.4535902E-1,8.04904E-2,-1.493382E-1,-4.9728933E-1,-4.6920314E-2,6.786464E-2,-3.3302107E-1,-2.873503E-1,-6.8949066E-2,5.0082535E-1,1.0095222E0,1.4114995E-1,-2.253184E-1,2.4764057E-1,-2.569294E-1,7.049627E-2,-2.3968071E-1,-2.1187232E-1,6.033763E-2,-4.2658988E-1,2.0320715E-2,-1.3930552E-1,-1.4931373E-2,-3.265702E-1,-2.0678118E-1,-2.3118527E-1,8.923699E-2,-5.1722497E-2,2.7366924E-1,1.7517962E-1,4.8151073E-1],"categories":[],"categories_nodes":[],"categories_segments":[],"categories_sizes":[],"default_left":[0,0,0,0,0,0,0,0,0,0,0,0,0,0,0,0,0,0,0,0,0,0,0,0,0,0,0,0,0,0,0,0,0,0,0,0,0,0,0,0,0,0,0,0,0,0,0,0,0,0,0,0,0,0,0,0,0,0,0,0,0,0,0,0,0,0,0,0,0,0,0,0,0,0,0,0,0,0,0,0,0,0,0,0,0,0,0,0,0,0,0,0,0,0,0,0,0,0,0],"id":10,"left_children":[1,3,5,7,9,11,13,15,17,19,21,23,25,27,29,31,33,35,37,39,41,43,45,47,49,-1,-1,51,53,-1,-1,55,57,59,61,63,65,67,69,71,73,75,77,79,81,83,85,87,89,91,93,-1,95,97,-1,-1,-1,-1,-1,-1,-1,-1,-1,-1,-1,-1,-1,-1,-1,-1,-1,-1,-1,-1,-1,-1,-1,-1,-1,-1,-1,-1,-1,-1,-1,-1,-1,-1,-1,-1,-1,-1,-1,-1,-1,-1,-1,-1,-1],"loss_changes":[5.364706E1,5.872886E1,2.3988186E1,8.557619E1,1.21865715E2,2.0618126E1,1.3302193E1,7.8050415E1,7.360329E1,7.0571335E1,6.900642E1,1.0893806E1,1.9954395E0,1.747927E1,3.3354664E-1,4.717207E1,8.5403206E1,2.6423767E1,1.1320683E2,5.6476645E0,5.859204E1,7.603079E1,6.706862E1,1.2632656E1,8.70697E-1,0E0,0E0,6.737897E0,9.007603E0,0E0,0E0,6.9074905E1,2.9368828E1,2.8817963E1,4.0500248E1,2.1941597E1,1.3516762E1,6.1126617E1,5.3635815E1,1.499711E0,4.28125E0,1.1664772E-1,2.2968689E1,2.195768E1,6.0517395E1,1.3321921E2,3.6533585E1,9.150961E0,8.336666E0,5.067024E-1,2.314588E0,0E0,6.340142E0,4.2254887E0,0E0,0E0,0E0,0E0,0E0,0E0,0E0,0E0,0E0,0E0,0E0,0E0,0E0,0E0,0E0,0E0,0E0,0E0,0E0,0E0,0E0,0E0,0E0,0E0,0E0,0E0,0E0,0E0,0E0,0E0,0E0,0E0,0E0,0E0,0E0,0E0,0E0,0E0,0E0,0E0,0E0,0E0,0E0,0E0,0E0],"parents":[2147483647,0,0,1,1,2,2,3,3,4,4,5,5,6,6,7,7,8,8,9,9,10,10,11,11,12,12,13,13,14,14,15,15,16,16,17,17,18,18,19,19,20,20,21,21,22,22,23,23,24,24,27,27,28,28,31,31,32,32,33,33,34,34,35,35,36,36,37,37,38,38,39,39,40,40,41,41,42,42,43,43,44,44,45,45,46,46,47,47,48,48,49,49,50,50,52,52,53,53],"right_children":[2,4,6,8,10,12,14,16,18,20,22,24,26,28,30,32,34,36,38,40,42,44,46,48,50,-1,-1,52,54,-1,-1,56,58,60,62,64,66,68,70,72,74,76,78,80,82,84,86,88,90,92,94,-1,96,98,-1,-1,-1,-1,-1,-1,-1,-1,-1,-1,-1,-1,-1,-1,-1,-1,-1,-1,-1,-1,-1,-1,-1,-1,-1,-1,-1,-1,-1,-1,-1,-1,-1,-1,-1,-1,-1,-1,-1,-1,-1,-1,-1,-1,-1],"split_conditions":[7.45E1,2.06E2,2.3E1,1.103E1,2.1E2,1E0,4.1E1,7.337E1,1.5E1,2E-2,8.01E0,2.11275E3,4.9251E2,1.107E3,7.3E1,4.45E2,7.49E1,1.83E2,1.35E2,1E0,1E0,2.3993E2,1.83E2,5.9125E2,3.21E2,6.710069E-1,9.73616E-2,3.2E1,4.41E2,-3.0933085E-1,-5.416418E-2,7.7E1,1.83E2,2.135E3,1.83E2,1.558E2,1.3E2,9.518E1,1.615E2,2.625E3,7.7302E2,7.528E1,3E1,1E1,4.1E1,5E0,9E0,2.80072E3,4.7932E3,5.4E1,2.135E3,-4.1388205E-1,3.11829E3,7.319E3,-2.3500787E-1,-1.6029678E-2,6.670633E-2,-3.4033424E-1,-4.96165E-2,3.5652912E-1,1.1105413E0,1.9021858E-1,-2.6037714E-1,-1.00305535E-1,-4.3596414E-1,-2.7089167E-1,-1.15925826E-1,-2.627931E-2,-2.4535902E-1,8.04904E-2,-1.493382E-1,-4.9728933E-1,-4.6920314E-2,6.786464E-2,-3.3302107E-1,-2.873503E-1,-6.8949066E-2,5.0082535E-1,1.0095222E0,1.4114995E-1,-2.253184E-1,2.4764057E-1,-2.569294E-1,7.049627E-2,-2.3968071E-1,-2.1187232E-1,6.033763E-2,-4.2658988E-1,2.0320715E-2,-1.3930552E-1,-1.4931373E-2,-3.265702E-1,-2.0678118E-1,-2.3118527E-1,8.923699E-2,-5.1722497E-2,2.7366924E-1,1.7517962E-1,4.8151073E-1],"split_indices":[4,10,38,4,2,30,27,11,33,3,12,11,24,10,17,37,11,29,2,20,22,0,29,2,35,0,0,37,38,0,0,36,29,29,29,0,2,0,0,23,24,25,14,15,27,27,14,24,24,17,29,0,23,16,0,0,0,0,0,0,0,0,0,0,0,0,0,0,0,0,0,0,0,0,0,0,0,0,0,0,0,0,0,0,0,0,0,0,0,0,0,0,0,0,0,0,0,0,0],"split_type":[0,0,0,0,0,0,0,0,0,0,0,0,0,0,0,0,0,0,0,0,0,0,0,0,0,0,0,0,0,0,0,0,0,0,0,0,0,0,0,0,0,0,0,0,0,0,0,0,0,0,0,0,0,0,0,0,0,0,0,0,0,0,0,0,0,0,0,0,0,0,0,0,0,0,0,0,0,0,0,0,0,0,0,0,0,0,0,0,0,0,0,0,0,0,0,0,0,0,0],"sum_hessian":[9.722831E3,9.3186455E3,4.0418573E2,7.4557544E3,1.8628912E3,3.4063153E2,6.3554195E1,5.909732E3,1.5460225E3,8.919374E1,1.7736975E3,3.3758075E2,3.0507958E0,5.5627453E1,7.926741E0,5.751534E3,1.5819794E2,4.1760794E2,1.1284146E3,1.4765974E1,7.4427765E1,3.7412054E2,1.399577E3,2.8364618E2,5.3934555E1,1.8984126E0,1.1523832E0,3.363669E1,2.1990765E1,6.926543E0,1.0001981E0,5.625981E3,1.2555323E2,8.834803E1,6.98499E1,8.39094E1,3.3369855E2,4.6599408E2,6.624205E2,5.094467E0,9.671507E0,7.3779197E0,6.704984E1,7.378447E1,3.0033606E2,4.9757764E2,9.019994E2,2.3837242E1,2.5980896E2,4.2972164E1,1.0962391E1,2.666835E0,3.0969854E1,2.017148E1,1.8192856E0,4.4884907E3,1.1374902E3,5.754578E1,6.800745E1,8.421019E1,4.137844E0,3.447922E1,3.5370678E1,2.5984138E1,5.792526E1,6.2581123E1,2.7111743E2,2.031168E2,2.6287726E2,5.539672E2,1.0845324E2,4.0711975E0,1.0232694E0,7.2605686E0,2.4109385E0,6.3694797E0,1.00844E0,5.6944077E1,1.010577E1,1.9246265E1,5.4538204E1,2.779644E2,2.2371668E1,2.390932E2,2.5848444E2,4.5828484E1,8.561709E2,1.8736181E1,5.1010604E0,1.950116E2,6.479735E1,3.09521E1,1.2020062E1,8.988945E0,1.9734458E0,2.5180025E1,5.7898297E0,8.469332E0,1.1702148E1],"tree_param":{"num_deleted":"0","num_feature":"49","num_nodes":"99","size_leaf_vector":"1"}},{"base_weights":[-1.9485496E-2,1.1496825E-2,-1.5903528E-1,1.9650463E-2,-5.634539E-1,-1.368615E-1,-8.6513966E-1,5.669767E-2,-1.1146086E-1,-2.8094152E-1,-9.60086E-1,-8.286412E-1,-1.1287608E-1,7.363651E-2,-3.3048904E-1,-1.1428816E-2,1.6203539E-1,4.5985433E-1,-1.6116612E-1,-1.0359678E0,-4.272534E-2,6.7762554E-1,-1.1217786E0,-3.4959257E-1,-9.8765796E-1,-9.520018E-3,-2.2396335E-1,-2.7786648E-1,2.8007653E0,4.9901318E-2,-2.51411E-1,-1.3771845E-1,2.4797288E-1,7.9922104E-1,-3.3736497E-1,-2.5037327E-1,1.0610412E-1,-3.2398695E-1,-6.275795E-2,-3.8448772E-1,4.28142E-1,1.0288779E0,-6.118582E-2,-7.2193615E-2,-1.1446669E0,-8.0348235E-1,1.2038997E0,-3.030156E-1,-1.0033352E-1,6.222951E-1,-8.368937E-2,-4.1317353E-1,1.413805E-2,1.17487356E-1,1.1333493E0,-2.3025306E-2,6.829615E-2,-2.4603327E-1,8.090856E-2,1.0159915E-1,-1.0628439E-1,2.8751987E-1,5.9986863E-2,3.7132636E-1,-3.4861895E-1,5.238783E-1,-2.2423057E-1,-9.0442255E-2,1.7484774E-1,-5.322076E-2,1.4397097E-1,1.0992831E-2,-2.512898E-1,2.9283157E-2,4.1137597E-1,1.00117885E-1,3.6378404E-1,-3.5238716E-1,-1.4912966E-1,-2.8573096E-1,9.2997395E-2,-3.4966685E-2,5.333922E-1,2.5290036E-1,-2.1004143E-1,1.8542768E-2,-1.2578239E-1,-6.587797E-2,-2.6365846E-1,-5.3550098E-2,1.4059302E-1],"categories":[],"categories_nodes":[],"categories_segments":[],"categories_sizes":[],"default_left":[0,0,0,0,0,0,0,0,0,0,0,0,0,0,0,0,0,0,0,0,0,0,0,0,0,0,0,0,0,0,0,0,0,0,0,0,0,0,0,0,0,0,0,0,0,0,0,0,0,0,0,0,0,0,0,0,0,0,0,0,0,0,0,0,0,0,0,0,0,0,0,0,0,0,0,0,0,0,0,0,0,0,0,0,0,0,0,0,0,0,0],"id":11,"left_children":[1,3,5,7,9,11,13,15,17,19,21,23,25,27,-1,29,31,33,35,37,39,41,43,45,47,49,51,-1,53,55,57,59,61,63,65,67,69,-1,-1,71,73,75,-1,-1,77,79,81,-1,-1,83,85,87,89,-1,-1,-1,-1,-1,-1,-1,-1,-1,-1,-1,-1,-1,-1,-1,-1,-1,-1,-1,-1,-1,-1,-1,-1,-1,-1,-1,-1,-1,-1,-1,-1,-1,-1,-1,-1,-1,-1],"loss_changes":[4.1381027E1,3.6730488E1,2.7106876E1,3.752504E1,1.2006863E1,2.789991E1,1.1793289E1,4.3225494E1,4.8408157E1,1.1718306E1,1.2719162E1,3.9493713E0,1.8732573E1,3.4095657E1,0E0,5.385927E1,6.0971992E1,3.719671E1,3.737742E1,3.4295845E-1,8.332618E0,1.6595223E0,5.610962E-1,1.1965756E1,2.7333832E-1,3.9711754E1,3.5434273E1,0E0,6.4009743E0,6.563529E1,2.2095526E2,5.4564148E1,6.2536163E1,8.4034744E1,3.672717E1,5.019715E1,4.1704624E1,0E0,0E0,5.743688E0,6.6679106E0,4.4034243E-2,0E0,0E0,1.9523239E-1,2.3968058E0,3.1841707E0,0E0,0E0,2.6575691E1,3.705102E1,3.931199E1,3.0656183E1,0E0,0E0,0E0,0E0,0E0,0E0,0E0,0E0,0E0,0E0,0E0,0E0,0E0,0E0,0E0,0E0,0E0,0E0,0E0,0E0,0E0,0E0,0E0,0E0,0E0,0E0,0E0,0E0,0E0,0E0,0E0,0E0,0E0,0E0,0E0,0E0,0E0,0E0],"parents":[2147483647,0,0,1,1,2,2,3,3,4,4,5,5,6,6,7,7,8,8,9,9,10,10,11,11,12,12,13,13,15,15,16,16,17,17,18,18,19,19,20,20,21,21,22,22,23,23,24,24,25,25,26,26,28,28,29,29,30,30,31,31,32,32,33,33,34,34,35,35,36,36,39,39,40,40,41,41,44,44,45,45,46,46,49,49,50,50,51,51,52,52],"right_children":[2,4,6,8,10,12,14,16,18,20,22,24,26,28,-1,30,32,34,36,38,40,42,44,46,48,50,52,-1,54,56,58,60,62,64,66,68,70,-1,-1,72,74,76,-1,-1,78,80,82,-1,-1,84,86,88,90,-1,-1,-1,-1,-1,-1,-1,-1,-1,-1,-1,-1,-1,-1,-1,-1,-1,-1,-1,-1,-1,-1,-1,-1,-1,-1,-1,-1,-1,-1,-1,-1,-1,-1,-1,-1,-1,-1],"split_conditions":[2.126E3,1.528496E4,3.001E1,9E0,6.6E1,2.134E3,1.69E0,2.42E2,6E0,3.727E3,3.049E3,2.6748E2,2.169E3,2.135E3,-3.3048904E-1,1.32E2,1.22E0,1.83E2,2.39E2,4.45E0,2.2E1,1.161E2,1.6E1,9.3003E2,1E0,5E0,1.3E2,-2.7786648E-1,4.3E1,4.5E1,1.83E2,9.55E0,1.995E1,7.11E0,1.7E1,1.452E2,2.75E2,-3.2398695E-1,-6.275795E-2,8E0,1.0037E4,5.877E1,-6.118582E-2,-7.2193615E-2,4.88E2,4.271E1,1.53E2,-3.030156E-1,-1.0033352E-1,1E0,9.6E1,2.72091E3,3.29821E3,1.17487356E-1,1.1333493E0,-2.3025306E-2,6.829615E-2,-2.4603327E-1,8.090856E-2,1.0159915E-1,-1.0628439E-1,2.8751987E-1,5.9986863E-2,3.7132636E-1,-3.4861895E-1,5.238783E-1,-2.2423057E-1,-9.0442255E-2,1.7484774E-1,-5.322076E-2,1.4397097E-1,1.0992831E-2,-2.512898E-1,2.9283157E-2,4.1137597E-1,1.00117885E-1,3.6378404E-1,-3.5238716E-1,-1.4912966E-1,-2.8573096E-1,9.2997395E-2,-3.4966685E-2,5.333922E-1,2.5290036E-1,-2.1004143E-1,1.8542768E-2,-1.2578239E-1,-6.587797E-2,-2.6365846E-1,-5.3550098E-2,1.4059302E-1],"split_indices":[29,24,12,37,17,29,4,33,35,16,16,24,29,29,0,33,3,29,36,25,3,0,14,23,28,15,10,0,34,33,29,2,2,11,38,3,29,0,0,34,16,0,0,0,34,24,2,0,0,28,11,23,24,0,0,0,0,0,0,0,0,0,0,0,0,0,0,0,0,0,0,0,0,0,0,0,0,0,0,0,0,0,0,0,0,0,0,0,0,0,0],"split_type":[0,0,0,0,0,0,0,0,0,0,0,0,0,0,0,0,0,0,0,0,0,0,0,0,0,0,0,0,0,0,0,0,0,0,0,0,0,0,0,0,0,0,0,0,0,0,0,0,0,0,0,0,0,0,0,0,0,0,0,0,0,0,0,0,0,0,0,0,0,0,0,0,0,0,0,0,0,0,0,0,0,0,0,0,0,0,0,0,0,0,0],"sum_hessian":[9.569596E3,7.8317397E3,1.737856E3,7.7231797E3,1.085601E2,1.6861012E3,5.1754772E1,6.022119E3,1.7010605E3,6.439865E1,4.4161446E1,5.537738E1,1.6307238E3,1.0552809E1,4.1201965E1,3.657528E3,2.364591E3,1.354891E2,1.5655714E3,1.4641994E1,4.975666E1,3.6815777E0,4.0479866E1,1.4598101E1,4.0779278E1,8.453201E2,7.854037E2,8.204959E0,2.3478496E0,2.913693E3,7.438349E2,5.267301E2,1.837861E3,9.503243E1,4.045668E1,1.1738403E3,3.9173105E2,1.3611562E1,1.0304322E0,2.8937122E1,2.0819536E1,2.5131593E0,1.1684185E0,1.3163985E0,3.9163467E1,1.1670945E1,2.9271555E0,3.8899418E1,1.8798622E0,8.803129E1,7.572889E2,4.3722345E2,3.4818024E2,1.0816509E0,1.2661988E0,1.7017379E3,1.2119552E3,3.5540082E2,3.8843408E2,1.6444025E2,3.6228986E2,1.1515372E2,1.7227073E3,7.796806E1,1.7064367E1,6.116981E0,3.43397E1,1.1066091E3,6.723125E1,2.2306987E2,1.6866118E2,1.5474772E1,1.3462351E1,1.6233643E1,4.5858946E0,1.1141574E0,1.3990017E0,3.665393E1,2.5095356E0,1.042145E1,1.2494954E0,1.1284717E0,1.7986838E0,7.575138E1,1.2279906E1,5.288241E2,2.2846472E2,3.098814E2,1.2734203E2,2.4496223E2,1.0321799E2],"tree_param":{"num_deleted":"0","num_feature":"49","num_nodes":"91","size_leaf_vector":"1"}},{"base_weights":[-1.61183E-2,-2.8306036E-3,-2.930736E-1,9.604314E-3,-3.2441118E-1,8.8959134E-1,-3.1892586E-1,2.1357494E-3,4.9843535E-1,9.294099E-2,-4.36923E-1,-4.711676E-1,1.3907516E0,-2.6172483E-1,-7.587683E-1,9.851683E-3,-5.329698E-1,7.35828E-1,-1.963844E-1,-1.8059485E-1,7.850679E-1,-7.9402035E-1,-2.3766916E-1,-1.8610454E-1,-2.1474397E-2,1.988105E0,-1.7111705E-1,-8.3832806E-1,-2.0862526E-1,-8.624587E-1,4.2938736E-1,-1.0451202E-2,2.7910712E-1,-1.0278627E0,-2.4335241E-1,9.621063E-1,-6.7502993E-1,-5.206186E-1,1.0339859E0,4.3176454E-1,-2.7104384E-1,1.0652534E0,-6.173399E-1,1.4106847E-1,-8.643968E-1,-7.2301173E-1,-7.33882E-2,6.767154E-1,2.3149946E-1,8.7473685E-1,-1.0590972E0,-2.3966302E-1,5.1392716E-1,-9.6112466E-1,-3.1405607E-1,3.882669E-1,-2.0429023E-1,9.147877E-3,-3.3550106E-2,2.4293368E-1,1.2878394E-2,-3.3818558E-1,-6.962913E-2,5.6069817E-2,-1.9607621E-1,2.4166887E-1,1.1182715E0,1.0646172E-1,-3.2766953E-1,-4.0875766E-2,-2.696275E-1,-2.8910879E-2,3.7092024E-1,2.620789E-3,-2.628825E-1,3.816645E-1,-2.092303E-1,-2.775918E-1,2.8888317E-2,-1.5391201E-1,3.80716E-1,-2.684107E-1,2.5428998E-1,2.883538E-1,-2.3994468E-1,8.110012E-2,-8.960459E-2,9.91765E-3,3.5552976E-1,-4.0691322E-1,4.7848564E-2,-2.7678287E-2,-1.1382717E-1,-3.0937386E-1,2.3382562E-1,-3.3217126E-1,-1.9121583E-1,2.3273824E-1,-2.4533239E-1,-2.0816001E-1,9.467115E-2],"categories":[],"categories_nodes":[],"categories_segments":[],"categories_sizes":[],"default_left":[0,0,0,0,0,0,0,0,0,0,0,0,0,0,1,0,0,0,0,0,0,0,0,0,0,0,0,0,0,0,0,0,0,0,0,0,0,0,0,0,0,0,0,0,0,0,0,0,0,0,0,0,0,0,0,0,0,0,0,0,0,0,0,0,0,0,0,0,0,0,0,0,0,0,0,0,0,0,0,0,0,0,0,0,0,0,0,0,0,0,0,0,0,0,0,0,0,0,0,0,0],"id":12,"left_children":[1,3,5,7,9,11,13,15,17,19,21,23,25,27,29,31,33,35,37,39,41,43,45,-1,-1,47,-1,49,51,53,55,57,59,61,63,65,67,69,71,-1,73,75,77,79,81,83,85,-1,-1,87,89,91,93,95,97,-1,99,-1,-1,-1,-1,-1,-1,-1,-1,-1,-1,-1,-1,-1,-1,-1,-1,-1,-1,-1,-1,-1,-1,-1,-1,-1,-1,-1,-1,-1,-1,-1,-1,-1,-1,-1,-1,-1,-1,-1,-1,-1,-1,-1,-1],"loss_changes":[3.4663918E1,3.594974E1,1.3468315E1,3.1599382E1,1.5756531E1,7.126107E0,1.0437294E1,3.520919E1,2.1628532E1,1.3752554E1,1.8581085E1,1.5236491E-1,9.554317E0,1.1325478E1,6.299141E0,4.5956432E1,1.7123707E1,3.1709427E1,1.4085131E1,8.058574E0,8.732978E0,6.311157E0,1.3560908E1,0E0,0E0,1.2545395E-1,0E0,1.2779881E1,7.866416E0,2.1110268E0,2.7470973E0,3.2454773E1,7.384276E1,3.254242E0,1.3850119E1,3.3473183E1,6.4180846E0,3.8804245E0,1.8162379E0,0E0,8.544392E0,7.270012E0,9.803611E-1,6.1423926E0,5.3037643E0,6.3394833E0,1.0045456E1,0E0,0E0,1.0385749E0,1.04382E1,6.799076E0,6.767967E0,1.0590248E0,5.1826887E0,0E0,1.1042091E0,0E0,0E0,0E0,0E0,0E0,0E0,0E0,0E0,0E0,0E0,0E0,0E0,0E0,0E0,0E0,0E0,0E0,0E0,0E0,0E0,0E0,0E0,0E0,0E0,0E0,0E0,0E0,0E0,0E0,0E0,0E0,0E0,0E0,0E0,0E0,0E0,0E0,0E0,0E0,0E0,0E0,0E0,0E0,0E0],"parents":[2147483647,0,0,1,1,2,2,3,3,4,4,5,5,6,6,7,7,8,8,9,9,10,10,11,11,12,12,13,13,14,14,15,15,16,16,17,17,18,18,19,19,20,20,21,21,22,22,25,25,27,27,28,28,29,29,30,30,31,31,32,32,33,33,34,34,35,35,36,36,37,37,38,38,40,40,41,41,42,42,43,43,44,44,45,45,46,46,49,49,50,50,51,51,52,52,53,53,54,54,56,56],"right_children":[2,4,6,8,10,12,14,16,18,20,22,24,26,28,30,32,34,36,38,40,42,44,46,-1,-1,48,-1,50,52,54,56,58,60,62,64,66,68,70,72,-1,74,76,78,80,82,84,86,-1,-1,88,90,92,94,96,98,-1,100,-1,-1,-1,-1,-1,-1,-1,-1,-1,-1,-1,-1,-1,-1,-1,-1,-1,-1,-1,-1,-1,-1,-1,-1,-1,-1,-1,-1,-1,-1,-1,-1,-1,-1,-1,-1,-1,-1,-1,-1,-1,-1,-1,-1],"split_conditions":[6.731E1,4.89E2,1E0,1.677E2,3.3E1,7.31E2,2.11275E3,4.62E2,4.8783E2,1.1E1,8.3E1,9.8402E3,9.55E2,5.9125E2,3E1,2.68E2,1.83E2,5.2E1,1.25E2,5.13E2,3.5E1,7.36E0,1.07E0,-1.8610454E-1,-2.1474397E-2,6.44E2,-1.7111705E-1,5.5529E2,4E0,9.861E3,8.126E3,1.3E1,2.026E1,2.037E1,2.55E0,4.45E2,3.38626E2,8.739E3,6.868E3,4.3176454E-1,1.5E1,1.051E1,1.482E3,2.1E1,2.4553E2,1.29E2,2E0,6.767154E-1,2.3149946E-1,8.827E3,2.64384E3,1.4E1,1.107E3,5.2E1,9.926E3,3.882669E-1,4.41E2,9.147877E-3,-3.3550106E-2,2.4293368E-1,1.2878394E-2,-3.3818558E-1,-6.962913E-2,5.6069817E-2,-1.9607621E-1,2.4166887E-1,1.1182715E0,1.0646172E-1,-3.2766953E-1,-4.0875766E-2,-2.696275E-1,-2.8910879E-2,3.7092024E-1,2.620789E-3,-2.628825E-1,3.816645E-1,-2.092303E-1,-2.775918E-1,2.8888317E-2,-1.5391201E-1,3.80716E-1,-2.684107E-1,2.5428998E-1,2.883538E-1,-2.3994468E-1,8.110012E-2,-8.960459E-2,9.91765E-3,3.5552976E-1,-4.0691322E-1,4.7848564E-2,-2.7678287E-2,-1.1382717E-1,-3.0937386E-1,2.3382562E-1,-3.3217126E-1,-1.9121583E-1,2.3273824E-1,-2.4533239E-1,-2.0816001E-1,9.467115E-2],"split_indices":[4,35,17,3,34,11,11,37,0,3,34,23,11,2,27,36,29,38,37,35,12,24,3,0,0,34,0,0,46,16,16,36,0,11,3,37,11,16,16,0,8,26,23,8,0,34,37,0,0,16,24,15,10,17,16,0,36,0,0,0,0,0,0,0,0,0,0,0,0,0,0,0,0,0,0,0,0,0,0,0,0,0,0,0,0,0,0,0,0,0,0,0,0,0,0,0,0,0,0,0,0],"split_type":[0,0,0,0,0,0,0,0,0,0,0,0,0,0,0,0,0,0,0,0,0,0,0,0,0,0,0,0,0,0,0,0,0,0,0,0,0,0,0,0,0,0,0,0,0,0,0,0,0,0,0,0,0,0,0,0,0,0,0,0,0,0,0,0,0,0,0,0,0,0,0,0,0,0,0,0,0,0,0,0,0,0,0,0,0,0,0,0,0,0,0,0,0,0,0,0,0,0,0,0,0],"sum_hessian":[9.418518E3,8.98829E3,4.3022784E2,8.654603E3,3.3368713E2,8.488601E0,4.2173923E2,8.525354E3,1.2924956E2,7.089237E1,2.6279477E2,2.300928E0,6.1876726E0,3.7461588E2,4.7123344E1,8.405138E3,1.2021597E2,9.6291504E1,3.2958046E1,5.1340958E1,1.9551413E1,9.3049324E1,1.6974544E2,1.2731397E0,1.0277884E0,4.7324457E0,1.4552269E0,3.0342432E1,3.4427347E2,4.3593094E1,3.5302525E0,7.8166904E3,5.88447E2,4.3439056E1,7.677692E1,8.325659E1,1.3034912E1,2.654074E1,6.417307E0,1.9265927E0,4.9414364E1,1.649609E1,3.055324E0,6.4425807E0,8.660674E1,4.2066227E1,1.2767921E2,3.1787682E0,1.5536777E0,3.1257622E0,2.721667E1,3.307348E2,1.3538644E1,3.6308125E1,7.28497E0,1.0520405E0,2.4782119E0,5.5685044E3,2.248186E3,1.804853E2,4.0796176E2,3.8244236E1,5.1948214E0,3.773993E1,3.9036987E1,8.0018326E1,3.2382672E0,3.8010526E0,9.233859E0,1.3836616E1,1.2704123E1,1.0541981E0,5.3631086E0,3.4466927E1,1.4947439E1,1.5011772E1,1.484317E0,1.9270868E0,1.1282372E0,4.422932E0,2.0196486E0,8.556944E1,1.0373036E0,1.3324703E0,4.0733757E1,5.0473633E1,7.720558E1,1.1401857E0,1.9855765E0,2.178827E1,5.4283996E0,1.6177509E2,1.6895973E2,1.5622108E0,1.1976433E1,2.3349598E1,1.2958527E1,2.1320064E0,5.152963E0,1.1039014E0,1.3743105E0],"tree_param":{"num_deleted":"0","num_feature":"49","num_nodes":"101","size_leaf_vector":"1"}},{"base_weights":[-1.23805925E-2,3.9289936E-1,-2.0181522E-2,7.69392E-2,1.5103312E0,-2.9326412E-1,-6.3046655E-3,-8.4487215E-2,1.2304909E0,1.6143744E0,-1.3137409E-1,-3.2804134E-1,1.0122795E0,9.4038196E-2,-4.500451E-2,4.5565584E-1,-5.439653E-1,1.4627802E0,-2.2577426E-1,1.223254E0,2.0821197E0,-2.4099453E-1,-8.686696E-1,-1.9352376E-1,1.2481592E0,3.4335175E-1,-3.2853853E-2,-1.19561516E-1,3.5761654E-2,1.1756612E0,-4.0702945E-1,-9.095592E-1,-1.8928124E-1,1.6563207E0,2.7685717E-1,1.3101083E0,7.991655E-3,1.2681752E-1,2.2330353E0,-2.730136E-1,1.3373073E0,-1.2808923E0,-1.2437592E-1,4.6584707E-1,2.9432303E-1,-7.659035E-1,4.135652E-1,1.0938811E-1,-2.787586E-1,-2.4268727E-1,4.1798215E-2,9.830183E-2,-1.4796597E-1,3.7301892E-1,-4.8407655E-2,2.9309106E-1,-1.5704209E-1,-2.9420495E-1,7.137261E-2,6.25899E-2,-2.7569324E-1,3.65119E-1,9.852377E-1,3.4235466E-1,-1.8576334E-1,4.157528E-1,1.0336294E-1,8.2447964E-1,3.9910167E-1,-1.3958775E-1,-1.754837E-2,5.091914E-1,-1.3759965E-1,-4.0931544E-1,2.1138884E-1,2.3206942E-1,-2.2311442E-1,-1.6002119E-1,3.5365558E-1,-3.079115E-1,9.46153E-3,1.4415306E-1,-2.5956714E-1,9.700402E-2,-3.0444635E-2,-6.254949E-2,-3.2062858E-1,-1.013278E-1,-6.1739297E-3,1.2276586E-1,-1.2799834E-2,1.3175498E-1,1.8229172E-2,1.0948991E-1,-8.1185706E-2],"categories":[],"categories_nodes":[],"categories_segments":[],"categories_sizes":[],"default_left":[0,0,0,0,0,0,0,0,0,0,0,0,0,0,0,0,0,0,0,0,0,0,0,0,0,0,0,0,0,0,0,0,0,0,0,0,0,0,0,0,0,0,0,0,0,0,0,0,0,0,0,0,0,0,0,0,0,0,0,0,0,0,0,0,0,0,0,0,0,0,0,0,0,0,0,0,0,0,0,0,0,0,0,0,0,0,0,0,0,0,0,0,0,0,0],"id":13,"left_children":[1,3,5,7,9,11,13,15,17,19,-1,21,23,25,27,29,31,33,-1,35,37,39,41,-1,43,45,47,49,51,53,55,57,59,61,63,65,-1,-1,67,69,71,73,75,-1,77,79,81,83,85,87,89,91,93,-1,-1,-1,-1,-1,-1,-1,-1,-1,-1,-1,-1,-1,-1,-1,-1,-1,-1,-1,-1,-1,-1,-1,-1,-1,-1,-1,-1,-1,-1,-1,-1,-1,-1,-1,-1,-1,-1,-1,-1,-1,-1],"loss_changes":[2.9548779E1,6.2200764E1,3.4741505E1,2.5922625E1,8.5824585E0,2.0461056E1,3.3889168E1,3.0666695E1,8.970991E0,4.239624E0,0E0,2.0148369E1,5.3979073E0,7.68553E1,3.792825E1,3.5809967E1,8.474766E0,3.1296463E0,0E0,2.3167763E0,2.929947E0,1.9264585E1,1.812939E1,0E0,2.6306114E0,6.413385E1,5.6367176E1,6.5077576E1,3.4759533E1,3.0318222E0,4.8014245E0,2.8917732E0,1.0386082E1,5.469368E0,3.3353162E0,1.0636749E0,0E0,0E0,2.8301163E0,1.5126148E1,5.6959085E0,7.303028E0,1.3007037E1,0E0,3.41539E0,1.0236677E1,6.644147E1,4.6102806E1,3.2554585E1,3.9221848E1,4.403313E1,2.884783E1,4.843515E1,0E0,0E0,0E0,0E0,0E0,0E0,0E0,0E0,0E0,0E0,0E0,0E0,0E0,0E0,0E0,0E0,0E0,0E0,0E0,0E0,0E0,0E0,0E0,0E0,0E0,0E0,0E0,0E0,0E0,0E0,0E0,0E0,0E0,0E0,0E0,0E0,0E0,0E0,0E0,0E0,0E0,0E0],"parents":[2147483647,0,0,1,1,2,2,3,3,4,4,5,5,6,6,7,7,8,8,9,9,11,11,12,12,13,13,14,14,15,15,16,16,17,17,19,19,20,20,21,21,22,22,24,24,25,25,26,26,27,27,28,28,29,29,30,30,31,31,32,32,33,33,34,34,35,35,38,38,39,39,40,40,41,41,42,42,44,44,45,45,46,46,47,47,48,48,49,49,50,50,51,51,52,52],"right_children":[2,4,6,8,10,12,14,16,18,20,-1,22,24,26,28,30,32,34,-1,36,38,40,42,-1,44,46,48,50,52,54,56,58,60,62,64,66,-1,-1,68,70,72,74,76,-1,78,80,82,84,86,88,90,92,94,-1,-1,-1,-1,-1,-1,-1,-1,-1,-1,-1,-1,-1,-1,-1,-1,-1,-1,-1,-1,-1,-1,-1,-1,-1,-1,-1,-1,-1,-1,-1,-1,-1,-1,-1,-1,-1,-1,-1,-1,-1,-1],"split_conditions":[1.26E0,9.97E-1,6.4E0,2E0,1.3E-1,7.36E2,7.6E0,1E0,4.49E2,2.135E3,-1.3137409E-1,3.75E2,1.735E0,1.7E1,6.2E1,1.83E2,5.204167E-1,1.414E1,-2.2577426E-1,1E0,2.9E1,3.21E2,2.75E2,-1.9352376E-1,1.83E2,1.125E0,2.9E1,1.4853E2,3.85E2,7.787288E4,2.0716E3,1.1002578E5,2.44E2,9.3916E2,1.83E2,7E1,7.991655E-3,1.2681752E-1,1E0,2.653E0,1.65E0,2.998E1,2.126E3,4.6584707E-1,2.074E3,2.75E2,6.9E1,1.83E2,8.01E0,5.5E1,1.6375E2,2.026E1,1.32E2,3.7301892E-1,-4.8407655E-2,2.9309106E-1,-1.5704209E-1,-2.9420495E-1,7.137261E-2,6.25899E-2,-2.7569324E-1,3.65119E-1,9.852377E-1,3.4235466E-1,-1.8576334E-1,4.157528E-1,1.0336294E-1,8.2447964E-1,3.9910167E-1,-1.3958775E-1,-1.754837E-2,5.091914E-1,-1.3759965E-1,-4.0931544E-1,2.1138884E-1,2.3206942E-1,-2.2311442E-1,-1.6002119E-1,3.5365558E-1,-3.079115E-1,9.46153E-3,1.4415306E-1,-2.5956714E-1,9.700402E-2,-3.0444635E-2,-6.254949E-2,-3.2062858E-1,-1.013278E-1,-6.1739297E-3,1.2276586E-1,-1.2799834E-2,1.3175498E-1,1.8229172E-2,1.0948991E-1,-8.1185706E-2],"split_indices":[10,11,10,37,3,34,11,8,33,29,0,34,11,1,34,29,11,15,0,13,17,34,29,0,29,11,34,0,33,23,24,23,33,24,29,17,0,0,19,11,11,12,29,0,29,29,2,29,12,35,0,0,34,0,0,0,0,0,0,0,0,0,0,0,0,0,0,0,0,0,0,0,0,0,0,0,0,0,0,0,0,0,0,0,0,0,0,0,0,0,0,0,0,0,0],"split_type":[0,0,0,0,0,0,0,0,0,0,0,0,0,0,0,0,0,0,0,0,0,0,0,0,0,0,0,0,0,0,0,0,0,0,0,0,0,0,0,0,0,0,0,0,0,0,0,0,0,0,0,0,0,0,0,0,0,0,0,0,0,0,0,0,0,0,0,0,0,0,0,0,0,0,0,0,0,0,0,0,0,0,0,0,0,0,0,0,0,0,0,0,0,0,0],"sum_hessian":[9.342757E3,1.7550336E2,9.167253E3,1.376507E2,3.785266E1,4.4233868E2,8.724914E3,1.2156572E2,1.6084976E1,3.6096355E1,1.7563051E0,4.3159067E2,1.0748034E1,2.428013E3,6.2969014E3,5.5881775E1,6.5683945E1,1.4633261E1,1.4517164E0,2.1627245E1,1.44691105E1,3.7298236E2,5.8608303E1,1.1229668E0,9.625067E0,8.183799E2,1.609633E3,3.2740625E3,3.0228389E3,3.0262016E1,2.561976E1,3.157416E1,3.4109783E1,1.2239196E1,2.3940647E0,2.007527E1,1.5519755E0,1.5230863E0,1.2946025E1,3.6637668E2,6.6056776E0,3.7254288E1,2.1354015E1,6.8190274E0,2.8060393E0,4.812809E1,7.702518E2,1.0201115E3,5.895216E2,1.8567573E3,1.4173052E3,2.25553E3,7.673088E2,2.8869476E1,1.3925393E0,1.4147452E0,2.4205015E1,2.986818E1,1.7059802E0,2.2535124E1,1.1574658E1,1.1014613E1,1.2245824E0,1.079379E0,1.3146856E0,1.8211578E1,1.8636924E0,6.94025E0,6.0057745E0,1.92587E2,1.7378967E2,5.548447E0,1.0572302E0,3.6051147E1,1.203142E0,8.614856E0,1.273916E1,1.6546286E0,1.1514107E0,3.606207E1,1.2066021E1,7.3252795E2,3.7723824E1,5.0608307E2,5.1402844E2,5.425343E2,4.6987293E1,1.2998446E3,5.569128E2,2.6419733E2,1.1531079E3,2.226796E2,2.0328503E3,1.4769131E2,6.196175E2],"tree_param":{"num_deleted":"0","num_feature":"49","num_nodes":"95","size_leaf_vector":"1"}},{"base_weights":[-9.584917E-3,-9.735452E-2,2.1571165E-2,-5.6003287E-2,-3.9036834E-1,-2.6684436E-3,2.5808164E-1,6.795249E-2,-1.9944243E-1,-6.232788E-1,-8.6963564E-2,1.0247562E-2,-2.8824803E-1,-2.9718652E-1,3.3035743E-1,6.9368696E-3,6.176555E-1,6.956087E-2,-3.2380772E-1,-7.186292E-1,3.7439352E-1,4.483873E-1,-3.528433E-1,-2.5626795E-2,1.4071101E-1,4.414974E-1,-3.537846E-1,-5.421926E-1,4.5031705E-1,4.167578E-1,-1.0952046E-1,-6.188713E-2,3.0588952E-1,1.9894177E0,4.1672876E-1,-4.671046E-2,5.386775E-1,-1.215409E-1,-5.300666E-1,-7.545334E-1,2.7574006E-1,-6.693891E-1,8.46019E-1,9.990443E-1,9.380475E-3,8.3616316E-1,-5.40483E-1,-3.147126E-3,-5.56978E-1,3.7982115E-1,-4.2854697E-2,8.097612E-1,-4.5198658E-1,-4.2902666E-1,1.5730329E-1,-8.472768E-1,4.4463837E-1,1.1525855E0,-2.4124713E-1,3.938404E-1,8.1085855E-1,-2.2913611E-1,7.7026004E-1,1.4037208E-2,-8.0112934E-2,2.5929672E-1,3.337373E-2,2.6866603E-1,1.851734E0,2.492824E-1,-3.3173576E-2,-8.526277E-2,1.0251782E-1,7.31254E-2,3.9494765E-1,-4.6083827E-2,2.6710376E-1,-2.2489752E-1,-1.3390389E-1,-1.6931298E-1,-2.8419262E-1,2.8787783E-1,-2.1201599E-1,-5.118139E-3,-2.4481681E-1,3.88788E-1,-2.1447062E-1,5.679167E-1,-4.9569223E-2,-2.1308689E-1,3.7215936E-1,4.312515E-2,7.476552E-1,-5.225436E-2,-2.5138903E-1,-5.771405E-3,2.2884296E-1,-3.693639E-2,-3.6911952E-1,6.9311213E-1,1.01435676E-1,-7.129812E-2,4.977845E-2,4.3307766E-2,4.2838067E-1,4.0691588E-2,-1.94165E-1,-1.5809669E-1,1.5828677E-2,-6.669167E-2,1.9278891E-1,-2.8801015E-1,2.3535098E-1,2.47178E-1,-1.9078116E-1,5.684473E-1,-4.6047784E-2,-2.1690664E-1,1.8199499E-1,1.9620353E-1,6.433891E-2,-2.3544548E-1,3.020184E-2],"categories":[],"categories_nodes":[],"categories_segments":[],"categories_sizes":[],"default_left":[0,0,1,0,0,0,0,0,